tree
version=v4
num_class=1
num_tree_per_iteration=1
label_index=0
max_feature_idx=44
objective=binary sigmoid:1
feature_names=return_1d return_2d return_3d return_5d return_10d return_20d div_ma_5 div_ma_10 div_ma_20 div_ma_60 ma_5_20_cross ma_20_60_cross rsi rsi_change macd macd_signal macd_hist macd_hist_change bb_pct_b bb_bandwidth atr_pct volatility vol_change vol_ratio candle_body_pct upper_shadow_pct lower_shadow_pct day_of_week month is_month_end is_month_start streak gap price_position_20d macro_usdjpy_ret_20 macro_usdjpy_ret_60 macro_usdjpy_vol_20 macro_topix_ret_20 macro_topix_vol_20 macro_topix_above_200dma macro_nikkei_ret_20 macro_nikkei_above_200dma macro_nikkei_vi macro_jgb10y macro_bias_score
feature_infos=[-0.14476362613986193:0.23696682036039496] [-0.20399998715049339:0.31753548504552831] [-0.2223364940136715:0.31220376774568659] [-0.20650575843963148:0.41291466639885432] [-0.29327101662894273:0.54733900396095936] [-0.32722418842790812:0.47740046384434165] [-0.16331046471173277:0.16616849239532075] [-0.20369823785571914:0.27052767396765459] [-0.26332913292865828:0.38773055209530977] [-0.29692002773202358:0.3743345406102645] [-0.16023603286925625:0.23622018861243954] [-0.16153695083212283:0.12216518784269481] [8.3784103114708728:88.22927475624985] [-28.168930959921937:36.091388967564988] [-36.025182982997592:32.266050190066153] [-30.662012940122562:23.346845489048061] [-12.645009456363166:20.370870771828081] [-4.2955513991438394:4.8644562528809523] [-0.33045608870351545:1.2552318141516086] [0.049517677950841194:0.65256623815974757] [0.015970648045076048:0.085669888677530198] [0.011583827428782674:0.068876128404718198] [-0.86845069153489207:4.6266332982086409] [0.32678249369714585:2.5064711103287767] [-0.97272838245738635:0.99476566943828415] [0:0.89772782444045252] [0:1] [0:4] [1:12] none [0:1] [-7:11] [-0.097560975609756073:0.23696682036039496] [0:1] [-0.10288784967882303:0.08505611680078462] [-0.13986255140503889:0.1344631365590534] [0.0024251968629527628:0.011841457708833433] [-0.22586490939044479:0.19897850606512013] [0.0040695656522785678:0.036437277456277402] [0:1] [-0.22859537662338159:0.23022297972565586] [0:1] none none none
tree_sizes=771 1098 890 1099 1100 1095 1206 979 979 1404 1087 962 773 965 1418 1524 1089 1078 1209 1273 865 887 782 858 1026 1399 1101 1313 1109 1205 1312 876 1209 1209 1408 787 992 974 877 789 785 786 1289 1520 784 1306 1194 1063 999 1501 890 1307 934 994 1074 1401 1095 1101 1316 1211 870 1001 850 1192 874 990 1104

Tree=0
num_leaves=6
num_cat=0
split_feature=14 7 15 9 36
split_gain=27.0303 12.0191 8.43096 6.82786 3.64768
threshold=7.9343395398388461 0.046398384146166975 5.0561831475427761 -0.083348347131576253 0.006144758421127044
decision_type=2 2 2 2 2
left_child=1 2 3 -1 -2
right_child=4 -3 -4 -5 -6
leaf_value=-0.084913585832860961 -0.13889838955718073 -0.12783793714431535 -0.074312702486244303 -0.10237441030353853 -0.10990629020888189
leaf_weight=24.685264617204666 15.958150863647463 8.7271137535572034 13.963382005691527 84.029638141393661 8.4777676463127118
leaf_count=99 64 35 56 337 34
internal_value=-0.102948 -0.0975449 -0.0948957 -0.098134 -0.130738
internal_weight=155.841 131.405 122.678 108.715 24.4359
internal_count=625 527 492 436 98
is_linear=0
shrinkage=1


Tree=1
num_leaves=9
num_cat=0
split_feature=9 20 40 9 16 28 20 12
split_gain=24.4813 12.0507 8.18996 14.2062 11.6519 7.19775 4.52544 1.80679
threshold=0.064212826380722524 0.026245869611708352 0.0068424973586019852 -0.083348347131576253 -2.1810929004022417 2.5000000000000004 0.030582496078724562 30.318902544749786
decision_type=2 2 2 2 2 2 2 2
left_child=2 -2 3 7 -4 -6 -5 -1
right_child=1 -3 4 6 5 -7 -8 -9
leaf_value=0.0046727107587595995 0.00026012380766750407 -0.040041083696557837 0.039702223124815722 -0.0018214002987415449 0.026225909853457484 0.00082728445970684894 -0.023515704910841768 0.026780816725204538
leaf_weight=9.7324459254741686 9.2163096815347689 16.68505671620369 9.2296064943075162 17.703668534755707 10.720476090908049 55.107050150632858 19.698620080947876 7.7343411892652503
leaf_count=39 37 67 37 71 43 221 79 31
internal_value=-0.000565128 -0.0261726 0.00474553 -0.0037917 0.0111176 0.00583612 -0.0142415 0.0169785
internal_weight=155.828 25.9014 129.926 54.8691 75.0571 65.8275 37.4023 17.4668
internal_count=625 104 521 220 301 264 150 70
is_linear=0
shrinkage=0.03


Tree=2
num_leaves=7
num_cat=0
split_feature=14 20 15 11 3 38
split_gain=24.7294 12.3246 9.39176 13.8008 6.44063 3.33358
threshold=7.9343395398388461 0.026245869611708352 5.0561831475427761 -0.024891280146255076 -0.034730314736763628 0.007042228515547643
decision_type=2 2 2 2 2 2
left_child=2 -2 3 5 -5 -1
right_child=1 -3 -4 4 -6 -7
leaf_value=-0.0025274613908313403 0.00029529296726099862 -0.041593434836677608 0.026089402848006524 0.0080429928832785342 -0.01206768299217577 0.017019809335518703
leaf_weight=7.4828105121850959 8.7144615501165408 15.646407201886175 14.225904226303099 16.960628226399422 52.342079535126686 40.418302536010742
leaf_count=30 35 63 57 68 210 162
internal_value=-0.000524654 -0.0271543 0.00463184 0.00150751 -0.00684803 0.0136867
internal_weight=155.791 24.3609 131.43 117.204 69.3027 47.9011
internal_count=625 98 527 470 278 192
is_linear=0
shrinkage=0.03


Tree=3
num_leaves=9
num_cat=0
split_feature=14 20 11 40 4 17 36 8
split_gain=23.4567 11.7646 7.66065 10.0783 12.4325 6.7958 4.56296 2.19006
threshold=7.9343395398388461 0.026245869611708352 -0.049180174979482065 0.00042701653702481584 -0.04604781698518861 -0.17261388842456823 0.0076378465208449446 -0.020155592479217214
decision_type=2 2 2 2 2 2 2 2
left_child=2 -2 6 5 -5 -4 -1 -8
right_child=1 -3 3 4 -6 -7 7 -9
leaf_value=0.033796700256900625 0.0002880839501397514 -0.040624767985104046 0.0016798649561452204 0.035208025451281495 0.001379088941983127 -0.023321894789372476 0.016857621172580006 -0.0019276456808853279
leaf_weight=9.2365787774324435 8.7146238684654254 15.587459594011305 15.961415842175482 9.9895134717226011 60.094846963882446 18.930185541510582 7.7423594743013409 9.4836070537567121
leaf_count=37 35 63 64 40 241 76 31 38
internal_value=-0.000505521 -0.026477 0.00450888 0.000605768 0.00725208 -0.012007 0.0183348 0.00661068
internal_weight=155.741 24.3021 131.439 104.976 70.0844 34.8916 26.4625 17.226
internal_count=625 98 527 421 281 140 106 69
is_linear=0
shrinkage=0.03


Tree=4
num_leaves=9
num_cat=0
split_feature=14 20 11 40 4 18 36 8
split_gain=22.2865 11.2425 7.27538 9.54804 11.8085 4.51752 4.32539 2.09069
threshold=7.9343395398388461 0.026245869611708352 -0.049180174979482065 0.00042701653702481584 -0.04604781698518861 0.12559619047442042 0.0076378465208449446 -0.020155592479217214
decision_type=2 2 2 2 2 2 2 2
left_child=2 -2 6 5 -5 -4 -1 -8
right_child=1 -3 3 4 -6 -7 7 -9
leaf_value=0.032937986914311296 0.00028105024744706195 -0.039705430005741997 0.003261354569474499 0.034307753646172216 0.0013389607094347184 -0.018429478406583114 0.016449801078749111 -0.0018800113464533695
leaf_weight=9.2450577020645159 8.714781731367113 15.517273679375647 10.480978831648825 9.9964589625596982 60.098843634128571 24.383447095751762 7.745805278420451 9.4828650653362256
leaf_count=37 35 63 42 40 241 98 31 38
internal_value=-0.000470681 -0.0258279 0.00440901 0.000600144 0.00707008 -0.0116787 0.0178803 0.00643459
internal_weight=155.666 24.2321 131.433 104.96 70.0953 34.8644 26.4737 17.2287
internal_count=625 98 527 421 281 140 106 69
is_linear=0
shrinkage=0.03


Tree=5
num_leaves=9
num_cat=0
split_feature=14 40 28 40 36 15 15 35
split_gain=21.8082 10.3803 6.23701 8.17952 5.99265 5.29183 7.67805 3.72193
threshold=7.9343395398388461 0.012900311160371826 6.5000000000000009 0.05563511802297972 0.0062326978562852907 -14.923092056253024 2.1065996175534383 0.029204588446373528
decision_type=2 2 2 2 2 2 2 2
left_child=1 5 7 -4 -2 -1 -7 -3
right_child=4 2 3 -5 -6 6 -8 -9
leaf_value=0.014079465163511481 -0.03602842816834044 0.027856461450245867 0.013965229783517831 -0.011973084448882261 -0.0023017482439295469 -0.015250556721301987 0.009799187137699953 0.0043229394270416039
leaf_weight=9.2449307143688184 14.791817203164102 23.213519856333733 25.206332147121429 15.966356635093687 8.4014608711004239 37.340236902236938 12.954665973782538 11.227140575647352
leaf_count=37 60 93 101 64 34 150 52 45
internal_value=2.18831e-06 0.00480685 0.0121032 0.00347048 -0.0255594 -0.00430769 -0.00838355 0.0212548
internal_weight=158.346 135.153 75.6133 41.1727 23.1933 59.5398 50.2949 34.4407
internal_count=636 542 303 165 94 239 202 138
is_linear=0
shrinkage=0.03


Tree=6
num_leaves=10
num_cat=0
split_feature=9 40 20 20 11 9 39 40 1
split_gain=25.2149 12.709 5.34017 5.64305 4.94624 9.80961 4.17238 2.97119 1.6929
threshold=0.066262066233391634 0.012900311160371826 0.020974078733353021 0.037678384394175569 -0.029366262797057171 0.0051969882415628657 1.0000000180025095e-35 0.037079180436868649 0.011984401741594876
decision_type=2 2 2 2 2 2 2 2 2
left_child=1 4 7 -4 6 -6 -1 -3 -2
right_child=8 2 3 -5 5 -7 -8 -9 -10
leaf_value=0.018773195494780005 -0.037137950249921454 0.0098676992540836887 0.021066357543701415 -0.0042660509804718777 -0.021799419758105003 0.0056924369029527615 -0.0066772614120720478 -0.013527561765168339 -0.01368409221480865
leaf_weight=10.490671277046204 11.049058347940447 7.4845964461565 50.664558783173561 7.4909334778785697 25.130163639783859 18.115105465054512 8.229732409119606 7.7355161905288696 11.881119668483732
leaf_count=42 45 30 203 30 101 73 33 31 48
internal_value=3.45992e-06 0.00513407 0.0134772 0.0175206 -0.00462333 -0.0102092 0.00729635 -0.00134184 -0.0276599
internal_weight=158.271 135.341 73.3756 58.1555 61.9657 43.2453 18.7204 15.2201 22.9302
internal_count=636 543 294 233 249 174 75 61 93
is_linear=0
shrinkage=0.03


Tree=7
num_leaves=8
num_cat=0
split_feature=9 40 28 36 15 9 0
split_gain=23.9941 11.9606 5.11714 5.31701 4.9566 6.701 1.77402
threshold=0.066262066233391634 0.012900311160371826 2.5000000000000004 0.0079246560292421213 -14.923092056253024 0.0051969882415628657 0.010574741097290176
decision_type=2 2 2 2 2 2 2
left_child=1 4 -3 -4 -1 -6 -2
right_child=6 2 3 -5 5 -7 -8
leaf_value=0.0133694764328326 -0.035717314889733315 0.028471623136321397 0.012494894338812845 -0.0091153965068630303 -0.015819032385006374 0.0055364653181413292 -0.012243280401644727
leaf_weight=9.2460614293813688 11.996765077114107 14.490084797143934 48.42278616130352 10.486472710967062 34.565498799085617 18.122898459434509 10.862932816147802
leaf_count=37 49 58 194 42 139 73 44
internal_value=0 0.00498086 0.0130732 0.00822877 -0.00448377 -0.00826539 -0.0270483
internal_weight=158.194 135.334 73.3993 58.9093 61.9345 52.6884 22.8597
internal_count=636 543 294 236 249 212 93
is_linear=0
shrinkage=0.03


Tree=8
num_leaves=8
num_cat=0
split_feature=9 40 25 28 26 15 31
split_gain=22.859 11.2683 5.67118 4.86314 5.48898 4.65397 2.27726
threshold=0.066262066233391634 0.012900311160371826 0.54166481229522445 2.5000000000000004 0.28571558461567942 -14.923092056253024 1.5000000000000002
decision_type=2 2 2 2 2 2 2
left_child=1 2 5 -3 -5 -1 -2
right_child=6 3 -4 4 -6 -7 -8
leaf_value=0.0097448087972161444 -0.033916352623266477 0.027722401136633237 0.016233986496016165 0.0001692059392437357 0.018980672449564275 -0.012034493135941923 -0.0087187160920086798
leaf_weight=8.4960665255784971 14.15543068945408 14.489290118217466 7.9609261751174918 36.451709687709808 22.467803195118904 45.445231214165688 8.6286652982234937
leaf_count=34 58 58 32 146 90 183 35
internal_value=0 0.00485069 -0.00433462 0.0127047 0.00797645 -0.00811024 -0.0264525
internal_weight=158.095 135.311 61.9022 73.4088 58.9195 53.9413 22.7841
internal_count=636 543 249 294 236 217 93
is_linear=0
shrinkage=0.03


Tree=9
num_leaves=12
num_cat=0
split_feature=4 40 21 20 20 16 34 23 15 25 1
split_gain=12.041 11.8007 10.5553 5.99056 6.3727 5.67834 5.66375 5.16121 3.98532 3.54187 1.68396
threshold=0.033025895164286896 0.025287881130586446 0.017812182596404522 0.03553774759850023 0.032228319491684906 -0.55903872254523035 0.027864674385350344 0.83472086991558769 5.0561831475427761 0.20851525148173017 -0.0051607122744683478
decision_type=2 2 2 2 2 2 2 2 2 2 2
left_child=1 3 -2 4 -1 10 -7 -5 9 -4 -3
right_child=2 5 8 7 -6 6 -8 -9 -10 -11 -12
leaf_value=-0.0013611761406683437 0.0082983582132922905 0.011293616413977081 0.00029039119520302131 -0.0055943249238684474 -0.025981938975119679 -0.0017593715211233981 0.02434240501544652 0.023661230567414229 -0.038249764800827195 -0.021592598660875522 0.038320271317933301
leaf_weight=38.279887288808823 12.885601818561552 7.7374385595321682 9.6932834088802391 7.4413267970085171 11.38640560209751 19.966031417250637 8.9732566475868207 10.217155665159224 8.9753425270318967 12.68082834780216 9.7404953092336637
leaf_count=154 52 31 39 30 46 80 36 41 37 51 39
internal_value=0 0.00524409 -0.0128664 -0.00261635 -0.00808327 0.016592 0.00689961 0.0112549 -0.0219915 -0.0122508 0.0295139
internal_weight=157.977 113.742 44.2351 67.3248 49.6663 46.4172 28.9393 17.6585 31.3495 22.3741 17.4779
internal_count=636 457 179 271 200 186 116 71 127 90 70
is_linear=0
shrinkage=0.03


Tree=10
num_leaves=9
num_cat=0
split_feature=11 32 11 14 15 33 14 4
split_gain=11.0071 8.66704 8.33399 8.57607 13.5506 5.83993 3.89094 6.64977
threshold=-0.024891280146255076 0.0086746042807898122 -0.01537614044844776 7.9343395398388461 5.0561831475427761 0.7968744447453695 -5.9885771527009686 -0.04604781698518861
decision_type=2 2 2 2 2 2 2 2
left_child=1 6 -2 4 -4 -5 7 -1
right_child=2 -3 3 5 -6 -7 -8 -9
leaf_value=0.027591871405000891 -0.027996310560224981 -0.0079590761605439868 -0.0032122426221459712 -0.031180295874819401 0.028233582650911422 -0.00012401735136233371 0.031475683030817984 -0.0041736476438834933
leaf_weight=7.738196223974227 10.934152483940123 12.235000699758528 61.173393294215202 11.159843325614931 13.217533349990843 11.020338878035544 13.727745786309244 12.478818550705908
leaf_count=31 44 49 246 46 53 45 55 50
internal_value=0 0.0119347 -0.0052722 -0.00203128 0.0027715 -0.0176567 0.0195663 0.00869899
internal_weight=153.685 46.1798 107.505 96.5711 74.3909 22.1802 33.9448 20.217
internal_count=619 185 434 390 299 91 136 81
is_linear=0
shrinkage=0.03


Tree=11
num_leaves=8
num_cat=0
split_feature=7 11 15 1 34 34 12
split_gain=10.6248 9.75927 8.88892 10.3167 6.70523 3.98754 4.63343
threshold=0.038971769654137192 -0.029366262797057171 -4.2419787219846707 0.01036605244830935 0.0033652046948744467 0.012500150898091424 55.495652196696163
decision_type=2 2 2 2 2 2 2
left_child=1 5 -3 -4 -2 6 -1
right_child=4 2 3 -5 -6 -7 -8
leaf_value=-0.00012632698156367144 0 -0.023230615459363963 -0.0046710382015887775 0.018110010552452684 -0.032326292653159859 0.03032909250724207 0.024572255691314056
leaf_weight=18.968979090452198 9.4094965755939501 12.899757802486418 59.127575635910034 23.103284388780594 11.604433536529539 10.73849944770336 7.742078408598899
leaf_count=76 38 52 239 93 47 43 31
internal_value=0 0.00320288 -0.00182269 0.00182939 -0.0188551 0.0157944 0.00772301
internal_weight=153.594 132.58 95.1306 82.2309 21.0139 37.4496 26.7111
internal_count=619 534 384 332 85 150 107
is_linear=0
shrinkage=0.03


Tree=12
num_leaves=6
num_cat=0
split_feature=14 4 12 40 20
split_gain=7.50193 5.91134 11.1226 7.36252 3.0226
threshold=12.944782606563765 -0.083679988384172441 32.995079726490836 -0.034933212424947506 0.035328449256794937
decision_type=2 2 2 2 2
left_child=1 4 -3 -4 -1
right_child=-2 2 3 -5 -6
leaf_value=4.5686429419649561e-05 -0.021736156997445188 -0.027430508913536301 -0.020554268777823494 0.0049177174961428224 0.02598211417378056
leaf_weight=7.6832436174154308 11.118374988436697 10.436620473861693 9.181191757321356 104.39798666536808 10.704272285103796
leaf_count=31 46 42 37 420 43
internal_value=0 0.00195839 -0.000378753 0.00240886 0.0169479
internal_weight=153.522 142.403 124.016 113.579 18.3875
internal_count=619 573 499 457 74
is_linear=0
shrinkage=0.03


Tree=13
num_leaves=8
num_cat=0
split_feature=7 2 9 0 36 34 28
split_gain=10.0681 6.38856 7.92363 7.12746 6.47371 6.37623 6.30359
threshold=0.038971769654137192 0.0095751177098956104 0.053818670961339542 0.0046102334190292202 0.0075745090968123889 0.0033652046948744467 7.5000000000000009
decision_type=2 2 2 2 2 2 2
left_child=1 2 3 -1 6 -2 -3
right_child=5 4 -4 -5 -6 -7 -8
leaf_value=0.007039511221375137 0 0.0050164740134622261 -0.024808593084501916 -0.012658588389001654 -0.004785536612295355 -0.031555537907739545 0.033801872180561486
leaf_weight=61.445870578289032 9.4082638919353503 16.426436692476276 9.3740109056234342 20.126018851995468 11.699299827218054 11.560468256473539 13.425822809338568
leaf_count=247 38 66 39 81 47 47 54
internal_value=0 0.00310541 -0.00124405 0.00181333 0.0125897 -0.0183858 0.0197429
internal_weight=153.466 132.497 90.9459 81.5719 41.5516 20.9687 29.8523
internal_count=619 534 367 328 167 85 120
is_linear=0
shrinkage=0.03


Tree=14
num_leaves=12
num_cat=0
split_feature=11 11 23 10 32 34 34 25 0 35 38
split_gain=9.70363 8.07236 9.68885 9.57039 8.05728 5.02758 3.49856 4.34176 2.94887 2.00276 1.73687
threshold=-0.024891280146255076 0.0042542103555928143 0.99174857602524757 0.032162471976409319 0.0086746042807898122 0.02152847504574518 0.011488402857059101 0.32158438167216624 -0.00064864083459076338 0.035347488336312967 0.0082517514139185556
decision_type=2 2 2 2 2 2 2 2 2 2 2
left_child=4 2 8 5 6 -3 7 -1 -2 -5 -4
right_child=1 3 10 9 -6 -7 -8 -9 -10 -11 -12
leaf_value=0.020620294852190423 -0.011800747704576196 0.014492945924048059 0.0099383817906956232 -0.0032814824663790427 -0.0079618833151629542 -0.0035549457688413208 0.032901180045362514 -0.0027751220634186736 -0.038709215130404706 -0.02836713663567543 -0.0069813308173606271
leaf_weight=12.975012466311457 11.674168065190317 32.506185546517372 8.7134869098663348 7.2627115547656995 12.227141335606573 20.300857454538345 9.9681816250085813 10.981748148798941 10.903314694762228 7.2125349044799805 8.6673255711793882
leaf_count=52 47 131 35 30 49 82 40 44 44 30 35
internal_value=0 -0.00498671 -0.0153448 0.00121372 0.0111782 0.00740449 0.0185534 0.00993049 -0.0274984 -0.0186175 0.00087729
internal_weight=153.393 107.241 39.9583 67.2823 46.1521 52.807 33.9249 23.9568 22.5775 14.4752 17.3808
internal_count=619 434 161 273 185 213 136 96 91 60 70
is_linear=0
shrinkage=0.03


Tree=15
num_leaves=13
num_cat=0
split_feature=11 0 5 2 25 16 5 11 38 13 40 32
split_gain=10.2497 13.5494 6.42068 14.8627 11.1243 8.33064 5.76195 4.88971 3.54911 3.36278 0.800587 0.738314
threshold=-0.029366262797057171 0.0088619094695747708 -0.02425653942423622 -0.011800862533275945 0.20067210642954444 0.4384773294267223 -0.10406948126069081 -0.08208671221843282 0.0094800925429017018 4.5559918801073715 -0.0022464203112713128 0.0033550922586101932
decision_type=2 2 2 2 2 2 2 2 2 2 2 2
left_child=1 7 4 11 10 -5 -6 -1 -9 -3 -2 -4
right_child=2 9 3 5 6 -7 -8 8 -10 -11 -12 -13
leaf_value=0.00084901321484109795 0.0085466827453928116 -0.021107928428207679 -0.033440091278405262 0.014502003267140486 -0.0270302838404714 -0.0092882044293277483 0.0035531625015965962 0.012487190504184493 0.044460992163981798 0.002427041724455009 0.030150974502197694 -0.011824346230633406
leaf_weight=7.4901038259267834 7.4445011913776398 7.7311618924140957 17.046393632888797 17.869960322976112 7.6673563867807379 37.230109572410583 10.423254609107973 9.724927172064783 9.222910135984419 9.4669581204652768 7.7313209027051908 7.6384750306606284
leaf_count=30 30 31 70 72 31 151 42 39 37 38 31 31
internal_value=-0.000846129 0.011085 -0.00569438 -0.0102966 0.00487598 -0.00107221 -0.0100629 0.024033 0.0315256 -0.00846822 0.0226556 -0.028701
internal_weight=156.687 43.6361 113.051 79.7849 33.2664 55.1001 18.0906 26.4379 18.9478 17.1981 15.1758 24.6849
internal_count=633 175 458 324 134 223 73 106 76 69 61 101
is_linear=0
shrinkage=0.03


Tree=16
num_leaves=9
num_cat=0
split_feature=14 0 23 36 33 0 37 0
split_gain=9.62532 10.793 9.90952 7.36423 6.17633 4.67013 5.05144 1.78382
threshold=8.971002758087339 0.012947950566502333 1.163871388465213 0.006173882116836441 0.21684581510855103 0.016161679749066574 0.01301306516953449 -0.0077785039637566214
decision_type=2 2 2 2 2 2 2 2
left_child=1 2 4 -2 -1 -3 -7 -4
right_child=3 5 7 -5 -6 6 -8 -9
leaf_value=-0.010406128487495652 -0.031556577788417445 -0.029002815750379895 0.033646023216579383 0.0029075037360139968 0.007460953770624331 -0.020086413147208812 0.0041470413765627226 0.010085651033235559
leaf_weight=22.593456670641899 12.80065754055977 8.1853650063276273 10.702639207243921 7.2673528045415869 55.725152119994164 9.6757528632879275 19.658093065023422 9.9419805556535703
leaf_count=91 54 33 43 30 224 39 79 40
internal_value=-0.000804958 0.00203987 0.00730561 -0.0192638 0.0019891 -0.0111366 -0.00413952 0.0248552
internal_weight=156.55 136.482 98.9632 20.068 78.3186 37.5192 29.3338 20.6446
internal_count=633 549 398 84 315 151 118 83
is_linear=0
shrinkage=0.03


Tree=17
num_leaves=9
num_cat=0
split_feature=11 11 1 15 16 38 15 16
split_gain=9.69871 9.84744 8.95879 5.96304 9.57158 15.8701 8.03784 2.74969
threshold=-0.029366262797057171 -0.088657594769897027 0.01085024315540384 -5.9310363928181555 0.4384773294267223 0.007939838977807331 0.44992350272284942 -0.13597186760171939
decision_type=2 2 2 2 2 2 2 2
left_child=1 -1 7 -2 6 -6 -5 -3
right_child=3 2 -4 4 5 -7 -8 -9
leaf_value=-0.011784122803872378 -0.028681559913802553 0.010406026468878388 0 0.019698635471161904 0.0073024291520339827 -0.026082699643198478 -0.0030243142214308491 0.039956498929156523
leaf_weight=10.734709352254866 7.3914118111133567 7.9698825031518927 13.190099492669104 19.374075293540955 19.426729276776314 29.559639513492584 37.082759469747543 11.709833830595018
leaf_count=43 30 32 53 78 79 121 150 47
internal_value=-0.000788467 0.0108167 0.0188804 -0.00551412 -0.00324685 -0.0127817 0.004924 0.030745
internal_weight=156.439 43.6045 32.8698 112.835 105.443 48.9864 56.4568 19.6797
internal_count=633 175 132 458 428 200 228 79
is_linear=0
shrinkage=0.03


Tree=18
num_leaves=10
num_cat=0
split_feature=9 2 0 16 35 4 4 23 5
split_gain=9.44798 11.9223 10.104 10.0701 13.9971 7.68016 10.6969 7.16501 1.33599
threshold=-0.016791749741625502 -0.015447666835451677 0.013245712656040133 0.4384773294267223 0.020265083482714833 -0.0086114959960094089 -0.066035418063610449 0.85443193488430424 0.014319056528997344
decision_type=2 2 2 2 2 2 2 2 2
left_child=2 8 5 7 -5 6 -1 -3 -2
right_child=1 3 -4 4 -6 -7 -8 -9 -10
leaf_value=0.021584503765519406 -0.0092595197765884298 -0.0021021594233421215 -0.01265968097974496 0.011756519601224867 -0.021166805126056024 0.030190816354932679 -0.0095169204063605094 0.028457505944080121 -0.031948415483303801
leaf_weight=16.634287849068638 7.9670453965663937 11.147998273372652 14.659255087375639 16.365112036466599 28.920386642217636 15.928060531616209 18.887876972556118 12.425935819745062 13.379592552781103
leaf_count=67 32 45 59 66 118 64 76 50 56
internal_value=-0.000761436 -0.00709642 0.00761694 -0.000574222 -0.00895784 0.0139323 0.00502166 0.0143852 -0.0256415
internal_weight=156.316 90.2061 66.1095 68.8594 45.2855 51.4502 35.5222 23.5739 21.3466
internal_count=633 367 266 279 184 207 143 95 88
is_linear=0
shrinkage=0.03


Tree=19
num_leaves=11
num_cat=0
split_feature=11 23 11 1 19 34 5 36 11 23
split_gain=8.95327 9.78785 9.36376 8.40071 7.48292 7.73756 4.49458 4.06736 2.72863 2.02822
threshold=-0.029366262797057171 0.85443193488430424 -0.088657594769897027 0.01085024315540384 0.19997253460377637 0.0022401485196237307 0.0055977995617479967 0.006173882116836441 -0.049180174979482065 0.74086618130338866
decision_type=2 2 2 2 2 2 2 2 2 2
left_child=2 6 -1 8 5 -3 9 -6 -4 -2
right_child=1 4 3 -5 7 -7 -8 -9 -10 -11
leaf_value=-0.011603071186577715 0.004988715372396129 0.021158202167964768 0.043518981554114052 0 -0.030499864999776184 -0.0011364524964855359 -0.028220156870484864 0 0.014386801780391874 -0.014174771509102133
leaf_weight=10.730800017714499 7.4158639311790449 17.058749169111252 7.9429505467414847 13.179806619882582 7.4266797006130201 48.141646519303322 17.775492459535599 7.3353108763694763 11.699214547872545 7.4450240284204483
leaf_count=43 30 69 32 53 31 195 73 30 47 30
internal_value=-0.000740565 -0.00529092 0.0104102 0.018291 0.000288455 0.00492951 -0.0186213 -0.0174575 0.0297935 -0.00426478
internal_weight=156.152 112.599 43.5528 32.822 79.9624 65.2004 32.6364 14.762 19.6422 14.8609
internal_count=633 458 175 132 325 264 133 61 79 60
is_linear=0
shrinkage=0.03


Tree=20
num_leaves=7
num_cat=0
split_feature=7 15 12 7 19 35
split_gain=11.1844 6.77046 4.9248 4.77247 4.60773 1.63019
threshold=0.039699875442675545 10.728636110295554 29.774433753521645 -0.043919821483842179 0.10817237408581538 0.020265083482714833
decision_type=2 2 2 2 2 2
left_child=1 2 3 -1 -4 -2
right_child=5 -3 4 -5 -6 -7
leaf_value=0.0061457108936496217 -0.0059804559481234807 -0.016925769320093029 0 -0.023103434349792576 0.0125397707343384 -0.027522305775155086
leaf_weight=7.4444851875305167 8.9114500135183352 11.347608640789984 44.973179742693901 8.1622302532196027 66.884031116962433 10.772186160087584
leaf_count=30 36 48 181 33 270 45
internal_value=4.9737e-05 0.00322955 0.00537352 -0.00918623 0.00766237 -0.0199125
internal_weight=158.495 138.812 127.464 15.6067 111.857 19.6836
internal_count=643 562 514 63 451 81
is_linear=0
shrinkage=0.03


Tree=21
num_leaves=7
num_cat=0
split_feature=9 38 12 36 19 25
split_gain=9.22447 10.5485 4.9642 6.13542 7.55411 1.9753
threshold=0.058782337895627271 0.0070199623320135835 27.475074691277403 0.0034678654754766586 0.11633073499592546 0.28883982693781662
decision_type=2 2 2 2 2 2
left_child=2 -2 -1 -4 -5 -3
right_child=1 5 3 4 -6 -7
leaf_value=-0.012750643277618998 0.011630053430664859 -0.030806880254655351 -0.016946463455635517 -0.00054066299510317794 0.014950189364723856 -0.0062893035820149453
leaf_weight=12.373976483941076 8.2454485446214694 14.928102701902391 7.6414205878972998 49.96848826110363 58.07226599752903 7.1684436351060858
leaf_count=50 34 63 31 201 234 30
internal_value=2.06913e-05 -0.0142233 0.00367786 0.00574944 0.0077698 -0.0246577
internal_weight=158.398 30.342 128.056 115.682 108.041 22.0965
internal_count=643 127 516 466 435 93
is_linear=0
shrinkage=0.03


Tree=22
num_leaves=6
num_cat=0
split_feature=38 10 0 2 1
split_gain=7.47052 9.26118 6.96725 5.52621 4.94919
threshold=0.0062757663771046491 0.053413894050129314 0.012190430003983123 -0.015447666835451677 0.01085024315540384
decision_type=2 2 2 2 2
left_child=-1 2 3 -2 -4
right_child=1 -3 4 -5 -6
leaf_value=0.023231236044480828 -0.0030133823870376678 -0.028598618958769962 -0.025238299604912799 0.010915568019949418 -0.0023468806728775189
leaf_weight=9.6476591527461988 42.950634926557541 8.7153457254171354 11.069763869047163 55.008285686373711 30.890589281916618
leaf_count=39 174 38 45 222 125
internal_value=0 -0.00170392 0.000245037 0.00472018 -0.00960067
internal_weight=158.282 148.635 139.919 97.9589 41.9604
internal_count=643 604 566 396 170
is_linear=0
shrinkage=0.03


Tree=23
num_leaves=7
num_cat=0
split_feature=7 15 34 40 23 21
split_gain=10.2597 6.15132 5.48458 5.31769 6.903 4.06821
threshold=0.039699875442675545 10.728636110295554 -0.0016832239851437556 -0.028973753552395783 1.0175851175054267 0.025091112063226343
decision_type=2 2 2 2 2 2
left_child=1 3 -2 5 -5 -1
right_child=2 -3 -4 4 -6 -7
leaf_value=-0.017051152199888245 0 -0.016256842541566677 -0.030114278664668852 0.0015554461376831974 0.017533667104565661 0.006449921215434049
leaf_weight=13.603687405586244 7.3370063006877926 11.248565346002577 12.209384217858313 65.156883075833321 39.716858923435211 8.9244828522205335
leaf_count=55 30 48 51 263 160 36
internal_value=0 0.00302118 -0.0192086 0.00506414 0.00796181 -0.00736291
internal_weight=158.197 138.65 19.5464 127.402 104.874 22.5282
internal_count=643 562 81 514 423 91
is_linear=0
shrinkage=0.03


Tree=24
num_leaves=9
num_cat=0
split_feature=7 34 6 28 15 7 37 2
split_gain=9.75297 6.34526 6.08671 8.44544 7.33096 4.95013 3.24532 1.12639
threshold=0.036095344430970934 0.0064794002695974804 0.011726343864002634 6.5000000000000009 -1.0492066112650937 -0.055296929194484555 0.0064353997501002133 0.030575404525933995
decision_type=2 2 2 2 2 2 2 2
left_child=2 -2 3 4 -1 -5 -4 -8
right_child=1 -3 6 5 -6 -7 7 -9
leaf_value=0.024015022409121064 0 -0.029396372216482364 0 0.012094594749895935 0 -0.01117901964859202 0.028043002566225383 0.0077282072725108524
leaf_weight=16.378350839018822 10.008420243859293 13.135454788804052 10.158006399869921 7.432920739054679 29.881316393613815 51.425451770424843 10.94579426944256 8.7035152614116651
leaf_count=66 41 55 41 30 122 209 44 35
internal_value=0 -0.0171188 0.00320802 -0.000128105 0.00910563 -0.00769256 0.014713 0.0212828
internal_weight=158.069 23.1439 134.925 105.118 46.2597 58.8584 29.8073 19.6493
internal_count=643 96 547 427 188 239 120 79
is_linear=0
shrinkage=0.03


Tree=25
num_leaves=12
num_cat=0
split_feature=40 14 32 23 11 4 21 11 15 38 36
split_gain=8.90063 9.07291 7.35557 6.14816 5.23309 5.00658 3.70226 3.12624 3.007 3.48903 2.09374
threshold=0.0088156867506637999 7.9343395398388461 -0.00543307118562003 1.1586928332256761 -0.0074029620250371511 -0.039837889375506245 0.019362728371152688 -0.01420461863012573 2.2559505161114903 0.011362102376311458 0.0067213542211298286
decision_type=2 2 2 2 2 2 2 2 2 2 2
left_child=2 3 4 5 -1 -2 -3 -5 9 -4 -6
right_child=1 6 8 7 10 -7 -8 -9 -10 -11 -12
leaf_value=0.020280231903346789 0.020454702460342141 0 -0.031938179421058824 0.0042184957151417376 0.0014635486454868342 -0.0009195522251003635 -0.028783426426426905 0.033342817313173484 -0.0036331092820112202 -0.0065799064053935962 -0.016944418710383106
leaf_weight=7.4494745135307339 9.9245440065860731 7.4738070070743543 16.756630867719654 7.4654176682233837 9.4709162563085574 50.162587776780128 7.3124493956565857 9.431265860795973 12.227781519293783 10.629095688462256 7.6166388392448416
leaf_count=30 40 31 68 30 39 202 32 38 51 43 31
internal_value=-0.00216937 0.00368748 -0.0106328 0.00800198 0.00171373 0.0029144 -0.0161591 0.0230771 -0.0183556 -0.0237241 -0.0068715
internal_weight=155.921 91.7701 64.1505 76.9838 24.537 60.0871 14.7863 16.8967 39.6135 27.3857 17.0876
internal_count=635 373 262 310 100 242 63 68 162 111 70
is_linear=0
shrinkage=0.03


Tree=26
num_leaves=9
num_cat=0
split_feature=9 40 23 32 26 16 20 26
split_gain=8.59077 13.3041 7.43564 6.13528 5.57074 4.53528 4.1618 3.42221
threshold=0.064212826380722524 0.0068424973586019852 1.1586928332256761 -0.00543307118562003 0.16848056826598848 -0.55903872254523035 0.028770428303053912 0.28059213579645387
decision_type=2 2 2 2 2 2 2 2
left_child=1 3 5 4 -1 -3 -2 -5
right_child=6 2 -4 7 -6 -7 -8 -9
leaf_value=0.018200512691985991 -0.0026532491306594124 0.015839186821934078 0.025992082307501888 -0.024951373068588845 -0.0097025251551596092 -0.0015657076596533967 -0.028368607980258691 -0.0034494488694314287
leaf_weight=9.1453417986631411 12.188888147473337 16.874658495187759 16.398029118776321 20.389033168554306 12.876738011837004 41.940332591533661 12.861550986766813 13.070119023323057
leaf_count=37 51 68 66 83 52 169 56 53
internal_value=-0.00211098 0.000951457 0.00917416 -0.00986603 0.00181121 0.00353797 -0.017532 -0.0176434
internal_weight=155.745 130.694 75.213 55.4812 22.0221 58.815 25.0504 33.4592
internal_count=635 528 303 225 89 237 107 136
is_linear=0
shrinkage=0.03


Tree=27
num_leaves=11
num_cat=0
split_feature=19 40 9 19 32 38 16 9 11 19
split_gain=8.40995 14.7308 9.35033 7.26909 6.7413 4.76815 10.4382 8.21291 4.52944 2.59037
threshold=0.13612363656862062 -0.027404487536900942 -0.093516488076189952 0.11703343488043043 0.00035398912900419527 0.0080925376007762746 2.8389278108915916 0.034799547146450512 -0.04376132583323649 0.126843946534652
decision_type=2 2 2 2 2 2 2 2 2 2
left_child=1 -1 4 8 -2 6 -4 -7 -3 -5
right_child=2 3 5 9 -6 7 -8 -9 -10 -11
leaf_value=-0.030695749666170571 0.023981847826401479 -0.012928098006156954 -0.043464872176885362 0.03438036955480521 -0.0093504825714967599 0.0047385733610968281 -0.0010600701806495326 -0.022105257260040485 0.0074190135924925354 0.0065574101488701667
leaf_weight=7.3638824075460425 9.6585432291030902 10.19633413851261 11.291487425565721 9.9036951959133166 7.9286888390779486 20.729603722691536 10.013103902339934 16.183105200529099 44.619462504982948 7.6551809310913077
leaf_count=30 39 41 47 40 32 84 42 69 180 31
internal_value=-0.00206038 0.00456737 -0.00916307 0.00908591 0.00876874 -0.0149406 -0.0259798 -0.00717597 0.00304836 0.0249281
internal_weight=155.543 79.7386 75.8045 72.3747 17.5872 58.2173 21.3046 36.9127 54.8158 17.5589
internal_count=635 322 313 292 71 242 89 153 221 71
is_linear=0
shrinkage=0.03


Tree=28
num_leaves=9
num_cat=0
split_feature=9 37 32 11 32 17 22 20
split_gain=7.91255 8.51548 7.86918 7.00872 8.55613 4.94707 4.38443 3.94461
threshold=0.064212826380722524 0.0057920376383329151 -0.012200442033851231 -0.032234982283309059 0.00035398912900419527 -0.19592908131644934 0.27248911588427699 0.028770428303053912
decision_type=2 2 2 2 2 2 2 2
left_child=1 3 -3 4 -1 -5 -4 -2
right_child=7 2 6 5 -6 -7 -8 -9
leaf_value=0.027465141520248575 -0.0024028599513657954 -0.016575960581637586 0.014602776053148893 -0.0021493749578170877 -0.011868206853784122 -0.024903887386760817 -0.0029210629417844585 -0.027504306828235226
leaf_weight=7.6623336523771268 12.157177507877352 8.6690758615732175 54.995118170976639 17.716049119830132 7.9607281684875488 19.376598104834557 14.100144505500792 12.699749678373335
leaf_count=31 51 35 222 72 32 79 57 56
internal_value=-0.00201792 0.00091207 0.00725145 -0.00808865 0.00749934 -0.0150856 0.0108342 -0.0168792
internal_weight=155.337 130.48 77.7643 52.7157 15.6231 37.0926 69.0953 24.8569
internal_count=635 528 314 214 63 151 279 107
is_linear=0
shrinkage=0.03


Tree=29
num_leaves=10
num_cat=0
split_feature=19 40 9 15 9 19 32 11 19
split_gain=7.76462 13.8078 8.65518 7.31418 10.5326 6.98301 6.21151 4.32269 2.40405
threshold=0.13612363656862062 -0.027404487536900942 -0.093516488076189952 -2.6989829310904816 0.022683736872679043 0.11703343488043043 0.00035398912900419527 -0.04376132583323649 0.126843946534652
decision_type=2 2 2 2 2 2 2 2 2
left_child=1 -1 6 -4 -5 7 -2 -3 -7
right_child=2 5 3 4 -6 8 -8 -9 -10
leaf_value=-0.029845198216408707 0.023051974283289419 -0.012764762684351762 -0.033936693312614861 0.0098554027979124107 -0.018421250955144578 0.033435252397188558 -0.0089382435715050605 0.0071143011802286462 0.00642669001726787
leaf_weight=7.3199047446250907 9.629697725176813 10.195344120264052 11.998038753867148 16.773521110415459 29.159091517329216 9.8793161809444445 7.922391101717948 44.617206826806068 7.6485225409269324
leaf_count=30 39 41 49 68 125 40 32 180 31
internal_value=-0.00198925 0.00437201 -0.00883574 -0.0144169 -0.00780197 0.00874591 0.00840824 0.0028335 0.0242831
internal_weight=155.143 79.6603 75.4827 57.9307 45.9326 72.3404 17.5521 54.8126 17.5278
internal_count=635 322 313 242 193 292 71 221 71
is_linear=0
shrinkage=0.03


Tree=30
num_leaves=11
num_cat=0
split_feature=2 5 3 3 34 34 2 11 34 4
split_gain=7.98898 10.9051 10.333 7.5231 8.09607 6.5437 5.1674 3.73559 3.6252 3.6119
threshold=-0.015447666835451677 -0.02910323412219001 0.038469809621561553 0.015232649144666934 0.011658217495534752 0.011914230819505269 0.0098100101711540173 -0.0030709149196656567 0.010103050245114488 -0.066035418063610449
decision_type=2 2 2 2 2 2 2 2 2 2
left_child=1 8 3 4 -2 -4 -5 -3 9 -1
right_child=2 7 5 6 -6 -7 -8 -9 -10 -11
leaf_value=0.0075019949170759496 -0.0057525321054220525 -0.0016605002159336697 0.0035578783221036324 0.00038000142984016242 0.017762829417013303 -0.024434655618117009 0.031808162225152543 -0.029631759571921778 0.017115220634508391 -0.017219518598341012
leaf_weight=9.1428344547748583 29.026142030954361 7.456966474652293 13.82479463517666 7.4217130988836315 20.424366161227226 11.841108992695807 18.773408532142639 16.548268839716911 10.124438017606733 7.6782745569944408
leaf_count=37 118 30 57 30 83 49 76 70 41 31
internal_value=0.00104637 -0.00832604 0.00597499 0.0115806 0.00398133 -0.00964726 0.0240944 -0.0223156 0.00429948 -0.00361624
internal_weight=152.262 50.9508 101.312 75.6456 49.4505 25.6659 26.1951 24.0052 26.9455 16.8211
internal_count=622 209 413 307 201 106 106 100 109 68
is_linear=0
shrinkage=0.03


Tree=31
num_leaves=7
num_cat=0
split_feature=23 4 1 3 36 9
split_gain=6.05695 5.48409 7.66323 6.37308 4.13415 3.80007
threshold=0.62108768754227273 -0.071108960873851532 -0.014087976911787646 0.038469809621561553 0.0072988205354130925 -0.069798098286841276
decision_type=2 2 2 2 2 2
left_child=-1 5 4 -4 -3 -2
right_child=1 2 3 -5 -6 -7
leaf_value=-0.021376613599468873 0.0036996470858983751 -0.017881254224874379 0.00963581534248187 -0.007734721666679178 0.003537487181841787 0.030426360165012566
leaf_weight=8.042932063341139 13.545533537864687 24.411021411418915 64.94759538769722 23.921377152204514 9.3465338647365552 7.8987540900707236
leaf_count=33 55 101 264 99 38 32
internal_value=0.00101541 0.00264373 0 0.00472769 -0.0116653 0.0159397
internal_weight=152.114 144.071 122.627 88.869 33.7576 21.4443
internal_count=622 589 502 363 139 87
is_linear=0
shrinkage=0.03


Tree=32
num_leaves=10
num_cat=0
split_feature=2 9 7 11 11 16 35 27 8
split_gain=7.42559 14.8499 7.15562 6.19115 7.10891 6.62645 4.58427 2.48958 0.790687
threshold=-0.015447666835451677 -0.031948771166530686 0.039699875442675545 0.002263263734992305 -0.028072608285088282 -0.13597186760171939 0.023290670109844095 1.5000000000000002 -0.0083056965018278653
decision_type=2 2 2 2 2 2 2 2 2
left_child=1 6 3 4 -2 -5 -1 -4 -3
right_child=2 8 7 5 -6 -7 -8 -9 -10
leaf_value=-0.0042204688073817801 0.011999217490387303 -0.011349274454042105 0.00011614627801514656 0.029628018708350242 -0.009768016118061237 0.0022138869029825125 0.018570226952608002 -0.020420123180589746 -0.030472901021878662
leaf_weight=14.126206740736963 27.970903858542442 10.046238318085672 7.6829116344451931 19.434512868523598 22.188070550560951 15.16317607462406 12.843919068574904 8.774929925799368 13.804175853729246
leaf_count=57 113 41 32 79 90 62 52 37 59
internal_value=0.000985466 -0.00805975 0.00574063 0.0093528 0.00207746 0.0188006 0.00664805 -0.0110468 -0.0244992
internal_weight=152.035 50.8205 101.215 84.7567 50.159 34.5977 26.9701 16.4578 23.8504
internal_count=622 209 413 344 203 141 109 69 100
is_linear=0
shrinkage=0.03


Tree=33
num_leaves=10
num_cat=0
split_feature=2 5 3 3 34 34 2 6 11
split_gain=7.05162 9.74428 9.08129 7.15763 7.64605 6.2439 4.83187 4.33213 3.48738
threshold=-0.015447666835451677 -0.02910323412219001 0.038469809621561553 0.015232649144666934 0.011658217495534752 0.011914230819505269 0.0098100101711540173 -0.026535747536201793 -0.0030709149196656567
decision_type=2 2 2 2 2 2 2 2 2
left_child=1 7 3 4 -2 -4 -5 -1 -3
right_child=2 8 5 6 -6 -7 -8 -9 -10
leaf_value=0.01456068434743378 -0.0059936321235074487 -0.0012857782973097515 0.0037752648262579574 0.00012885471375846899 0.016872380587005152 -0.023597773565070118 0.030506020012611778 -0.0076945185873537507 -0.028299786366006774
leaf_weight=14.590988740324976 29.002031907439232 7.4527747780084637 13.801409989595415 7.421519041061404 20.407405450940132 11.762660935521124 18.73894838988781 12.335635930299757 16.346472010016441
leaf_count=59 118 30 57 30 83 49 76 50 70
internal_value=0.000948458 -0.00787251 0.00558511 0.0108435 0.00344784 -0.0090739 0.0230421 0.00401949 -0.0211772
internal_weight=151.86 50.7259 101.134 75.5699 49.4094 25.5641 26.1605 26.9266 23.7992
internal_count=622 209 413 307 201 106 106 109 100
is_linear=0
shrinkage=0.03


Tree=34
num_leaves=12
num_cat=0
split_feature=2 5 3 3 35 2 23 33 33 21 40
split_gain=6.69771 9.27773 8.61293 6.79151 6.92496 4.56394 4.54023 4.5131 4.46027 4.21959 2.48637
threshold=-0.015447666835451677 -0.02910323412219001 0.038469809621561553 0.015232649144666934 0.060796940402693463 0.0098100101711540173 0.96414463206093304 0.048342911082412975 0.84493331065089217 0.024320983437615632 0.043582729284102457
decision_type=2 2 2 2 2 2 2 2 2 2 2
left_child=1 7 3 4 -2 -5 -4 -1 -8 -9 -3
right_child=2 10 6 5 -6 -7 8 9 -10 -11 -12
leaf_value=0.02064440468599885 -0.0016843614366442224 -0.027417749007798971 -0.02534318398826475 0.00012580922151086434 0.02571122006418005 0.029716260214336848 0.014512898135190187 -0.015761403293074377 -0.01266665187220435 0.0097136768352621607 -0.0038119993168590285
leaf_weight=7.9044958055019405 41.286295592784882 15.436987623572351 7.7127106636762646 7.4215528666973141 8.114156171679495 18.713384374976158 8.2661189138889331 10.374931663274767 9.5426504611968976 8.6364735811948758 8.2691657692193967
leaf_count=32 168 66 32 30 33 76 34 42 40 35 34
internal_value=0.000917477 -0.00768658 0.00543856 0.0105609 0.00334895 0.0224529 -0.00884279 0.00389908 0 -0.00365168 -0.0207043
internal_weight=151.679 50.6221 101.057 75.5354 49.4005 26.1349 25.5215 26.9159 17.8088 19.0114 23.7062
internal_count=622 209 413 307 201 106 106 109 74 77 100
is_linear=0
shrinkage=0.03


Tree=35
num_leaves=6
num_cat=0
split_feature=38 14 32 6 15
split_gain=5.20359 8.28609 5.12307 5.78638 3.89497
threshold=0.0062757663771046491 11.706691485684219 0.0058352756301476303 0.0066126178191633486 -0.7949110402754801
decision_type=2 2 2 2 2
left_child=-1 2 4 -4 -2
right_child=1 -3 3 -5 -6
leaf_value=0.01806882003373186 0.010935453375112588 -0.025366018385609441 -0.019753129978107353 0.0012775649067984511 -0.0010864151910456687
leaf_weight=11.582032814621924 44.88791511952877 9.8913905769586545 17.681108146905899 25.782204166054726 45.406401306390762
leaf_count=47 182 46 72 105 186
internal_value=0.00023368 -0.0013297 0.000684806 -0.0074405 0.00483494
internal_weight=155.231 143.649 133.758 43.4633 90.2943
internal_count=638 591 545 177 368
is_linear=0
shrinkage=0.03


Tree=36
num_leaves=8
num_cat=0
split_feature=9 15 20 20 28 32 23
split_gain=7.43622 9.83171 8.55493 7.64314 7.10636 5.92517 0.604155
threshold=0.066262066233391634 4.7225927606227325 0.03044851176034161 0.028770428303053912 2.5000000000000004 0.0058352756301476303 1.0184291317319989
decision_type=2 2 2 2 2 2 2
left_child=1 4 -3 -2 6 -6 -1
right_child=3 2 -4 -5 5 -7 -8
leaf_value=0.0059629456306617926 0.0026328768123277334 0.038736700420433978 -0.00058347171162739092 -0.03063116857372666 0.0017093816444779604 -0.013200869620881175 0.024302703282385686
leaf_weight=7.3791519552469236 9.8430753201246279 9.8246286660432833 7.2401332259178153 11.104541674256323 68.825827479362488 33.494844600558281 7.3952276408672333
leaf_count=30 42 40 30 51 279 136 30
internal_value=0.000217635 0.00297017 0.0229563 -0.0154799 -0.000153135 -0.00318723 0.0178401
internal_weight=155.107 134.16 17.0648 20.9476 117.095 102.321 14.7744
internal_count=638 545 70 93 475 415 60
is_linear=0
shrinkage=0.03


Tree=37
num_leaves=8
num_cat=0
split_feature=9 20 9 21 19 38 19
split_gain=7.09121 7.36042 6.81169 5.80407 4.11554 6.28267 5.21646
threshold=0.066262066233391634 0.028770428303053912 0.041738446366278943 0.02127947685364846 0.11633073499592546 0.0080311085565174904 0.13612363656862062
decision_type=2 2 2 2 2 2 2
left_child=2 -2 4 -4 5 -1 -6
right_child=1 -3 3 -5 6 -7 -8
leaf_value=0.0074800044945352098 0.0025660377476186872 -0.030117055368526855 0.035562853897993449 0 0.019375538942229951 -0.013227736502146079 9.1878271361387317e-05
leaf_weight=18.085195571184158 9.8484913408756274 10.991141632199286 7.8839096277952176 7.1923722922801971 15.515320554375647 34.350270330905914 51.093187510967255
leaf_count=73 42 51 32 30 63 139 208
internal_value=0.000224928 -0.0151426 0.00291034 0.0206429 0.000236711 -0.00579759 0.00523619
internal_weight=154.96 20.8396 134.12 15.0763 119.044 52.4355 66.6085
internal_count=638 93 545 62 483 212 271
is_linear=0
shrinkage=0.03


Tree=38
num_leaves=7
num_cat=0
split_feature=10 35 35 32 11 36
split_gain=4.86888 10.7299 7.38469 5.08175 6.52043 3.80768
threshold=0.034429601949971585 0.001149359990594623 0.071127636958166943 0.0058352756301476303 0.0042542103555928143 0.0071638962918784792
decision_type=2 2 2 2 2 2
left_child=2 -2 3 5 -5 -1
right_child=1 -3 -4 4 -6 -7
leaf_value=0 0.011798593236171889 -0.026533238104627922 0.025522849666177096 -0.017416108398920747 0.0062562548657998096 0.013346595979062102
leaf_weight=55.359926238656044 8.7599890977144259 14.535386532545088 9.5795794874429685 24.339891284704208 14.841803207993506 27.36984258890152
leaf_count=226 36 66 39 99 61 111
internal_value=0.000232392 -0.0117328 0.00260857 0.000304062 -0.00821656 0.00461524
internal_weight=154.786 23.2954 131.491 121.911 39.1817 82.7298
internal_count=638 102 536 497 160 337
is_linear=0
shrinkage=0.03


Tree=39
num_leaves=6
num_cat=0
split_feature=38 10 35 11 16
split_gain=4.69297 7.72197 7.72557 6.83937 3.5476
threshold=0.0062757663771046491 0.034429601949971585 0.071127636958166943 -0.0023703807913408865 2.4521040850242493
decision_type=2 2 2 2 2
left_child=-1 2 4 -3 -2
right_child=1 3 -4 -5 -6
leaf_value=0.017184378524867139 0.0010865743258631029 0.0020086632100855964 0.024896971613559676 -0.030943675338689944 -0.014774035662898618
leaf_weight=11.562232345342634 101.62014442682266 7.9604012072086361 9.5761092454195005 11.585496410727499 12.348723769187925
leaf_count=47 415 33 39 54 50
internal_value=0.000232954 -0.00125139 0.00150394 -0.0178864 -0.000727761
internal_weight=154.653 143.091 123.545 19.5459 113.969
internal_count=638 591 504 87 465
is_linear=0
shrinkage=0.03


Tree=40
num_leaves=6
num_cat=0
split_feature=4 40 40 32 21
split_gain=7.34387 6.06775 5.59318 5.55439 5.24387
threshold=0.10098550983079403 0.086652178383792369 0.011756160150468988 -0.011874985231234146 0.0170823589823666
decision_type=2 2 2 2 2
left_child=1 2 4 -4 -1
right_child=-2 -3 3 -5 -6
leaf_value=0.015510634353284012 -0.024215631902829767 -0.017852922627110496 -0.010913738739406134 0.013266362402985532 -0.0057090861390049772
leaf_weight=10.596840173006056 8.0223061144351941 10.151020213961599 7.6751670241355887 60.602034702897072 56.714572444558144
leaf_count=43 36 42 32 247 235
internal_value=0.000516556 0.00228887 0.00414342 0.0101016 -0.00180088
internal_weight=153.762 145.74 135.589 68.2772 67.3114
internal_count=635 599 557 279 278
is_linear=0
shrinkage=0.03


Tree=41
num_leaves=6
num_cat=0
split_feature=4 36 24 21 16
split_gain=7.02029 5.00142 6.14229 5.92718 5.33868
threshold=0.10098550983079403 0.0037357669776730451 -0.15122834279508088 0.02528345981056979 -0.13597186760171939
decision_type=2 2 2 2 2
left_child=1 -1 3 -3 -4
right_child=-2 2 4 -5 -6
leaf_value=-0.014075082128325263 -0.023771643323890517 0.016869533851179924 0.0078620128135699959 -0.0022285308456430541 -0.0084369058607925221
leaf_weight=12.948253259062765 7.965199500322341 42.948359996080399 27.803192257881165 19.138630151748657 42.838647395372391
leaf_count=54 36 175 114 80 176
internal_value=0.00048108 0.0022127 0.00409833 0.0108626 -0.00177565
internal_weight=153.642 145.677 132.729 62.087 70.6418
internal_count=635 599 545 255 290
is_linear=0
shrinkage=0.03


Tree=42
num_leaves=11
num_cat=0
split_feature=23 40 11 15 15 7 3 34 7 34
split_gain=6.88299 9.80757 9.42323 7.41825 12.6225 6.64219 5.91225 4.6741 1.97717 1.51366
threshold=0.95086319830631627 0.061228325444555372 -0.02330850049264099 3.9621805937427195 7.4827986477760238 0.048358212408196655 0.0053398458980633565 -0.016595833261163814 0.0071698782931403334 -0.017625536660796966
decision_type=2 2 2 2 2 2 2 2 2 2
left_child=2 5 7 9 -5 6 -2 -1 -3 -4
right_child=1 8 3 4 -6 -7 -8 -9 -10 -11
leaf_value=-0.0051864142342478567 0.0057857701275616904 0 -0.0056304400599383395 0.028294671271929767 -0.018707602710378718 -0.011758146173174314 0.02561089197241782 0.020910798383468085 -0.021700832236465052 -0.025436098229393359
leaf_weight=8.6998666524887103 35.619536519050598 7.3643478751182547 8.0348302572965604 7.3006019145250347 9.3756326884031278 7.6906085014343253 24.921611398458481 11.786571606993673 8.6168126910924894 24.119610205292702
leaf_count=35 146 30 33 30 42 34 102 48 36 99
internal_value=0.000448961 0.00623535 -0.00634827 -0.0134866 0.0018926 0.011294 0.0147446 0.00968558 -0.0133825 -0.0215457
internal_weight=153.53 84.2129 69.3171 48.8307 16.6762 68.2318 60.5411 20.4864 15.9812 32.1544
internal_count=635 348 287 204 72 282 248 83 66 132
is_linear=0
shrinkage=0.03


Tree=43
num_leaves=13
num_cat=0
split_feature=23 11 15 14 12 15 36 15 34 34 13 36
split_gain=6.48552 8.93647 7.04758 15.7434 6.48395 9.0072 8.5623 5.07538 4.45527 3.98761 3.00309 2.48116
threshold=0.95086319830631627 -0.02330850049264099 3.9621805937427195 7.637128206034931 57.289561727565491 -5.5133756692864457 0.0070911961006431814 -10.388285939063882 -0.016595833261163814 0.025744540301089084 2.4977258681781298 0.0071220746004734565
decision_type=2 2 2 2 2 2 2 2 2 2 2 2
left_child=1 8 11 -4 5 7 10 -2 -1 -7 -6 -3
right_child=4 2 3 -5 6 9 -8 -9 -10 -11 -12 -13
leaf_value=-0.0050601161397698076 0.0086355324975767884 -0.02592795884468194 0.025493349723369464 -0.027236304338082305 -0.026425219608406894 0.026656557971908846 0.013365265884437295 -0.018953441746079869 0.020405216950595634 0.0012654159186046838 -0.00027221126039786073 -0.0038391511863123968
leaf_weight=8.6994270235300082 11.350448027253153 23.469969302415848 9.5887078195810336 7.0331753045320502 10.417498230934148 25.776884242892265 11.629159867763518 8.5660956352949125 11.766112700104712 8.8153945207595807 7.6100269854068747 8.616531163454054
leaf_count=35 46 97 39 33 46 105 48 35 48 36 32 35
internal_value=0.000422139 -0.00618173 -0.0131485 0.00184754 0.00604131 0.0121069 -0.00469391 -0.00319282 0.009426 0.0210187 -0.0172638 -0.0210096
internal_weight=153.339 69.1739 48.7084 16.6219 84.1655 54.5088 29.6567 19.9165 20.4655 34.5923 18.0275 32.0865
internal_count=635 287 204 72 348 222 126 81 83 141 78 132
is_linear=0
shrinkage=0.03


Tree=44
num_leaves=6
num_cat=0
split_feature=4 36 24 21 17
split_gain=6.5075 4.47747 5.64949 5.35878 5.05324
threshold=0.10098550983079403 0.0037357669776730451 -0.15122834279508088 0.02528345981056979 1.3956445326247235
decision_type=2 2 2 2 2
left_child=1 -1 3 -3 -4
right_child=-2 2 4 -5 -6
leaf_value=-0.013379655896674341 -0.023079512541883687 0.016074643942016437 -0.0049509453072020945 -0.0020840839611757263 0.018074654157902381
leaf_weight=12.859213784337042 7.8593208193778983 42.84242157638073 62.670653268694878 19.067010700702667 7.7679569721221915
leaf_count=54 36 175 258 80 32
internal_value=0.000399394 0.00206838 0.00385783 0.0103572 -0.00177569
internal_weight=153.067 145.207 132.348 61.9094 70.4386
internal_count=635 599 545 255 290
is_linear=0
shrinkage=0.03


Tree=45
num_leaves=11
num_cat=0
split_feature=9 19 32 8 15 11 21 2 35 36
split_gain=5.6791 8.24683 6.50502 6.36638 5.42067 12.1681 5.4691 5.11321 5.08485 1.52131
threshold=0.058782337895627271 0.11633073499592546 -0.0060852995633866027 0.060884547478475291 -3.6189430773701692 -0.032234982283309059 0.026290471984313713 -0.015884620073066454 0.049449557973192511 0.0052198421656300025
decision_type=2 2 2 2 2 2 2 2 2 2
left_child=1 2 7 9 5 -3 -6 -1 -4 -2
right_child=3 4 8 -5 6 -7 -8 -9 -10 -11
leaf_value=-0.0059171933417773099 -0.0072441246072616162 0.013022979039695086 -0.017925780750947234 0.0047360127157181188 0.02387918187810421 -0.022931185207192409 0.0008542192828889767 0.024801715935514182 0.0047627422166546165 -0.032933942571154798
leaf_weight=7.4212401509284973 6.8517081290483492 21.622986167669296 29.821644484996796 9.8709434568881971 27.309614926576614 11.207223355770109 15.855041205883024 7.6544604301452619 10.055379390716551 7.4719486832618713
leaf_count=30 30 88 121 45 112 46 65 31 41 34
internal_value=0.00045032 0.00305094 -0.00551881 -0.0122106 0.00942275 0 0.0161662 0.00987953 -0.0118922 -0.0239573
internal_weight=155.142 130.948 54.9527 24.1946 75.9949 32.8302 43.1647 15.0757 39.877 14.3237
internal_count=643 534 223 109 311 134 177 61 162 64
is_linear=0
shrinkage=0.03


Tree=46
num_leaves=10
num_cat=0
split_feature=28 6 38 34 40 40 37 32 17
split_gain=5.63801 7.10346 7.29942 5.25001 8.27944 5.22089 4.39126 4.21413 3.21096
threshold=5.5000000000000009 -0.022452234191910166 0.0089559865456862609 -0.027834690499184352 -0.00091713069127991032 -0.015340260331228593 0.015771911015813437 0.0011624093323037157 -1.2533669371228846
decision_type=2 2 2 2 2 2 2 2 2
left_child=3 8 6 -1 -5 -4 -3 -6 -2
right_child=1 2 5 4 7 -7 -8 -9 -10
leaf_value=0.025535559156066694 -0.0022040774901248674 -0.0029407419452060933 -0.015997580553164803 -0.015108858294569937 0 0.0054386298389308982 -0.027550994374359233 0.02071071193021852 0.020208933560801081
leaf_weight=10.242205634713171 7.3990481346845653 12.559721335768701 12.020924285054205 13.649599745869635 16.630756601691246 35.56202644109726 18.384111568331718 16.77774715423584 11.767996102571486
leaf_count=42 31 52 50 57 70 147 77 69 48
internal_value=0.000431284 -0.00383086 -0.00794064 0.00783508 0.00279283 -0.000101142 -0.0188023 0.0109708 0.0114574
internal_weight=154.994 97.6938 78.5268 57.3003 47.0581 47.583 30.9438 33.4085 19.167
internal_count=643 405 326 238 196 197 129 139 79
is_linear=0
shrinkage=0.03


Tree=47
num_leaves=9
num_cat=0
split_feature=9 7 15 28 11 38 37 21
split_gain=5.37033 6.98976 6.5511 7.39548 9.86883 3.92372 3.04735 2.08593
threshold=0.058782337895627271 0.015292794008409763 4.7225927606227325 2.5000000000000004 -0.049180174979482065 0.0074589959269974601 0.038643609673782338 0.024722351072106238
decision_type=2 2 2 2 2 2 2 2
left_child=2 -2 3 5 -5 -1 -3 -4
right_child=1 6 7 4 -6 -7 -8 -9
leaf_value=0 -0.032920464419117008 0.010285763340206967 0.028914588550273623 0.014291333430221083 -0.0078787477299421971 0.030627272082957301 -0.012696026062675923 0.0039584700536594731
leaf_weight=7.6024576723575583 7.2256170660257366 9.2092815637588519 8.4943837970495206 21.101104229688644 78.07932847738266 8.0035312771797162 7.657664254307746 7.4981006830930701
leaf_count=31 35 40 35 86 318 33 34 31
internal_value=0.000415756 -0.0119202 0.00294663 0.00017306 -0.00282445 0.0182319 0 0.0197882
internal_weight=154.871 24.0926 130.779 114.786 99.1804 15.606 16.8669 15.9925
internal_count=643 109 534 468 404 64 74 66
is_linear=0
shrinkage=0.03


Tree=48
num_leaves=8
num_cat=0
split_feature=4 12 12 20 26 10 8
split_gain=5.20031 5.01111 4.61393 8.43108 8.29306 2.79729 0.940294
threshold=-0.071108960873851532 31.456305487365643 53.154029812635578 0.026837801184716358 0.28571558461567942 -0.076214499355180473 -0.068671020280015663
decision_type=2 2 2 2 2 2 2
left_child=5 -2 4 -4 -3 -1 -7
right_child=1 2 3 -5 -6 6 -8
leaf_value=-0.0008103569665971731 -0.023142804586451637 -0.0021888407788188276 0.0037842360113532728 -0.017553957076245456 0.020410719993552894 0.0062484029248700045 0.025398536748987555
leaf_weight=7.8089384585618999 7.3522603660821906 39.938205569982529 33.815037429332733 28.349510610103607 19.949168428778648 8.3792621791362798 9.0930470824241603
leaf_count=32 30 163 140 124 82 34 38
internal_value=0.000422474 -0.00195927 -0.000209744 -0.00595689 0.00551328 0.0124134 0.01857
internal_weight=154.685 129.404 122.052 62.1645 59.8874 25.2812 17.4723
internal_count=643 539 509 264 245 104 72
is_linear=0
shrinkage=0.03


Tree=49
num_leaves=13
num_cat=0
split_feature=28 36 35 12 4 14 15 2 35 2 15 20
split_gain=5.22212 11.0843 7.01864 9.19736 8.48324 6.73365 6.5457 5.23152 5.16159 2.54325 1.48812 0.587186
threshold=5.5000000000000009 0.0066144113358282998 0.004257431469596896 57.522696274492496 -0.066035418063610449 -3.657880976682804 -0.51657975884031981 0.020416028580529381 0.061465475981697611 -0.0062094638059131948 -2.5873623937741335 0.027917810330959456
decision_type=2 2 2 2 2 2 2 2 2 2 2 2
left_child=1 6 4 5 -2 -4 -1 10 -5 -8 -3 -6
right_child=2 7 3 8 11 -7 9 -9 -10 -11 -12 -13
leaf_value=0.012801579164413461 0.0070276510347592807 0.012427095448357831 -0.0030534816892962731 -0.022378084694296928 -0.036889575003173351 0.017958434605380314 -0.021996376785940266 0.002203574287903908 0.0054969451162526183 0 0.040500297336287933 -0.014036969273793878
leaf_weight=10.500574439764025 7.3670011758804348 7.3932961374521247 23.214923977851868 16.384635075926784 7.6404830515384701 26.936377853155136 11.898379862308504 10.380343347787855 6.7535678446292868 8.4020421802997571 8.541923865675928 9.1541441380977613
leaf_count=43 30 30 95 71 31 111 52 43 30 35 35 37
internal_value=0.000411752 0.00755252 -0.00369038 0.000854883 -0.0170622 0.00820035 -0.00425244 0.0212238 -0.0138552 -0.0141034 0.03115 -0.0280508
internal_weight=154.568 57.1166 97.4511 73.2895 24.1616 50.1513 30.801 26.3156 23.1382 20.3004 15.9352 16.7946
internal_count=643 238 405 307 98 206 130 108 101 87 65 68
is_linear=0
shrinkage=0.03


Tree=50
num_leaves=7
num_cat=0
split_feature=7 33 8 24 5 38
split_gain=6.18491 5.61325 7.16821 8.36264 2.65727 1.94061
threshold=0.039699875442675545 0.74823553273242249 0.026754221883180451 0.31313106403147534 0.093366529135422885 0.0078995955767183126
decision_type=2 2 2 2 2 2
left_child=1 2 3 -1 -2 -3
right_child=4 5 -4 -5 -6 -7
leaf_value=0.0072683341197129466 -0.02473946274816272 0.023941845308742261 -0.024274312073105521 -0.011346201528504506 -2.7787594344058585e-05 0.0035810016415295243
leaf_weight=80.924976915121078 9.2165378779172915 11.589702084660532 7.9266722351312628 27.111891150474548 7.9438228011131278 10.201748207211493
leaf_count=333 39 48 37 111 36 42
internal_value=0.000591042 0.00286581 1.23251e-05 0.00233937 -0.0152798 0.0161426
internal_weight=154.915 137.755 115.964 108.037 17.1604 21.7915
internal_count=646 571 481 444 75 90
is_linear=0
shrinkage=0.03


Tree=51
num_leaves=11
num_cat=0
split_feature=20 5 20 15 10 23 26 20 11 36
split_gain=6.02352 9.11066 8.34232 4.04416 8.74965 5.97453 6.0093 5.87646 3.46763 2.6388
threshold=0.032307931916793382 -0.019365216644822266 0.035328449256794937 5.0561831475427761 0.032162471976409319 1.0095489874682062 0.12531408961742604 0.029123811125859721 0.014749807937662453 0.0059317050939416841
decision_type=2 2 2 2 2 2 2 2 2 2
left_child=3 2 -2 5 -5 7 -7 -1 -3 -4
right_child=1 8 9 4 -6 6 -8 -9 -10 -11
leaf_value=-0.011242112059452058 -0.017419842391605329 -0.0072388996325271036 0.0007884748966037981 0.030070260820319147 -0.0032315248808319928 -0.0042409407578138589 0.020515620491009981 0.012382242640413849 -0.032418236603588536 0.024646956773833356
leaf_weight=36.321943506598473 8.5062566995620745 13.9960173368454 8.8001033812761325 13.147184357047083 11.341513961553572 12.385785132646559 19.859071165323257 10.261700987815855 10.43103703856468 9.7647416591644269
leaf_count=148 35 59 36 55 51 51 81 42 48 40
internal_value=0.000557948 -0.007539 0.00397176 0.0048028 0.0150014 0.00115616 0.0108759 -0.00543377 -0.0201985 0.0152435
internal_weight=154.815 51.4982 27.0711 103.317 24.4887 78.8285 32.2449 46.5836 24.4271 18.5648
internal_count=646 218 111 428 106 322 132 190 107 76
is_linear=0
shrinkage=0.03


Tree=52
num_leaves=8
num_cat=0
split_feature=7 33 4 11 0 5 2
split_gain=5.87345 5.31138 6.88721 6.67976 4.30658 2.54723 2.10688
threshold=0.039699875442675545 0.74823553273242249 0.03002861772749155 -0.049180174979482065 -0.010799177669768232 0.093366529135422885 0.0098100101711540173
decision_type=2 2 2 2 2 2 2
left_child=1 2 3 -1 -4 -2 -3
right_child=5 6 4 -5 -6 -7 -8
leaf_value=0.021953869561371398 -0.024242650522370773 0.00013749134358150231 0.0019866352586726545 0 -0.024533075751694645 0 0.02171942110638727
leaf_weight=12.929493278264998 9.1637606173753756 7.3549928367137936 6.8036426305770901 83.330463483929634 12.713839858770369 7.9344851225614539 14.406830549240111
leaf_count=53 39 31 30 344 54 36 59
internal_value=0.000540665 0.00276056 0 0.003471 -0.015266 -0.01495 0.015682
internal_weight=154.638 137.539 115.777 96.26 19.5175 17.0982 21.7618
internal_count=646 571 481 397 84 75 90
is_linear=0
shrinkage=0.03


Tree=53
num_leaves=8
num_cat=0
split_feature=7 11 15 21 16 36 3
split_gain=5.61468 5.05151 7.90355 11.3303 6.19337 1.62782 1.09206
threshold=0.039699875442675545 -0.049180174979482065 -5.1934679219872697 0.026886259638345528 2.3903941227251329 0.0050703795132662705 0.073413238778819126
decision_type=2 2 2 2 2 2 2
left_child=1 4 5 -4 -1 -3 -2
right_child=6 2 3 -5 -6 -7 -8
leaf_value=0.029647059636362584 -0.021214306503789634 -0.0021204872736498744 0.0088498655608766456 -0.015759823690442949 -0.00011649201609299256 -0.023072793779623568 -0.0029185133254949177
leaf_weight=10.668748244643213 9.0640152543783206 7.2879516929388073 78.36587581038475 19.07936692237854 10.522929430007933 11.532379209995268 7.9896235167980185
leaf_count=44 39 30 324 83 43 47 36
internal_value=0.000526209 0.0026978 1.7717e-05 0.00366051 0.0154854 -0.0166628 -0.0146361
internal_weight=154.511 137.457 116.266 97.4452 21.1917 18.8203 17.0536
internal_count=646 571 484 407 87 77 75
is_linear=0
shrinkage=0.03


Tree=54
num_leaves=9
num_cat=0
split_feature=19 5 15 11 23 0 15 21
split_gain=5.44837 4.60639 4.0141 6.55108 9.52374 5.64277 4.74248 5.65742
threshold=0.22178339750496409 -0.063635393334491683 2.505034767871182 -0.02330850049264099 0.9299057537747536 0.012037128890451056 13.59874389181782 0.017597289142193297
decision_type=2 2 2 2 2 2 2 2
left_child=2 -2 3 5 -5 -1 7 -4
right_child=1 -3 6 4 -6 -7 -8 -9
leaf_value=0.015827658202490418 0 -0.027218239624389438 -0.0013956887133139727 -0.021277575528712907 0.0037193981650436472 -0.0079600213342309097 -0.010243685008509201 0.020970177727470975
leaf_weight=25.622341468930244 10.92159976065159 8.8279360830783826 13.329340845346449 23.367476716637611 27.031727209687233 10.867579877376555 6.826763689517974 27.574704229831696
leaf_count=105 45 41 56 97 111 44 32 115
internal_value=0.000486169 -0.0133494 0.00279144 -0.000922577 -0.0079539 0.00830791 0.00961925 0.0136069
internal_weight=154.369 19.7495 134.62 86.8891 50.3992 36.4899 47.7308 40.904
internal_count=646 86 560 357 208 149 203 171
is_linear=0
shrinkage=0.03


Tree=55
num_leaves=12
num_cat=0
split_feature=11 36 38 0 12 33 16 17 0 9 5
split_gain=9.76213 6.61254 8.16396 6.03416 5.90055 7.86553 5.42991 3.38089 2.60136 2.33332 0.54742
threshold=-0.029366262797057171 0.0071026271226287954 0.0075300993449637166 0.0094600258939601129 58.963236797034746 0.32679700322203664 0.4384773294267223 0.19999968376721758 0.019020968074628389 -0.059648948849330218 0.063835032036244313
decision_type=2 2 2 2 2 2 2 2 2 2 2
left_child=3 4 -3 7 5 -2 -4 9 -5 -1 -6
right_child=1 2 6 8 10 -7 -8 -9 -10 -11 -12
leaf_value=0 -0.016142124105898402 0.028596980645391123 0.0075483098239164286 -0.014754911782901127 -0.011520291091702552 0.0049229744906375428 -0.021965460166871644 0.031288264856072168 0.0064348338666610303 0.019666942141225767 -0.029805437516662144
leaf_weight=12.235239788889887 26.682615324854851 8.0852203965187091 11.69019563496113 7.6217784732580212 10.609622716903688 32.877660363912582 7.2117145657539359 10.429338857531546 8.5684668868780118 7.2020688951015499 10.501871779561041
leaf_count=50 110 33 48 31 45 138 31 43 35 30 50
internal_value=-0.000629237 -0.0056519 0.00653411 0.0105458 -0.00996939 -0.00448823 -0.00401885 0.0182248 -0.00324142 0.00825054 -0.0230574
internal_weight=153.716 107.659 26.9871 46.0569 80.6718 59.5603 18.9019 29.8666 16.1902 19.4373 21.1115
internal_count=644 455 112 189 343 248 79 123 66 80 95
is_linear=0
shrinkage=0.03


Tree=56
num_leaves=9
num_cat=0
split_feature=11 40 19 28 16 17 0 17
split_gain=9.29624 7.44468 4.84894 4.69998 7.4858 4.27291 3.44613 1.05468
threshold=-0.029366262797057171 0.05563511802297972 0.19997253460377637 2.5000000000000004 0.4384773294267223 0.26341455358473992 0.013245712656040133 0.19999968376721758
decision_type=2 2 2 2 2 2 2 2
left_child=1 6 3 -2 -5 -4 7 -1
right_child=2 -3 5 4 -6 -7 -8 -9
leaf_value=0.011866446431294645 0.012986944917341843 -0.010738629060652108 -0.0017235205649300527 0.0024483580819938127 -0.016313100975488794 -0.030113050538946789 0.00051089894365385631 0.030230058690496997
leaf_weight=14.286107987165453 13.138253480195997 9.5789244771003705 10.206213042140009 43.870286718010902 29.999803870916367 10.26738804578781 10.752716615796087 11.36672857403755
leaf_count=59 55 39 47 181 128 44 44 47
internal_value=-0.000604933 0.0103056 -0.00551283 -0.00205722 -0.00520243 -0.018041 0.0165041 0.0221437
internal_weight=153.466 45.9845 107.482 87.0083 73.8701 20.4736 36.4056 25.6528
internal_count=644 189 455 364 309 91 150 106
is_linear=0
shrinkage=0.03


Tree=57
num_leaves=9
num_cat=0
split_feature=11 40 38 16 35 35 11 11
split_gain=8.83682 7.10352 5.47807 5.5192 15.379 9.22242 3.41342 2.30799
threshold=-0.029366262797057171 0.05563511802297972 0.011821125890087112 0.4384773294267223 0.020265083482714833 -0.027705565093941006 -0.088657594769897027 -0.049180174979482065
decision_type=2 2 2 2 2 2 2 2
left_child=1 6 3 5 -5 -2 -1 -8
right_child=2 -3 -4 4 -6 -7 7 -9
leaf_value=-0.00023142160994108569 -0.024101008691303751 -0.010466956690658977 -0.024545340326998247 0.01381848731559625 -0.02280951813585776 0.0084749006470567906 0.029913834694264976 0.0094110964630783108
leaf_weight=7.3753227442502931 7.1740402132272711 9.5845436900854093 10.167117565870283 13.359291821718214 28.795719817280769 47.851726561784744 13.135820016264914 15.821299925446516
leaf_count=30 30 39 44 55 127 199 55 65
internal_value=-0.000582171 0.0100604 -0.00537234 -0.0027607 -0.0107619 0.00326843 0.0161304 0.020528
internal_weight=153.265 45.917 107.348 97.1808 42.155 55.0258 36.3324 28.9571
internal_count=644 189 455 411 182 229 150 120
is_linear=0
shrinkage=0.03


Tree=58
num_leaves=11
num_cat=0
split_feature=9 40 39 17 36 15 24 6 38 1
split_gain=7.74936 6.9816 7.02547 7.10631 4.201 3.80897 3.47237 4.22316 2.81993 0.318316
threshold=0.064212826380722524 0.011756160150468988 1.0000000180025095e-35 -0.67907004820430705 0.0062326978562852907 -14.923092056253024 -0.6126255475302721 0.017023507227338201 0.0082517514139185556 0.016209395256902129
decision_type=2 2 2 2 2 2 2 2 2 2
left_child=1 2 5 -4 9 -1 8 -8 -3 -2
right_child=4 6 3 -5 -6 -7 7 -9 -10 -11
leaf_value=0.022261472961019015 -0.029701268998061334 0.0080454456563205049 0.010608839996966823 -0.01891647174662631 0.0012311929884254189 -0.0010561212154471204 0.016303339459740263 -0.0028871685014938827 -0.01449567091043925 -0.0096832996818236716
leaf_weight=7.7169535309076336 8.8849168121814746 7.5804796963930112 7.3133496344089499 31.053490728139877 7.0825342237949362 14.374106302857397 43.312428265810013 11.046226009726523 7.8170323073863983 6.8049513250589362
leaf_count=32 44 31 30 129 33 59 179 45 32 30
internal_value=-0.000573943 0.00221929 -0.00500226 -0.0126701 -0.016041 0.00763855 0.00865225 0.0121734 -0.00288692 -0.0239435
internal_weight=152.986 130.214 60.4579 38.3668 22.7724 22.0911 69.7562 54.3587 15.3975 15.6899
internal_count=644 537 250 159 107 91 287 224 63 74
is_linear=0
shrinkage=0.03


Tree=59
num_leaves=10
num_cat=0
split_feature=11 0 38 16 35 35 34 0 4
split_gain=8.16138 5.48127 5.21068 5.17107 14.5625 8.71927 2.94849 2.5017 1.80283
threshold=-0.029366262797057171 0.0094600258939601129 0.011821125890087112 0.4384773294267223 0.020265083482714833 -0.027705565093941006 0.0070616092592091792 0.019020968074628389 0.0038066567712516934
decision_type=2 2 2 2 2 2 2 2 2
left_child=1 6 3 5 -5 -2 8 -3 -1
right_child=2 7 -4 4 -6 -7 -8 -9 -10
leaf_value=-0.00053704771717280901 -0.023461779458114937 -0.014689737480422281 -0.023932706179859049 0.013487083887071819 -0.022201952330953813 0.008265125829582538 0.027835286224107421 0.0060771347718347451 0.01642729416114732
leaf_weight=10.242556959390646 7.1365439593791953 7.6059594452381161 10.101986914873121 13.338322982192038 28.574669256806374 47.779078617691994 12.174018576741217 8.5581821054220182 7.1962280720472327
leaf_count=42 30 31 44 55 127 199 51 35 30
internal_value=-0.000565092 0.00967175 -0.0051823 -0.00262958 -0.0104058 0.00319896 0.0170511 -0.00341032 0.00666165
internal_weight=152.708 45.7769 106.931 96.8286 41.913 54.9156 29.6128 16.1641 17.4388
internal_count=644 189 455 411 182 229 123 66 72
is_linear=0
shrinkage=0.03


Tree=60
num_leaves=7
num_cat=0
split_feature=19 36 19 20 4 8
split_gain=6.30394 5.47779 5.98765 7.12059 5.77174 5.09175
threshold=0.23696718794780899 0.0035837892587875651 0.11633073499592546 0.030883749527047189 0.041907462413171344 -0.085969038051548277
decision_type=2 2 2 2 2 2
left_child=1 -1 3 -3 -4 -2
right_child=5 2 4 -5 -6 -7
leaf_value=-0.0182895874658137 0.0014745984204620449 0 0.014571536613268671 -0.027750635666249437 -0.0036968262086566049 -0.027931698054803125
leaf_weight=11.042536929249762 6.7289668917655971 52.461481705307961 43.273357540369034 7.91317394375801 20.957908600568771 12.035646289587019
leaf_count=48 28 215 181 33 92 55
internal_value=-0.00213771 0.00010753 0.00211952 -0.00443268 0.00845267 -0.0175379
internal_weight=154.413 135.648 124.606 60.3747 64.2313 18.7646
internal_count=652 569 521 248 273 83
is_linear=0
shrinkage=0.03


Tree=61
num_leaves=8
num_cat=0
split_feature=11 14 8 38 23 11 11
split_gain=5.00106 5.12581 5.54218 6.31321 4.86352 3.25143 0.904129
threshold=-0.049180174979482065 -7.8145289698207412 0.010374177216424828 0.0075300993449637166 0.89493416206174137 -0.083755338284937017 -0.029366262797057171
decision_type=2 2 2 2 2 2 2
left_child=5 6 4 -4 -3 -1 -2
right_child=1 2 3 -5 -6 -7 -8
leaf_value=-0.0020860482236300512 -0.0066474320935539077 -0.0048497841867434083 0.004746931077367041 -0.016271669061248172 0.01133252618274073 0.018286324118248678 -0.026468989231201553
leaf_weight=9.8061232417821902 8.0383762717247027 28.00096495449543 17.226739481091499 34.708565413951874 34.091608062386513 14.057586342096327 8.3259964287281019
leaf_count=40 33 117 75 153 140 59 35
internal_value=-0.00210279 -0.0045137 -0.001961 -0.00910427 0.00387737 0.00982095 -0.0193335
internal_weight=154.256 130.392 114.028 51.9353 62.0926 23.8637 16.3644
internal_count=652 553 485 228 257 99 68
is_linear=0
shrinkage=0.03


Tree=62
num_leaves=7
num_cat=0
split_feature=19 36 19 20 4 39
split_gain=5.93184 5.15691 5.70586 6.80761 5.38798 3.298
threshold=0.23696718794780899 0.0035837892587875651 0.11633073499592546 0.030883749527047189 0.041907462413171344 1.0000000180025095e-35
decision_type=2 2 2 2 2 2
left_child=1 -1 3 -3 -4 -2
right_child=5 2 4 -5 -6 -7
leaf_value=-0.017767041180904379 0 0 0.014178184246478362 -0.027163434387011354 -0.0034793750558891647 -0.025505433210614038
leaf_weight=10.987091764807699 6.8762331157922754 52.420846983790398 43.207685828208923 7.8801464289426795 20.889314889907837 11.778448671102524
leaf_count=48 29 215 181 33 92 54
internal_value=-0.00205405 0.0001192 0.00207375 -0.00432102 0.00826546 -0.0170368
internal_weight=154.04 135.385 124.398 60.301 64.097 18.6547
internal_count=652 569 521 248 273 83
is_linear=0
shrinkage=0.03


Tree=63
num_leaves=10
num_cat=0
split_feature=19 8 9 19 34 10 23 9 38
split_gain=5.63722 4.78992 4.45895 6.30241 6.60276 5.10035 5.86264 3.64241 2.96669
threshold=0.23696718794780899 -0.085969038051548277 -0.016791749741625502 0.099826859228259887 0.0033652046948744467 -0.00091050395427322284 0.99174857602524757 0.033244001468883365 0.0095897514454159269
decision_type=2 2 2 2 2 2 2 2 2
left_child=2 -2 5 7 -5 6 -1 -4 -7
right_child=1 -3 3 4 -6 8 -8 -9 -10
leaf_value=-0.010539523879086989 0.001673873219495767 -0.026839548721854969 -0.022591158797221737 0.014837604962647704 -0.0060357529621367948 0.031494234297841442 0.011604823853442012 0 0.0033338375131869618
leaf_weight=19.477557152509689 6.7113033682107952 11.878144294023512 18.228578507900242 19.440886348485947 34.76857353746891 7.7499566078186026 19.475302740931511 8.140282675623892 8.0153872817754728
leaf_count=81 28 55 75 83 151 32 80 34 33
internal_value=-0.00202368 -0.0166542 9.05981e-05 -0.00424896 0.00144469 0.00667001 0.000191779 -0.0157594 0.0200085
internal_weight=153.886 18.5894 135.297 80.5783 54.2095 54.7182 38.9529 26.3689 15.7653
internal_count=652 83 569 343 234 226 161 109 65
is_linear=0
shrinkage=0.03


Tree=64
num_leaves=7
num_cat=0
split_feature=19 18 33 38 35 39
split_gain=5.36973 3.24073 3.60434 5.25297 4.84043 3.07599
threshold=0.23696718794780899 0.93152804219663354 0.74823553273242249 0.0078995955767183126 0.071127636958166943 1.0000000180025095e-35
decision_type=2 2 2 2 2 2
left_child=1 2 4 -4 -1 -2
right_child=5 -3 3 -5 -6 -7
leaf_value=-0.0025883663633105747 0 -0.012936721392219856 0.027808612619565291 -0.00046349170460431176 0.019240199229245643 -0.024509835613241639
leaf_weight=94.558251932263374 6.8667120188474664 13.03751081228256 8.8026930838823336 10.725539714097975 8.0646098256111127 11.645515918731689
leaf_count=396 29 57 37 45 34 54
internal_value=-0.00195898 9.9794e-05 0.00179802 0.0129834 -0.000394589 -0.0162686
internal_weight=153.701 135.189 122.151 19.5282 102.623 18.5122
internal_count=652 569 512 82 430 83
is_linear=0
shrinkage=0.03


Tree=65
num_leaves=8
num_cat=0
split_feature=25 28 10 20 14 23 23
split_gain=5.94344 7.33007 5.41854 5.3941 4.0048 3.68895 0.233971
threshold=0.53482625282934249 2.5000000000000004 0.040754108140103169 0.033381605385932836 1.8198674132388819 0.88590636491013897 1.0184291317319989
decision_type=2 2 2 2 2 2 2
left_child=1 3 5 6 -2 -3 -1
right_child=4 2 -4 -5 -6 -7 -8
leaf_value=0.0092837187244698589 0.024391451452016755 -0.010776112432200812 -0.024124354662499174 -0.0066370232831258038 -0.001520211999255515 0.00075940239822452915 0.027692289658249374
leaf_weight=7.4453405439853686 11.363190129399301 36.088492795825005 11.345390126109121 7.1852525621652594 6.895563378930091 65.603466048836708 7.6712762862443924
leaf_count=31 47 151 55 34 30 271 32
internal_value=-0.000379743 -0.00270507 -0.00592031 0.0121203 0.0146813 -0.00331856 0.0216461
internal_weight=153.598 135.339 113.037 22.3019 18.2588 101.692 15.1166
internal_count=651 574 477 97 77 422 63
is_linear=0
shrinkage=0.03


Tree=66
num_leaves=9
num_cat=0
split_feature=11 15 5 21 11 27 6 21
split_gain=5.79918 6.29776 9.00852 5.81913 5.61954 4.11099 2.34387 0.76405
threshold=-0.049180174979482065 -5.61378990171103 -0.014866344422416354 0.026290471984313713 -0.083755338284937017 1.5000000000000002 0.0072888088508252886 0.022221100288761935
decision_type=2 2 2 2 2 2 2 2
left_child=4 7 5 -4 -1 -3 -6 -2
right_child=1 2 3 -5 6 -7 -8 -9
leaf_value=-0.00228991561012858 -0.0058421673222437539 -0.00095578877520768033 -0.0014592783266501011 -0.022238133003181275 0.033837185674940019 0.019582941003158289 0.0062616458025344379 -0.023702740806721054
leaf_weight=12.736068397760393 7.8226351886987713 11.603600993752478 59.571708276867867 14.006068944931028 7.2647374272346479 21.436521664261818 7.8880976438522339 11.086018919944761
leaf_count=52 32 48 254 67 31 88 33 46
internal_value=-0.000358635 -0.00323385 -0.00013664 -0.00609697 0.0114311 0.0122989 0.0227606 -0.0182967
internal_weight=153.415 125.527 106.618 73.5778 27.8889 33.0401 15.1528 18.9087
internal_count=651 535 457 321 116 136 64 78
is_linear=0
shrinkage=0.03


end of trees

feature_importances:
ma_20_60_cross=46
macd_signal=33
div_ma_60=28
macro_nikkei_ret_20=26
macro_usdjpy_vol_20=24
atr_pct=23
bb_bandwidth=21
macro_usdjpy_ret_20=21
macro_topix_vol_20=21
vol_ratio=20
return_10d=19
macro_usdjpy_ret_60=17
return_1d=16
return_3d=16
macd_hist=16
div_ma_10=15
macd=15
gap=15
volatility=14
return_20d=13
month=12
return_5d=10
rsi=10
div_ma_20=9
return_2d=8
ma_5_20_cross=8
macd_hist_change=8
price_position_20d=8
div_ma_5=6
upper_shadow_pct=6
lower_shadow_pct=5
macro_topix_ret_20=5
candle_body_pct=4
macro_topix_above_200dma=4
rsi_change=2
bb_pct_b=2
day_of_week=2
vol_change=1
streak=1

parameters:
[boosting: gbdt]
[objective: binary]
[metric: binary_logloss]
[tree_learner: serial]
[device_type: cpu]
[data_sample_strategy: bagging]
[data: ]
[valid: ]
[num_iterations: 500]
[learning_rate: 0.03]
[num_leaves: 15]
[num_threads: 0]
[seed: 42]
[deterministic: 0]
[force_col_wise: 0]
[force_row_wise: 0]
[histogram_pool_size: -1]
[max_depth: 4]
[min_data_in_leaf: 30]
[min_sum_hessian_in_leaf: 0.001]
[bagging_fraction: 0.7]
[pos_bagging_fraction: 1]
[neg_bagging_fraction: 1]
[bagging_freq: 5]
[bagging_seed: 400]
[bagging_by_query: 0]
[feature_fraction: 0.6]
[feature_fraction_bynode: 1]
[feature_fraction_seed: 30056]
[extra_trees: 0]
[extra_seed: 12879]
[early_stopping_round: 0]
[early_stopping_min_delta: 0]
[first_metric_only: 0]
[max_delta_step: 0]
[lambda_l1: 0.5]
[lambda_l2: 2]
[linear_lambda: 0]
[min_gain_to_split: 0]
[drop_rate: 0.1]
[max_drop: 50]
[skip_drop: 0.5]
[xgboost_dart_mode: 0]
[uniform_drop: 0]
[drop_seed: 17869]
[top_rate: 0.2]
[other_rate: 0.1]
[min_data_per_group: 100]
[max_cat_threshold: 32]
[cat_l2: 10]
[cat_smooth: 10]
[max_cat_to_onehot: 4]
[top_k: 20]
[monotone_constraints: ]
[monotone_constraints_method: basic]
[monotone_penalty: 0]
[feature_contri: ]
[forcedsplits_filename: ]
[refit_decay_rate: 0.9]
[cegb_tradeoff: 1]
[cegb_penalty_split: 0]
[cegb_penalty_feature_lazy: ]
[cegb_penalty_feature_coupled: ]
[path_smooth: 0]
[interaction_constraints: ]
[verbosity: -1]
[saved_feature_importance_type: 0]
[use_quantized_grad: 0]
[num_grad_quant_bins: 4]
[quant_train_renew_leaf: 0]
[stochastic_rounding: 1]
[linear_tree: 0]
[max_bin: 255]
[max_bin_by_feature: ]
[min_data_in_bin: 5]
[bin_construct_sample_cnt: 200000]
[data_random_seed: 175]
[is_enable_sparse: 1]
[enable_bundle: 1]
[use_missing: 1]
[zero_as_missing: 0]
[feature_pre_filter: 1]
[pre_partition: 0]
[two_round: 0]
[header: 0]
[label_column: ]
[weight_column: ]
[group_column: ]
[ignore_column: ]
[categorical_feature: ]
[forcedbins_filename: ]
[precise_float_parser: 0]
[parser_config_file: ]
[objective_seed: 16083]
[num_class: 1]
[is_unbalance: 0]
[scale_pos_weight: 1]
[sigmoid: 1]
[boost_from_average: 1]
[reg_sqrt: 0]
[alpha: 0.9]
[fair_c: 1]
[poisson_max_delta_step: 0.7]
[tweedie_variance_power: 1.5]
[lambdarank_truncation_level: 30]
[lambdarank_norm: 1]
[label_gain: ]
[lambdarank_position_bias_regularization: 0]
[eval_at: ]
[multi_error_top_k: 1]
[auc_mu_weights: ]
[num_machines: 1]
[local_listen_port: 12400]
[time_out: 120]
[machine_list_filename: ]
[machines: ]
[gpu_platform_id: -1]
[gpu_device_id: -1]
[gpu_use_dp: 0]
[num_gpu: 1]

end of parameters

pandas_categorical:[]
