tree
version=v4
num_class=1
num_tree_per_iteration=1
label_index=0
max_feature_idx=44
objective=binary sigmoid:1
feature_names=return_1d return_2d return_3d return_5d return_10d return_20d div_ma_5 div_ma_10 div_ma_20 div_ma_60 ma_5_20_cross ma_20_60_cross rsi rsi_change macd macd_signal macd_hist macd_hist_change bb_pct_b bb_bandwidth atr_pct volatility vol_change vol_ratio candle_body_pct upper_shadow_pct lower_shadow_pct day_of_week month is_month_end is_month_start streak gap price_position_20d macro_usdjpy_ret_20 macro_usdjpy_ret_60 macro_usdjpy_vol_20 macro_topix_ret_20 macro_topix_vol_20 macro_topix_above_200dma macro_nikkei_ret_20 macro_nikkei_above_200dma macro_nikkei_vi macro_jgb10y macro_bias_score
feature_infos=[-0.087591240875912413:0.16526610644257711] [-0.13998929336188437:0.19732337379396192] [-0.15179514255543824:0.21506380329909747] [-0.15491846396633346:0.23436041083099912] [-0.18439517260735339:0.22315592903828207] [-0.18056206088992977:0.26206037970743856] [-0.1080946035976016:0.071056241426611794] [-0.12227493844213561:0.097501671630903897] [-0.16265978656033775:0.1409523207684287] [-0.21830637505069994:0.22649825375748983] [-0.098880457953817058:0.0985234568661566] [-0.10508450537761482:0.12100503489854586] [7.4879227053140198:92.100538599640942] [-23.130999202398307:23.778711166609909] [-850.09264835708382:1082.0943347062639] [-727.49336015041865:959.38590026946144] [-347.38550676731131:370.20326218213899] [-129.44440360422749:113.68028882144685] [-0.27481088238826878:1.3543980947925283] [0.03074133860163062:0.28902723377067446] [0.016724137931034482:0.055097680097680089] [0.008949052277275639:0.052922244735539706] [-0.91126723913609164:4.7554850154047239] [0.5208094017849253:1.8359211912761686] [-0.97142857142857142:0.97101449275362317] [0:0.9642857142857143] [0:0.91428571428571426] [0:4] [1:12] none [0:1] [-9:8] [-0.079728921666334496:0.17429193899782125] [0:1] [-0.10288784967882303:0.08505611680078462] [-0.13986255140503889:0.1344631365590534] [0.0024251968629527628:0.011841457708833433] [-0.22586490939044479:0.19897850606512013] [0.0040695656522785678:0.036437277456277402] [0:1] [-0.22859537662338159:0.23022297972565586] [0:1] none none none
tree_sizes=1496 991 892 970 888 1099 1180 887 1418 782 1173 1299 1265 1164 1494 893 1207 1189 885 873 989 1195 1199 879 1089 1306 1209 1410 1162 1399 1103 1096 1100 1111 1095 981 868 1101 1211 1199 1108 1000 794 975 1085 1100 995 998 1105 890

Tree=0
num_leaves=13
num_cat=0
split_feature=18 4 36 37 37 18 7 36 9 4 15 35
split_gain=10.8575 11.3204 10.6383 9.15532 6.57483 6.53574 6.36689 6.00299 5.40409 3.52447 1.65852 1.42699
threshold=0.58130052144448408 -0.015289991303331472 0.0061072881565038825 0.026896490183179526 -0.0022473854048175031 0.24825975546703902 0.0125502362207776 0.0045834287078394802 0.031202893034966182 -0.046125732179244587 356.15589623006866 0.039505712788034282
decision_type=2 2 2 2 2 2 2 2 2 2 2 2
left_child=1 2 9 11 8 -4 10 -8 -2 -1 -6 -3
right_child=4 3 5 -5 6 -7 7 -9 -10 -11 -12 -13
leaf_value=-0.12420731574939925 -0.10067154232376384 -0.081482570937506021 -0.12420731574939925 -0.12707454857864883 -0.15612851029505226 -0.1520749816813787 -0.10997086956483905 -0.13531631954038864 -0.13234669006943525 -0.10131555944060032 -0.13346436703916159 -0.1083025859017006
leaf_weight=9.2144157737493533 7.4711479246616346 8.965377509593969 14.195181056857111 8.2182627171277982 14.195181056857111 12.949989736080168 8.716339245438574 33.869203925132751 7.4711479246616364 11.704798415303229 8.9653775095939618 9.7124923020601255
leaf_count=37 30 36 57 33 57 52 35 136 30 47 36 39
internal_value=-0.125467 -0.11745 -0.126014 -0.102562 -0.133079 -0.138226 -0.137188 -0.129386 -0.116486 -0.11098 -0.149385 -0.0918163
internal_weight=155.649 74.9605 48.0644 26.8961 80.6884 27.1452 65.7461 42.5855 14.9423 20.9192 23.1606 18.6779
internal_count=625 301 193 108 324 109 264 171 60 84 93 75
is_linear=0
shrinkage=1


Tree=1
num_leaves=8
num_cat=0
split_feature=20 38 17 38 9 28 26
split_gain=14.5245 10.5188 12.5452 11.5586 8.29781 8.06162 6.16519
threshold=0.020586815169576191 0.0096552481954754448 19.997911284121148 0.006443758591191711 0.067593019875038005 2.5000000000000004 0.22046360917248256
decision_type=2 2 2 2 2 2 2
left_child=-1 3 4 -2 -3 -5 -4
right_child=1 2 6 5 -6 -7 -8
leaf_value=0.026073257711216179 0.012481823156212535 0.020305494672248837 -0.028211020411572949 0.0016716170663072299 -0.011161786222443315 -0.022018488973848907 0.0018081461084221123
leaf_weight=13.699186384677885 12.942299157381056 34.373629361391068 9.9601731747388857 15.185692101716993 7.4678275883197776 51.528114154934883 10.461295127868651
leaf_count=55 52 138 40 61 30 207 42
internal_value=-0.00121188 -0.00427562 0.00471547 -0.0114305 0.0140941 -0.016516 -0.0133745
internal_weight=155.618 141.919 62.2629 79.6561 41.8415 66.7138 20.4215
internal_count=625 570 250 320 168 268 82
is_linear=0
shrinkage=0.03


Tree=2
num_leaves=7
num_cat=0
split_feature=20 37 15 38 6 24
split_gain=13.7507 10.4186 8.28462 10.4077 8.22819 6.78267
threshold=0.020586815169576191 -0.0025631238642828675 -164.95255965608513 0.006443758591191711 0.0067956581676979185 -0.3957188644688644
decision_type=2 2 2 2 2 2
left_child=-1 4 -3 -4 5 -2
right_child=1 2 3 -5 -6 -7
leaf_value=0.025359451185427491 -0.0030315995266438499 0.016547476667383668 0.011263413331215614 -0.016024351932131607 -0.0089564306446189117 0.027102730032644854
leaf_weight=13.718231081962584 8.2199452072381991 7.9676312804222098 12.703681007027624 80.587213903665543 13.942706763744352 18.44396311044693
leaf_count=55 33 32 51 324 56 74
internal_value=-0.00116721 -0.00415347 -0.00932469 -0.0119927 0.00822207 0.0177263
internal_weight=155.583 141.865 101.259 93.2909 40.6066 26.6639
internal_count=625 570 407 375 163 107
is_linear=0
shrinkage=0.03


Tree=3
num_leaves=8
num_cat=0
split_feature=20 38 17 24 38 9 14
split_gain=13.0044 9.76419 11.6835 11.2441 10.5303 7.70102 6.63463
threshold=0.020586815169576191 0.0096552481954754448 19.997911284121148 0.50268817204301086 0.006443758591191711 0.067593019875038005 -67.855563547363985
decision_type=2 2 2 2 2 2 2
left_child=-1 4 5 -4 -2 -3 -6
right_child=1 2 3 -5 6 -7 -8
leaf_value=0.024673007449934094 0.011857021516995993 0.019659873967031633 0.0044636821957389737 -0.03686058113703284 0 -0.01064081075880516 -0.02113198203614268
leaf_weight=13.732313126325606 12.960545629262922 34.409561708569527 12.442284867167475 7.9480612874031058 16.919115379452705 7.4553237855434409 49.663960546255112
leaf_count=55 52 138 50 32 68 30 200
internal_value=-0.00110722 -0.00401662 0.00463728 -0.0128281 -0.0109212 0.0136828 -0.0157902
internal_weight=155.531 141.799 62.2552 20.3903 79.5436 41.8649 66.5831
internal_count=625 570 250 82 320 168 268
is_linear=0
shrinkage=0.03


Tree=4
num_leaves=7
num_cat=0
split_feature=20 38 9 38 10 28
split_gain=12.3225 9.16305 11.0495 9.97648 9.67488 7.52806
threshold=0.020586815169576191 0.0096552481954754448 0.065104628058546124 0.006443758591191711 0.017647877902109536 2.5000000000000004
decision_type=2 2 2 2 2 2
left_child=-1 3 4 -2 -3 -5
right_child=1 2 -4 5 -6 -7
leaf_value=0.024012207284348226 0.011542675846821508 0.0021483551448133404 -0.018830402471763288 0.0021614661508493004 0.031373876032391571 -0.020693753942249628
leaf_weight=13.741792753338812 12.968443334102629 37.130146533250809 12.156330272555349 15.163264095783232 12.969700112938879 51.329322814941406
leaf_count=55 52 149 49 61 52 207
internal_value=-0.00107051 -0.00390737 0.00446889 -0.0106027 0.010916 -0.0153518
internal_weight=155.459 141.717 62.2562 79.461 50.0998 66.4926
internal_count=625 570 250 320 201 268
is_linear=0
shrinkage=0.03


Tree=5
num_leaves=9
num_cat=0
split_feature=14 36 35 4 8 10 33 2
split_gain=13.091 8.37218 8.13475 7.65274 12.7358 7.42522 5.12456 1.07842
threshold=373.8409906735979 0.006173882116836441 0.065211300325784718 -0.049045215999798379 0.0072253091255167013 -0.010380034775611112 0.13713502413192818 0.00052473118279572361
decision_type=2 2 2 2 2 2 2 2
left_child=2 7 3 6 -5 -4 -1 -2
right_child=1 -3 5 4 -6 -7 -8 -9
leaf_value=0.0065679824335343698 -0.011277882750532044 0.0015282427888641068 0.0079471506841734142 0.026292545339898846 0.0026895765544307018 -0.027453076620021426 -0.019212567663058493 -0.035419358877225408
leaf_weight=11.942292198538782 7.6860211342573228 13.394419610500334 7.4597540199756649 34.854994550347328 51.458697363734245 9.9258189648389799 11.189318254590033 10.173357427120207
leaf_count=48 31 54 30 140 207 40 45 41
internal_value=0.00113602 -0.0155436 0.00554015 0.00866761 0.0127703 -0.0122371 -0.00584236 -0.0279672
internal_weight=158.085 31.2538 126.831 109.445 86.3137 17.3856 23.1316 17.8594
internal_count=636 126 510 440 347 70 93 72
is_linear=0
shrinkage=0.03


Tree=6
num_leaves=10
num_cat=0
split_feature=14 32 35 13 40 34 34 38 21
split_gain=12.4277 8.59846 10.282 6.68639 6.00254 7.05862 5.88168 5.63837 7.169
threshold=373.8409906735979 0.0032521817398269985 0.065211300325784718 2.8810157973468091 0.02762581564899769 -0.022434613072712491 0.0093507739926536066 0.010791728037763145 0.016134590690615496
decision_type=2 2 2 2 2 2 2 2 2
left_child=1 2 3 -1 5 -3 -6 8 -2
right_child=7 4 -4 -5 6 -7 -8 -9 -10
leaf_value=0.020224045538018511 0 0.0080100340265013767 -0.012652814893427667 -0.0028261317440791823 -0.0077242286046591575 -0.020531227699563996 0.024605120446101528 0.0010386630038359405 -0.035917442130779395
leaf_weight=55.533608019351959 7.45403720438481 9.2141738235950488 11.411267489194868 12.174790740013121 7.4495051056146613 22.613998532295227 8.4557384699583036 10.907445594668387 12.854543104767798
leaf_count=223 30 37 46 49 30 91 34 44 52
internal_value=0.00108361 0.00537478 0.0113883 0.015902 -0.00434829 -0.0118401 0.00945391 -0.0151766 -0.0238703
internal_weight=158.069 126.853 79.1197 67.7084 47.7334 31.8282 15.9052 31.216 20.3086
internal_count=636 510 318 272 192 128 64 126 82
is_linear=0
shrinkage=0.03


Tree=7
num_leaves=7
num_cat=0
split_feature=14 17 36 40 37 40
split_gain=11.7602 8.10995 7.8998 7.11004 10.8772 0.0945926
threshold=373.8409906735979 33.732939329670195 0.006173882116836441 0.052599684167536027 0.014631331235237301 0.070873645727667869
decision_type=2 2 2 2 2 2
left_child=1 3 5 4 -1 -2
right_child=2 -3 -4 -5 -6 -7
leaf_value=0.012621234684008317 -0.013191895352634703 -0.014518509519158783 0.0017336797582213357 0.026905516330518204 -0.0072500926505546532 -0.032979332351112445
leaf_weight=60.277575597167015 8.1638622134923988 14.151309594511984 13.38136702775955 13.928740486502646 38.510650992393494 9.6196143180131894
leaf_count=242 33 57 54 56 155 39
internal_value=0.00103585 0.00520991 -0.0147934 0.00802745 0.00473581 -0.0269057
internal_weight=158.033 126.868 31.1648 112.717 98.7882 17.7835
internal_count=636 510 126 453 397 72
is_linear=0
shrinkage=0.03


Tree=8
num_leaves=12
num_cat=0
split_feature=18 4 38 38 24 32 6 1 4 28 17
split_gain=11.9717 12.8966 8.98208 8.84771 9.46278 6.4809 6.26477 5.70118 4.06951 3.53831 1.44625
threshold=0.57053379266057858 -0.046962643358458726 0.0066785424997837335 0.010791728037763145 0.41763565891472876 0.0032521817398269985 -0.0052225472644494434 0.023363581871448717 -0.015289991303331472 6.5000000000000009 18.976378497624399
decision_type=2 2 2 2 2 2 2 2 2 2 2
left_child=1 5 -2 4 -4 9 8 -5 -3 -1 -8
right_child=2 6 3 7 -6 -7 10 -9 -10 -11 -12
leaf_value=-0.0070786630557273331 0.019758598861013384 -0.002097957891997064 -0.027121560628223053 0.014397735544851683 -0.00022395612397215617 -0.024259101479184468 0.042154633101348551 -0.012080742393296082 0.019717109490694433 0.015445698471662566 0.014526048850182724
leaf_weight=10.209572598338132 8.2291877865791303 13.43961337208748 30.431182980537415 16.175562605261806 20.321987792849541 8.6892938017845136 9.7283734381198901 9.9159544259309751 12.448329299688337 10.199797526001928 8.2163595706224424
leaf_count=41 33 54 123 65 82 35 39 40 50 41 33
internal_value=0.000989061 0.00984889 -0.00648571 -0.00991633 -0.0170527 -0.00505828 0.0198613 0.0036571 0.00851578 0.00388261 0.0329816
internal_weight=158.005 72.9313 85.0739 76.8447 50.7532 29.0987 43.8327 26.0915 25.8879 20.4094 17.9447
internal_count=636 293 343 310 205 117 176 105 104 82 72
is_linear=0
shrinkage=0.03


Tree=9
num_leaves=6
num_cat=0
split_feature=7 40 25 15 25
split_gain=12.9943 7.74128 7.20304 8.57545 4.72113
threshold=0.05294161380890449 0.088449802860481444 0.37431318681318687 351.68617255438943 0.25362623502207277
decision_type=2 2 2 2 2
left_child=1 2 4 -4 -1
right_child=-2 -3 3 -5 -6
leaf_value=0.0054658888595687585 -0.030161953327934934 -0.022456432091400379 -0.010321337313761499 0.020583325231498972 0.021311451200062358
leaf_weight=71.060259208083153 9.1461532860994321 7.6392960846424094 38.777156099677086 7.9304788261651984 23.384306490421295
leaf_count=286 37 31 156 32 94
internal_value=0.000976563 0.00336477 0.00516124 -0.00413636 0.00990533
internal_weight=157.938 148.791 141.152 46.7076 94.4446
internal_count=636 599 568 188 380
is_linear=0
shrinkage=0.03


Tree=10
num_leaves=10
num_cat=0
split_feature=15 11 35 32 22 16 14 14 19
split_gain=14.2088 11.6177 13.13 9.62315 7.56057 6.79845 5.6864 2.18637 1.01173
threshold=108.34391455307561 0.023007931872882529 0.036352193553541697 0.015873883525926228 -0.19999170356012716 -79.745403081648163 348.8789251062463 -116.49174233691336 0.14086426452015705
decision_type=2 2 2 2 2 2 2 2 2
left_child=3 -2 6 4 7 -6 -3 -1 -4
right_child=1 2 8 -5 5 -7 -8 -9 -10
leaf_value=0.0074677859619077915 -0.027428063805324109 0.020612042055102319 -0.028262447555617493 -0.015484604293221689 0 0.024941643472996291 -0.0025055362995660239 -0.010162142751446073 -0.0081622940432311431
leaf_weight=9.2220230549573916 20.798034459352493 17.207855120301247 9.1713569164276141 10.680062606930731 12.209542810916899 37.336625382304192 16.328324735164642 11.677100241184233 9.1310059726238233
leaf_count=37 84 69 37 43 49 150 66 47 37
internal_value=0 -0.00953821 -0.00132978 0.00849423 0.0126638 0.0188688 0.00942675 -0.00175487 -0.0207653
internal_weight=153.762 72.6366 51.8385 81.1254 70.4453 49.5462 33.5362 20.8991 18.3024
internal_count=619 293 209 326 283 199 135 84 74
is_linear=0
shrinkage=0.03


Tree=11
num_leaves=11
num_cat=0
split_feature=15 11 35 38 32 34 14 14 19 38
split_gain=13.4452 10.9997 12.192 9.75757 12.3673 9.61849 6.4299 2.40915 0.951523 0.913197
threshold=108.34391455307561 0.022365249031730875 0.036352193553541697 0.0078995955767183126 0.015873883525926228 -0.0030931603340905718 348.8789251062463 93.013894420210832 0.14086426452015705 0.0095897514454159269
decision_type=2 2 2 2 2 2 2 2 2 2
left_child=3 9 6 5 7 -1 -3 -5 -4 -2
right_child=1 2 8 4 -6 -7 -8 -9 -10 -11
leaf_value=-0.025796068204705699 -0.033143655411074016 0.020596431728690592 -0.027622505396962246 0.02394749074755417 -0.014879806259944258 0.008798789338277874 -0.003761936332179219 0.0025243762805922218 -0.0079672863890224797 -0.010588851387721776
leaf_weight=10.937279582023622 12.571063056588175 17.467767149209976 9.1489876210689562 40.127548545598984 8.4337079226970655 13.935074746608732 16.81595478951931 7.7094349861145011 9.1229376494884473 7.4329141080379477
leaf_count=44 51 70 37 161 34 56 68 31 37 30
internal_value=0 -0.00931097 -0.00149206 0.00823384 0.0150695 -0.00664332 0.0086866 0.0210358 -0.0203031 -0.0271688
internal_weight=153.703 72.5596 52.5556 81.143 56.2707 24.8724 34.2837 47.837 18.2719 20.004
internal_count=619 293 212 326 226 100 138 192 74 81
is_linear=0
shrinkage=0.03


Tree=12
num_leaves=11
num_cat=0
split_feature=37 18 4 28 23 26 33 14 19 21
split_gain=11.8574 6.90732 7.4153 12.5123 5.37455 4.99059 5.31463 4.01854 4.01925 3.68311
threshold=-0.011633926972009654 0.57053379266057858 0.048603106961129801 2.5000000000000004 1.1291785267595371 0.31431940152870391 0.46336603797548742 -111.24329558442695 0.13724311997168137 0.017090308535762651
decision_type=2 2 2 2 2 2 2 2 2 2
left_child=7 5 3 -3 -4 6 -2 8 -1 -7
right_child=1 2 4 -5 -6 9 -8 -9 -10 -11
leaf_value=-0.0094228184740771832 -0.0096717594533612568 0.0082278800932928334 0.0073188028406632882 -0.029305376832641117 -0.017400492901663567 0.029149906225299175 0.015751300589956004 0.026871725983254303 0.014813756045298635 0
leaf_weight=7.9822444021701839 25.372608512639999 9.1971103399991971 23.978606909513474 27.412622079253197 9.3798414468765241 7.7250587642192832 7.9469284415245047 13.46488782763481 12.962525591254233 8.1928674429655057
leaf_count=32 102 37 97 111 38 31 32 54 52 33
internal_value=0 -0.00460365 -0.0105978 -0.01955 0 0.00370263 -0.00263492 0.014918 0.00490701 0.016619
internal_weight=153.615 119.206 69.9682 36.6097 33.3584 49.2375 33.3195 34.4097 20.9448 15.9179
internal_count=619 481 283 148 135 198 134 138 84 64
is_linear=0
shrinkage=0.03


Tree=13
num_leaves=10
num_cat=0
split_feature=9 19 13 38 2 38 19 17 28
split_gain=10.6266 8.71759 9.18962 8.59409 8.81033 5.55155 8.11409 4.82244 3.17854
threshold=-0.0095480102524771165 0.09020235176219403 3.0934263096092214 0.0097005934021293667 0.0067466608074976406 0.0077932116399021785 0.12348810943801401 -31.613778630311874 6.5000000000000009
decision_type=2 2 2 2 2 2 2 2 2
left_child=5 2 -2 7 -5 -1 -7 -3 -8
right_child=1 3 -4 4 -6 6 8 -9 -10
leaf_value=-0.0029895095485274483 0.023687309303775567 0 -0.0091175835634324017 0.014265878398395781 -0.013081875572120589 -0.00032819720134121276 0.011313175824666172 -0.024331774947955902 0.040410487657637308
leaf_weight=14.191488727927206 14.662550285458567 8.6330316513776761 11.919274583458899 18.41670934855938 20.053774669766426 12.20531092584133 10.214602187275888 33.013384789228439 10.229038834571837
leaf_count=57 59 35 48 74 81 49 41 134 41
internal_value=0 -0.00529194 0.00884411 -0.010266 0 0.011554 0.0181161 -0.0193777 0.0288441
internal_weight=153.539 106.699 26.5818 80.1169 38.4705 46.8404 32.649 41.6464 20.4436
internal_count=619 431 107 324 155 188 131 169 82
is_linear=0
shrinkage=0.03


Tree=14
num_leaves=13
num_cat=0
split_feature=18 16 33 34 38 34 34 22 13 35 5 11
split_gain=9.34698 9.96739 7.13917 6.66944 11.5482 7.74804 6.0888 5.19752 4.16005 3.68754 3.34156 2.05989
threshold=0.57474696704637607 -73.512546021713945 0.13713502413192818 0.010103050245114488 0.0092170732158542105 -0.02050692411844118 0.029096168512459778 -0.27529016716704569 -1.6950393270956423 0.032225279626958543 -0.044018597637597405 0.039359482551830756
decision_type=2 2 2 2 2 2 2 2 2 2 2 2
left_child=1 2 -1 4 11 -6 9 -3 -9 -5 -4 -2
right_child=3 7 10 6 5 -7 -8 8 -10 -11 -12 -13
leaf_value=0.011907960316979379 -0.034802342956134817 -0.0018508293576809433 -0.027482652983111644 0.024230243116767875 0.018521454231887353 -0.014464445503397727 -0.013524743633377464 0.007853950477578496 0.03336482415577962 0 -0.0030987376144620293 -0.0088314046156194766
leaf_weight=14.45937032997608 15.721303999423982 7.7235954403877249 7.6951213777065268 9.1985805183649081 10.207857936620714 11.376238837838171 11.322175145149229 13.453045442700388 16.195219621062279 13.317481786012648 15.39419347047806 7.3822294473648062
leaf_count=58 64 31 31 37 41 46 46 54 65 54 62 30
internal_value=0 0.00742456 -0.00314423 -0.00719797 -0.0146072 0.000747428 0.00243737 0.0180446 0.0234909 0.0115243 -0.0133662 -0.0284662
internal_weight=153.446 74.9205 37.5487 78.5259 44.6876 21.5841 33.8382 37.3719 29.6483 22.5161 23.0893 23.1035
internal_count=619 301 151 318 181 87 137 150 119 91 93 94
is_linear=0
shrinkage=0.03


Tree=15
num_leaves=7
num_cat=0
split_feature=5 17 17 38 32 11
split_gain=15.959 7.08265 11.586 15.7721 6.92646 3.02097
threshold=0.10613420461380864 33.732939329670195 -0.97309388210657477 0.0094380725626372532 0.0029546606902408627 0.037094649648628193
decision_type=2 2 2 2 2 2
left_child=1 2 3 -1 -4 -2
right_child=5 -3 4 -5 -6 -7
leaf_value=-0.016406837410469621 -0.033038304356469782 -0.015553187651720604 0.024804286617445326 0.012355258334099579 0.0033847600443501287 -0.0060950128999962541
leaf_weight=34.105931207537651 11.735542684793474 13.344791844487188 30.846975728869438 30.405500084161758 27.543873608112335 8.8263262957334501
leaf_count=138 48 54 124 122 111 36
internal_value=-0.000224844 0.00350155 0.00590653 -0.00266128 0.0153955 -0.0237031
internal_weight=156.809 136.247 122.902 64.5114 58.3908 20.5619
internal_count=633 549 495 260 235 84
is_linear=0
shrinkage=0.03


Tree=16
num_leaves=10
num_cat=0
split_feature=14 32 26 33 36 35 32 12 14
split_gain=10.9006 8.43558 8.15774 8.09136 7.45714 9.31585 5.71537 2.60943 0.634789
threshold=348.8789251062463 0.0030564281534793962 0.38348416289592763 0.72704918032786903 0.0080213846019836638 0.061465475981697611 0.0084098951693065711 76.622685762762629 464.03076055741445
decision_type=2 2 2 2 2 2 2 2 2
left_child=1 4 6 -2 5 -1 -3 8 -5
right_child=3 2 -4 7 -6 -7 -8 -9 -10
leaf_value=0.019914885514712571 0.0050959664016481908 -0.027994284987091517 0.012843820872172946 -0.038742100257121583 -0.011126190307312822 -0.0061128094959595125 -0.0026649578821068129 -0.0049695799984368098 -0.013695013792144725
leaf_weight=50.499593496322632 10.613600194454191 12.592154026031492 12.945770964026449 8.5610513091087359 10.438185289502142 14.116484254598616 22.278287380933762 7.3371126800775519 7.3187893629074088
leaf_count=203 43 51 52 35 42 57 90 30 30
internal_value=-0.000230126 0.00386304 -0.00564549 -0.0149007 0.0101048 0.0139907 -0.0132409 -0.0243162 -0.0308604
internal_weight=156.701 122.87 47.8162 33.8306 75.0543 64.6161 34.8704 23.217 15.8798
internal_count=633 495 193 138 302 260 141 95 65
is_linear=0
shrinkage=0.03


Tree=17
num_leaves=10
num_cat=0
split_feature=15 28 4 16 36 36 33 3 11
split_gain=9.66686 10.8336 14.9544 10.5299 10.8356 7.09407 5.91889 5.33433 3.03255
threshold=108.34391455307561 8.5000000000000018 -0.046962643358458726 143.8667270264452 0.0080213846019836638 0.0062326978562852907 0.54723547954559137 0.050241925791029048 -0.0027658085580972709
decision_type=2 2 2 2 2 2 2 2 2
left_child=1 2 -1 4 5 -2 8 -4 -3
right_child=3 6 7 -5 -6 -7 -8 -9 -10
leaf_value=-0.015457542106461769 -0.0065208850804287831 -0.0056755698417704451 0.027651052117293039 -0.035444716832608518 -0.032321232596438654 0.014260289404285259 -0.021943790669888892 0 0.016020304714653724
leaf_weight=9.6905451416969282 34.996782675385475 11.437800258398058 33.859733417630196 8.9809845387935621 7.8435164690017691 22.34548208117485 11.814899429678915 7.9285347759723654 7.7088362872600582
leaf_count=39 142 46 136 37 32 90 48 32 31
internal_value=-0.000257711 0.00663872 0.014949 -0.00809343 -0.00315889 0.00153216 -0.00679216 0.0227267 0.00303932
internal_weight=156.607 82.4403 51.4788 74.1668 65.1858 57.3423 30.9615 41.7883 19.1466
internal_count=633 332 207 301 264 232 125 168 77
is_linear=0
shrinkage=0.03


Tree=18
num_leaves=7
num_cat=0
split_feature=5 17 17 5 9 2
split_gain=14.3055 6.55609 10.7373 6.61218 5.6949 2.36729
threshold=0.10613420461380864 33.732939329670195 -0.97309388210657477 0.065131003144789271 -0.013734316095716874 0.0054927109849191033
decision_type=2 2 2 2 2 2
left_child=1 2 3 -1 -4 -2
right_child=5 -3 4 -5 -6 -7
leaf_value=0.0014059045365372063 -0.0047841571766266437 -0.015107600109815855 0.028523116683804223 -0.023131201612443565 0.0074035025991252539 -0.029960879309284958
leaf_weight=54.593434259295464 7.5278313755989101 13.310048803687094 17.432410061359406 9.811381444334982 40.92874413728714 12.87393021583557
leaf_count=220 31 54 70 40 165 53
internal_value=-0.000278066 0.00323844 0.005558 -0.00269026 0.0146965 -0.0225973
internal_weight=156.478 136.076 122.766 64.4048 58.3612 20.4018
internal_count=633 549 495 260 235 84
is_linear=0
shrinkage=0.03


Tree=19
num_leaves=7
num_cat=0
split_feature=5 11 36 36 37 11
split_gain=13.6208 6.52939 9.05996 14.6411 8.37195 2.9755
threshold=0.10613420461380864 -0.043515234771991589 0.0076378465208449446 0.0070911961006431814 -0.011633926972009654 0.037094649648628193
decision_type=2 2 2 2 2 2
left_child=1 -1 3 -3 -4 -2
right_child=5 2 4 -5 -6 -7
leaf_value=0.022650088923658648 -0.031330280113351337 0 0.0075870801516817223 0.031596498198706489 -0.026735772883397704 -0.0049599960384314953
leaf_weight=11.946892917156218 11.572139844298365 86.648728996515274 7.9630970060825375 13.676912799477575 15.802229583263395 8.7612997442483884
leaf_count=48 48 350 32 55 64 36
internal_value=-0.000283683 0.00314166 0.000815042 0.004917 -0.0149568 -0.0221012
internal_weight=156.371 136.038 124.091 100.326 23.7653 20.3334
internal_count=633 549 501 405 96 84
is_linear=0
shrinkage=0.03


Tree=20
num_leaves=8
num_cat=0
split_feature=2 35 35 8 20 10 2
split_gain=11.4763 6.73552 9.05575 11.4286 9.03896 8.45938 1.14026
threshold=0.043921410148897617 0.062108917370563572 -0.0014081143326124532 0.0096183884461398528 0.030415807827143343 -0.011102012896400002 0.06054953748782866
decision_type=2 2 2 2 2 2 2
left_child=1 2 4 -4 -1 -3 -2
right_child=6 5 3 -5 -6 -7 -8
leaf_value=-0.010940757521022051 -0.030007916930078409 0.0077060129058950334 0.023796121643622211 6.1297220510618289e-05 0.019374288122078864 -0.026840171400868522 -0.0079638259431370675
leaf_weight=37.883759811520576 8.536439314484598 9.4619218558073062 36.309772565960884 37.351365730166435 9.2141047716140729 12.046563193202017 8.0443142950534803
leaf_count=153 35 38 146 152 37 49 33
internal_value=0 0.00291997 0.00578322 0.0122789 -0.00415687 -0.011642 -0.0221287
internal_weight=158.848 142.267 120.759 73.6611 47.0979 21.5085 16.5808
internal_count=643 575 488 298 190 87 68
is_linear=0
shrinkage=0.03


Tree=21
num_leaves=10
num_cat=0
split_feature=2 25 38 4 37 14 5 2 38
split_gain=10.9619 8.07755 8.19145 7.74766 6.98352 3.49023 2.93301 1.07978 0.464782
threshold=0.043921410148897617 0.36451048951048953 0.0077932116399021785 -0.045408337230145694 0.026214240685226046 154.1817695793716 -0.03834184955603958 0.06054953748782866 0.0068827974673407897
decision_type=2 2 2 2 2 2 2 2 2
left_child=1 4 8 -4 6 -6 -1 -2 -3
right_child=7 2 3 -5 5 -7 -8 -9 -10
leaf_value=0.0040405711599326502 -0.029384668543482567 -0.0093594974592479084 -0.01937346890897737 0.011235696408979933 -0.013082421902353142 0.0048695509590244634 0.019435700977160037 -0.0077796327914056284 -0.02878105871017898
leaf_weight=21.410955280065536 8.4989572912454623 7.6801693290472057 8.4373703598976153 23.239379808306694 13.887057378888128 22.114129021763802 36.42825049161911 8.0352223962545377 9.013740807771681
leaf_count=86 35 31 34 94 56 90 147 33 37
internal_value=0 0.00284196 -0.00677408 0.00197091 0.00799305 -0.00198458 0.0143129 -0.0216669 -0.0226057
internal_weight=158.745 142.211 48.3707 31.6768 93.8404 36.0012 57.8392 16.5342 16.6939
internal_count=643 575 196 128 379 146 233 68 68
is_linear=0
shrinkage=0.03


Tree=22
num_leaves=10
num_cat=0
split_feature=2 25 38 4 37 34 11 2 38
split_gain=10.451 7.68628 7.81024 7.36071 6.60279 3.87812 3.27893 1.02328 0.432212
threshold=0.043921410148897617 0.36451048951048953 0.0077932116399021785 -0.045408337230145694 0.026214240685226046 0.03082235894928809 0.040923579960660213 0.06054953748782866 0.0068827974673407897
decision_type=2 2 2 2 2 2 2 2 2
left_child=1 4 8 -4 5 -1 -6 -2 -3
right_child=7 2 3 -5 6 -7 -8 -9 -10
leaf_value=0.017408395772993437 -0.028782643022977141 -0.0091411854382031747 -0.018918329962420738 0.010920997854087473 -0.0096185798854785919 -0.0013853593551615784 0.0075659160255980989 -0.0075997614307421052 -0.028166290932438977
leaf_weight=47.661277651786804 8.4588601291179675 7.6755164712667492 8.429381415247919 23.249248415231705 20.74388100206852 10.191555231809614 15.256937742233275 8.0261135697364789 8.9783501774072629
leaf_count=192 35 31 34 94 84 41 62 33 37
internal_value=0 0.00274097 -0.00664033 0.0018837 0.00776636 0.0139113 -0.00192626 -0.0212188 -0.0221222
internal_weight=158.671 142.186 48.3325 31.6786 93.8537 57.8528 36.0008 16.485 16.6539
internal_count=643 575 196 128 379 233 146 68 68
is_linear=0
shrinkage=0.03


Tree=23
num_leaves=7
num_cat=0
split_feature=7 4 18 23 4 32
split_gain=10.3372 4.63309 8.24937 7.57532 6.56092 3.99137
threshold=0.05294161380890449 -0.049045215999798379 0.57474696704637607 1.0583052730772911 0.059302838059801084 -0.0069721184704593089
decision_type=2 2 2 2 2 2
left_child=1 5 3 -3 -4 -1
right_child=-2 2 4 -5 -6 -7
leaf_value=0.0032732903968694499 -0.028595533222813614 0.0056545577337283595 -0.0084787409277735371 0.031859084810557388 0.010033050596284263 -0.018480574416302471
leaf_weight=11.205325424671175 8.646240830421446 39.45245386660099 47.658900380134583 12.944949448108671 24.026705622673035 14.634515970945357
leaf_count=45 36 159 194 52 98 59
internal_value=0 0.00198403 0.00448601 0.0133375 -0.0019667 -0.00895086
internal_weight=158.569 149.923 124.083 52.3974 71.6856 25.8398
internal_count=643 607 503 211 292 104
is_linear=0
shrinkage=0.03


Tree=24
num_leaves=9
num_cat=0
split_feature=7 25 6 9 15 32 0 6
split_gain=9.88284 7.17514 7.97151 6.91923 5.62908 5.24107 6.2214 4.25231
threshold=0.05294161380890449 0.36451048951048953 0.0054236047034996711 -0.037082387278556055 -44.621066362061917 0.0029546606902408627 -0.0040524970728480483 0.010880551691340787
decision_type=2 2 2 2 2 2 2 2
left_child=1 2 3 -1 -4 6 -3 -7
right_child=-2 5 4 -5 -6 7 -8 -9
leaf_value=-0.0031401815753869626 -0.028024994844954555 -0.011466457024475386 0.01216031187742277 0.019498990226143129 -0.010317951000430696 -0.030315601182673534 0.013461554385767778 -0.00016848049379257691
leaf_weight=14.433079615235327 8.5990259200334531 16.760065421462059 12.444479793310164 43.53912316262722 29.26550866663456 10.075827449560167 15.288414955139158 8.0750021636486036
leaf_count=58 36 68 50 176 119 41 62 33
internal_value=0 0.00193738 0.0066326 0.0136957 -0.00301868 -0.00699561 7.68743e-05 -0.0189959
internal_weight=158.481 149.882 99.6822 57.9722 41.71 50.1993 32.0485 18.1508
internal_count=643 607 403 234 169 204 130 74
is_linear=0
shrinkage=0.03


Tree=25
num_leaves=11
num_cat=0
split_feature=37 36 40 14 18 4 17 4 1 4
split_gain=8.1931 9.381 8.42443 11.8485 11.5201 5.20913 5.51562 2.65134 2.74297 2.32176
threshold=-0.0032447397178275157 0.0078773298394208182 0.015853154148824048 373.8409906735979 0.60893726996659903 -0.03033448945725092 8.3997561379625427 0.040360845295055799 -0.005388624250822093 0.022054974593990421
decision_type=2 2 2 2 2 2 2 2 2 2
left_child=5 2 4 -4 -2 6 -1 8 -7 -3
right_child=1 9 3 -5 -6 7 -8 -9 -10 -11
leaf_value=0.010973038763394111 0.0012408689183729736 -0.034233001091023521 0.013998913503130405 -0.011576426822819763 -0.034509720723562266 0.0053402888349623305 -0.019268787666770478 0.00064140705150679512 0.033104054050172971 -0.0073131641894568205
leaf_weight=10.4579014480114 17.602950185537342 8.8007596284151095 43.536708325147629 23.029459148645401 11.757424980401991 7.4486958086490693 7.4556038528680793 7.3856824338436118 10.680528342723845 8.1683067828416807
leaf_count=42 71 36 176 95 48 30 30 30 43 34
internal_value=-0.000543655 -0.00488994 -0.00089585 0.00485243 -0.013885 0.0101425 -0.00153147 0.0183993 0.024106 -0.0242028
internal_weight=156.324 112.896 95.9265 66.5662 29.3604 43.4284 17.9135 25.5149 18.1292 16.9691
internal_count=635 460 390 271 119 175 72 103 73 70
is_linear=0
shrinkage=0.03


Tree=26
num_leaves=10
num_cat=0
split_feature=39 3 16 9 38 25 3 38 9
split_gain=6.76549 13.1572 7.61857 5.56959 5.36777 5.12684 5.02744 3.7876 3.69936
threshold=1.0000000180025095e-35 -0.032729766569565381 7.9954673911192637 -0.013734316095716874 0.0067220429961434769 0.35637874132240815 1.0000000180025095e-35 0.010479745936924247 0.0060212702618257195
decision_type=2 2 2 2 2 2 2 2 2
left_child=1 -1 5 -4 -5 6 -2 -3 -7
right_child=2 7 3 4 -6 8 -8 -9 -10
leaf_value=-0.014642520394645017 0.01814214076504771 0.039998432985731976 0.0094688745147760451 0.0065944252321936282 -0.017699899693648349 -0.018501863661827427 -0.0025849866972609053 0.0093788126946119463 0.0033049436590612321
leaf_weight=8.9672117233276385 24.577175557613373 8.1471514403820056 8.4382364153861982 7.6628082394599906 49.504288300871849 10.637154325842859 14.826533496379851 10.862770810723303 12.56733901798725
leaf_count=36 99 33 34 31 204 43 60 44 51
internal_value=-0.000538198 0.0122066 -0.00357918 -0.0106362 -0.0140771 0.0036838 0.0102327 0.0257739 -0.00677128
internal_weight=156.191 27.9771 128.214 65.6053 57.1671 62.6082 39.4037 19.0099 23.2045
internal_count=635 113 522 269 235 253 159 77 94
is_linear=0
shrinkage=0.03


Tree=27
num_leaves=12
num_cat=0
split_feature=37 11 35 14 21 14 34 1 1 1 32
split_gain=7.66454 7.60983 14.6157 7.17625 7.11843 10.798 4.76079 3.52352 4.71455 3.1704 0.913814
threshold=-0.0032447397178275157 0.037094649648628193 0.038397542527518043 373.8409906735979 0.017578129601234598 -106.85122758899614 0.0073974279578366007 0.02387446782433256 -0.023997144556214375 0.0065430796222596408 -0.002743643409791718
decision_type=2 2 2 2 2 2 2 2 2 2 2
left_child=7 4 3 -3 6 -6 -2 8 -1 -4 -10
right_child=1 2 9 -5 5 -7 -8 -9 10 -11 -12
leaf_value=-0.0015834344090871523 -0.011434456207921244 0.032935234091724344 -0.00035294632209333793 0.0014247401427823245 0.0076801680771954066 -0.02657461627732562 0.010877452634226594 -0.0056781452667730003 0.0087031153694549571 -0.028805469964247814 0.026303016858069139
leaf_weight=10.449004814028738 14.197002947330477 12.680358767509462 7.5881238430738431 13.918522536754606 9.1722274124622327 31.593784675002098 16.314951285719872 8.150300517678259 10.412193000316618 7.2161696404218674 14.372869655489923
leaf_count=42 58 51 31 57 37 130 66 33 42 30 58
internal_value=-0.000501483 -0.00471395 0.00512222 0.0182238 -0.010616 -0.0185179 0 0.00983452 0.013938 -0.0168921 0.0206712
internal_weight=156.066 112.681 41.4032 26.5989 71.278 40.766 30.512 43.3844 35.2341 14.8043 24.7851
internal_count=635 460 169 108 291 167 124 175 142 61 100
is_linear=0
shrinkage=0.03


Tree=28
num_leaves=10
num_cat=0
split_feature=14 11 38 14 20 14 6 33 6
split_gain=7.31882 7.65998 7.3034 7.002 6.96312 5.28988 4.76578 1.49255 1.36422
threshold=373.8409906735979 0.037094649648628193 0.007939838977807331 96.099689843371394 0.025048680198606153 525.60273313222035 0.0065630375496290817 0.81956616726466081 -0.0095361687232212965
decision_type=2 2 2 2 2 2 2 2 2
left_child=1 2 4 -4 -1 7 8 -2 -3
right_child=5 6 3 -5 -6 -7 -8 -9 -10
leaf_value=-0.0014100810847864488 -0.008570815213673864 0.0099263532437579485 0.010245047852127853 -0.0098816627577924324 -0.030522123857561475 0 0 -0.033900803216934811 0.035378250636250157
leaf_weight=21.397016450762752 7.5327077209949511 7.7005712985992432 49.486883848905563 19.83496980369091 10.556033715605734 13.082575693726538 10.845331609249113 7.7399779856204987 7.7075741142034548
leaf_count=87 31 31 200 81 43 54 44 33 31
internal_value=-0.000479389 0.00253645 -0.00115719 0.00416029 -0.0127007 -0.0138108 0.0163892 -0.0247151 0.0261216
internal_weight=155.884 127.528 101.275 69.3219 31.9531 28.3553 26.2535 15.2727 15.4081
internal_count=635 517 411 281 130 118 106 64 62
is_linear=0
shrinkage=0.03


Tree=29
num_leaves=12
num_cat=0
split_feature=37 11 11 15 24 38 34 16 9 20 20
split_gain=7.04169 6.96585 9.34501 8.12188 4.80633 4.18445 3.36374 2.68989 4.50054 4.18494 2.78762
threshold=-0.0032447397178275157 0.037094649648628193 0.081090952247424367 90.492816787092323 0.5355578024941019 0.007939838977807331 -0.005328951084131949 -12.85728886774827 0.024757988910053239 0.026297088621744093 0.030534838166643052
decision_type=2 2 2 2 2 2 2 2 2 2 2
left_child=7 3 4 5 -3 -2 -5 9 -9 -1 -11
right_child=1 2 -4 6 -6 -7 -8 8 -10 10 -12
leaf_value=0.018092116193577049 -0.011193956228274883 0.020167298202056937 -0.01677702019590438 -0.0029873370979213564 -0.0043172814886471289 0.0070217496529055125 -0.027824922949543487 0.026965903416236288 0 -0.017808493625195015 0.0040259125798955712
leaf_weight=7.4292850643396404 18.684638321399689 22.643377691507343 10.642077073454855 8.7345568686723727 8.0485236644744855 22.686305701732635 20.961687907576561 12.358577072620394 7.4019348323345175 7.7149882763624218 8.435557082295416
leaf_count=30 76 92 44 36 33 92 87 50 30 31 34
internal_value=-0.000476463 -0.004525 0.00488097 -0.0101848 0.0134164 -0.000996102 -0.0216422 0.00942885 0.0171369 0.00154806 -0.00639081
internal_weight=155.742 112.401 41.334 71.0672 30.6919 41.3709 29.6962 43.3403 19.7605 23.5798 16.1505
internal_count=635 460 169 291 125 168 123 175 80 95 65
is_linear=0
shrinkage=0.03


Tree=30
num_leaves=9
num_cat=0
split_feature=37 36 36 19 20 23 20 3
split_gain=7.26589 9.61662 7.90371 7.7645 5.30687 4.50587 3.93513 1.87133
threshold=-0.016987708506371876 0.0078773298394208182 0.006454116380920815 0.11728964045819164 0.027611353163600794 1.0377684921365773 0.028295164958231919 -1.0000000180025095e-35
decision_type=2 2 2 2 2 2 2 2
left_child=5 2 3 -2 -4 6 -1 -3
right_child=1 7 4 -5 -6 -7 -8 -9
leaf_value=-0.012422855967958602 0.0031608617013967003 -0.0069022120779519266 0.01899402974029106 -0.015755454134630604 -0.0030563636273185364 0.025745875130914149 0.014892534670598801 -0.032115186529456052
leaf_weight=7.4404517114162463 36.932914763689041 7.5893899053335216 22.744730323553085 35.977841809391975 13.761403769254683 11.159268230199812 7.41644287109375 9.480663597583769
leaf_count=30 150 31 92 148 56 45 30 40
internal_value=-0.00081943 -0.00391759 -0.000345253 -0.0061446 0.0105653 0.0129123 0.000472052 -0.0235915
internal_weight=152.503 126.487 109.417 72.9108 36.5061 26.0162 14.8569 17.0701
internal_count=622 517 446 298 148 105 60 71
is_linear=0
shrinkage=0.03


Tree=31
num_leaves=9
num_cat=0
split_feature=14 13 4 23 40 3 3 36
split_gain=5.90222 7.00866 5.01213 6.54405 6.68402 4.72435 2.95038 2.41966
threshold=373.8409906735979 1.5532284236197145 0.060163525160925942 1.044369680411825 -0.039438904463816864 -0.037852018935690283 0.037325040332840793 0.0062326978562852907
decision_type=2 2 2 2 2 2 2 2
left_child=2 7 3 4 -1 -5 -4 -2
right_child=1 -3 6 5 -6 -7 -8 -9
leaf_value=0.015928554910233868 -0.031225749573135272 0.0074672243313324482 0.028369570601364715 -0.0057495220582655972 -0.009820772525860744 0.015600301626866779 0.0022857070151180458 -0.0063435058565089698
leaf_weight=8.408343628048895 10.679915308952337 8.6448007076978666 7.4149541854858425 11.179142862558363 59.857665374875069 27.311372190713882 9.7349098622798902 9.1232653409242612
leaf_count=34 45 36 30 45 243 111 40 38
internal_value=-0.000798812 -0.0127106 0.00197538 -0.000415678 -0.00607264 0.00905132 0.0161317 -0.022084
internal_weight=152.354 28.448 123.906 106.757 68.266 38.4905 17.1499 19.8032
internal_count=622 119 503 433 277 156 70 83
is_linear=0
shrinkage=0.03


Tree=32
num_leaves=9
num_cat=0
split_feature=7 22 21 26 23 20 8 15
split_gain=5.93395 5.97351 7.01943 6.18214 5.09642 8.15141 5.30032 3.71342
threshold=0.05294161380890449 0.13807456001926136 0.017443483581279295 0.1566964285714286 0.98108616343577315 0.025048680198606153 -0.035309817885158662 27.643932787740734
decision_type=2 2 2 2 2 2 2 2
left_child=1 4 3 -3 5 -1 -6 -4
right_child=-2 2 7 -5 6 -7 -8 -9
leaf_value=-0.015050748998365261 -0.024059992573934621 0.022678923143774118 -0.0024513580947886767 -0.0080368110380275703 -0.0043607128798360791 0.008484349138852593 0.017448834107293972 -0.025563281764464117
leaf_weight=21.187740579247475 7.2843490093946448 8.3843028545379656 12.616561323404314 11.070781037211416 11.38268059492111 28.475908935070038 35.609629288315773 16.247252926230431
leaf_count=87 31 34 51 45 46 116 145 67
internal_value=-0.000763342 0.000616628 -0.00768762 0.00538135 0.00499171 -0.00145992 0.0118975 -0.0167604
internal_weight=152.259 144.975 48.3189 19.4551 96.656 49.6636 46.9923 28.8638
internal_count=622 591 197 79 394 203 191 118
is_linear=0
shrinkage=0.03


Tree=33
num_leaves=9
num_cat=0
split_feature=37 36 35 21 19 3 22 11
split_gain=6.60343 9.10094 11.1431 5.30946 3.83838 1.78362 1.58284 0.0696775
threshold=-0.016987708506371876 0.0078773298394208182 0.059088980433051448 0.017578129601234598 0.12530999766765707 -1.0000000180025095e-35 0.10052206217552263 -0.0018958107115131238
decision_type=2 2 2 2 2 2 2 2
left_child=4 2 3 -2 -1 -3 -6 -4
right_child=1 5 7 -5 6 -7 -8 -9
leaf_value=-0.003662204710171028 0.011310663149176359 -0.0066124881863970303 -0.0091478100975669191 -0.0026932700069735535 0.02598839527673984 -0.031284025022497101 0.0041619906016591686 -0.025691093273321888
leaf_weight=7.4403394460678127 43.604736566543579 7.5767207145690945 7.3380123078823116 48.318956837058067 11.096477419137956 9.3888678550720197 7.4379878938198081 9.9632578790187818
leaf_count=30 177 31 30 198 45 40 30 41
internal_value=-0.000759088 -0.00372172 -0.000247015 0.0038893 0.0123348 -0.022916 0.0192183 -0.0211267
internal_weight=152.165 126.191 109.225 91.9237 25.9748 16.9656 18.5345 17.3013
internal_count=622 517 446 375 105 71 75 71
is_linear=0
shrinkage=0.03


Tree=34
num_leaves=9
num_cat=0
split_feature=37 36 35 35 23 21 17 15
split_gain=6.29792 8.69865 10.6208 5.10626 4.26289 3.65206 2.09342 1.9038
threshold=-0.016987708506371876 0.0078773298394208182 0.059088980433051448 0.0052147498903151188 1.0377684921365773 0.019067233577098774 -9.7804523213118557 108.34391455307561
decision_type=2 2 2 2 2 2 2 2
left_child=4 2 3 -2 5 -1 -3 -4
right_child=1 6 7 -5 -6 -7 -8 -9
leaf_value=-0.012364271720921343 -0.0059395762625119863 -0.0070890858945003334 -0.0075855599010137397 0.0086532763951574637 0.02450530254191555 0.014016965817692514 -0.032590704178209105 -0.031719083756954675
leaf_weight=7.4479977786541003 29.569476246833801 8.6466596126556414 10.066648527979853 62.358455002307892 11.127008497714995 7.3777196258306503 8.2439778447151166 7.1919692456722251
leaf_count=30 120 36 41 255 45 30 35 30
internal_value=-0.000757733 -0.00365424 -0.000258043 0.00377313 0.0120314 0 -0.0224626 -0.0206709
internal_weight=152.03 126.077 109.187 91.9279 25.9527 14.8257 16.8906 17.2586
internal_count=622 517 446 375 105 60 71 71
is_linear=0
shrinkage=0.03


Tree=35
num_leaves=8
num_cat=0
split_feature=17 14 4 18 11 35 0
split_gain=8.00119 8.71393 6.13015 5.27827 4.48421 5.19884 1.54527
threshold=33.732939329670195 373.8409906735979 0.059302838059801084 0.56493759784995379 0.035731062711777846 0.024711202601915953 0.025528103819363105
decision_type=2 2 2 2 2 2 2
left_child=1 2 3 -1 -3 -6 -2
right_child=6 4 -4 -5 5 -7 -8
leaf_value=0.0082672517667705895 -0.025501114166049887 -0.028525985615350101 0.024580261488942472 -0.0058410804298113751 0.011805038060616609 -0.016917999589714544 -0.0039581662979061337
leaf_weight=65.572136715054512 9.7038867026567477 8.1123388111591357 12.553683191537855 33.974453270435333 9.0413525253534335 9.3430077135562879 7.7397538423538199
leaf_count=265 40 35 51 139 37 39 32
internal_value=0 0.00242692 0.00618964 0.00328427 -0.0122829 -0.00228398 -0.0181043
internal_weight=156.041 138.597 112.1 99.5466 26.4967 18.3844 17.4436
internal_count=638 566 455 404 111 76 72
is_linear=0
shrinkage=0.03


Tree=36
num_leaves=7
num_cat=0
split_feature=17 37 36 36 19 25
split_gain=7.6242 7.19902 7.0083 12.2656 11.117 1.4676
threshold=33.732939329670195 0.062051497156040532 0.007958393091731757 0.0072104431564550984 0.16110510951199719 0.22295321637426904
decision_type=2 2 2 2 2 2
left_child=1 2 3 -1 -4 -2
right_child=5 -3 4 -5 -6 -7
leaf_value=0.002606030556410181 -0.026377787991855861 -0.016514047601228574 -0.028619546820715384 0.028283599322220108 0.012648118603516055 -0.005351013783578328
leaf_weight=85.475349321961403 8.1838249713182467 13.904266268014906 11.154033139348032 19.5400410592556 8.436948359012602 9.2233879119157773
leaf_count=348 34 58 46 79 35 38
internal_value=0 0.00234925 0.00480022 0.00796328 -0.0106273 -0.017709
internal_weight=155.918 138.511 124.606 105.015 19.591 17.4072
internal_count=638 566 508 427 81 72
is_linear=0
shrinkage=0.03


Tree=37
num_leaves=9
num_cat=0
split_feature=26 20 38 36 2 2 17 21
split_gain=7.99724 7.37489 4.95414 7.45734 5.96422 2.72602 5.73449 3.58125
threshold=0.36996779388083739 0.020931125168893429 0.0096552481954754448 0.0078773298394208182 0.014770411232946758 0.031172263681592097 -2.5781651105345484 0.017045197758808046
decision_type=2 2 2 2 2 2 2 2
left_child=1 -1 3 -3 -4 6 7 -2
right_child=5 2 4 -5 -6 -7 -8 -9
leaf_value=0.020305827271879153 0.015898979140300296 -0.005995839424026532 0.0080025482103638617 -0.032726482572115606 -0.012991259979134048 -0.0029042297169490968 0.026660411423783968 -0.0084324821372522441
leaf_weight=7.9298865944147101 7.397140413522723 46.16200153529644 32.050927042961121 11.108355358242987 16.900838360190392 7.9719173759222022 15.763257279992102 10.511969670653341
leaf_count=32 30 189 130 47 70 33 64 43
internal_value=-4.22039e-06 -0.00421154 -0.0065219 -0.012363 0.000234506 0.0108494 0.0145063 0.0014515
internal_weight=155.796 114.152 106.222 57.2704 48.9518 41.6443 33.6724 17.9091
internal_count=638 468 436 236 200 170 137 73
is_linear=0
shrinkage=0.03


Tree=38
num_leaves=10
num_cat=0
split_feature=26 22 36 38 36 22 2 8 11
split_gain=7.57766 8.6439 4.93164 10.1692 7.30609 3.84675 2.83968 2.08756 1.42964
threshold=0.36996779388083739 0.15010658428544812 0.0078773298394208182 0.0097999844150179396 0.0071938752021442577 1.0000000180025095e-35 -0.0074424534853068094 0.032725551660575884 0.017940792025012312
decision_type=2 2 2 2 2 2 2 2 2
left_child=2 7 4 -4 5 -1 -6 8 -2
right_child=1 -3 3 -5 6 -7 -8 -9 -10
leaf_value=-0.010990266562883559 0.011656469476266555 -0.0091128879835788365 -0.033155475995776888 0.0078139717703061187 0.027888117734431967 0.0016372968136440554 0.0005662549930495962 0.0026885880151738049 0.033290449353937601
leaf_weight=41.590492993593216 12.285400167107587 11.962593480944632 11.533548444509508 7.2431865334510794 7.408354178071022 38.875191524624825 7.3631850332021695 7.9603140801191321 9.4051340967416746
leaf_count=170 50 49 49 30 30 159 30 33 38
internal_value=-1.32793e-06 0.0105642 -0.00410251 -0.0173986 -0.00102289 -0.0048159 0.0168549 0.0190509 0.0236888
internal_weight=155.627 41.6134 114.014 18.7767 95.2372 80.4657 14.7715 29.6508 21.6905
internal_count=638 170 468 79 389 329 60 121 88
is_linear=0
shrinkage=0.03


Tree=39
num_leaves=10
num_cat=0
split_feature=26 22 36 38 21 36 26 12 38
split_gain=7.19014 8.2408 4.70696 9.74748 8.58631 7.46974 5.87743 1.77511 0.613023
threshold=0.36996779388083739 0.15010658428544812 0.0078773298394208182 0.0097999844150179396 0.018354699563614203 0.0071938752021442577 0.16345083487940634 62.920299233697584 0.0085545268139082704
decision_type=2 2 2 2 2 2 2 2 2
left_child=2 7 4 -4 6 -6 -1 8 -2
right_child=1 -3 3 -5 5 -7 -8 -9 -10
leaf_value=0.016919637186602152 0.010113101095668446 -0.0088836170051552095 -0.032500519165143869 0.0076277122163904663 -0.016068496779447633 0.011376007351029626 -0.0029939179822411812 0.0030636752703405139 0.028567728118233899
leaf_weight=25.791075229644775 9.1328329443931633 11.954921111464499 11.454496428370478 7.2462445795536032 37.467368245124817 9.3133716732263547 22.622881755232811 7.9509791731834403 12.547251701354979
leaf_count=105 37 49 49 30 154 38 92 33 51
internal_value=0 0.0103172 -0.00397543 -0.0169922 -0.000966969 -0.0100548 0.00756727 0.0186101 0.0229378
internal_weight=155.481 41.586 113.895 18.7007 95.1947 46.7807 48.414 29.6311 21.6801
internal_count=638 170 468 79 389 192 197 121 88
is_linear=0
shrinkage=0.03


Tree=40
num_leaves=9
num_cat=0
split_feature=37 26 21 26 32 3 36 35
split_gain=8.78639 8.7154 6.17305 7.23779 6.84971 5.11107 5.31068 1.72355
threshold=0.060640139536459865 0.31431940152870391 0.016859445460702355 0.10084745762711866 0.0043585519214861543 -0.015519830118749021 0.0063486438202436128 0.02134330473173918
decision_type=2 2 2 2 2 2 2 2
left_child=1 2 3 -1 -4 -3 -7 -2
right_child=7 5 4 -5 -6 6 -8 -9
leaf_value=0.022477339839385511 -0.0065716251433834633 -0.0018166241141955109 -0.00071574794563288252 -0.0049098922495320035 -0.021731236421569149 0.0049551084819670901 0.030354324281005023 -0.030283031518149432
leaf_weight=13.535830020904543 9.0577365905046481 13.619607180356978 40.425704449415207 16.938739061355591 20.812460884451866 17.076688498258591 15.935063913464544 7.0528862327337256
leaf_count=55 38 55 166 69 87 70 65 30
internal_value=-0.000231054 0.00221361 -0.00304006 0.00742787 -0.00855669 0.0125548 0.0186776 -0.0199781
internal_weight=154.455 138.344 91.7127 30.4746 61.2382 46.6314 33.0118 16.1106
internal_count=635 567 377 124 253 190 135 68
is_linear=0
shrinkage=0.03


Tree=41
num_leaves=8
num_cat=0
split_feature=37 17 17 34 36 3 14
split_gain=8.41115 7.10295 5.40185 5.0216 4.26319 2.25532 1.11573
threshold=0.060640139536459865 33.732939329670195 1.0000000180025095e-35 -0.0049442715758031266 0.0079925233203345814 0.050241925791029048 414.4264454492623
decision_type=2 2 2 2 2 2 2
left_child=1 2 3 -1 -4 -3 -2
right_child=6 5 4 -5 -6 -7 -8
leaf_value=0.010148601013938737 -0.0057659854120740723 -0.0021286646980443716 0.014621351447738403 -0.0069849351859474027 -0.0062273452095148053 -0.026287828022230533 -0.02681018553029774
leaf_weight=21.035718381404877 7.4552270323038128 8.7885778993368131 49.622487455606461 43.460587486624718 8.3639932274818403 6.9919767081737509 8.5977228879928571
leaf_count=86 31 36 202 178 35 30 37
internal_value=-0.000233495 0.00215414 0.00475159 -0.00103403 0.0112567 -0.0154295 -0.0195894
internal_weight=154.316 138.263 122.483 64.4963 57.9865 15.7806 16.0529
internal_count=635 567 501 264 237 66 68
is_linear=0
shrinkage=0.03


Tree=42
num_leaves=6
num_cat=0
split_feature=40 38 38 19 34
split_gain=7.77594 7.65349 7.13635 10.1075 8.30734
threshold=0.089950248029960114 0.0066337153159080455 0.0095075136192997577 0.12460553346206567 -0.007846026615542066
decision_type=2 2 2 2 2
left_child=1 -1 3 -3 -4
right_child=-2 2 4 -5 -6
leaf_value=0.020746506956297234 -0.024456538931858635 0.0022752905631586574 0.020485410248796958 -0.02112534847480978 -0.0012026338126280695
leaf_weight=14.546747535467146 9.1743800938129407 35.028112486004829 21.054450452327728 27.465279743075371 46.91645647585392
leaf_count=59 40 143 86 115 192
internal_value=-0.000254587 0.00148645 -0.000828626 -0.00811269 0.00569453
internal_weight=154.185 145.011 130.464 62.4934 67.9709
internal_count=635 595 536 258 278
is_linear=0
shrinkage=0.03


Tree=43
num_leaves=8
num_cat=0
split_feature=3 26 38 38 3 36 12
split_gain=6.6927 7.00233 5.95655 8.1591 4.59421 3.24052 3.19529
threshold=0.057269607904524629 0.34280150416330918 0.0065535459818324105 0.0097005934021293667 -0.015519830118749021 0.0048661564967369562 70.784476212727455
decision_type=2 2 2 2 2 2 2
left_child=1 2 -1 -4 -3 -6 -2
right_child=6 4 3 -5 5 -7 -8
leaf_value=0.019766125765178198 -0.025019418305826369 -0.0019780884814440368 -0.012892745149725859 0.0052923330125043359 0.00060739006240773542 0.024182303181410045 0
leaf_weight=7.6119828671216956 11.283974930644037 12.616544559597967 48.65640626847744 36.586881056427956 8.691392049193384 20.800063878297806 7.7689303755760184
leaf_count=31 48 51 202 149 36 85 33
internal_value=-0.00024589 0.00208118 -0.00241309 -0.00497328 0.0119919 0.0181907 -0.0160742
internal_weight=154.016 134.963 92.8553 85.2433 42.108 29.4915 19.0529
internal_count=635 554 382 351 172 121 81
is_linear=0
shrinkage=0.03


Tree=44
num_leaves=9
num_cat=0
split_feature=37 26 27 32 4 34 28 35
split_gain=7.80494 7.69098 5.95708 5.58247 4.72375 2.88874 2.50441 1.6599
threshold=0.060640139536459865 0.31431940152870391 1.0000000180025095e-35 -0.00055907583631259461 -0.03033448945725092 0.023798587721067469 7.5000000000000009 0.02134330473173918
decision_type=2 2 2 2 2 2 2 2
left_child=1 2 6 -4 -3 -6 -1 -2
right_child=7 4 3 -5 5 -7 -8 -9
leaf_value=-0.0040050719661257244 -0.0059196628182747292 -0.0026454797999378825 0.0090709141672128749 -0.007039179387807919 0.021723961855169123 0 -0.028207049226211672 -0.029073512448917763
leaf_weight=10.199008747935297 8.9881567358970624 12.588658899068831 36.834719896316528 36.173513039946556 26.595188304781914 7.343834161758422 8.2163733243942243 6.92749199271202
leaf_count=42 38 51 151 150 109 30 34 30
internal_value=-0.000230472 0.00206269 -0.00287374 0.000913982 0.0117902 0.0174113 -0.0172435 -0.0189555
internal_weight=153.867 137.951 91.4236 73.0082 46.5277 33.939 18.4154 15.9156
internal_count=635 567 377 301 190 139 76 68
is_linear=0
shrinkage=0.03


Tree=45
num_leaves=9
num_cat=0
split_feature=37 11 35 39 3 8 15 32
split_gain=7.44174 6.6777 8.0857 7.88801 8.49427 5.23974 5.15652 1.65018
threshold=0.064527771365230482 0.035731062711777846 0.034654756365754109 1.0000000180025095e-35 -0.013867775594184671 0.001817036402249338 103.01997676851882 0.0047961906514537586
decision_type=2 2 2 2 2 2 2 2
left_child=1 3 7 4 -1 -4 -5 -3
right_child=-2 2 5 6 -6 -7 -8 -9
leaf_value=-0.0087733051218700387 -0.024423209243562553 0.028137186624893482 0.010844451155337597 -0.0027104597259647932 0.022828167639477578 -0.019867213170467708 -0.019402962726742246 0.0058687200264760904
leaf_weight=10.857103660702707 9.7145370692014676 14.260828673839571 7.6213310807943326 58.004529252648354 16.312851384282112 7.9762575775384903 23.612778127193451 7.612262934446334
leaf_count=44 42 58 31 237 67 34 99 31
internal_value=-0.00139504 0.000342168 0.0110229 -0.0033339 0.00995029 -0.00448143 -0.00806775 0.0221566
internal_weight=155.972 146.258 37.4707 108.787 27.17 15.5976 81.6173 21.8731
internal_count=643 601 154 447 111 65 336 89
is_linear=0
shrinkage=0.03


Tree=46
num_leaves=8
num_cat=0
split_feature=17 38 20 20 27 38 40
split_gain=7.1643 8.20577 12.3718 9.96997 7.36229 6.52558 3.13297
threshold=33.732939329670195 0.0096552481954754448 0.020586815169576191 0.022905839165694445 3.5000000000000004 0.0066785424997837335 0.013533418499303786
decision_type=2 2 2 2 2 2 2
left_child=1 2 -1 -3 -5 -4 -2
right_child=6 3 5 4 -6 -7 -8
leaf_value=0.02196129128571693 -0.030364922881144642 -0.019560658620149479 0.0087146198398498041 0.019741669121636451 -0.005388487434081486 -0.014325639743937628 -0.0020990468118023066
leaf_weight=10.541296169161795 8.2162946164607984 7.2607498914003363 11.298232197761534 41.151734486222267 11.769620776176451 57.779175758361816 7.777788743376731
leaf_count=43 34 30 46 168 48 241 33
internal_value=-0.00135784 0.000821438 -0.00533043 0.00911104 0.0138869 -0.010207 -0.0192142
internal_weight=155.795 139.801 79.6187 60.1821 52.9214 69.0774 15.9941
internal_count=643 576 330 246 216 287 67
is_linear=0
shrinkage=0.03


Tree=47
num_leaves=8
num_cat=0
split_feature=37 11 38 38 11 15 13
split_gain=7.12915 6.26993 7.31933 8.88702 6.60209 5.96596 2.42317
threshold=0.064527771365230482 0.035731062711777846 0.0077932116399021785 0.0066785424997837335 0.084131677176402034 90.492816787092323 3.4962746703048215
decision_type=2 2 2 2 2 2 2
left_child=1 2 3 -1 6 -4 -3
right_child=-2 4 5 -5 -6 -7 -8
leaf_value=0.0090784514350786515 -0.023935451937796337 0.022371584766857678 0.0071525209916946733 -0.024281433942873191 -0.0097488261937354413 -0.010355443639341797 0.00049455372661745599
leaf_weight=8.0983248054981249 9.6512036621570569 21.278996124863628 54.484128430485725 22.886422321200371 8.5543912053108198 23.082428380846977 7.5644865930080405
leaf_count=33 42 87 223 95 36 96 31
internal_value=-0.00132987 0.000366941 -0.00319613 -0.0150858 0.0107271 0.00162461 0.0175246
internal_weight=155.6 145.949 108.551 30.9847 37.3979 77.5666 28.8435
internal_count=643 601 447 128 154 319 118
is_linear=0
shrinkage=0.03


Tree=48
num_leaves=9
num_cat=0
split_feature=37 11 35 39 7 38 8 35
split_gain=6.81289 5.92519 7.44491 7.17064 8.58485 6.36268 4.94122 1.03225
threshold=0.064527771365230482 0.035731062711777846 0.034654756365754109 1.0000000180025095e-35 -0.021757626487816283 0.0096552481954754448 0.001817036402249338 -0.010530900344071279
decision_type=2 2 2 2 2 2 2 2
left_child=1 3 7 4 -1 -5 -4 -3
right_child=-2 2 6 5 -6 -7 -8 -9
leaf_value=-0.012654683166273146 -0.023455609640352041 0.0063014234019908031 0.010415776237069047 -0.013953717441355228 0.020523738617242424 0.0027758886371815677 -0.019438543218923188 0.026049105233763033
leaf_weight=8.403801769018175 9.5949541032314283 7.353350743651391 7.6048547625541669 51.108854085206985 18.699507638812065 30.232004836201668 7.929005891084671 14.497876584529877
leaf_count=34 42 30 31 212 77 124 34 59
internal_value=-0.00130002 0.000353867 0.0104286 -0.00310944 0.00955817 -0.00763843 -0.00444645 0.0211182
internal_weight=155.424 145.829 37.3851 108.444 27.1033 81.3409 15.5339 21.8512
internal_count=643 601 154 447 111 336 65 89
is_linear=0
shrinkage=0.03


Tree=49
num_leaves=7
num_cat=0
split_feature=17 20 38 20 39 4
split_gain=6.98519 7.71789 11.3967 9.23716 7.32357 0.79374
threshold=33.732939329670195 0.01995834528817185 0.0096552481954754448 0.023369908186220038 1.0000000180025095e-35 0.043084736775262374
decision_type=2 2 2 2 2 2
left_child=1 -1 4 -4 -3 -2
right_child=5 2 3 -5 -6 -7
leaf_value=0.026599367478111553 -0.0073642982166199035 0.015495762709743557 -0.018175473492949564 0.013382162617264276 -0.012355199660007615 -0.026723092889371438
leaf_weight=7.8262984305620185 8.7782536745071393 7.5565973669290534 7.7336864918470374 51.570729643106461 64.591379970312119 7.174729809165
leaf_count=32 36 31 32 211 270 31
internal_value=-0.00125842 0.000896725 -0.000896838 0.00856346 -0.00889657 -0.0189134
internal_weight=155.232 139.279 131.452 59.3044 72.148 15.953
internal_count=643 576 544 243 301 67
is_linear=0
shrinkage=0.03


end of trees

feature_importances:
macro_topix_vol_20=38
macro_usdjpy_vol_20=25
macd=21
macro_topix_ret_20=21
ma_20_60_cross=19
macro_usdjpy_ret_60=19
return_10d=18
macd_hist_change=18
atr_pct=16
gap=13
return_3d=12
return_5d=12
macd_signal=12
lower_shadow_pct=12
macro_usdjpy_ret_20=12
div_ma_60=10
bb_bandwidth=9
volatility=9
bb_pct_b=8
macro_nikkei_ret_20=8
vol_change=7
upper_shadow_pct=7
month=7
return_20d=6
div_ma_5=6
div_ma_10=6
div_ma_20=6
vol_ratio=6
price_position_20d=6
return_2d=5
rsi_change=5
macd_hist=5
candle_body_pct=4
macro_topix_above_200dma=4
ma_5_20_cross=3
rsi=3
return_1d=2
day_of_week=2

parameters:
[boosting: gbdt]
[objective: binary]
[metric: binary_logloss]
[tree_learner: serial]
[device_type: cpu]
[data_sample_strategy: bagging]
[data: ]
[valid: ]
[num_iterations: 50]
[learning_rate: 0.03]
[num_leaves: 15]
[num_threads: 0]
[seed: 42]
[deterministic: 0]
[force_col_wise: 0]
[force_row_wise: 0]
[histogram_pool_size: -1]
[max_depth: 4]
[min_data_in_leaf: 30]
[min_sum_hessian_in_leaf: 0.001]
[bagging_fraction: 0.7]
[pos_bagging_fraction: 1]
[neg_bagging_fraction: 1]
[bagging_freq: 5]
[bagging_seed: 400]
[bagging_by_query: 0]
[feature_fraction: 0.6]
[feature_fraction_bynode: 1]
[feature_fraction_seed: 30056]
[extra_trees: 0]
[extra_seed: 12879]
[early_stopping_round: 0]
[early_stopping_min_delta: 0]
[first_metric_only: 0]
[max_delta_step: 0]
[lambda_l1: 0.5]
[lambda_l2: 2]
[linear_lambda: 0]
[min_gain_to_split: 0]
[drop_rate: 0.1]
[max_drop: 50]
[skip_drop: 0.5]
[xgboost_dart_mode: 0]
[uniform_drop: 0]
[drop_seed: 17869]
[top_rate: 0.2]
[other_rate: 0.1]
[min_data_per_group: 100]
[max_cat_threshold: 32]
[cat_l2: 10]
[cat_smooth: 10]
[max_cat_to_onehot: 4]
[top_k: 20]
[monotone_constraints: ]
[monotone_constraints_method: basic]
[monotone_penalty: 0]
[feature_contri: ]
[forcedsplits_filename: ]
[refit_decay_rate: 0.9]
[cegb_tradeoff: 1]
[cegb_penalty_split: 0]
[cegb_penalty_feature_lazy: ]
[cegb_penalty_feature_coupled: ]
[path_smooth: 0]
[interaction_constraints: ]
[verbosity: -1]
[saved_feature_importance_type: 0]
[use_quantized_grad: 0]
[num_grad_quant_bins: 4]
[quant_train_renew_leaf: 0]
[stochastic_rounding: 1]
[linear_tree: 0]
[max_bin: 255]
[max_bin_by_feature: ]
[min_data_in_bin: 5]
[bin_construct_sample_cnt: 200000]
[data_random_seed: 175]
[is_enable_sparse: 1]
[enable_bundle: 1]
[use_missing: 1]
[zero_as_missing: 0]
[feature_pre_filter: 1]
[pre_partition: 0]
[two_round: 0]
[header: 0]
[label_column: ]
[weight_column: ]
[group_column: ]
[ignore_column: ]
[categorical_feature: ]
[forcedbins_filename: ]
[precise_float_parser: 0]
[parser_config_file: ]
[objective_seed: 16083]
[num_class: 1]
[is_unbalance: 0]
[scale_pos_weight: 1]
[sigmoid: 1]
[boost_from_average: 1]
[reg_sqrt: 0]
[alpha: 0.9]
[fair_c: 1]
[poisson_max_delta_step: 0.7]
[tweedie_variance_power: 1.5]
[lambdarank_truncation_level: 30]
[lambdarank_norm: 1]
[label_gain: ]
[lambdarank_position_bias_regularization: 0]
[eval_at: ]
[multi_error_top_k: 1]
[auc_mu_weights: ]
[num_machines: 1]
[local_listen_port: 12400]
[time_out: 120]
[machine_list_filename: ]
[machines: ]
[gpu_platform_id: -1]
[gpu_device_id: -1]
[gpu_use_dp: 0]
[num_gpu: 1]

end of parameters

pandas_categorical:[]
