tree
version=v4
num_class=1
num_tree_per_iteration=1
label_index=0
max_feature_idx=44
objective=binary sigmoid:1
feature_names=return_1d return_2d return_3d return_5d return_10d return_20d div_ma_5 div_ma_10 div_ma_20 div_ma_60 ma_5_20_cross ma_20_60_cross rsi rsi_change macd macd_signal macd_hist macd_hist_change bb_pct_b bb_bandwidth atr_pct volatility vol_change vol_ratio candle_body_pct upper_shadow_pct lower_shadow_pct day_of_week month is_month_end is_month_start streak gap price_position_20d macro_usdjpy_ret_20 macro_usdjpy_ret_60 macro_usdjpy_vol_20 macro_topix_ret_20 macro_topix_vol_20 macro_topix_above_200dma macro_nikkei_ret_20 macro_nikkei_above_200dma macro_nikkei_vi macro_jgb10y macro_bias_score
feature_infos=[-0.12835434852893635:0.16617210682492578] [-0.22148426220040429:0.21772997032640951] [-0.22310354773579466:0.20586597364024506] [-0.22108155002891849:0.29080118694362023] [-0.28019775521111701:0.30192878338278928] [-0.29304461942257221:0.41748654167440136] [-0.15274763297788679:0.092720082027244813] [-0.21539783568068274:0.12935080379706521] [-0.24590370468877951:0.16042594047307318] [-0.29445971225691259:0.25740857503152592] [-0.14874534055042199:0.098736997395715731] [-0.1102545375855446:0.12680590540952696] [12.369651204602661:88.360109635582972] [-33.121422539015342:25.328206189359449] [-238.26566209611747:249.06416956676367] [-182.05043018964793:228.88287429047637] [-89.422362273060244:81.196676320373541] [-34.88001340294278:29.905508777219751] [-0.28830922150144106:1.3280106770069913] [0.037300922361956521:0.40248531031416535] [0.014363198321985507:0.078443877551020405] [0.0092131497949139406:0.068334462003049184] [-0.79600727327827869:4.2083565459610028] [0.54331361007559087:1.7467403614742107] [-0.99394087357954541:1] [0:0.93333333333333335] [0:0.93877551020408168] [0:4] [1:12] none [0:1] [-7:8] [-0.14047151277013747:0.17632552404438973] [0:1] [-0.10288784967882303:0.08505611680078462] [-0.13986255140503889:0.13160084488587853] [0.0024251968629527628:0.011841457708833433] [-0.22586490939044479:0.19897850606512013] [0.0040695656522785678:0.036437277456277402] [0:1] [-0.22859537662338159:0.23022297972565586] [0:1] none none none
tree_sizes=770 1184 990 778 781 1088 882 968 877 776 779 777 996 994 1177 884 1100 856 883 1067 1206 995 1203 787 1089 1100 995 1105 987 1309 1098 1098 785 778 988 1286 1067 1087 1187 1086 1107 1084 1082 1104 1382 742 956 766 990 1087

Tree=0
num_leaves=6
num_cat=0
split_feature=21 9 7 21 5
split_gain=23.788 20.9562 7.98433 11.8295 11.8057
threshold=0.0124908741777693 0.13881679912851583 0.0081649290586045444 0.014635733920778932 0.072384396517130259
decision_type=2 2 2 2 2
left_child=-1 2 3 -2 -4
right_child=1 -3 4 -5 -6
leaf_value=-0.022101633684346693 0.0014336166955718557 -0.013505787534818429 0.0034408663841693585 0.035538312790402447 0.030297999381573244
leaf_weight=12.249395430088041 8.999555826187132 13.999309062957762 33.248359024524689 53.49735963344574 23.248852550983429
leaf_count=49 36 56 133 214 93
internal_value=0.0146546 0.0186367 0.0229351 0.0301557 0.0144139
internal_weight=145.243 132.993 118.994 62.4969 56.4972
internal_count=581 532 476 250 226
is_linear=0
shrinkage=1


Tree=1
num_leaves=10
num_cat=0
split_feature=16 11 38 38 35 37 13 3 35
split_gain=11.2446 14.3924 11.4366 13.3923 13.3583 5.88589 4.16342 3.07138 0.29602
threshold=-17.910535762188392 0.055892237893892423 0.0076540501876347514 0.006443758591191711 0.048026981734366044 0.018537132850451003 -5.2585546181512823 0.015774137176973738 0.01406328676723956
decision_type=2 2 2 2 2 2 2 2 2
left_child=5 2 3 -2 -4 8 -3 -8 -1
right_child=1 6 4 -5 -6 -7 7 -9 -10
leaf_value=0.013447947825487715 0.016969371676474981 0 0.021020145394021139 -0.024560204651864089 -0.0085369799079203917 -0.00072253471941593529 -0.0089421147395312671 -0.032038146025685818 0.036316726398875787
leaf_weight=7.497867017984392 8.2480048090219515 7.7487049698829642 38.993382215499878 19.497360303997993 18.497139424085617 7.7479450553655616 13.497941076755525 15.748931229114531 7.7482620179653168
leaf_count=30 33 31 156 78 74 31 54 63 31
internal_value=0.000555683 -0.00304189 0.003641 -0.0113993 0.0112909 0.0189928 -0.0182206 -0.0231136 0.0288037
internal_weight=145.226 122.231 85.2359 27.7454 57.4905 22.9941 36.9956 29.2469 15.2461
internal_count=581 489 341 111 230 92 148 117 61
is_linear=0
shrinkage=0.03


Tree=2
num_leaves=8
num_cat=0
split_feature=21 33 34 7 5 5 17
split_gain=22.1519 14.5953 9.33176 10.007 6.00643 7.43365 0.884606
threshold=0.0124908741777693 0.87039259526359813 -0.027402473288525461 0.0081649290586045444 0.12702375826609927 0.096890336400267021 0.31698637320269635
decision_type=2 2 2 2 2 2 2
left_child=-1 2 6 -4 5 -3 -2
right_child=1 4 3 -5 -6 -7 -8
leaf_value=-0.034929935770626246 0.013274197263853931 -0.015675041624844965 0.013273285248591064 -0.0072376422493550105 -0.028824190171913285 0.018081559456004506 0.039294786014788731
leaf_weight=12.245658278465269 7.4965258836746198 12.497595086693769 54.725202187895775 31.743383392691612 10.995379969477652 7.7462531626224509 7.7475673705339432
leaf_count=49 30 50 219 127 44 31 31
internal_value=0.000540705 0.00438816 0.00995823 0.00558059 -0.0128043 -0.00161946 0.0303923
internal_weight=145.198 132.952 101.713 86.4686 31.2392 20.2438 15.2441
internal_count=581 532 407 346 125 81 61
is_linear=0
shrinkage=0.03


Tree=3
num_leaves=6
num_cat=0
split_feature=21 9 35 37 7
split_gain=21.035 18.6099 9.57151 7.60277 7.4974
threshold=0.0124908741777693 0.13881679912851583 0.05607982061815709 -0.0043938986928843118 -0.011643607357705329
decision_type=2 2 2 2 2
left_child=-1 2 3 -2 -4
right_child=1 -3 4 -5 -6
leaf_value=-0.034055672748150245 0.024934110425602993 -0.026013243397160515 0.011142267532109279 0.0062673759841096752 -0.022500505472201438
leaf_weight=12.234715193510054 28.725248515605927 13.990281373262404 7.7440163344144848 69.71571359038353 12.747433438897131
leaf_count=49 115 56 31 279 51
internal_value=0.000520463 0.0042718 0.00832963 0.0122517 -0.00925926
internal_weight=145.157 132.923 118.932 98.441 20.4914
internal_count=581 532 476 394 82
is_linear=0
shrinkage=0.03


Tree=4
num_leaves=6
num_cat=0
split_feature=21 9 35 37 7
split_gain=19.9652 17.6401 9.045 7.18826 7.13194
threshold=0.0124908741777693 0.13881679912851583 0.05607982061815709 -0.0043938986928843118 -0.011643607357705329
decision_type=2 2 2 2 2
left_child=-1 2 3 -2 -4
right_child=1 -3 4 -5 -6
leaf_value=-0.033219750722182972 0.024252928899736417 -0.025347508112472009 0.010879282001436556 0.0060852009897472735 -0.021918423612252658
leaf_weight=12.216887935996054 28.702580109238625 13.979674667119978 7.7416565269231823 69.708713382482529 12.746504887938498
leaf_count=49 115 56 31 279 51
internal_value=0.000485568 0.00414228 0.00809558 0.0119109 -0.00899308
internal_weight=145.096 132.879 118.899 98.4113 20.4882
internal_count=581 532 476 394 82
is_linear=0
shrinkage=0.03


Tree=5
num_leaves=9
num_cat=0
split_feature=21 5 35 28 2 25 14 23
split_gain=14.3058 17.9249 12.8975 10.5149 8.18832 4.72785 3.89521 2.0982
threshold=0.014532027714375933 0.1304756447937068 0.050195928744634528 8.5000000000000018 0.053546817398204334 0.088493959594969543 14.305429232396252 0.889521676487811
decision_type=2 2 2 2 2 2 2 2
left_child=2 4 3 6 5 -2 -1 -3
right_child=1 7 -4 -5 -6 -7 -8 -9
leaf_value=-0.0040110948400117162 0.0036305139963618248 -0.028468685262961264 -0.039433566133553408 -0.02667358056352399 -0.010169587370962282 0.020104124915077248 0.020841356517483513 -0.005141260160592207
leaf_weight=7.4841624498367372 24.967731729149818 7.9933224767446545 9.7262533158063871 7.9727340191602698 10.238960042595862 64.655620932579041 11.235167115926741 9.9826181232929212
leaf_count=30 100 32 39 32 41 259 45 40
internal_value=0.00266723 0.00782214 -0.0131609 -0.000983253 0.0128948 0.015858 0.0107531 -0.0180769
internal_weight=154.257 117.838 36.4183 26.6921 99.8623 89.6234 18.7193 17.9759
internal_count=618 472 146 107 400 359 75 72
is_linear=0
shrinkage=0.03


Tree=6
num_leaves=7
num_cat=0
split_feature=21 34 7 21 12 15
split_gain=13.6292 11.5384 7.15487 12.372 11.6856 3.32402
threshold=0.0124908741777693 -0.026460062295815486 0.0081649290586045444 0.014532027714375933 60.501738211222637 8.9368431557340386
decision_type=2 2 2 2 2 2
left_child=-1 5 3 -3 -4 -2
right_child=1 2 4 -5 -6 -7
leaf_value=-0.022983842567531436 0.035945265995368451 -0.019064964600181401 -0.023121073084520726 0.015509603437658028 0.0036715341120045551 0.0059283663053508861
leaf_weight=14.662257120013235 11.213895827531816 9.2445875108242017 19.4884292781353 49.399971768260002 42.696359679102898 7.4815223515033713
leaf_count=59 45 37 78 198 171 30
internal_value=0.0025502 0.00562637 0.00191391 0.00936301 -0.00495026 0.0263917
internal_weight=154.187 139.525 120.829 58.6446 62.1848 18.6954
internal_count=618 559 484 235 249 75
is_linear=0
shrinkage=0.03


Tree=7
num_leaves=8
num_cat=0
split_feature=38 3 34 17 23 35 2
split_gain=10.333 8.89923 10.4319 8.91423 8.88493 7.4047 2.39568
threshold=0.011362102376311458 0.044496790385646807 0.034090042733269994 0.77369958874550726 0.97379079598371643 0.036352193553541697 0.0083716050923887692
decision_type=2 2 2 2 2 2 2
left_child=1 2 3 -1 -4 -3 -2
right_child=6 5 4 -5 -6 -7 -8
leaf_value=4.9198153410117074e-05 0.02693816608647652 -0.034100007927532858 0.0041451493483493987 0.020543207115902386 -0.035947147950139278 0 0.0065081962656673752
leaf_weight=62.829789608716965 13.957033947110178 10.237792223691942 7.4830980300903347 26.423451080918312 8.7249689847230893 10.730444908142088 13.712696075439451
leaf_count=252 56 41 30 106 35 43 55
internal_value=0.00247357 -0.00113674 0.00238109 0.0065981 -0.018191 -0.0181497 0.0184402
internal_weight=154.099 126.43 105.461 89.2532 16.2081 20.9682 27.6697
internal_count=618 507 423 358 65 84 111
is_linear=0
shrinkage=0.03


Tree=8
num_leaves=7
num_cat=0
split_feature=5 34 23 5 16 23
split_gain=10.2737 10.7612 9.64248 6.09032 10.0208 2.00343
threshold=0.1304756447937068 0.034090042733269994 0.97379079598371643 0.10196079835303652 5.7390808403561424 0.889521676487811
decision_type=2 2 2 2 2 2
left_child=1 3 -3 4 -1 -2
right_child=5 2 -4 -5 -6 -7
leaf_value=0.011027856976777774 -0.027734540479584065 0.0054498918292545323 -0.033608237558532969 0.026471481436258167 -0.010252414370882288 -0.0049256631042175099
leaf_weight=79.473347038030624 7.9897724539041546 9.4777755290269869 9.217036157846449 13.971194609999655 23.945379853248596 9.9807422310113889
leaf_count=319 32 38 37 56 96 40
internal_value=0.00240138 0.00536499 -0.0144689 0.00883873 0.00585734 -0.0175797
internal_weight=154.055 136.085 18.6948 117.39 103.419 17.9705
internal_count=618 546 75 471 415 72
is_linear=0
shrinkage=0.03


Tree=9
num_leaves=6
num_cat=0
split_feature=38 5 5 3 14
split_gain=9.96357 10.7126 7.90614 8.87296 3.16291
threshold=0.011362102376311458 0.13209575309944602 0.10196079835303652 0.054292590451811791 3.8637716123270143
decision_type=2 2 2 2 2
left_child=1 2 3 -1 -2
right_child=4 -3 -4 -5 -6
leaf_value=0.001653949377706626 0.027661793300143667 -0.025852149318432351 0.021170665730841608 -0.026239787103633557 0.0053071269468310247
leaf_weight=90.438228145241737 13.687225148081781 12.227989643812178 14.215027019381521 9.484782010316847 13.953275635838507
leaf_count=363 55 49 57 38 56
internal_value=0.00231139 -0.00123094 0.00167742 -0.00130952 0.0180025
internal_weight=154.007 126.366 114.138 99.923 27.6405
internal_count=618 507 458 401 111
is_linear=0
shrinkage=0.03


Tree=10
num_leaves=6
num_cat=0
split_feature=21 9 15 9 1
split_gain=7.7343 8.41674 7.05172 7.11095 3.52623
threshold=0.0124908741777693 -0.042988941164267609 -11.418698503128155 0.13881679912851583 -0.017002430041847035
decision_type=2 2 2 2 2
left_child=-1 4 -3 -4 -2
right_child=1 2 3 -5 -6
leaf_value=-0.021874923564871526 0.002711337484658862 -0.021724876868806108 0.0036750886374853518 -0.017857154389982807 0.032695716869855056
leaf_weight=13.397288322448729 8.2097315341234189 12.71815764904022 90.261285021901131 14.197861388325689 7.4433683156967154
leaf_count=54 33 51 362 57 30
internal_value=-0.00172238 0.000493288 -0.00226494 0.00032708 0.0199081
internal_weight=146.228 132.83 117.177 104.459 15.6531
internal_count=587 533 470 419 63
is_linear=0
shrinkage=0.03


Tree=11
num_leaves=6
num_cat=0
split_feature=21 9 15 9 1
split_gain=7.34932 8.051 6.68169 6.73937 3.37333
threshold=0.0124908741777693 -0.042988941164267609 -11.418698503128155 0.13881679912851583 -0.021774265799423039
decision_type=2 2 2 2 2
left_child=-1 4 -3 -4 -2
right_child=1 2 3 -5 -6
leaf_value=-0.021340784624137896 0.0015128358944702508 -0.021153485130000912 0.0035676110604207782 -0.017401947841871795 0.03089515292336413
leaf_weight=13.371084123849867 7.4612796306610099 12.723775148391722 90.251483246684074 14.184690833091734 8.1688404679298383
leaf_count=54 30 51 362 57 33
internal_value=-0.00167748 0.00047848 -0.0022154 0.000305087 0.0194826
internal_weight=146.161 132.79 117.16 104.436 15.6301
internal_count=587 533 470 419 63
is_linear=0
shrinkage=0.03


Tree=12
num_leaves=8
num_cat=0
split_feature=35 38 34 2 34 12 35
split_gain=7.57151 7.86658 8.418 9.83971 6.98672 4.93461 4.23705
threshold=0.062741177410862395 0.0078650509055259027 0.035075048741410771 0.056628153125007914 -0.020691681979781381 63.927557470860016 0.074884704637423374
decision_type=2 2 2 2 2 2 2
left_child=1 4 3 -3 -1 -6 -2
right_child=6 2 -4 -5 5 -7 -8
leaf_value=-0.030628538326619936 -0.031383557941354452 0.014170801891569988 -0.016455128650708167 -0.017913043947748109 0.0068266734792259585 -0.014870224546946722 -0.0025445758271681065
leaf_weight=8.4448345154523832 8.965605780482294 65.644892856478691 10.204034224152563 7.7315224111080161 20.426608353853226 13.951523408293722 10.715115442872046
leaf_count=34 36 264 41 31 82 56 43
internal_value=-0.00163465 0.00104692 0.00646692 0.0102056 -0.00901354 -0.00189959 -0.0180573
internal_weight=146.084 126.403 83.5804 73.3764 42.823 34.3781 19.6807
internal_count=587 508 336 295 172 138 79
is_linear=0
shrinkage=0.03


Tree=13
num_leaves=8
num_cat=0
split_feature=35 38 28 33 34 5 35
split_gain=7.18633 7.43239 9.58901 8.82009 7.97393 7.65978 4.02005
threshold=0.062741177410862395 0.0078650509055259027 8.5000000000000018 0.83553469198166186 0.035075048741410771 0.13404457418218887 0.074884704637423374
decision_type=2 2 2 2 2 2 2
left_child=1 2 3 -1 5 -3 -2
right_child=6 4 -4 -5 -6 -7 -8
leaf_value=0.012966173241566601 -0.030621222996758735 0.013844600491252442 -0.029485864474528688 -0.01771857736303321 -0.01604657974168822 -0.012068865108913559 -0.0024802286982125886
leaf_weight=18.6692268550396 8.9629666209220904 63.364676639437675 11.916141480207441 12.216276049613951 10.200881242752073 9.9672253429889661 10.715200930833815
leaf_count=75 36 255 48 49 41 40 43
internal_value=-0.00163312 0.000978021 -0.00879925 3.37106e-05 0.00625181 0.00989643 -0.0176323
internal_weight=146.013 126.334 42.8016 30.8855 83.5328 73.3319 19.6782
internal_count=587 508 172 124 336 295 79
is_linear=0
shrinkage=0.03


Tree=14
num_leaves=10
num_cat=0
split_feature=20 16 22 18 22 8 15 1 32
split_gain=7.87006 6.75146 7.20907 7.17655 5.65776 5.46125 10.1812 3.05304 0.975783
threshold=0.034221858699248493 5.788750503085546 0.025998271843739932 0.74537742649506999 -0.099320731054420616 0.052117667403384194 34.741613259157297 0.017672621260156011 -0.0061725116318731002
decision_type=2 2 2 2 2 2 2 2 2
left_child=1 2 4 -4 -1 -3 -7 8 -2
right_child=7 5 3 -5 -6 6 -8 -9 -10
leaf_value=0 0.0067293889471177265 -0.029350610694195672 0.00015789960702512071 0.027772895233728875 -0.021740016153641434 0.020048819300608665 -0.017938187690680663 -9.3609774660763004e-05 0.027118093097045676
leaf_weight=28.326094254851341 7.9354853183031109 13.465824782848356 28.831828713417053 10.713186070322989 15.417846038937567 7.4697533994913128 16.646875843405724 8.681030333042143 8.4373257011175173
leaf_count=114 32 54 116 43 62 30 67 35 34
internal_value=-0.0016273 -0.00492075 0 0.00897702 -0.00828535 -0.015122 -0.00496365 0.0128965 0.0198609
internal_weight=145.925 120.871 83.289 39.545 43.7439 37.5825 24.1166 25.0538 16.3728
internal_count=587 486 335 159 176 151 97 101 66
is_linear=0
shrinkage=0.03


Tree=15
num_leaves=7
num_cat=0
split_feature=5 5 14 9 36 34
split_gain=11.9086 6.7933 8.24888 7.52417 5.5319 0.243565
threshold=0.14126368122816427 0.084544008218347746 79.00937731830119 -0.062779051155556029 0.0088352077389240637 0.016641907555609684
decision_type=2 2 2 2 2 2
left_child=1 3 5 -1 -5 -3
right_child=-2 2 -4 4 -6 -7
leaf_value=0.024420729225537851 -0.02301863908985248 0.036113715331478717 -0.0041704736976918271 0.00051741567481401014 -0.021506801029698337 0.014517478428819073
leaf_weight=8.8817427903413755 14.173782616853712 8.4571983516216331 8.9681555330753309 91.040867567062378 9.4110286980867368 8.7038396298885328
leaf_count=36 57 34 36 366 38 35
internal_value=0.00120991 0.00415214 0.0173236 0.000614964 -0.00177912 0.0286018
internal_weight=149.637 135.463 26.1292 109.334 100.452 17.161
internal_count=602 545 105 440 404 69
is_linear=0
shrinkage=0.03


Tree=16
num_leaves=9
num_cat=0
split_feature=38 16 21 28 36 38 36 28
split_gain=11.2446 18.8869 14.9861 7.6798 4.34722 3.4137 2.94392 1.14366
threshold=0.011852333956377378 4.8206410879262789 0.013367910975230319 8.5000000000000018 0.0063903117896531372 0.0074815898542864917 0.0061307361935033838 8.5000000000000018
decision_type=2 2 2 2 2 2 2 2
left_child=1 2 6 -4 5 -3 -1 -2
right_child=7 4 3 -5 -6 -7 -8 -9
leaf_value=-0.030194940312708689 0.0064059965969617662 -0.0049912220418896498 0.018184555868766921 -0.0022843342999912235 -0.0026999840633553369 -0.032696965347361516 -0.0041103049827284147 0.025397899871166633
leaf_weight=7.4394576996564892 8.6405268609523773 7.7202530950307873 48.235114932060242 22.147936329245567 12.459600627422331 18.382326915860176 10.637897998094557 13.908630520105362
leaf_count=30 35 31 194 89 50 74 43 56
internal_value=0.00118481 -0.00226801 0.00526608 0.0116511 -0.0193283 -0.0259747 -0.0175307 0.0198463
internal_weight=149.572 127.023 88.4604 70.3831 38.5622 26.1026 18.0774 22.5492
internal_count=602 511 356 283 155 105 73 91
is_linear=0
shrinkage=0.03


Tree=17
num_leaves=7
num_cat=0
split_feature=5 20 5 16 14 37
split_gain=11.123 10.308 7.03031 9.40452 9.04764 6.21376
threshold=0.14126368122816427 0.019474358115079516 0.084544008218347746 4.3416661047880369 79.00937731830119 0.027473898588873617
decision_type=2 2 2 2 2 2
left_child=1 5 3 -3 -4 -1
right_child=-2 2 4 -5 -6 -7
leaf_value=0.0020864424115958455 -0.022307079476031798 0.0097348571351600788 0.037749987540370553 -0.01266839515575109 0 -0.023736857578959828
leaf_weight=14.381273135542871 14.143462270498274 65.477395549416542 12.437573671340944 20.16453891992569 8.2121254056692106 14.641390547156332
leaf_count=58 57 264 50 81 33 59
internal_value=0.00112756 0.00397548 0.008373 0.0041201 0.0234278 -0.0111478
internal_weight=149.458 135.314 106.292 85.6419 20.6497 29.0227
internal_count=602 545 428 345 83 117
is_linear=0
shrinkage=0.03


Tree=18
num_leaves=7
num_cat=0
split_feature=5 5 37 16 12 35
split_gain=10.5507 6.39257 10.773 8.21342 7.60076 1.90312
threshold=0.14126368122816427 0.084544008218347746 0.043837932843419976 -16.694658785760485 72.78054483700879 0.031615162604528686
decision_type=2 2 2 2 2 2
left_child=1 2 3 -1 5 -3
right_child=-2 4 -4 -5 -6 -7
leaf_value=0.019194394058514103 -0.021753194908317178 0.039122429558311751 -0.026377867503756355 -0.00079585288906932727 -0.0039887597802535342 0.012097716267677147
leaf_weight=21.750559628009796 14.119758710265158 7.4385599046945634 9.9397313892841321 77.484946444630623 8.9244905561208707 9.6989861726760846
leaf_count=88 57 30 40 312 36 39
internal_value=0.00108507 0.00386112 0.000428824 0.00373011 0.0166494 0.0274743
internal_weight=149.357 135.237 109.175 99.2355 26.062 17.1375
internal_count=602 545 440 400 105 69
is_linear=0
shrinkage=0.03


Tree=19
num_leaves=9
num_cat=0
split_feature=38 16 28 16 12 5 5 13
split_gain=10.7347 17.0614 10.0508 11.2134 10.6071 5.2865 10.7994 1.46405
threshold=0.011852333956377378 4.8206410879262789 8.5000000000000018 -16.694658785760485 55.664379615565927 0.14126368122816427 0.10053011336583297 -0.23196018378829206
decision_type=2 2 2 2 2 2 2 2
left_child=1 2 4 -4 -1 6 -3 -2
right_child=7 5 3 -5 -6 -7 -8 -9
leaf_value=0 0.0062347437633324312 -0.022779873275448857 0.015071255098399025 -0.021883875469041102 0.025195235290117003 -0.037475308475041269 0.012590596624783278 0.025944915115952746
leaf_weight=33.419359654188156 9.631528168916704 19.649701863527302 9.186087906360628 19.106939703226089 26.594449326395988 8.8819147795438749 9.9298753589391691 12.859541177749632
leaf_count=135 39 79 37 77 107 36 40 52
internal_value=0.00105431 -0.00231869 0.00484129 -0.00918737 0.0117799 -0.0185553 -0.0103856 0.0193152
internal_weight=149.259 126.768 88.3068 28.293 60.0138 38.4615 29.5796 22.4911
internal_count=602 511 356 114 242 155 119 91
is_linear=0
shrinkage=0.03


Tree=20
num_leaves=10
num_cat=0
split_feature=21 7 25 28 28 22 38 22 19
split_gain=12.7661 9.24535 11.7594 7.8926 7.30664 6.57986 6.52329 3.85508 3.41534
threshold=0.013992054542469769 0.0081649290586045444 0.08442895612228736 8.5000000000000018 10.500000000000002 0.061083142042069445 0.011589023873105628 0.48579094809912843 0.084583010818151033
decision_type=2 2 2 2 2 2 2 2 2
left_child=3 2 -2 8 -4 6 -3 -7 -1
right_child=1 5 4 -5 -6 7 -8 -9 -10
leaf_value=-0.017182892629044492 -0.0099983823097455522 -0.018431852569906509 0.025705154687187225 -0.036668443157602218 -0.0042245431767755593 0.016808327008296181 0.0086525734753483772 -0.0054485355814080988 0.0066559161494889633
leaf_weight=7.4168516397476258 13.402165859937666 28.274262979626656 35.836826130747795 10.09794808924198 7.4534278362989417 14.641279563307764 8.676372289657591 9.4334733933210355 9.9278680682182294
leaf_count=30 54 114 145 41 30 59 35 38 40
internal_value=-7.18858e-05 0.00418026 0.0127558 -0.0178663 0.0202619 -0.00370035 -0.0115693 0.00776293 -0.00348508
internal_weight=145.16 117.718 56.6924 27.4427 43.2903 61.0254 36.9506 24.0748 17.3447
internal_count=586 475 229 111 175 246 149 97 70
is_linear=0
shrinkage=0.03


Tree=21
num_leaves=8
num_cat=0
split_feature=21 8 37 28 28 13 19
split_gain=12.1405 11.1588 7.74478 9.10685 7.53702 3.44714 3.2592
threshold=0.013992054542469769 0.083370157638793727 0.0033529759070068947 6.5000000000000009 8.5000000000000018 -2.1852530439852091 0.084583010818151033
decision_type=2 2 2 2 2 2 2
left_child=4 2 5 -4 6 -2 -1
right_child=1 -3 3 -5 -6 -7 -8
leaf_value=-0.016794737398849399 0.0031735105459117594 -0.024370322507986951 0.013146773285556164 -0.0086365298217292354 -0.035879676382368789 0.022922874201081755 0.0064895255476799659
leaf_weight=7.4069917649030748 14.586674153804777 9.1434315145015699 27.764964416623116 39.00821253657341 10.054949909448622 27.10369385778904 9.9282186627387983
leaf_count=30 59 37 112 157 41 110 40
internal_value=-8.67589e-05 0.00405791 0.00698803 0.000321995 -0.0174585 0.0168179 -0.00339171
internal_weight=144.997 117.607 108.464 66.7732 27.3902 41.6904 17.3352
internal_count=586 475 438 269 111 169 70
is_linear=0
shrinkage=0.03


Tree=22
num_leaves=10
num_cat=0
split_feature=21 3 38 28 13 20 28 20 19
split_gain=11.552 9.31687 10.5492 7.20312 6.39004 6.36582 5.94173 3.64637 3.11054
threshold=0.013992054542469769 0.019012707601978932 0.011852333956377378 8.5000000000000018 -3.5099238119603728 0.027038727703881774 7.5000000000000009 0.029102704281046419 0.084583010818151033
decision_type=2 2 2 2 2 2 2 2 2
left_child=3 4 5 8 7 -3 -6 -2 -1
right_child=1 2 -4 -5 6 -7 -8 -9 -10
leaf_value=-0.016416891434441191 0.0068353652602182223 -0.0038232152204612469 0.016978649643998655 -0.035124549348224503 0.029637863725985182 -0.030308440434453007 0.0062435681470627011 -0.01553297880532423 0.0063274098141677358
leaf_weight=7.3963368833065095 16.125287026166919 26.278479784727097 11.609968140721319 10.006704270839689 19.244058579206467 11.63036774098873 24.495991706848145 8.1470613926649076 9.9283533096313459
leaf_count=30 65 106 47 41 78 47 99 33 40
internal_value=-9.75555e-05 0.00394195 -0.00563194 -0.0170641 0.0110886 -0.0134364 0.01771 -0.000712579 -0.0033006
internal_weight=144.863 117.531 49.5188 27.3314 68.0124 37.9088 43.7401 24.2723 17.3247
internal_count=586 475 200 111 275 153 177 98 70
is_linear=0
shrinkage=0.03


Tree=23
num_leaves=6
num_cat=0
split_feature=9 12 37 2 4
split_gain=8.7365 5.91226 9.46986 6.01946 3.43495
threshold=-0.051136772549234343 37.930427572680166 -0.0053294630503761256 -0.017400745840080053 0.0018776539416807128
decision_type=2 2 2 2 2
left_child=-1 -2 4 -4 -3
right_child=1 2 3 -5 -6
leaf_value=0.02079698674496424 -0.019960863250084376 0.027325957890019851 0.014828835296111367 -0.0075181522645594388 0.0029940580243995418
leaf_weight=13.908848226070402 13.803464531898497 10.57884928584099 10.168012067675589 83.640234872698784 12.601329639554022
leaf_count=57 56 43 41 338 51
internal_value=-0.000106116 -0.00272173 -0.000260299 -0.00468038 0.0159827
internal_weight=144.701 130.792 116.988 93.8082 23.1802
internal_count=586 529 473 379 94
is_linear=0
shrinkage=0.03


Tree=24
num_leaves=9
num_cat=0
split_feature=9 28 38 16 12 33 15 16
split_gain=8.2853 6.6329 21.673 14.7868 8.67431 6.86614 5.9542 2.45563
threshold=-0.051136772549234343 8.5000000000000018 0.010861307634708715 6.4420738063481151 50.755969723145398 0.86103943193181731 28.729662615852533 7.4108876784872475
decision_type=2 2 2 2 2 2 2 2
left_child=-1 3 6 4 -2 -5 -3 -4
right_child=1 2 7 5 -6 -7 -8 -9
leaf_value=0.020305212194737788 -0.0026368253393427351 -0.010101248119343391 2.6659089464316025e-05 0.0019256612440550045 0.020426177228595726 -0.026888252150721388 -0.038688230361187133 0.024400051481122485
leaf_weight=13.867405533790587 22.467412665486336 16.974846497178081 7.6607762277126339 10.924240335822107 33.682111799716949 15.531798377633093 14.820010811090468 8.6850689947605115
leaf_count=57 91 69 31 44 136 63 60 35
internal_value=-7.78927e-05 -0.00262615 -0.0112969 0.00239726 0.0111666 -0.0151642 -0.0253709 0.0150428
internal_weight=144.614 130.746 48.1407 82.6056 56.1495 26.456 31.7949 16.3458
internal_count=586 529 195 334 227 107 129 66
is_linear=0
shrinkage=0.03


Tree=25
num_leaves=9
num_cat=0
split_feature=9 28 13 38 14 10 21 19
split_gain=7.62712 7.41533 7.44761 6.36883 5.14659 13.5635 4.20141 2.07122
threshold=-0.053069628478623898 6.5000000000000009 -5.837355701120333 0.010861307634708715 17.561168062157098 0.037009649759966685 0.014860494465249691 0.10868346897095484
decision_type=2 2 2 2 2 2 2 2
left_child=-1 4 7 -4 6 -6 -2 -3
right_child=1 2 3 -5 5 -7 -8 -9
leaf_value=0.019817402065116854 -0.020000641760410817 -0.00081230495075593093 -0.019115310212065469 6.8195599304882664e-05 0.024424278834143696 -0.0083076355573851873 0.0058107611627222985 0.018495765755538005
leaf_weight=12.623853251338003 9.408055707812311 7.4215019494295102 45.851021707057953 20.783781215548515 24.478507459163666 17.730383917689323 8.6454058289527875 7.4154593050479889
leaf_count=52 38 30 186 84 99 72 35 30
internal_value=-0.000705679 -0.00288829 -0.00876512 -0.0130857 0.00484233 0.0105817 -0.00754536 0.00899764
internal_weight=154.358 141.734 81.4718 66.6348 60.2624 42.2089 18.0535 14.837
internal_count=626 574 330 270 244 171 73 60
is_linear=0
shrinkage=0.03


Tree=26
num_leaves=8
num_cat=0
split_feature=34 13 12 7 9 5 37
split_gain=8.00581 8.04483 5.65568 6.71856 4.25962 3.77112 3.53225
threshold=-0.027402473288525461 -5.9479442909565838 41.194105691056912 -0.00022892633136051009 -0.0359042702342676 -0.014606527493125408 0.0033529759070068947
decision_type=2 2 2 2 2 2 2
left_child=5 6 4 -4 -3 -1 -2
right_child=1 2 3 -5 -6 -7 -8
leaf_value=0.026736635234258056 0.026864997937032606 -0.0019182866003255152 0.010043446855519857 -0.0080940193112949942 -0.033817409336637502 0.0013318241518475711 0.0010970795066655645
leaf_weight=10.429062336683275 7.369027495384219 7.6006256937980679 21.926895394921303 72.807390362024307 9.3854430615901929 11.821309223771093 12.876158848404883
leaf_count=43 30 31 89 295 38 48 52
internal_value=-0.000671435 -0.00362487 -0.00689082 -0.00362006 -0.0220395 0.015081 0.0127227
internal_weight=154.216 131.966 111.72 94.7343 16.9861 22.2504 20.2452
internal_count=626 535 453 384 69 91 82
is_linear=0
shrinkage=0.03


Tree=27
num_leaves=9
num_cat=0
split_feature=34 13 12 7 38 37 22 10
split_gain=7.61293 7.67 5.40837 6.34982 3.66983 3.36822 2.90973 0.139168
threshold=-0.027402473288525461 -5.9479442909565838 41.194105691056912 -0.00022892633136051009 0.008787571686869217 0.0033529759070068947 -0.0058893548211184634 -0.0010949555245265417
decision_type=2 2 2 2 2 2 2 2
left_child=4 5 6 -4 -1 -2 -3 -6
right_child=1 2 3 -5 7 -7 -8 -9
leaf_value=-0.00053882563647149936 0.026276137713675842 -0.03122180987786409 0.0097736287361256929 -0.007859388093696712 0.028915705756527969 0.0010686305889340347 -0.0033381191754133007 0.010139069551301306
leaf_weight=7.6100217700004604 7.3532028347253826 9.6008882820606249 21.911703318357468 72.791472911834717 7.2320938706398019 12.875635996460913 7.3733451664447776 7.3812739700078938
leaf_count=31 30 39 89 295 30 52 30 30
internal_value=-0.000634388 -0.00351693 -0.00670847 -0.00350672 0.0147334 0.0124461 -0.0215287 0.0226968
internal_weight=154.13 131.906 111.677 94.7032 22.2234 20.2288 16.9742 14.6134
internal_count=626 535 453 384 91 82 69 60
is_linear=0
shrinkage=0.03


Tree=28
num_leaves=8
num_cat=0
split_feature=9 12 5 5 13 0 11
split_gain=6.89916 6.73707 7.59123 9.13323 5.081 1.93847 1.0308
threshold=-0.053069628478623898 45.722738730703448 0.13404457418218887 0.072384396517130259 -5.9479442909565838 0.005680889756940811 0.038484866516223522
decision_type=2 2 2 2 2 2 2
left_child=-1 4 3 -3 -2 -6 -4
right_child=1 2 6 -5 5 -7 -8
leaf_value=0.0189775302842617 0.0043030663587299515 -0.0019616721846436461 -0.0240732170514995 0.01755263994176734 -0.027195003691491287 -0.0048176681696057433 -0.0053508921763668407
leaf_weight=12.540473103523253 7.6534592211246517 63.70477232336998 7.8810790777206448 29.609837919473648 15.496886655688288 7.876529097557067 9.2702678740024549
leaf_count=52 31 258 32 120 63 32 38
internal_value=-0.000597042 -0.00267679 0.000735952 0.00431146 -0.0145902 -0.0212194 -0.0163527
internal_weight=154.033 141.493 110.466 93.3146 31.0269 23.3734 17.1513
internal_count=626 574 448 378 126 95 70
is_linear=0
shrinkage=0.03


Tree=29
num_leaves=11
num_cat=0
split_feature=34 14 7 5 23 14 36 4 36 16
split_gain=7.23106 6.59659 9.03874 8.02595 7.72353 6.00263 5.75394 4.07961 2.63077 1.86273
threshold=-0.027402473288525461 14.305429232396252 0.0043659221636303995 0.13404457418218887 0.80047591558002418 14.305429232396252 0.004808297053764809 0.023855533153398171 0.0079475798632696187 18.949702112676423
decision_type=2 2 2 2 2 2 2 2 2 2
left_child=5 2 6 4 -3 8 -2 -4 -1 -5
right_child=1 3 7 9 -6 -7 -8 -9 -10 -11
leaf_value=0.036258347700880156 0.0185275444754429 0.027729308187919084 -0.038956257800493888 -0.0029575373631652289 0.0012581685705784231 -0.0049030916304384532 -0.0092821128308416632 -0.0059416575529699939 0.0064314197264905976 -0.025414063414954186
leaf_weight=7.2563817054033297 7.3498528152704266 10.364143207669256 10.361963227391245 8.5808754116296786 58.755888283252716 7.6308043450117102 21.118338480591774 7.4455234557390204 7.2662695795297623 7.8017702698707572
leaf_count=30 30 42 42 35 238 31 86 30 30 32
internal_value=-0.000591062 -0.00340235 -0.0123055 0.00141589 0.00610644 0.0144077 -0.000865073 -0.0279035 0.0248275 -0.0160693
internal_weight=153.932 131.778 46.2757 85.5027 69.12 22.1535 28.4682 17.8075 14.5227 16.3826
internal_count=626 535 188 347 280 91 116 72 60 67
is_linear=0
shrinkage=0.03


Tree=30
num_leaves=9
num_cat=0
split_feature=16 12 33 37 32 11 24 37
split_gain=6.43121 9.18227 8.27208 5.61025 5.43958 5.06717 4.06044 4.8944
threshold=-17.910535762188392 56.896527586501541 0.8672744619128302 0.018537132850451003 0.0016346744034797525 0.012447126053349191 0.37762088147197265 0.0033529759070068947
decision_type=2 2 2 2 2 2 2 2
left_child=3 6 5 -1 -4 -3 7 -2
right_child=1 2 4 -5 -6 -7 -8 -9
leaf_value=0.025551382095733065 -0.0059702902801148407 -0.0031257140960224135 -0.019177778920632788 -0.0035049904159798538 0.003583324300227344 0.020589975418884132 0.0020385732066296844 -0.029059117143959767
leaf_weight=13.581829890608789 22.814094960689545 9.1605827361345273 13.490365415811537 7.6791576445102683 20.94561642408371 27.107023984193802 12.030756697058676 15.074830189347265
leaf_count=56 93 37 55 31 85 110 49 61
internal_value=0.000473066 -0.00217043 0.00460196 0.0150128 -0.00548494 0.0143575 -0.0118592 -0.0165291
internal_weight=141.884 120.623 70.7036 21.261 34.436 36.2676 49.9197 37.8889
internal_count=577 490 287 87 140 147 203 154
is_linear=0
shrinkage=0.03


Tree=31
num_leaves=9
num_cat=0
split_feature=22 22 3 28 33 15 40 4
split_gain=5.31152 11.1386 7.75924 8.29789 6.73596 5.76972 2.56558 1.59775
threshold=0.18804296177077209 0.50197981187595819 -0.058481319677101622 6.5000000000000009 0.86103943193181731 28.729662615852533 0.0065491906925849728 0.0079681227486803081
decision_type=2 2 2 2 2 2 2 2
left_child=2 7 -1 4 -4 -5 -3 -2
right_child=1 6 3 5 -6 -7 -8 -9
leaf_value=0.021241920997520647 0.034739463921886683 -0.017236711497271521 0.013484856503539162 -0.0040759095195561264 -0.011458677443802148 -0.024219319133473204 0.0027918884382689248 0.012065837644668936
leaf_weight=8.4956067949533445 8.1024124324321765 8.5652970522642153 25.349159866571426 33.446846693754196 12.765402704477308 22.610437080264091 9.3764043003320676 13.081066861748694
leaf_count=35 33 35 103 136 52 92 38 53
internal_value=0.000449237 0.00966728 -0.00303792 -0.00578047 0.00460201 -0.0130135 -0.00678725 0.023634
internal_weight=141.793 39.1252 102.667 94.1718 38.1146 56.0573 17.9417 21.1835
internal_count=577 159 418 383 155 228 73 86
is_linear=0
shrinkage=0.03


Tree=32
num_leaves=6
num_cat=0
split_feature=23 8 12 16 34
split_gain=8.50104 5.75234 5.92136 10.9855 6.70187
threshold=1.3821005759644234 0.083370157638793727 56.896527586501541 -17.910535762188392 0.0097892813297230114
decision_type=2 2 2 2 2
left_child=1 2 3 -1 -4
right_child=-2 -3 4 -5 -6
leaf_value=0.012767485630834028 0.027030467817454502 -0.02359932749707221 -0.0041247525157289133 -0.013420046690857159 0.015297976317713265
leaf_weight=18.004777461290359 8.1289870887994748 7.7902750968933097 25.43613600730896 47.664125517010689 34.659576386213303
leaf_count=74 33 32 103 194 141
internal_value=0.000447602 -0.00143468 0.000168794 -0.00585327 0.00696747
internal_weight=141.684 133.555 125.765 65.6689 60.0957
internal_count=577 544 512 268 244
is_linear=0
shrinkage=0.03


Tree=33
num_leaves=6
num_cat=0
split_feature=23 8 12 16 17
split_gain=8.10578 5.49517 5.57069 10.3899 6.13196
threshold=1.3821005759644234 0.083370157638793727 56.896527586501541 -17.910535762188392 -2.3841705362115646
decision_type=2 2 2 2 2
left_child=1 2 3 -1 -4
right_child=-2 -3 4 -5 -6
leaf_value=0.012442383910476203 0.026413562884184078 -0.02308717356574275 0.023135321457648954 -0.013032921956130055 0.00093609588292425743
leaf_weight=17.97369197010994 8.1161798387765867 7.7688874900341025 13.536455243825911 47.666878432035446 46.553786918520927
leaf_count=74 33 32 55 194 189
internal_value=0.000437111 -0.001398 0.000165251 -0.00567388 0.00676261
internal_weight=141.616 133.5 125.731 65.6406 60.0902
internal_count=577 544 512 268 244
is_linear=0
shrinkage=0.03


Tree=34
num_leaves=8
num_cat=0
split_feature=21 33 19 14 37 28 28
split_gain=4.62034 5.4126 6.24275 5.41753 9.093 5.7285 3.66263
threshold=0.0124908741777693 0.87193698648219276 0.12738385067518601 23.448335470191072 0.011572894744263597 10.500000000000002 8.5000000000000018
decision_type=2 2 2 2 2 2 2
left_child=-1 3 -3 4 -2 -5 -4
right_child=1 2 6 5 -6 -7 -8
leaf_value=-0.016610751563176304 0.0082634637164309376 0.0068922797544520523 -0.027426025017326952 0.019208050510468477 -0.01670740497873912 -0.0045619789810988345 -0.00045893942536714966
leaf_weight=10.851066485047339 34.849735766649246 13.364776104688643 11.679544642567636 33.71372401714325 18.329706951975822 10.113098099827765 8.6303661167621595
leaf_count=45 143 54 48 137 74 41 35
internal_value=0.000438643 0.00219644 -0.00768489 0.00586408 -0.000365176 0.013436 -0.0177076
internal_weight=141.532 130.681 33.6747 97.0063 53.1794 43.8268 20.3099
internal_count=577 532 137 395 217 178 83
is_linear=0
shrinkage=0.03


Tree=35
num_leaves=11
num_cat=0
split_feature=38 28 15 36 15 14 10 12 40 13
split_gain=6.85299 6.4627 6.48065 7.57517 6.30018 4.79736 11.1717 4.67636 3.7102 3.01676
threshold=0.01162469399111523 5.5000000000000009 31.459536230610244 0.0055006754524176199 19.991341293874466 19.460968479603483 0.032325609999582235 58.093404085358905 -0.040032441083718111 2.0590301511380003
decision_type=2 2 2 2 2 2 2 2 2 2
left_child=1 5 4 -4 -3 9 -7 8 -2 -1
right_child=7 2 3 -5 -6 6 -8 -9 -10 -11
leaf_value=0.0045187764800485508 0.015114862201956502 -0.0071099982776602821 -0.0035955620644026499 -0.031469789825842247 0.018069331319177803 0.032498208742890222 -0.0044182377923813196 0.026478296774329078 -0.011279368316075825 -0.01783506368662293
leaf_weight=9.4494012892246264 7.1689811944961548 28.769240915775299 21.015395700931549 16.007396802306175 10.602459520101545 12.231207564473154 13.203155413269995 11.085767358541487 7.8530768603086489 7.6043708175420752
leaf_count=39 30 117 86 65 43 50 54 45 32 31
internal_value=0 -0.00314134 -0.00836147 -0.017027 0 0.00586135 0.0138628 0.0133038 0.000731486 -0.00548748
internal_weight=144.99 118.883 76.3945 37.0228 39.3717 42.4881 25.4344 26.1078 15.0221 17.0538
internal_count=592 485 311 151 160 174 104 107 62 70
is_linear=0
shrinkage=0.03


Tree=36
num_leaves=9
num_cat=0
split_feature=21 37 28 38 12 10 13 12
split_gain=10.4783 9.87056 9.11051 9.10858 7.36199 5.24115 4.67743 1.62504
threshold=0.013154153220980846 0.0033529759070068947 5.5000000000000009 0.011362102376311458 37.930427572680166 0.023692597686355569 0.32625682347847734 51.990207343160556
decision_type=2 2 2 2 2 2 2 2
left_child=7 4 6 -4 -2 -6 -3 -1
right_child=1 2 3 -5 5 -7 -8 -9
leaf_value=-0.029337350318023245 -0.0052657221349673902 0.019834155896529929 -0.016477782840990687 0.01175742739149045 0.027623659895340481 0 -0.0024375570523977987 -0.0061194420449809158
leaf_weight=8.8595071285963076 11.081318512558935 16.220829948782924 43.208588868379593 11.104685381054876 24.599136292934418 8.5972882807254773 13.179887309670447 8.0248929560184461
leaf_count=37 46 66 175 45 101 35 54 33
internal_value=0 0.00300143 -0.00293379 -0.010226 0.0141888 0.0210394 0.00985305 -0.0209133
internal_weight=144.876 127.992 83.714 54.3133 44.2777 33.1964 29.4007 16.8844
internal_count=592 522 340 220 182 136 120 70
is_linear=0
shrinkage=0.03


Tree=37
num_leaves=9
num_cat=0
split_feature=21 36 34 36 6 33 34 27
split_gain=10.0151 5.87967 14.7656 13.3903 9.47316 7.62112 8.77771 3.33165
threshold=0.013154153220980846 0.0071333786806057464 0.0097892813297230114 0.0048922641903527452 0.018018424435204912 0.8593064130859992 0.025471294186291907 2.5000000000000004
decision_type=2 2 2 2 2 2 2 2
left_child=7 2 3 -2 -4 6 -3 -1
right_child=1 5 4 -5 -6 -7 -8 -9
leaf_value=-0.030937492700763975 0.011853168087756383 0.028497839259080913 0.017305709432565406 -0.026507644747713867 -0.010531311081250752 -0.0055753821347427285 -0.0055509793381614504 -0.0020814876632885173
leaf_weight=9.343547925353052 9.5376255214214307 22.80665330588818 34.09003072977066 26.379340395331383 13.540303871035574 13.844005122780798 7.6690533608198157 7.4864777773618689
leaf_count=39 39 94 139 108 55 56 31 31
internal_value=0 0.00292852 -0.00163194 -0.0158376 0.0089845 0.0115486 0.0196536 -0.0204825
internal_weight=144.697 127.867 83.5473 35.917 47.6303 44.3197 30.4757 16.83
internal_count=592 522 341 147 194 181 125 70
is_linear=0
shrinkage=0.03


Tree=38
num_leaves=10
num_cat=0
split_feature=38 28 15 36 1 14 15 12 16
split_gain=6.00935 5.79918 11.6356 5.50996 5.16759 5.95302 5.08054 4.58267 2.82511
threshold=0.01162469399111523 6.5000000000000009 31.459536230610244 0.0051001634941824246 -0.018714557218003632 76.713193528717753 19.991341293874466 58.093404085358905 -4.5443228074071493
decision_type=2 2 2 2 2 2 2 2 2
left_child=1 4 6 -4 -1 -6 -3 8 -2
right_child=7 2 3 -5 5 -7 -8 -9 -10
leaf_value=-0.016178702805525476 0.012565994148301413 -0.0050596401746621942 -0.0061691990110505851 -0.035784047166100487 0.013745967285578311 -0.010064327677577841 0.017592590984134123 0.025496218932555045 -0.01054123905752787
leaf_weight=7.261145591735839 7.3565879762172699 27.702823117375374 12.62555828690529 13.7438498288393 36.439917162060738 10.186323732137678 10.566783413290976 11.038630276918409 7.5870117694139498
leaf_count=30 31 113 52 56 149 42 43 45 31
internal_value=0 -0.00296115 -0.00897087 -0.0235679 0.0040423 0.00803572 0.00138558 0.0124705 8.94643e-05
internal_weight=144.509 118.526 64.639 26.3694 53.8874 46.6262 38.2696 25.9822 14.9436
internal_count=592 485 264 108 221 191 156 107 62
is_linear=0
shrinkage=0.03


Tree=39
num_leaves=9
num_cat=0
split_feature=21 37 28 38 12 3 8 12
split_gain=9.58036 9.11499 8.27353 8.2276 6.88999 5.92762 2.25858 1.55343
threshold=0.013154153220980846 0.0033529759070068947 5.5000000000000009 0.011362102376311458 37.930427572680166 0.044496790385646807 0.032761108646728813 51.990207343160556
decision_type=2 2 2 2 2 2 2 2
left_child=7 4 5 -4 -2 -3 -6 -1
right_child=1 2 3 -5 6 -7 -8 -9
leaf_value=-0.028349919764987776 -0.0051529240255752135 0.017706717017337458 -0.015772611156195517 0.011071079296466411 0.024556871587817768 -0.0092592581844545638 0.0029850565413025629 -0.0056899292558522368
leaf_weight=8.7673061043024081 11.086313351988791 20.833203330636028 43.12948402762413 11.069482505321501 25.099916711449623 8.4956099987030012 7.9225255399942389 7.9988954514265052
leaf_count=37 46 85 175 45 104 35 32 33
internal_value=0 0.00283623 -0.00286453 -0.00982432 0.0136129 0.00932431 0.0202758 -0.020097
internal_weight=144.403 127.637 83.5278 54.199 44.1088 29.3288 33.0224 16.7662
internal_count=592 522 340 220 182 120 136 70
is_linear=0
shrinkage=0.03


Tree=40
num_leaves=9
num_cat=0
split_feature=36 34 14 7 36 38 38 36
split_gain=5.57463 6.51838 5.25119 5.24881 5.91063 7.53226 5.21017 3.71202
threshold=0.0050722237368389655 -0.027958266481249824 15.993364115088641 0.02369675037555705 0.0044888707732613038 0.009342027425481637 0.0066337153159080455 0.0060657922445945959
decision_type=2 2 2 2 2 2 2 2
left_child=3 2 -2 4 5 -1 -3 -8
right_child=1 6 -4 -5 -6 -7 7 -9
leaf_value=-0.017049704531391863 0.019683434707892293 0.0083295688084653596 -0.0088406688861828349 -0.0060543706439468922 0.031668843989647387 0.019683974401740287 -0.022971168552258621 -0.0070591622519384197
leaf_weight=7.3059191107750001 12.599325835704805 10.297028318047522 7.2800806313753119 14.329823881387709 9.5361930280923826 8.7126002609729749 21.031540900468826 48.784170970320702
leaf_count=30 53 42 30 59 39 36 86 199
internal_value=-0.00184053 -0.00568478 0.00869872 0.00725028 0.0151532 0.00206473 -0.00956156 -0.0125677
internal_weight=139.877 99.9921 19.8794 39.8845 25.5547 16.0185 80.1127 69.8157
internal_count=574 410 83 164 105 66 327 285
is_linear=0
shrinkage=0.03


Tree=41
num_leaves=9
num_cat=0
split_feature=21 7 7 25 21 20 12 21
split_gain=10.8482 11.2383 6.81975 6.39572 4.09913 5.65749 3.78778 0.370159
threshold=0.014635733920778932 0.0081649290586045444 0.0091178605982210701 0.087267764387319216 0.016297454393505991 0.035657376521941127 35.552205830096092 0.011896552911559794
decision_type=2 2 2 2 2 2 2 2
left_child=2 3 7 -2 -3 -6 -5 -1
right_child=1 4 -4 6 5 -7 -8 -9
leaf_value=-0.011060363850055512 -0.0048903745358473381 0.01059458811310628 0.00016708306540935751 0 -0.015228223691369549 0.0079048099519478873 0.022601928297146249 -0.031429557587035785
leaf_weight=7.1027893275022533 12.025523170828817 8.3463980704545957 12.267576888203619 7.2281298190355292 37.451455444097519 10.210467115044592 32.208801627159119 12.927562683820723
leaf_count=30 49 34 50 30 153 42 133 53
internal_value=-0.00177918 0.00274257 -0.0165451 0.0127168 -0.00628597 -0.0098517 0.0184246 -0.0265473
internal_weight=139.769 107.471 32.2979 51.4625 56.0083 47.6619 39.4369 20.0304
internal_count=574 441 133 212 229 195 163 83
is_linear=0
shrinkage=0.03


Tree=42
num_leaves=9
num_cat=0
split_feature=21 7 32 37 32 21 3 35
split_gain=10.3164 10.5806 6.55958 4.98102 4.6165 3.88908 5.39089 0.825319
threshold=0.014635733920778932 0.0081649290586045444 0.0039449142729374173 0.022443874838100512 -0.012881625391162164 0.016297454393505991 0.029255730451764776 0.019127387844634084
decision_type=2 2 2 2 2 2 2 2
left_child=2 3 7 4 -2 -3 -7 -1
right_child=1 5 -4 -5 -6 6 -8 -9
leaf_value=-0.011534670678317751 0 0.010342827398579757 0.0012263120919970203 -0.0015297031726092824 0.02392280793931895 -0.02249556186880863 -0.0013505318776038415 -0.032067356856359253
leaf_weight=9.3816439807415026 9.6035111993551237 8.3418281525373441 11.205966353416441 14.480325132608412 27.281173378229141 16.437476277351379 31.18141271173954 11.655935779213904
leaf_count=39 40 34 46 59 113 67 128 48
internal_value=-0.00173611 0.00267292 -0.016149 0.0123645 0.018003 -0.00608361 -0.00956438 -0.0253583
internal_weight=139.569 107.326 32.2435 51.365 36.8847 55.9607 47.6189 21.0376
internal_count=574 441 133 212 153 229 195 87
is_linear=0
shrinkage=0.03


Tree=43
num_leaves=9
num_cat=0
split_feature=21 7 7 34 5 0 11 34
split_gain=9.802 10.0083 6.42712 6.03505 7.19046 4.18227 3.35763 3.13707
threshold=0.014635733920778932 0.0081649290586045444 0.0091178605982210701 -0.029256655786391302 0.059891647547988265 -0.027958504559123906 0.0071627071995548084 0.0066583726293194543
decision_type=2 2 2 2 2 2 2 2
left_child=2 5 7 -3 -5 -2 -7 -1
right_child=1 3 -4 4 -6 6 -8 -9
leaf_value=-0.0072806441114463688 -0.0058352989843564636 0.016081651321964364 0.00039462563876129165 -0.024627214244612533 -0.00071003975449838422 0.0019354320841369036 0.021167175564270509 -0.03547332175637246
leaf_weight=8.7912805229425448 7.707595005631446 7.2572690546512595 12.254149243235586 16.995218589901924 31.686764806509018 14.070948675274847 29.487115874886513 11.137573301792143
leaf_count=37 32 30 50 69 130 58 122 46
internal_value=-0.00170362 0.00259242 -0.0157674 -0.00591734 -0.009998 0.0120331 0.0156415 -0.0255189
internal_weight=139.388 107.205 32.183 55.9393 48.682 51.2657 43.5581 19.9289
internal_count=574 441 133 229 199 212 180 83
is_linear=0
shrinkage=0.03


Tree=44
num_leaves=12
num_cat=0
split_feature=22 17 34 17 4 1 23 10 12 32 1
split_gain=5.28822 5.13388 7.77731 4.84826 6.54822 6.50956 4.43273 4.34291 3.45528 2.99978 2.90338
threshold=0.061083142042069445 -0.70534518596160234 -0.026460062295815486 0.13581013266885658 0.054423429315682344 -0.0066432556108773069 0.82727284411129076 -0.012697038018127991 45.235665106396247 -0.012881625391162164 -0.014301882425577948
decision_type=2 2 2 2 2 2 2 2 2 2 2
left_child=1 8 -3 5 7 9 -4 -5 -1 -2 -10
right_child=3 2 6 4 -6 -7 -8 -9 10 -11 -12
leaf_value=-0.011997431367142115 -0.0042922783892519519 0.011536323438403384 0 0.0031983021045067631 -0.0049870208618490661 -0.020233122458236212 -0.022353332910268933 0.035051668494823746 0.019331135753275153 0.016783900169557914 0
leaf_weight=8.1319638490676898 8.9474913477897662 8.008598789572714 8.7837446033954603 7.9043249934911755 9.0857362896203977 10.466760903596876 33.427195698022842 10.262283965945246 9.935746759176256 10.454319551587107 13.790197938680647
leaf_count=34 37 34 36 33 37 43 137 42 41 43 57
internal_value=-0.00166934 -0.00656198 -0.0124121 0.00509137 0.0138863 -0.00283035 -0.0176114 0.0236277 0.00240533 0.00687056 0.00847381
internal_weight=139.198 82.0774 50.2195 57.1209 27.2523 29.8686 42.2109 18.1666 31.8579 19.4018 23.7259
internal_count=574 339 207 235 112 123 173 75 132 80 98
is_linear=0
shrinkage=0.03


Tree=45
num_leaves=6
num_cat=0
split_feature=19 5 5 16 10
split_gain=5.92314 6.52572 14.4308 4.26534 3.40288
threshold=0.26835160871574837 0.1304756447937068 0.098880153746367841 5.7390808403561424 0.044466750785132854
decision_type=2 2 2 2 2
left_child=1 2 3 -1 -3
right_child=-2 4 -4 -5 -6
leaf_value=0 0.021024638198759198 0 0.027395692538871499 -0.013869197470884512 -0.026918994781544605
leaf_weight=87.250617995858192 8.933047026395796 7.3145312368869808 13.931754767894743 23.536313131451607 10.965380311012266
leaf_count=360 38 30 57 96 46
internal_value=-0.000162102 -0.00186082 0.000580389 -0.00308471 -0.0176708
internal_weight=151.932 142.999 124.719 110.787 18.2799
internal_count=627 589 513 456 76
is_linear=0
shrinkage=0.03


Tree=46
num_leaves=8
num_cat=0
split_feature=34 38 28 14 16 16 35
split_gain=5.75807 9.03748 6.4263 8.06467 3.66356 4.02888 3.6063
threshold=0.035075048741410771 0.0077932116399021785 8.5000000000000018 65.768705109321232 20.164706216363854 5.788750503085546 0.044251983585933526
decision_type=2 2 2 2 2 2 2
left_child=1 2 3 -1 5 -3 -2
right_child=6 4 -4 -5 -6 -7 -8
leaf_value=0.013868099917374517 0 0.0084927977882029385 -0.02437258960931344 -0.016920667332443514 0.021706842371324517 -0.0062084965103678851 -0.02444880392895581
leaf_weight=14.692738473415377 8.5537649840116519 58.71702928841114 13.876727297902105 12.137824669480322 12.313134908676146 20.356192663311958 11.14222104847431
leaf_count=60 35 243 58 50 51 84 46
internal_value=-0.000152072 0.00207221 -0.00924156 0 0.00736245 0.00446336 -0.0145768
internal_weight=151.79 132.094 40.7073 26.8306 91.3864 79.0732 19.696
internal_count=627 546 168 110 378 327 81
is_linear=0
shrinkage=0.03


Tree=47
num_leaves=6
num_cat=0
split_feature=19 5 5 37 10
split_gain=5.50297 6.21355 13.6082 5.49356 3.22369
threshold=0.26835160871574837 0.1304756447937068 0.098880153746367841 0.015327737884472838 0.044466750785132854
decision_type=2 2 2 2 2
left_child=1 2 3 -1 -3
right_child=-2 4 -4 -5 -6
leaf_value=0.0026069781195638877 0.020319899687146509 0 0.026661084459510275 -0.010561010658737066 -0.026289981026988939
leaf_weight=63.373296111822128 8.8719201982021314 7.3145832568407085 13.889017000794409 47.276147216558456 10.903111606836317
leaf_count=262 38 30 57 194 46
internal_value=-0.000157673 -0.00179709 0.000581952 -0.00297364 -0.0172512
internal_weight=151.628 142.756 124.538 110.649 18.2177
internal_count=627 589 513 456 76
is_linear=0
shrinkage=0.03


Tree=48
num_leaves=8
num_cat=0
split_feature=21 25 20 35 40 25 20
split_gain=5.49409 5.26656 6.83443 5.64565 7.64957 5.82403 3.61336
threshold=0.012267606772530944 0.08442895612228736 0.02864587414779406 0.048026981734366044 0.037335835215548625 0.30000152587890633 0.023592256056101237
decision_type=2 2 2 2 2 2 2
left_child=-1 2 6 4 -3 -5 -2
right_child=1 3 -4 5 -6 -7 -8
leaf_value=-0.01800644022212829 -0.0070662177311175524 0.016965715621689071 -0.027901028807836282 0.0060909946057127115 -0.0022835934054465153 -0.018422252207174531 0.014720867572763852
leaf_weight=12.21466216444969 18.559079751372341 45.289007350802422 8.9573017656803113 16.240378633141521 27.849829986691475 14.098503232002257 8.2696668207645398
leaf_count=52 76 189 37 67 114 58 34
internal_value=-0.000144083 0.00154917 -0.00793458 0.00505944 0.00957064 -0.00527132 0
internal_weight=151.478 139.264 35.786 103.478 73.1388 30.3389 26.8287
internal_count=627 575 147 428 303 125 110
is_linear=0
shrinkage=0.03


Tree=49
num_leaves=9
num_cat=0
split_feature=34 23 38 37 23 28 11 2
split_gain=5.3183 9.68729 8.39869 6.40543 10.137 6.02475 8.07588 4.77753
threshold=0.035075048741410771 0.96364448567724237 0.0077932116399021785 0.019274487291424672 0.93867012881170575 8.5000000000000018 0.025808477536230948 0.05101469205054688
decision_type=2 2 2 2 2 2 2 2
left_child=2 -2 5 7 -5 6 -1 -4
right_child=1 -3 3 4 -6 -7 -8 -9
leaf_value=-0.021265586089351921 0.0043073849089573105 -0.034127008151850199 0.017298544233226167 -0.015126180081442817 0.014683956347283244 -0.023634804068569822 0.010993645206497336 -0.0056165385130588549
leaf_weight=8.7099354863166827 10.699337750673296 8.9462355226278287 45.711087003350258 21.691291645169258 15.924596905708311 13.794466078281401 18.064386695623398 7.7733613997697821
leaf_count=36 44 37 191 89 66 58 74 32
internal_value=-0.000156851 -0.014038 0.00198111 0.00709219 -0.0020233 -0.0089378 0 0.0136153
internal_weight=151.315 19.6456 131.669 91.1003 37.6159 40.5688 26.7743 53.4844
internal_count=627 81 546 378 155 168 110 223
is_linear=0
shrinkage=0.03


end of trees

feature_importances:
return_20d=26
volatility=26
month=22
macro_topix_vol_20=22
rsi=20
macro_usdjpy_ret_20=20
macd_hist=18
macro_topix_ret_20=17
div_ma_10=15
macro_usdjpy_ret_60=14
div_ma_60=13
macd=12
macro_usdjpy_vol_20=12
rsi_change=10
macd_signal=10
vol_ratio=10
vol_change=8
return_5d=7
ma_5_20_cross=7
bb_bandwidth=7
atr_pct=7
price_position_20d=7
return_2d=6
return_3d=5
div_ma_20=5
ma_20_60_cross=5
macd_hist_change=5
upper_shadow_pct=5
gap=5
return_10d=4
macro_nikkei_ret_20=3
return_1d=2
div_ma_5=1
bb_pct_b=1
candle_body_pct=1
day_of_week=1

parameters:
[boosting: gbdt]
[objective: binary]
[metric: binary_logloss]
[tree_learner: serial]
[device_type: cpu]
[data_sample_strategy: bagging]
[data: ]
[valid: ]
[num_iterations: 50]
[learning_rate: 0.03]
[num_leaves: 15]
[num_threads: 0]
[seed: 43]
[deterministic: 0]
[force_col_wise: 0]
[force_row_wise: 0]
[histogram_pool_size: -1]
[max_depth: 4]
[min_data_in_leaf: 30]
[min_sum_hessian_in_leaf: 0.001]
[bagging_fraction: 0.7]
[pos_bagging_fraction: 1]
[neg_bagging_fraction: 1]
[bagging_freq: 5]
[bagging_seed: 11149]
[bagging_by_query: 0]
[feature_fraction: 0.6]
[feature_fraction_bynode: 1]
[feature_fraction_seed: 21351]
[extra_trees: 0]
[extra_seed: 16806]
[early_stopping_round: 0]
[early_stopping_min_delta: 0]
[first_metric_only: 0]
[max_delta_step: 0]
[lambda_l1: 0.5]
[lambda_l2: 2]
[linear_lambda: 0]
[min_gain_to_split: 0]
[drop_rate: 0.1]
[max_drop: 50]
[skip_drop: 0.5]
[xgboost_dart_mode: 0]
[uniform_drop: 0]
[drop_seed: 2965]
[top_rate: 0.2]
[other_rate: 0.1]
[min_data_per_group: 100]
[max_cat_threshold: 32]
[cat_l2: 10]
[cat_smooth: 10]
[max_cat_to_onehot: 4]
[top_k: 20]
[monotone_constraints: ]
[monotone_constraints_method: basic]
[monotone_penalty: 0]
[feature_contri: ]
[forcedsplits_filename: ]
[refit_decay_rate: 0.9]
[cegb_tradeoff: 1]
[cegb_penalty_split: 0]
[cegb_penalty_feature_lazy: ]
[cegb_penalty_feature_coupled: ]
[path_smooth: 0]
[interaction_constraints: ]
[verbosity: -1]
[saved_feature_importance_type: 0]
[use_quantized_grad: 0]
[num_grad_quant_bins: 4]
[quant_train_renew_leaf: 0]
[stochastic_rounding: 1]
[linear_tree: 0]
[max_bin: 255]
[max_bin_by_feature: ]
[min_data_in_bin: 5]
[bin_construct_sample_cnt: 200000]
[data_random_seed: 179]
[is_enable_sparse: 1]
[enable_bundle: 1]
[use_missing: 1]
[zero_as_missing: 0]
[feature_pre_filter: 1]
[pre_partition: 0]
[two_round: 0]
[header: 0]
[label_column: ]
[weight_column: ]
[group_column: ]
[ignore_column: ]
[categorical_feature: ]
[forcedbins_filename: ]
[precise_float_parser: 0]
[parser_config_file: ]
[objective_seed: 26397]
[num_class: 1]
[is_unbalance: 0]
[scale_pos_weight: 1]
[sigmoid: 1]
[boost_from_average: 1]
[reg_sqrt: 0]
[alpha: 0.9]
[fair_c: 1]
[poisson_max_delta_step: 0.7]
[tweedie_variance_power: 1.5]
[lambdarank_truncation_level: 30]
[lambdarank_norm: 1]
[label_gain: ]
[lambdarank_position_bias_regularization: 0]
[eval_at: ]
[multi_error_top_k: 1]
[auc_mu_weights: ]
[num_machines: 1]
[local_listen_port: 12400]
[time_out: 120]
[machine_list_filename: ]
[machines: ]
[gpu_platform_id: -1]
[gpu_device_id: -1]
[gpu_use_dp: 0]
[num_gpu: 1]

end of parameters

pandas_categorical:[]
