tree
version=v4
num_class=1
num_tree_per_iteration=1
label_index=0
max_feature_idx=44
objective=binary sigmoid:1
feature_names=return_1d return_2d return_3d return_5d return_10d return_20d div_ma_5 div_ma_10 div_ma_20 div_ma_60 ma_5_20_cross ma_20_60_cross rsi rsi_change macd macd_signal macd_hist macd_hist_change bb_pct_b bb_bandwidth atr_pct volatility vol_change vol_ratio candle_body_pct upper_shadow_pct lower_shadow_pct day_of_week month is_month_end is_month_start streak gap price_position_20d macro_usdjpy_ret_20 macro_usdjpy_ret_60 macro_usdjpy_vol_20 macro_topix_ret_20 macro_topix_vol_20 macro_topix_above_200dma macro_nikkei_ret_20 macro_nikkei_above_200dma macro_nikkei_vi macro_jgb10y macro_bias_score
feature_infos=[-0.12835434852893635:0.16617210682492578] [-0.22148426220040429:0.21772997032640951] [-0.22310354773579466:0.20586597364024506] [-0.22108155002891849:0.29080118694362023] [-0.28019775521111701:0.30192878338278928] [-0.29304461942257221:0.41748654167440136] [-0.15274763297788679:0.092720082027244813] [-0.21539783568068274:0.12935080379706521] [-0.24590370468877951:0.16042594047307318] [-0.29445971225691259:0.25740857503152592] [-0.14874534055042199:0.098736997395715731] [-0.1102545375855446:0.12680590540952696] [12.369651204602661:88.360109635582972] [-33.121422539015342:25.328206189359449] [-238.26566209611747:249.06416956676367] [-182.05043018964793:228.88287429047637] [-89.422362273060244:81.196676320373541] [-34.88001340294278:34.424611612607549] [-0.28830922150144106:1.4180027028808069] [0.037300922361956521:0.40248531031416535] [0.014363198321985507:0.078443877551020405] [0.0092131497949139406:0.068334462003049184] [-0.79600727327827869:4.2083565459610028] [0.52841722475932351:1.7467403614742107] [-0.99394087357954541:1] [0:0.93333333333333335] [0:0.93877551020408168] [0:4] [1:12] none [0:1] [-7:8] [-0.14047151277013747:0.17632552404438973] [0:1] [-0.10288784967882303:0.08505611680078462] [-0.13986255140503889:0.13160084488587853] [0.0024251968629527628:0.011841457708833433] [-0.22586490939044479:0.19897850606512013] [0.0040695656522785678:0.036437277456277402] [0:1] [-0.22859537662338159:0.23022297972565586] [0:1] none none none
tree_sizes=1144 1098 1099 1194 1206 978 777 989 878 993 677 885 994 786 786 1298 1276 1097 890 1312 785 682 955 984 891 1078 786 1094 1096 775 974 995 761 889 759 1394 868 683 1293 1284 679 680 1083 786 792 1262 1081 1195 1102 871

Tree=0
num_leaves=10
num_cat=0
split_feature=7 34 14 14 35 7 37 22 24
split_gain=15.5346 9.48872 15.4427 8.60289 8.45401 2.95038 2.72197 2.28449 1.35079
threshold=-0.0012818937701742324 -0.027292232755695086 14.828498374621292 76.63807012682129 -0.011499424473297713 0.023208916190727947 0.03071725051723118 -0.095924903110703549 -0.57956016289190693
decision_type=2 2 2 2 2 2 2 2 2
left_child=4 -2 5 -4 7 -3 8 -1 -6
right_child=1 2 3 -5 6 -7 -8 -9 -10
leaf_value=-0.014210526315789467 0.018113207547169809 -0.036521739130434779 0.0068571428571428568 -0.015306122448979591 0.0078947368421052599 -0.0078947368421052617 0.003913043478260869 0.0055813953488372094 0.029126213592233011
leaf_weight=7.5000000000000027 11.249999999999998 15.250000000000002 41.75 22.5 7.5000000000000027 7.4999999999999991 9.4999999999999982 8.7499999999999982 23.75
leaf_count=30 45 61 167 90 30 30 38 35 95
internal_value=0.00171701 -0.00538653 -0.00893258 -0.00090566 0.0139831 -0.0290909 0.0210526 -0.00328767 0.0252632
internal_weight=155.25 98.25 87 64.25 57 22.75 40.75 16.25 31.25
internal_count=621 393 348 257 228 91 163 65 125
is_linear=0
shrinkage=0.03


Tree=1
num_leaves=9
num_cat=0
split_feature=7 20 34 9 12 34 34 17
split_gain=14.7268 15.3283 9.0168 12.4083 7.52942 7.14977 6.25925 2.38039
threshold=-0.0012818937701742324 0.022959799043465984 -0.027292232755695086 0.019370396513005917 44.463012893631713 -0.0088860967055880962 -0.0057935078812141319 -3.6559459476978264
decision_type=2 2 2 2 2 2 2 2
left_child=1 4 -2 -4 -1 -5 7 -3
right_child=2 6 3 5 -6 -7 -8 -9
leaf_value=-0.023000725538391168 0.017653076647031966 -0.0033343279849069327 -0.031876971786503082 -0.023445443149630409 0.011399033700678815 0.0010424106055088801 0.033714497678655107 0.017210991007505002
leaf_weight=10.49932809174061 11.249077320098875 7.7493225336074829 14.996191263198851 10.749452725052832 8.2491840869188291 61.247346922755241 22.997143730521202 7.499384939670561
leaf_count=42 45 31 60 43 33 245 92 30
internal_value=0.00166757 0.013613 -0.00524617 -0.00870601 -0.00750236 -0.0029459 0.0241951 0.00672435
internal_weight=155.236 56.9944 98.2421 86.993 18.7485 71.9968 38.2459 15.2487
internal_count=621 228 393 348 75 288 153 61
is_linear=0
shrinkage=0.03


Tree=2
num_leaves=9
num_cat=0
split_feature=20 2 22 14 38 37 25 11
split_gain=11.2443 12.2293 9.36902 6.61012 6.96424 6.20234 9.46348 1.33796
threshold=0.019073486768889324 0.011852904114941666 0.10528210619874469 76.63807012682129 0.0090356026599184066 0.048989039480382586 0.053342816500711245 0.035139335844381121
decision_type=2 2 2 2 2 2 2 2
left_child=2 5 7 4 -3 6 -2 -1
right_child=1 3 -4 -5 -6 -7 -8 -9
leaf_value=-0.010880688322064217 -0.0055392605903039739 0.014013812141277863 0.0067810943401365679 -0.021851980504604497 -0.0094779599148612399 -0.0058181629602292494 0.022258356943723686 -0.036684741946044493
leaf_weight=7.4975948035717073 11.995401009917257 18.495405450463295 8.9983153939247114 13.498840793967245 23.243102714419365 10.998303577303885 51.480478331446648 8.9981070905923826
leaf_count=30 48 74 36 54 93 44 206 36
internal_value=0.00161763 0.0053262 -0.0157206 -0.00507911 0.000753698 0.0131709 0.0167674 -0.0282121
internal_weight=155.206 129.712 25.494 55.2373 41.7385 74.4742 63.4759 16.4957
internal_count=621 519 102 221 167 298 254 66
is_linear=0
shrinkage=0.03


Tree=3
num_leaves=10
num_cat=0
split_feature=20 2 22 14 38 38 38 36 11
split_gain=10.6609 11.5333 8.94231 6.27154 6.59015 5.98919 6.50557 5.84192 1.24917
threshold=0.019073486768889324 0.011852904114941666 0.10528210619874469 76.63807012682129 0.0090356026599184066 0.0078995955767183126 0.0068827974673407897 0.0048922641903527452 0.035139335844381121
decision_type=2 2 2 2 2 2 2 2 2
left_child=2 5 8 4 -3 6 -2 -7 -1
right_child=1 3 -4 -5 -6 7 -8 -9 -10
leaf_value=-0.010623595894622013 0.016472153528294006 0.01363468366150704 0.0066147475953170307 -0.021286460856365659 -0.0092163849963636905 0.033975777336489814 -0.013737960121331202 0.01043569255114408 -0.035797380161810832
leaf_weight=7.497072681784636 9.4963352680206317 18.495015501976013 8.9981644302606565 13.494928434491156 23.242464259266853 14.239013135433195 12.495162442326544 38.22828933596611 8.9941437542438489
leaf_count=30 38 74 36 54 93 57 50 153 36
internal_value=0.00153989 0.00515407 -0.0153406 -0.00494533 0.000727037 0.0127752 0 0.0181126 -0.0275512
internal_weight=155.181 129.691 25.4894 55.2324 41.7375 74.4588 21.9915 52.4673 16.4912
internal_count=621 519 102 221 167 298 88 210 66
is_linear=0
shrinkage=0.03


Tree=4
num_leaves=10
num_cat=0
split_feature=38 28 11 11 18 21 11 38 11
split_gain=10.4384 9.13061 9.337 10.6103 8.53805 8.77698 8.55783 12.3321 6.6396
threshold=0.0078995955767183126 8.5000000000000018 0.025524635184913994 0.071858692467883026 0.78658468153642014 0.014708253800212779 -0.0039754235677185159 0.0088339553591261707 0.013210517597951778
decision_type=2 2 2 2 2 2 2 2 2
left_child=1 2 -1 -4 5 -2 -6 -8 -7
right_child=4 -3 3 -5 6 8 7 -9 -10
leaf_value=-0.018673778609009688 -0.010973839504272392 -0.027914283795586248 0.025471325088451392 -0.014260497981097599 0.018624034712426317 0.0027048943448562067 0.010264637254548653 -0.029413017397109612 0.024031520162028804
leaf_weight=13.741561770439146 9.9882035851478559 14.488704338669775 14.243479058146479 7.4966724067926398 7.7471972256898871 22.478168562054634 9.7453647404909152 15.493199482560156 39.713876858353615
leaf_count=55 40 58 57 30 31 90 39 62 159
internal_value=0.00148762 -0.00944593 -0.000417238 0.0110916 0.00690208 0.0126328 -0.00521451 -0.0139128 0.0168815
internal_weight=155.136 49.9704 35.4817 21.7402 105.166 72.1802 32.9858 25.2386 62.192
internal_count=621 200 142 87 421 289 132 101 249
is_linear=0
shrinkage=0.03


Tree=5
num_leaves=8
num_cat=0
split_feature=2 21 5 28 34 14 31
split_gain=12.7708 12.6219 15.6598 10.0345 6.96414 6.18095 1.08222
threshold=0.051508406869111519 0.014083806636277068 0.13404457418218887 8.5000000000000018 0.021222555799800483 76.63807012682129 2.5000000000000004
decision_type=2 2 2 2 2 2 2
left_child=1 3 5 4 -1 -3 -2
right_child=6 2 -4 -5 -6 -7 -8
leaf_value=0.016695990054334104 -0.0098019862752118953 0.013924579960668136 -0.022096525729432274 -0.035608557294994174 -0.018329988250223542 -0.005309622453748975 -0.033277166181522239
leaf_weight=8.7417219132185036 7.9946155399084073 87.156815484166145 12.740447625517843 10.484184235334395 7.7426152676343909 15.731600001454352 7.7448949813842773
leaf_count=35 32 349 51 42 31 63 31
internal_value=-0.000557709 0.00230176 0.00672973 -0.0153195 0 0.0107955 -0.0246483
internal_weight=158.337 142.597 115.629 26.9685 16.4843 102.888 15.7395
internal_count=634 571 463 108 66 412 63
is_linear=0
shrinkage=0.03


Tree=6
num_leaves=6
num_cat=0
split_feature=9 21 2 40 16
split_gain=16.7256 12.6323 11.4933 7.04973 5.43698
threshold=0.13609373690456247 0.013706172769129676 0.051508406869111519 0.071665812940453169 -1.5883686568935464
decision_type=2 2 2 2 2
left_child=1 4 3 -3 -1
right_child=-2 2 -4 -5 -6
leaf_value=-0.025576637148971671 -0.027937905712766165 0.012963959470226799 -0.019340297835797739 -0.00930267367676842 0.0017408281895765229
leaf_weight=15.716294661164286 15.980444952845572 94.372506991028786 11.240980222821234 12.490923047065733 8.4865458309650403
leaf_count=63 64 378 45 50 34
internal_value=-0.00058472 0.0027276 0.006898 0.0101004 -0.0160238
internal_weight=158.288 142.307 118.104 106.863 24.2028
internal_count=634 570 473 428 97
is_linear=0
shrinkage=0.03


Tree=7
num_leaves=8
num_cat=0
split_feature=9 20 28 34 17 16 23
split_gain=15.8251 10.1373 10.1293 8.59704 7.29304 1.80245 0.243529
threshold=0.13609373690456247 0.019073486768889324 8.5000000000000018 0.033895282421079538 10.390695726768614 1.0409195401990046 1.0936287437177052
decision_type=2 2 2 2 2 2 2
left_child=1 2 5 4 -3 -1 -2
right_child=6 3 -4 -5 -6 -7 -8
leaf_value=0.011981417896116836 -0.033890889601213559 0.012148565317726566 -0.032310669417531544 -0.013926140024872856 -0.014875999105926531 -0.0060194880370270879 -0.012513936140252474
leaf_weight=7.4894124865531939 8.4825075417757017 94.093007817864418 11.460448712110518 13.729457199573515 7.7433586269617072 7.7430011332035065 7.4843022525310507
leaf_count=30 34 377 46 55 31 31 30
internal_value=-0.000595507 0.00262398 -0.0132391 0.00657844 0.00970228 0.00232404 -0.0272139
internal_weight=158.225 142.259 26.6929 115.566 101.836 15.2324 15.9668
internal_count=634 570 107 463 408 61 64
is_linear=0
shrinkage=0.03


Tree=8
num_leaves=7
num_cat=0
split_feature=9 9 15 25 6 26
split_gain=15.0634 8.9537 7.10167 7.63372 5.63473 0.435259
threshold=0.13609373690456247 -0.051878773715440918 51.69892221260212 0.0081386885462846562 0.0090682762462969344 0.22962758112094397
decision_type=2 2 2 2 2 2
left_child=1 -1 3 -3 -4 -2
right_child=5 2 4 -5 -6 -7
leaf_value=0.024085406003848325 -0.034368242984655482 -0.02711430896647048 0.020528841942851428 -0.00086810032649193246 -0.0045407031706212802 -0.012552476332193288
leaf_weight=13.46829444169998 7.7224935442209235 9.4862281084060651 20.704067856073383 88.317713245749474 10.236126750707625 8.2271008789539319
leaf_count=54 31 38 83 354 41 33
internal_value=-0.000619864 0.0025188 0 -0.00405641 0.0120074 -0.0266034
internal_weight=158.162 142.212 128.744 97.8039 30.9402 15.9496
internal_count=634 570 516 392 124 64
is_linear=0
shrinkage=0.03


Tree=9
num_leaves=8
num_cat=0
split_feature=2 21 40 7 33 13 0
split_gain=11.0989 10.8291 9.36375 7.29572 5.22126 2.07015 1.12654
threshold=0.051508406869111519 0.014083806636277068 0.071665812940453169 0.0093431164210335902 0.85173006472191093 2.6839303062066162 -0.0066675577367930608
decision_type=2 2 2 2 2 2 2
left_child=1 3 4 6 -3 -2 -1
right_child=5 2 -4 -5 -6 -7 -8
leaf_value=-0.010307416927105682 -0.0062939112932179171 0.012774770472567747 -0.015065366124855924 0.0044376911657682712 -0.0035478798412642088 -0.032708958347631323 -0.033695715516018625
leaf_weight=8.2257010191679019 7.4869817048311225 81.797110706567764 13.972881987690924 9.9811258018016797 19.710878506302834 8.2218882292509061 8.7083257436752337
leaf_count=33 30 328 56 40 79 33 35
internal_value=-0.000620158 0.00204138 0.00615269 -0.0142851 0.009453 -0.023099 -0.0254159
internal_weight=158.105 142.396 115.481 26.9152 101.508 15.7089 16.934
internal_count=634 571 463 108 407 63 68
is_linear=0
shrinkage=0.03


Tree=10
num_leaves=5
num_cat=0
split_feature=21 8 9 33
split_gain=15.3526 12.4794 8.85965 8.44334
threshold=0.0124908741777693 0.082182715187040942 -0.051878773715440918 0.19359768908598851
decision_type=2 2 2 2
left_child=-1 2 -2 -4
right_child=1 -3 3 -5
leaf_value=-0.028488457868824989 0.028625646949159537 -0.02678031870508463 -0.021134380473595497 0.0057585613459429363
leaf_weight=12.945664480328558 12.196535751223562 9.2123599946498853 9.4672504216432554 109.97678941488266
leaf_count=52 49 37 38 441
internal_value=0.000338947 0.00345521 0.00605248 0.00319054
internal_weight=153.799 140.853 131.641 119.444
internal_count=617 565 528 479
is_linear=0
shrinkage=0.03


Tree=11
num_leaves=7
num_cat=0
split_feature=21 5 35 36 35 12
split_gain=14.5626 11.5196 7.77386 8.41095 4.63124 1.00596
threshold=0.0124908741777693 0.13404457418218887 0.055666227439163725 0.0043209750435972902 0.074884704637423374 69.520906790124755
decision_type=2 2 2 2 2 2
left_child=-1 2 3 -2 -4 -3
right_child=1 5 4 -5 -6 -7
leaf_value=-0.02778791852069025 -0.010236469705420767 -0.0063010994864912068 -0.017265346990957116 0.013778103040327888 0.0062140332859483473 -0.027468044453005533
leaf_weight=12.924597665667532 13.180136874318121 7.4770923256874067 15.441341504454615 86.524198323488235 10.72361747920513 7.4655202478170395
leaf_count=52 53 30 62 347 43 30
internal_value=0.000306927 0.00334372 0.00646941 0.0103172 -0.0073519 -0.0197558
internal_weight=153.737 140.812 125.869 99.7043 26.165 14.9426
internal_count=617 565 505 400 105 60
is_linear=0
shrinkage=0.03


Tree=12
num_leaves=8
num_cat=0
split_feature=21 37 17 23 23 20 0
split_gain=13.8002 12.5528 14.9074 6.24707 4.72828 5.66711 2.61809
threshold=0.0124908741777693 0.016101208102516921 2.4401983409179384 0.96991929384507169 0.8291242818030099 0.023810098217277174 0.023123273223354616
decision_type=2 2 2 2 2 2 2
left_child=-1 4 3 -3 -2 -6 -4
right_child=1 2 6 -5 5 -7 -8
leaf_value=-0.027113034540614755 0.027766053066561644 -0.0061731802457345407 -0.035278192140965711 0.013062784070285455 -0.0067024995384990099 0.013893621043950359 -0.0080984072523670979
leaf_weight=12.899083629250525 13.697397619485853 29.167959690093994 11.219132736325266 26.915092766284943 14.956855461001394 36.354641035199165 8.4553681612014753
leaf_count=52 55 117 45 108 60 146 34
internal_value=0.000259622 0.00321766 -0.00489615 0.00293211 0.0127608 0.00758245 -0.0261145
internal_weight=153.666 140.766 75.7576 56.0831 65.0089 51.3115 19.6745
internal_count=617 565 304 225 261 206 79
is_linear=0
shrinkage=0.03


Tree=13
num_leaves=6
num_cat=0
split_feature=9 8 5 9 36
split_gain=12.1276 7.31663 8.02745 6.80099 6.68347
threshold=-0.051878773715440918 0.082182715187040942 0.081755896425103294 0.13609373690456247 0.006660659854349567
decision_type=2 2 2 2 2
left_child=-1 2 4 -4 -2
right_child=1 -3 3 -5 -6
leaf_value=0.025831027709430732 -0.012226887767546414 -0.025706521371034657 0.019938541806472334 -0.0082671401469447403 0.0029835557297934402
leaf_weight=13.15236748754978 50.057411283254623 9.1786832958459836 24.184447094798088 8.7088474184274656 48.291117325425148
leaf_count=53 201 37 97 35 194
internal_value=0.000232242 -0.0023892 -0.000284487 0.0119951 -0.00469816
internal_weight=153.573 140.421 131.242 32.8933 98.3485
internal_count=617 564 527 132 395
is_linear=0
shrinkage=0.03


Tree=14
num_leaves=6
num_cat=0
split_feature=21 5 25 35 18
split_gain=13.0802 10.6416 7.89576 7.59968 0.763174
threshold=0.0124908741777693 0.13404457418218887 1.0000000180025095e-35 0.047014515513737039 0.85915441248907598
decision_type=2 2 2 2 2
left_child=-1 2 -2 -4 -3
right_child=1 4 3 -5 -6
leaf_value=-0.026451484654823137 -0.015674062488199431 -0.0064574466741384165 0.013802261571297559 -0.0023036958057011314 -0.02619397171784198
leaf_weight=12.869225919246672 11.211513161659239 7.4791335612535459 78.177553445100784 36.352557420730591 7.4266404509544373
leaf_count=52 45 30 314 146 30
internal_value=0.000223485 0.00310604 0.00611548 0.00860961 -0.0191137
internal_weight=153.517 140.647 125.742 114.53 14.9058
internal_count=617 565 505 460 60
is_linear=0
shrinkage=0.03


Tree=15
num_leaves=11
num_cat=0
split_feature=37 17 0 2 20 16 2 32 28 20
split_gain=10.6852 10.5832 11.5193 7.384 7.91037 7.8209 5.47194 4.59778 4.46978 4.3946
threshold=0.015593040042549912 -0.68867733766398131 0.0036951787220297354 0.051508406869111519 0.023810098217277174 -5.8879956420022301 -0.0044835817486151832 -0.0067024901891122859 5.5000000000000009 0.02750444806993611
decision_type=2 2 2 2 2 2 2 2 2 2
left_child=3 6 -3 4 5 -1 9 -6 -4 -2
right_child=1 2 8 -5 7 -7 -8 -9 -10 -11
leaf_value=-0.016402033450249532 0.0066466908716140373 -0.037097776526061617 0.0060758271185563642 -0.015919825880554139 0.0055692069092330414 0.013432574259054066 0.020332667127858878 0.028387543569186258 -0.014265669651954931 -0.01874702782038128
leaf_weight=12.631247922778131 13.173127293586733 13.696327313780783 15.179971054196356 7.4811122119426718 15.881318271160124 15.195261090993879 12.198216110467909 23.853591397404671 19.144111901521683 7.9659844487905493
leaf_count=51 53 55 61 30 64 61 49 96 77 32
internal_value=0.000610582 -0.00674017 -0.0155847 0.00874272 0.0120685 0 0.00573632 0.0203308 -0.0050174 -0.0030676
internal_weight=156.4 81.3577 48.0204 75.0425 67.5614 27.8265 33.3373 39.7349 34.3241 21.1391
internal_count=629 327 193 302 272 112 134 160 138 85
is_linear=0
shrinkage=0.03


Tree=16
num_leaves=11
num_cat=0
split_feature=37 21 33 28 14 14 10 22 23 36
split_gain=10.1053 16.7662 12.8227 8.62129 11.3651 7.45267 5.79475 5.30082 3.97647 1.42501
threshold=0.015593040042549912 0.014635733920778932 0.86352347660982554 5.5000000000000009 76.63807012682129 18.906288722045705 0.05163823709431737 0.23539931272317186 0.8612266666809747 0.007715386860932579
decision_type=2 2 2 2 2 2 2 2 2 2
left_child=1 9 8 4 5 -2 7 -5 -3 -1
right_child=3 2 -4 6 -6 -7 -8 -9 -10 -11
leaf_value=-0.0035721672119704163 -0.0075421285599566934 0.036371080672362881 -0.01664167708408551 -0.025390799735077574 -0.021157490039228 0.024749020282948102 0.0046353817129816607 0 0.014615633541773219 -0.02510283993151782
leaf_weight=7.4581097811460486 7.4738758802413967 12.401610493659971 7.468682348728179 29.621941089630127 8.9414852708578092 17.92718805372715 9.1561525613069517 8.2141348719596845 39.498767390847206 8.1461058408021909
leaf_count=30 30 50 30 119 36 72 37 33 159 33
internal_value=0.000584348 0.00850004 0.015851 -0.00656112 0.0044089 0.0148434 -0.014737 -0.019799 0.0212491 -0.0172392
internal_weight=156.308 74.9733 59.3691 81.3348 34.3425 25.4011 46.9922 37.8361 51.9004 15.6042
internal_count=629 302 239 327 138 102 189 152 209 63
is_linear=0
shrinkage=0.03


Tree=17
num_leaves=9
num_cat=0
split_feature=17 12 1 34 12 38 4 36
split_gain=8.80093 8.25085 5.49562 4.48405 7.08417 4.37539 2.26057 1.35364
threshold=-1.404282286675693 72.976737182865335 -0.040887353340493253 -0.036230795524886554 68.336433650915694 0.0097005934021293667 0.031556313623323458 0.0066298260915324371
decision_type=2 2 2 2 2 2 2 2
left_child=2 3 -1 -2 -5 6 -4 -7
right_child=1 -3 5 4 -6 7 -8 -9
leaf_value=-0.0078716113003378455 0.014642601935570971 -0.026563002501121161 0.012664515373780615 -0.007745814993671587 0.01606989289819262 0.035719428941251082 -0.0030814964108766508 0.010478178287251491
leaf_weight=9.9153686463832837 11.636583834886549 11.382250785827635 16.882559746503834 67.855573117733002 11.179708570241926 8.1880067139863986 11.19375668466091 7.9423908889293662
leaf_count=40 47 46 68 273 45 33 45 32
internal_value=0.000554364 -0.00451774 0.0102059 -0.00107494 -0.00387846 0.0147505 0.00610055 0.0266452
internal_weight=156.176 102.054 54.1221 90.6719 79.0353 44.2067 28.0763 16.1304
internal_count=629 411 218 365 318 178 113 65
is_linear=0
shrinkage=0.03


Tree=18
num_leaves=7
num_cat=0
split_feature=9 17 1 5 5 20
split_gain=14.5274 8.96486 7.52226 7.08628 11.3925 3.56593
threshold=-0.062934671840616782 -1.404282286675693 -0.040887353340493253 0.12397678930704094 0.10110606070311236 0.019681405660485148
decision_type=2 2 2 2 2 2
left_child=-1 2 -2 4 -3 -4
right_child=1 3 5 -5 -6 -7
leaf_value=0.035838898775864284 -0.015552396015927956 -0.0071816684153695803 -0.0032611519674365205 -0.026348488366016807 0.027511013194698529 0.017206572122276498
leaf_weight=7.8890013992786399 7.7019960433244696 77.285713911056519 7.4504123032093039 12.839728474617003 7.4616777002811423 35.492936700582504
leaf_count=32 31 311 30 52 30 143
internal_value=0.000554761 -0.00167535 0.00823276 -0.0070301 -0.00339034 0.0133347
internal_weight=156.121 148.232 50.6453 97.5871 84.7474 42.9433
internal_count=629 597 204 393 341 173
is_linear=0
shrinkage=0.03


Tree=19
num_leaves=11
num_cat=0
split_feature=37 33 12 17 16 22 26 36 1 5
split_gain=9.34023 11.0386 10.3904 9.25909 8.61551 6.68975 5.21244 4.58685 4.18907 3.66686
threshold=0.015593040042549912 0.86720322853934706 56.174798848453541 -0.68867733766398131 -17.189530618614953 0.022693821995662392 0.19189065928982832 0.0062086792255458163 -0.01522416217504585 0.085899378291016917
decision_type=2 2 2 2 2 2 2 2 2 2
left_child=1 2 4 6 -1 9 -2 -7 -8 -5
right_child=3 -3 -4 5 -6 7 8 -9 -10 -11
leaf_value=0.022012411756702543 0.020234862908624744 -0.022075217345843782 0.032979483085406401 -0.033656292151414302 -0.0028553045282788277 -0.013082022707847975 -0.018971462956038295 0.011347132628741128 0.0058480987279437629 -0.0058066038917711825
leaf_weight=16.315857425332069 11.424188733100889 7.4616452902555457 14.886249616742132 15.204132422804834 36.146077260375023 13.877918258309366 7.4627580046653739 9.9417639374732953 14.410029932856562 8.8906294107437116
leaf_count=66 46 30 60 61 146 56 30 40 58 36
internal_value=0.000543571 0.00816679 0.0122737 -0.00632598 0.00512757 -0.0146145 0.00532855 -0.00221577 -0.00287167 -0.0251876
internal_weight=156.021 74.8098 67.3482 81.2114 52.4619 47.9144 33.297 23.8197 21.8728 24.0948
internal_count=629 302 272 327 212 193 134 96 88 97
is_linear=0
shrinkage=0.03


Tree=20
num_leaves=6
num_cat=0
split_feature=9 21 7 22 21
split_gain=10.6795 6.86235 6.21114 9.3618 6.01877
threshold=-0.051878773715440918 0.012740066004304267 0.015470195300581625 -0.0185961693882522 0.014170803852770876
decision_type=2 2 2 2 2
left_child=-1 -2 4 -4 -3
right_child=1 2 3 -5 -6
leaf_value=0.021018813262440577 -0.024237922783778624 -0.016412695827030036 -0.02294552012743294 0.0011734430975558312 0.0061084187758643303
leaf_weight=13.53243914246559 13.273479700088499 10.437979504466055 25.343526810407639 28.059843763709068 67.57220596075058
leaf_count=55 54 42 102 113 272
internal_value=-0.00249674 -0.00505498 -0.00267066 -0.010417 0.00257261
internal_weight=158.219 144.687 131.414 53.4034 78.0102
internal_count=638 583 529 215 314
is_linear=0
shrinkage=0.03


Tree=21
num_leaves=5
num_cat=0
split_feature=9 21 16 14
split_gain=10.1514 6.52745 6.79702 5.94697
threshold=-0.051878773715440918 0.012740066004304267 30.551016205224037 -35.874864316681617
decision_type=2 2 2 2
left_child=-1 -2 3 -3
right_child=1 2 -4 -5
leaf_value=0.020514393206198075 -0.023667826720490323 -0.020775525310120477 -0.024036910031448182 0.001653833887359077
leaf_weight=13.498912304639815 13.234176114201544 9.7119104713201505 10.128138020634649 111.52388791739941
leaf_count=55 54 39 41 449
internal_value=-0.00243417 -0.00492949 -0.00260261 -0.000329218
internal_weight=158.097 144.598 131.364 121.236
internal_count=638 583 529 488
is_linear=0
shrinkage=0.03


Tree=22
num_leaves=8
num_cat=0
split_feature=19 16 16 4 28 1 28
split_gain=6.95063 8.84207 6.45812 8.37365 4.81738 5.30665 4.81457
threshold=0.26835160871574837 5.8877431695549465 -2.2166986963645425 0.0039607040018553316 9.5000000000000018 -0.006994379698217367 5.5000000000000009
decision_type=2 2 2 2 2 2 2
left_child=1 2 3 -1 5 -3 -4
right_child=-2 4 6 -5 -6 -7 -8
leaf_value=0.00025765249529425432 0.021183630631358009 0 0.020454724929498094 -0.024980354064066203 0.00050016542549190712 -0.02689479775547772 0
leaf_weight=51.875058263540268 8.3858876526355726 7.448123723268508 18.110544070601463 12.900159284472464 11.394205689430235 25.004810586571693 22.880579099059105
leaf_count=210 34 30 73 52 46 101 92
internal_value=-0.00238001 -0.00406172 0.000561736 -0.00514158 -0.0150794 -0.0206963 0.00974309
internal_weight=157.999 149.613 105.766 64.7752 43.8471 32.4529 40.9911
internal_count=638 604 427 262 177 131 165
is_linear=0
shrinkage=0.03


Tree=23
num_leaves=8
num_cat=0
split_feature=5 21 28 21 23 40 5
split_gain=6.17956 7.4153 8.1874 6.90329 6.37201 6.06515 2.37733
threshold=0.14126368122816427 0.014635733920778932 8.5000000000000018 0.016297454393505991 1.0123513883378534 -0.003955992905737781 0.041028200995649418
decision_type=2 2 2 2 2 2 2
left_child=1 2 4 6 -1 -5 -3
right_child=-2 3 -4 5 -6 -7 -8
leaf_value=-0.011810177897612906 -0.020271748438725302 0.029097674148402235 -0.030800264880025505 0.0092153075413125268 0.017026917437454128 -0.0064617141371616513 0.0052928465047609495
leaf_weight=17.11353869736195 13.570946946740149 9.1845565438270587 11.243422612547873 35.530721127986908 8.6878744661807996 52.401163548231125 10.194925129413603
leaf_count=69 55 37 46 144 35 211 41
internal_value=-0.00230093 -0.000255068 -0.0115676 0.00365308 -0.00103422 0 0.0189429
internal_weight=157.927 144.356 37.0448 107.311 25.8014 87.9319 19.3795
internal_count=638 583 150 433 104 355 78
is_linear=0
shrinkage=0.03


Tree=24
num_leaves=7
num_cat=0
split_feature=9 23 37 10 25 20
split_gain=9.22902 5.02207 7.61907 6.34842 3.88899 4.19086
threshold=-0.051878773715440918 0.8018252622962837 0.011808602571326545 0.010417665831840452 0.0081386885462846562 0.018359170586118839
decision_type=2 2 2 2 2 2
left_child=-1 2 -2 -4 -3 -6
right_child=1 4 3 -5 5 -7
leaf_value=0.019688837534551636 0.02588752173621572 -0.022720469393021289 -0.023259063726991318 0.0092109644473797256 -0.018341740212231405 -0.0021681961724369894
leaf_weight=13.433249235153196 9.3608829230070132 11.876721248030661 7.4626078605651882 10.182417213916777 16.205388590693474 89.281588956713676
leaf_count=55 38 48 30 41 66 360
internal_value=-0.0022342 -0.00461773 0.00642026 -0.00472789 -0.0073483 -0.00508745
internal_weight=157.803 144.37 27.0059 17.645 117.364 105.487
internal_count=638 583 109 71 474 426
is_linear=0
shrinkage=0.03


Tree=25
num_leaves=9
num_cat=0
split_feature=21 14 38 5 37 5 6 24
split_gain=9.30529 8.48121 10.8687 5.38025 7.96362 4.80618 2.08943 1.14186
threshold=0.013154153220980846 74.161803991710045 0.00974901266386838 0.084544008218347746 0.039387623418046365 0.12397678930704094 0.0020676466909905181 -0.096004080253103183
decision_type=2 2 2 2 2 2 2 2
left_child=7 3 6 4 -2 -5 -3 -1
right_child=1 2 -4 5 -6 -7 -8 -9
leaf_value=-0.028930092497032007 0.0070048127704303974 -0.0069592931861058912 0.010056600442192217 0.032498263361344037 -0.015314170495490668 0 -0.031979736305060937 -0.0073368821621808793
leaf_weight=7.8194505423307445 76.701811015605927 7.9483812898397508 11.563004672527311 9.9411494582891482 15.395583257079123 7.4507320672273627 11.564778894186018 8.3070033937692624
leaf_count=32 310 32 47 40 62 30 47 34
internal_value=-0.000350311 0.00213311 -0.0110845 0.00615074 0.00286823 0.020671 -0.0240798 -0.0206714
internal_weight=156.692 140.565 31.0762 109.489 92.0974 17.3919 19.5132 16.1265
internal_count=634 568 126 442 372 70 79 66
is_linear=0
shrinkage=0.03


Tree=26
num_leaves=6
num_cat=0
split_feature=21 9 18 16 22
split_gain=8.88703 7.87077 6.0476 5.35734 1.14531
threshold=0.013154153220980846 0.13978097965012651 0.095207010557238556 36.131492473087071 -0.036903269321520264
decision_type=2 2 2 2 2
left_child=4 2 -2 -4 -1
right_child=1 -3 3 -5 -6
leaf_value=-0.029045986980271575 -0.018462604349716374 -0.018180216824895696 0.0082319185070278914 -0.014041378003397413 -0.0075639737999614372
leaf_weight=7.2701988816261318 7.3521962463855735 13.225404590368269 111.53640973567963 8.3645140975713712 8.8191097974777204
leaf_count=30 30 54 450 34 36
internal_value=-0.000356152 0.00206784 0.00453702 0.00635016 -0.0202383
internal_weight=156.568 140.479 127.253 119.901 16.0893
internal_count=634 568 514 484 66
is_linear=0
shrinkage=0.03


Tree=27
num_leaves=9
num_cat=0
split_feature=21 14 38 12 16 37 19 22
split_gain=8.47536 7.78136 10.37 5.26038 6.21374 3.66833 3.01578 1.09343
threshold=0.013154153220980846 74.161803991710045 0.00974901266386838 69.520906790124755 5.6418428223379173 0.043785813854633433 0.13249115592675023 -0.036903269321520264
decision_type=2 2 2 2 2 2 2 2
left_child=7 3 6 4 -2 -5 -3 -1
right_child=1 2 -4 5 -6 -7 -8 -9
leaf_value=-0.028477278925913854 0.0068431229301023277 -0.0041816857748790326 0.0099322891781926503 0.033737119239501338 -0.011285420948504696 0.0031600442448511063 -0.031960189614270156 -0.0073835659104975974
leaf_weight=7.2334241569042232 73.959873154759407 7.433544918894774 11.551474407315252 7.6723186969757071 19.58659154176712 8.1942674219608289 12.016882330179213 8.8125234395265561
leaf_count=30 299 30 47 31 79 33 49 36
internal_value=-0.000384268 0.00197933 -0.0106913 0.00583163 0.00273363 0.0209067 -0.0234229 -0.0198259
internal_weight=156.461 140.415 31.0019 109.413 93.5465 15.8666 19.4504 16.0459
internal_count=634 568 126 442 378 64 79 66
is_linear=0
shrinkage=0.03


Tree=28
num_leaves=9
num_cat=0
split_feature=21 14 38 12 16 37 20 24
split_gain=8.10617 7.39243 9.88275 5.04388 5.87453 3.49575 3.23851 1.18087
threshold=0.013154153220980846 74.161803991710045 0.00974901266386838 69.520906790124755 5.6418428223379173 0.043785813854633433 0.02672826065400315 -0.096004080253103183
decision_type=2 2 2 2 2 2 2 2
left_child=7 3 6 4 -2 -5 -3 -1
right_child=1 2 -4 5 -6 -7 -8 -9
leaf_value=-0.027626937323201831 0.0066458918606372907 -0.0060151344056625818 0.009676872922157246 0.033006046551796758 -0.010978216821587476 0.0030838121484708806 -0.033724075096504991 -0.0063824815249999157
leaf_weight=7.7441797256469753 73.929958939552307 9.3561704605817848 11.553436309099196 7.6515964567661277 19.586605876684189 8.1943635642528516 10.059137210249899 8.2564066946506482
leaf_count=32 299 38 47 31 79 33 41 34
internal_value=-0.000384395 0.00192369 -0.0104292 0.00568089 0.00264498 0.0204527 -0.0228805 -0.0194251
internal_weight=156.332 140.331 30.9687 109.363 93.5166 15.846 19.4153 16.0006
internal_count=634 568 126 442 378 64 79 66
is_linear=0
shrinkage=0.03


Tree=29
num_leaves=6
num_cat=0
split_feature=9 12 9 20 18
split_gain=5.52702 5.14094 5.61842 6.97713 2.87981
threshold=-0.057143040104051336 37.678536350521888 0.13978097965012651 0.018999652865954262 0.14415965949314538
decision_type=2 2 2 2 2
left_child=-1 4 3 -3 -2
right_child=1 2 -4 -5 -6
leaf_value=0.019134144074856526 -0.028562055346534807 -0.011983478491129653 -0.017238021446845161 0.0058286414306838868 -0.0012293768741885082
leaf_weight=9.9427832663059217 7.597411170601843 22.567754000425339 13.152637273073195 95.293958678841591 7.6510098576545715
leaf_count=41 31 92 54 385 31
internal_value=-0.000385502 -0.00205381 0 0.00214985 -0.0174501
internal_weight=156.206 146.263 131.014 117.862 15.2484
internal_count=634 593 531 477 62
is_linear=0
shrinkage=0.03


Tree=30
num_leaves=8
num_cat=0
split_feature=34 37 15 38 40 5 37
split_gain=9.18352 7.60567 8.93903 7.59686 7.17605 6.13071 5.18667
threshold=0.027638425936921011 0.053073017408123764 -9.4193586628561636 0.007939838977807331 0.068238128596435424 -0.071613451628775956 0.0070997561413542751
decision_type=2 2 2 2 2 2 2
left_child=1 2 5 -4 6 -1 -2
right_child=4 -3 3 -5 -6 -7 -8
leaf_value=0.0063156411999260699 -0.0048487910308389719 -0.014085104979383058 0 0.01899013604465 0.0090191191318613837 -0.021066008926496904 -0.034064510991931418
leaf_weight=12.445635035634043 12.817338347434999 14.63796319067478 27.304340109229088 52.174084454774857 7.8958903998136512 12.391587033867834 11.567391276359556
leaf_count=51 52 59 111 212 32 50 47
internal_value=0.000627577 0.0045962 0.00757437 0.0124845 -0.0129741 -0.00733831 -0.020808
internal_weight=151.234 118.954 104.316 79.4784 32.2806 24.8372 24.3847
internal_count=614 483 424 323 131 101 99
is_linear=0
shrinkage=0.03


Tree=31
num_leaves=8
num_cat=0
split_feature=21 34 40 15 38 1 33
split_gain=9.20211 8.89957 8.95811 9.16861 7.39118 2.49521 1.28356
threshold=0.0124908741777693 0.027299270392837752 0.065369400399097902 -9.4193586628561636 0.0086565526649731352 -0.0052832473297477747 0.84864578213029329
decision_type=2 2 2 2 2 2 2
left_child=-1 2 3 -2 -3 -6 -4
right_child=1 4 6 -5 5 -7 -8
leaf_value=-0.021455750650463623 -0.0053646713733329675 0.0074440454235818378 -0.02013105249000955 0.015829823954351084 -0.0039126633788986297 -0.029754360888219217 -0.00083263136478996301
leaf_weight=13.218344047665594 22.115496605634689 10.401288017630579 7.6920586824417096 71.5806774944067 7.3977032452821776 11.337211713194844 7.3984830379486084
leaf_count=55 90 42 31 290 30 46 30
internal_value=0.000585375 0.00308145 0.0071079 0.0106629 -0.0109613 -0.0216355 -0.0127519
internal_weight=151.141 137.923 108.787 93.6962 29.1362 18.7349 15.0905
internal_count=614 559 441 380 118 76 61
is_linear=0
shrinkage=0.03


Tree=32
num_leaves=6
num_cat=0
split_feature=21 35 9 21 25
split_gain=8.72624 6.52529 5.68052 5.7141 2.63797
threshold=0.0124908741777693 0.056294619725414836 0.14250889605041031 0.024887189982080702 0.23447145061728397
decision_type=2 2 2 2 2
left_child=-1 2 3 -2 -3
right_child=1 4 -4 -5 -6
leaf_value=-0.020971809818703929 0.013711550281269035 0 -0.014468137893991739 -0.0001034759737781437 -0.020174275913771706
leaf_weight=13.16463555395603 63.021834939718246 12.805609077215196 8.791583374142645 42.332685217261314 10.887325346469877
leaf_count=55 255 52 36 172 44
internal_value=0.000530727 0.00296221 0.00603403 0.00812227 -0.0105708
internal_weight=151.004 137.839 114.146 105.355 23.6929
internal_count=614 559 463 427 96
is_linear=0
shrinkage=0.03


Tree=33
num_leaves=7
num_cat=0
split_feature=21 34 35 37 36 20
split_gain=8.28083 8.33754 10.113 9.15858 7.36017 3.91374
threshold=0.0124908741777693 0.027299270392837752 0.047014515513737039 0.053073017408123764 0.0070624294123895282 0.024557071507759303
decision_type=2 2 2 2 2 2
left_child=-1 3 5 4 -2 -3
right_child=1 2 -4 -5 -6 -7
leaf_value=-0.020501196717880383 0.0033750344148578562 0.018714800753912107 -0.027811791935903277 -0.013651577917913797 0.021019317247800713 -0.0079027504830088951
leaf_weight=13.109579086303709 59.566264674067497 7.6868364214897174 13.79661577939987 14.620541855692862 34.490700662136078 7.6174812167882919
leaf_count=55 242 31 56 59 140 31
internal_value=0.000484585 0.00285346 -0.0107408 0.00675748 0.0103043 0.00521735
internal_weight=150.888 137.778 29.1009 108.678 94.057 15.3043
internal_count=614 559 118 441 382 62
is_linear=0
shrinkage=0.03


Tree=34
num_leaves=6
num_cat=0
split_feature=21 35 5 1 35
split_gain=7.87015 5.95249 7.67613 5.99337 2.46386
threshold=0.0124908741777693 0.056294619725414836 0.13404457418218887 -0.040887353340493253 0.074884704637423374
decision_type=2 2 2 2 2
left_child=-1 2 3 -2 -3
right_child=1 4 -4 -5 -6
leaf_value=-0.02004328920158386 -0.011796563531636262 -0.01796783302985273 -0.014343720269255204 0.01104959357693591 0
leaf_weight=13.053355634212492 9.3470345288515073 13.071323677897455 12.760388195514677 91.886384263634682 10.604024067521093
leaf_count=55 38 53 52 373 43
internal_value=0.000454139 0.00276422 0.00570575 0.0086072 -0.0101559
internal_weight=150.723 137.669 113.994 101.233 23.6753
internal_count=614 559 463 411 96
is_linear=0
shrinkage=0.03


Tree=35
num_leaves=12
num_cat=0
split_feature=22 34 35 19 34 17 38 22 11 32 34
split_gain=8.93963 8.29511 5.71122 5.08664 5.53618 4.27825 9.09607 5.38692 4.55332 2.91015 1.42516
threshold=0.070685314448035177 0.023798587721067469 0.023381480070996056 0.1771217070434645 0.010103050245114488 -0.4930142510645083 0.0097999844150179396 0.5690226645432257 0.031227498182795358 -0.0016689939740555102 1.0000000180025095e-35
decision_type=2 2 2 2 2 2 2 2 2 2 2
left_child=1 3 -3 4 -1 6 9 8 -7 -2 -5
right_child=5 2 -4 10 -6 7 -8 -9 -10 -11 -12
leaf_value=-0.010474288235147174 0 0.00065990358776998545 -0.028175846675456914 0.020244275531200489 0.0099833826772330169 0.0070474478053713192 0.023120436093167249 -0.0015238116077853662 0.034319197706440478 -0.023120202737427181 0.00096646515836368134
leaf_weight=36.772136896848679 11.302495017647745 7.6279738098382976 16.667402341961861 10.015796884894373 14.729867011308668 13.306950241327288 8.5548591017723066 9.8014860153198224 13.254624858498572 7.6595559418201473 7.5870342552661887
leaf_count=150 46 31 68 41 60 54 35 40 54 31 31
internal_value=0.000943744 -0.00483426 -0.0191903 0.000399787 -0.00418844 0.00950986 0 0.0159898 0.0226319 -0.0110171 0.0136468
internal_weight=157.28 93.4002 24.2954 69.1048 51.502 63.88 27.5169 36.3631 26.5616 18.9621 17.6028
internal_count=641 381 99 282 210 260 112 148 108 77 72
is_linear=0
shrinkage=0.03


Tree=36
num_leaves=7
num_cat=0
split_feature=9 15 22 17 21 23
split_gain=9.24295 6.9753 8.54187 6.0575 5.7513 4.4316
threshold=-0.051878773715440918 -14.409711168792233 0.057902292789423389 -0.4930142510645083 0.014635733920778932 0.96108187983870763
decision_type=2 2 2 2 2 2
left_child=-1 5 4 -4 -3 -2
right_child=1 2 3 -5 -6 -7
leaf_value=0.0240158476020184 -0.029037608080451711 -0.019384197717281216 -0.00050895086938568203 0.018704436316857611 -3.3100091777041043e-05 0
leaf_weight=12.282704204320906 10.176410987973215 17.327385351061821 24.378867954015732 30.199507430195808 54.147284641861916 8.6822249293327314
leaf_count=51 41 72 99 123 220 35
internal_value=0.000932632 -0.0012221 0.00130683 0.0101425 -0.00532843 -0.0173494
internal_weight=157.194 144.912 126.053 54.5784 71.4747 18.8586
internal_count=641 590 514 222 292 76
is_linear=0
shrinkage=0.03


Tree=37
num_leaves=5
num_cat=0
split_feature=9 9 38 2
split_gain=8.81728 6.32448 5.08333 10.1652
threshold=-0.051878773715440918 -0.025092322801959745 0.012557300122894317 0.050653601746732509
decision_type=2 2 2 2
left_child=-1 -2 3 -3
right_child=1 2 -4 -5
leaf_value=0.023486456246518191 -0.019293677019578872 0.0018095485182063333 0.017308202483996331 -0.025719634114700542
leaf_weight=12.228674113750456 13.624081328511236 106.65277799963951 13.055284470319746 11.525910824537275
leaf_count=51 55 435 53 47
internal_value=0.000892884 -0.00120617 0.000820443 -0.00113389
internal_weight=157.087 144.858 131.234 118.179
internal_count=641 590 535 482
is_linear=0
shrinkage=0.03


Tree=38
num_leaves=11
num_cat=0
split_feature=22 26 25 11 36 37 12 14 12 26
split_gain=7.96937 6.49741 5.79891 5.88236 4.83193 4.49412 3.41901 3.64561 3.11357 2.86686
threshold=0.070685314448035177 0.021910919540229886 0.15450851271797841 0.036911806444252411 0.0077365257041046914 -0.0014610797180495958 66.767724508410268 28.732292841471011 71.081268667449351 0.25078616352201261
decision_type=2 2 2 2 2 2 2 2 2 2
left_child=1 -1 4 -4 -3 9 7 -7 -8 -2
right_child=5 2 3 -5 -6 6 8 -9 -10 -11
leaf_value=0.017659322810277746 0.0041124053280022629 -0.023917160400388781 0.0082714463161813676 -0.010723665625808024 0.0011729286035810382 -0.013017273400798663 0.02523753815076836 0.0064548927682653362 0 0.030414519774849182
leaf_weight=8.3278950005769712 8.5656537860631961 22.708375886082653 27.260630771517754 27.094977766275406 7.8067012280225745 14.051966190338137 7.6388407200574857 15.996715188026426 7.3449989706277847 10.19683964550495
leaf_count=34 35 93 111 111 32 57 31 65 30 42
internal_value=0.000865749 -0.00459088 -0.00730314 -0.000975539 -0.0173597 0.00896259 0.00308898 -0.00242712 0.0140173 0.0206821
internal_weight=156.994 93.1986 84.8707 54.3556 30.5151 63.795 45.0325 30.0487 14.9838 18.7625
internal_count=641 381 347 222 125 260 183 122 61 77
is_linear=0
shrinkage=0.03


Tree=39
num_leaves=11
num_cat=0
split_feature=22 19 25 21 21 17 38 22 11 23
split_gain=7.56855 6.72676 7.43561 4.19083 6.08107 3.92987 8.49973 5.11698 4.12704 2.63295
threshold=0.070685314448035177 0.17568706532050823 0.25493174687575559 0.026500774418887131 0.014635733920778932 -0.4930142510645083 0.0097999844150179396 0.5690226645432257 0.031227498182795358 0.99029188980934502
decision_type=2 2 2 2 2 2 2 2 2 2
left_child=1 3 -3 4 -1 6 9 8 -7 -2
right_child=5 2 -4 -5 -6 7 -8 -9 -10 -11
leaf_value=-0.017781048463327852 -0.021425118504783604 -0.0058314053293803845 0.025240535158457936 -0.025344631939377287 0.0014850389447717337 0.0065681495501902307 0.022110358883730641 -0.0019954314372451726 0.032610966761202072 0
leaf_weight=20.449981302022934 8.6451421678066307 12.718106165528299 10.700071632862089 10.604375019669531 38.68414480984211 13.265709370374681 8.4995767176151258 9.8083222657442075 13.230076804757116 10.293409451842306
leaf_count=85 35 52 44 43 157 54 35 40 54 42
internal_value=0.000865131 -0.00445046 0.00864458 -0.00917527 -0.00529601 0.00876086 0 0.014969 0.0214746 -0.0109636
internal_weight=156.899 93.1567 23.4182 69.7385 59.1341 63.7422 27.4381 36.3041 26.4958 18.9386
internal_count=641 381 96 285 242 260 112 148 108 77
is_linear=0
shrinkage=0.03


Tree=40
num_leaves=5
num_cat=0
split_feature=19 36 9 5
split_gain=10.6933 9.00742 5.44132 9.028
threshold=0.26536390772106633 0.0084297479004498983 0.13978097965012651 0.072185836967776598
decision_type=2 2 2 2
left_child=1 2 3 -1
right_child=-2 -3 -4 -5
leaf_value=-0.0049420503026886596 0.027602625299961211 -0.02804076018318832 -0.019680055022724068 0.014009840044092831
leaf_weight=91.921690598130226 7.5019109249114981 12.094491705298422 12.830617338418959 27.753366559743881
leaf_count=375 31 50 53 113
internal_value=-0.00306379 -0.00511195 -0.00252178 -0.000265673
internal_weight=152.102 144.6 132.506 119.675
internal_count=622 591 541 488
is_linear=0
shrinkage=0.03


Tree=41
num_leaves=5
num_cat=0
split_feature=19 36 36 14
split_gain=10.2133 8.57546 4.56525 4.97048
threshold=0.26536390772106633 0.0084297479004498983 0.0077766786520461926 76.63807012682129
decision_type=2 2 2 2
left_child=1 2 3 -1
right_child=-2 -3 -4 -5
leaf_value=-0.0012108370844818408 0.027038173416586337 -0.027381975007863994 0.012825586283635188 -0.016606709827241099
leaf_weight=96.791144967079163 7.470985382795333 12.062507987022398 13.25187538564205 22.427325204014778
leaf_count=395 31 50 54 92
internal_value=-0.00297814 -0.00497992 -0.00245157 -0.00445706
internal_weight=152.004 144.533 132.47 119.218
internal_count=622 591 541 487
is_linear=0
shrinkage=0.03


Tree=42
num_leaves=9
num_cat=0
split_feature=19 34 15 15 28 9 9 1
split_gain=9.75536 4.30236 11.8649 8.16653 5.75811 5.64452 4.88757 3.27386
threshold=0.26536390772106633 0.0068838647110685 30.998772772015446 20.148250802627135 9.5000000000000018 0.13978097965012651 0.016728075001837192 -0.014347065829844406
decision_type=2 2 2 2 2 2 2 2
left_child=1 2 6 4 -3 -5 -1 -4
right_child=-2 3 7 5 -6 -7 -8 -9
leaf_value=-0.010526355222622906 0.026491340748172762 -0.022826706548299047 -0.0066268713715620427 0.011519916241672978 0.0042933620180695929 -0.011874262978440842 0.0087411486650274157 -0.034745261192720353
leaf_weight=21.252204805612564 7.4382240921258918 16.916197538375858 8.1132657825946826 42.810949668288231 9.0508463829755765 9.385331839323042 21.969275683164597 14.970882609486578
leaf_count=87 31 69 33 175 37 39 90 61
internal_value=-0.00289272 -0.0048491 -0.0103494 0 -0.0132066 0.00675371 -0.000447618 -0.026777
internal_weight=151.907 144.469 66.3056 78.1633 25.967 52.1963 43.2215 23.0841
internal_count=622 591 271 320 106 214 177 94
is_linear=0
shrinkage=0.03


Tree=43
num_leaves=6
num_cat=0
split_feature=9 36 35 21 15
split_gain=6.75018 5.02482 5.64331 8.15913 7.74782
threshold=-0.062934671840616782 0.0090503095185719678 0.048026981734366044 0.02134501329005116 -14.409711168792233
decision_type=2 2 2 2 2
left_child=-1 2 4 -4 -2
right_child=1 -3 3 -5 -6
leaf_value=0.020752314882630643 -0.019978808229858744 -0.023000961723061607 -0.021093659393248108 0.005773250204991481 0.0047545516531589402
leaf_weight=8.058235362172125 11.102265134453772 10.366040319204329 26.524253875017166 13.556023165583609 82.203421369194984
leaf_count=34 45 43 109 55 336
internal_value=-0.00282159 -0.0045126 -0.00264644 -0.0118077 0.00129669
internal_weight=151.81 143.752 133.386 40.0803 93.3057
internal_count=622 588 545 164 381
is_linear=0
shrinkage=0.03


Tree=44
num_leaves=6
num_cat=0
split_feature=19 36 35 15 36
split_gain=9.31841 7.94285 4.96184 8.77867 6.71249
threshold=0.26536390772106633 0.0084297479004498983 0.042782929003027832 -14.409711168792233 0.0049900352998058324
decision_type=2 2 2 2 2
left_child=1 2 3 -1 -4
right_child=-2 -3 4 -5 -6
leaf_value=-0.018716640652107496 0.026030737726645742 -0.026268028306092275 0.0028064201829985629 0.0066355779954930614 -0.018379908078547499
leaf_weight=12.721134185791014 7.3976144641637793 12.002072155475615 20.869856417179108 69.359430760145187 29.364438533782959
leaf_count=52 31 50 86 283 120
internal_value=-0.00274855 -0.00466193 -0.00222844 0.00217626 -0.00952043
internal_weight=151.715 144.317 132.315 82.0806 50.2343
internal_count=622 591 541 335 206
is_linear=0
shrinkage=0.03


Tree=45
num_leaves=11
num_cat=0
split_feature=21 4 2 15 9 36 36 32 33 11
split_gain=10.2162 8.70404 6.59781 7.46662 6.22305 5.25281 8.13206 4.68322 1.6558 0.140473
threshold=0.014532027714375933 0.0063256082738643036 -0.056965852494913587 -5.305527470069932 0.045711344834528926 0.0077766786520461926 0.0050722237368389655 0.0033975128512943047 0.87107847155150797 0.017351708624657628
decision_type=2 2 2 2 2 2 2 2 2 2
left_child=4 2 -2 -4 9 6 -3 -6 -7 -1
right_child=1 5 3 -5 7 8 -8 -9 -10 -11
leaf_value=-0.012612171746080919 -0.0095006710098611263 0.0055639796107328004 0 0.026326409001100184 -0.013082950324321144 0.020231192154879337 -0.016411420277461414 0.015482935970088589 0 -0.032434175305900578
leaf_weight=8.2536446452140826 7.238239958882331 25.190423727035522 14.346694648265837 29.683646187186241 9.65559169650078 7.9770836085081083 31.095133185386658 7.2602839320898047 7.4424266219139099 8.1894545853137952
leaf_count=34 30 103 59 121 40 33 126 30 30 35
internal_value=0.00045186 0.00456468 0.0137937 0.0181954 -0.0136859 -0.00202571 -0.0064656 0 0.0122016 -0.0257444
internal_weight=156.333 122.974 51.2686 44.0303 33.359 71.7051 56.2856 16.9159 15.4195 16.4431
internal_count=641 502 210 180 139 292 229 70 63 69
is_linear=0
shrinkage=0.03


Tree=46
num_leaves=9
num_cat=0
split_feature=21 7 0 7 34 8 40 34
split_gain=9.74355 11.6219 6.92798 5.49482 5.07904 8.67852 3.79328 3.10301
threshold=0.014532027714375933 0.012580181240314729 -0.034716618153743599 0.0093431164210335902 -0.030156584308748676 0.051875291270626352 -0.041287297764120039 0.0019394252310781515
decision_type=2 2 2 2 2 2 2 2
left_child=3 2 -2 7 -3 -6 -4 -1
right_child=1 4 6 -5 5 -7 -8 -9
leaf_value=-0.0055913390365567662 -0.010261802599944067 0.013143696199926603 -0.00077463270119683262 0 -0.023806645753861461 0.0015219286730263353 0.01882630589050548 -0.03333658018581561
leaf_weight=8.6280560940504092 8.4903520047664625 8.0430902391672117 8.681849852204321 14.284803375601767 20.04564905166626 24.430364012718201 53.184236377477646 10.358260720968245
leaf_count=37 35 33 36 59 81 100 217 43
internal_value=0.0004296 0.00444752 0.0123416 -0.0133947 -0.00591727 -0.0101043 0.0159027 -0.0231774
internal_weight=156.147 122.876 70.3564 33.2711 52.5191 44.476 61.8661 18.9863
internal_count=641 502 288 139 214 181 253 80
is_linear=0
shrinkage=0.03


Tree=47
num_leaves=10
num_cat=0
split_feature=21 7 0 9 11 36 11 15 11
split_gain=9.2496 10.937 6.57645 5.93006 4.3406 5.61721 3.74503 3.42203 0.141508
threshold=0.014532027714375933 0.012580181240314729 -0.034716618153743599 0.045711344834528926 -0.010876990609390123 0.007715386860932579 0.0043215495342634478 34.504406665093562 0.017351708624657628
decision_type=2 2 2 2 2 2 2 2 2
left_child=3 2 -2 8 -3 -6 -4 -5 -1
right_child=1 4 6 7 5 -7 -8 -9 -10
leaf_value=-0.012088063700104042 -0.010000575569777901 0.0078804522838056123 0.0028052463227027772 0.011711267737552666 -0.016173468001053331 0.0097611243361925941 0.020204627091422279 -0.012576622561890637 -0.03146906205732955
leaf_weight=8.2270755022764224 8.5028153061866742 12.93794773519039 18.575298458337784 8.6354595720767993 32.140807271003723 7.4126058518886557 43.193278431892395 8.2492242157459241 8.0954995453357679
leaf_count=34 35 53 76 36 131 30 177 34 35
internal_value=0.000395966 0.00431393 0.0119798 -0.0130844 -0.00573632 -0.0107163 0.0154595 0 -0.0249049
internal_weight=155.97 122.763 70.2714 33.2073 52.4914 39.5534 61.7686 16.8847 16.3226
internal_count=641 502 288 139 214 161 253 70 69
is_linear=0
shrinkage=0.03


Tree=48
num_leaves=9
num_cat=0
split_feature=21 7 0 5 34 34 8 10
split_gain=8.82325 10.3007 6.25356 5.4462 5.0658 4.67834 8.21109 3.75264
threshold=0.014532027714375933 0.012580181240314729 -0.034716618153743599 0.072185836967776598 0.0084672293851539866 -0.030156584308748676 0.051875291270626352 0.029114353752396908
decision_type=2 2 2 2 2 2 2 2
left_child=3 2 -2 4 -1 -3 -7 -4
right_child=1 5 7 -5 -6 6 -8 -9
leaf_value=-0.0041954591533359571 -0.0097466161510202879 0.01272963284928392 0.010667656050496703 0.0066536040055904392 -0.032292080102244443 -0.022929136490065505 0.0017044470453185352 0.031878940599335021
leaf_weight=13.483503982424738 8.514566093683241 8.0274464637041074 52.214565604925156 7.7202854603528968 11.926406919956205 20.018912494182587 24.405010417103767 9.4425852149724943
leaf_count=57 35 33 214 32 50 81 100 39
internal_value=0.000370308 0.00419999 0.0116478 -0.0128094 -0.0193241 -0.00555033 -0.00958275 0.0150513
internal_weight=155.753 122.623 70.1717 33.1302 25.4099 52.4514 44.4239 61.6572
internal_count=641 502 288 139 107 214 181 253
is_linear=0
shrinkage=0.03


Tree=49
num_leaves=7
num_cat=0
split_feature=2 34 38 28 37 35
split_gain=4.62776 6.41045 7.2925 9.78409 7.48519 4.62769
threshold=0.057119479064710717 0.034830690815106487 0.0077932116399021785 8.5000000000000018 0.020128221355793178 0.023381480070996056
decision_type=2 2 2 2 2 2
left_child=1 2 3 -1 -4 -3
right_child=-2 5 4 -5 -6 -7
leaf_value=0.0045359791422636851 -0.015697561432805224 0.0042560416681555321 0.017574263762769628 -0.026323154936193333 0 -0.021738578278193373
leaf_weight=24.987168520689011 12.487304106354712 7.8269880264997509 46.236371532082558 11.80789792537689 38.418980330228806 13.778266891837118
leaf_count=102 51 32 192 50 157 57
internal_value=0.000357519 0.00205948 0.00485955 -0.00582688 0.00970473 -0.0121233
internal_weight=155.543 143.056 121.45 36.7951 84.6554 21.6053
internal_count=641 590 501 152 349 89
is_linear=0
shrinkage=0.03


end of trees

feature_importances:
volatility=31
div_ma_60=25
macro_usdjpy_ret_20=19
macro_usdjpy_vol_20=17
macro_topix_vol_20=16
return_20d=15
macro_topix_ret_20=15
vol_change=14
ma_20_60_cross=13
macd=13
atr_pct=12
macro_usdjpy_ret_60=12
return_3d=10
rsi=10
macd_signal=10
macd_hist=10
macd_hist_change=10
month=10
div_ma_10=9
bb_bandwidth=8
vol_ratio=8
return_2d=7
upper_shadow_pct=7
return_1d=6
price_position_20d=6
macro_nikkei_ret_20=6
div_ma_20=4
bb_pct_b=4
lower_shadow_pct=4
return_10d=3
ma_5_20_cross=3
candle_body_pct=3
gap=3
div_ma_5=2
rsi_change=1
streak=1

parameters:
[boosting: gbdt]
[objective: binary]
[metric: binary_logloss]
[tree_learner: serial]
[device_type: cpu]
[data_sample_strategy: bagging]
[data: ]
[valid: ]
[num_iterations: 50]
[learning_rate: 0.03]
[num_leaves: 15]
[num_threads: 0]
[seed: 42]
[deterministic: 0]
[force_col_wise: 0]
[force_row_wise: 0]
[histogram_pool_size: -1]
[max_depth: 4]
[min_data_in_leaf: 30]
[min_sum_hessian_in_leaf: 0.001]
[bagging_fraction: 0.7]
[pos_bagging_fraction: 1]
[neg_bagging_fraction: 1]
[bagging_freq: 5]
[bagging_seed: 400]
[bagging_by_query: 0]
[feature_fraction: 0.6]
[feature_fraction_bynode: 1]
[feature_fraction_seed: 30056]
[extra_trees: 0]
[extra_seed: 12879]
[early_stopping_round: 0]
[early_stopping_min_delta: 0]
[first_metric_only: 0]
[max_delta_step: 0]
[lambda_l1: 0.5]
[lambda_l2: 2]
[linear_lambda: 0]
[min_gain_to_split: 0]
[drop_rate: 0.1]
[max_drop: 50]
[skip_drop: 0.5]
[xgboost_dart_mode: 0]
[uniform_drop: 0]
[drop_seed: 17869]
[top_rate: 0.2]
[other_rate: 0.1]
[min_data_per_group: 100]
[max_cat_threshold: 32]
[cat_l2: 10]
[cat_smooth: 10]
[max_cat_to_onehot: 4]
[top_k: 20]
[monotone_constraints: ]
[monotone_constraints_method: basic]
[monotone_penalty: 0]
[feature_contri: ]
[forcedsplits_filename: ]
[refit_decay_rate: 0.9]
[cegb_tradeoff: 1]
[cegb_penalty_split: 0]
[cegb_penalty_feature_lazy: ]
[cegb_penalty_feature_coupled: ]
[path_smooth: 0]
[interaction_constraints: ]
[verbosity: -1]
[saved_feature_importance_type: 0]
[use_quantized_grad: 0]
[num_grad_quant_bins: 4]
[quant_train_renew_leaf: 0]
[stochastic_rounding: 1]
[linear_tree: 0]
[max_bin: 255]
[max_bin_by_feature: ]
[min_data_in_bin: 5]
[bin_construct_sample_cnt: 200000]
[data_random_seed: 175]
[is_enable_sparse: 1]
[enable_bundle: 1]
[use_missing: 1]
[zero_as_missing: 0]
[feature_pre_filter: 1]
[pre_partition: 0]
[two_round: 0]
[header: 0]
[label_column: ]
[weight_column: ]
[group_column: ]
[ignore_column: ]
[categorical_feature: ]
[forcedbins_filename: ]
[precise_float_parser: 0]
[parser_config_file: ]
[objective_seed: 16083]
[num_class: 1]
[is_unbalance: 0]
[scale_pos_weight: 1]
[sigmoid: 1]
[boost_from_average: 1]
[reg_sqrt: 0]
[alpha: 0.9]
[fair_c: 1]
[poisson_max_delta_step: 0.7]
[tweedie_variance_power: 1.5]
[lambdarank_truncation_level: 30]
[lambdarank_norm: 1]
[label_gain: ]
[lambdarank_position_bias_regularization: 0]
[eval_at: ]
[multi_error_top_k: 1]
[auc_mu_weights: ]
[num_machines: 1]
[local_listen_port: 12400]
[time_out: 120]
[machine_list_filename: ]
[machines: ]
[gpu_platform_id: -1]
[gpu_device_id: -1]
[gpu_use_dp: 0]
[num_gpu: 1]

end of parameters

pandas_categorical:[]
