tree
version=v4
num_class=1
num_tree_per_iteration=1
label_index=0
max_feature_idx=44
objective=binary sigmoid:1
feature_names=return_1d return_2d return_3d return_5d return_10d return_20d div_ma_5 div_ma_10 div_ma_20 div_ma_60 ma_5_20_cross ma_20_60_cross rsi rsi_change macd macd_signal macd_hist macd_hist_change bb_pct_b bb_bandwidth atr_pct volatility vol_change vol_ratio candle_body_pct upper_shadow_pct lower_shadow_pct day_of_week month is_month_end is_month_start streak gap price_position_20d macro_usdjpy_ret_20 macro_usdjpy_ret_60 macro_usdjpy_vol_20 macro_topix_ret_20 macro_topix_vol_20 macro_topix_above_200dma macro_nikkei_ret_20 macro_nikkei_above_200dma macro_nikkei_vi macro_jgb10y macro_bias_score
feature_infos=[-0.1986842105263158:0.10426929392446627] [-0.28331862312444833:0.18596059113300489] [-0.309915014164306:0.15640394088669951] [-0.30558722919042192:0.20792282430213471] [-0.33132034037880864:0.26559934318555012] [-0.36694386694386694:0.31194940140049687] [-0.2339622641509434:0.064709406830437383] [-0.27255352823483736:0.10193695798930252] [-0.31256349475110057:0.17054097809817634] [-0.35206734669450618:0.30282528133818387] [-0.18382440653703913:0.12777591104866048] [-0.14095711322302096:0.15310564175943275] [7.3838319541693096:94.418604651162795] [-22.023359653135508:26.666666666666671] [-250.0008418020825:178.65192000430534] [-203.60769813939632:149.80447228026952] [-104.44497813992417:57.605156763243727] [-50.055189065930094:23.173062785938129] [-0.36867323341037544:1.3243115832186982] [0.043703893731506599:0.49342412957975867] [0.015138441235438924:0.069438105380597401] [0.0096362724368106757:0.06287762450603894] [-0.86534071720085781:4.1833002910532757] [0.51456591978209343:1.9557604414062348] [-1:1] [0:0.93617021276595747] [0:0.98148148148148151] [0:4] [1:12] none [0:1] [-9:11] [-0.10526315789473684:0.11268472906403937] [0:1] [-0.10288784967882303:0.08505611680078462] [-0.13986255140503889:0.1344631365590534] [0.0024251968629527628:0.011841457708833433] [-0.22586490939044479:0.19897850606512013] [0.0040695656522785678:0.036437277456277402] [0:1] [-0.22859537662338159:0.23022297972565586] [0:1] none none none
tree_sizes=1095 1098 991 1421 997 1308 1411 992 880 989 988 1204 1098 861 783 1174 1280 1286 1377 1526 967 1069 1099 1094 1076 1074 1423 1311 1076 1195 1193 1206 1205 1188 1090 1080 1317 1004 1414 889 1290 1179 780 971 1403 1291 894 1413 1296 1426

Tree=0
num_leaves=9
num_cat=0
split_feature=21 5 21 20 38 10 15 23
split_gain=14.136 10.4663 8.71154 8.55091 8.42328 9.91205 6.10401 3.24444
threshold=0.017358350183930074 0.11584823311470706 0.01151060023273155 0.024580491138100326 0.0065535459818324105 0.032361130872186734 72.704325058932241 0.88766886552037261
decision_type=2 2 2 2 2 2 2 2
left_child=2 3 -1 7 -4 -6 -5 -2
right_child=1 -3 4 6 5 -7 -8 -9
leaf_value=-0.039428541224816135 -0.0092914027968421242 -0.069832043219227119 -0.044657527492089052 -0.054751741011232334 -0.076665902130192601 -0.048097694920831401 -0.028917093588106371 -0.041503730890668715
leaf_weight=10.493031799793242 8.2445249855518359 9.4936954379081708 11.492368161678312 26.982081770896912 48.717647641897202 12.241870433092116 9.2438613474369031 8.2445249855518323
leaf_count=42 33 38 46 108 195 49 37 33
internal_value=-0.0544931 -0.0439612 -0.0625609 -0.0385293 -0.0663478 -0.0707637 -0.0477135 -0.0217591
internal_weight=145.154 62.2087 82.9449 52.715 72.4519 60.9595 36.2259 16.489
internal_count=581 249 332 211 290 244 145 66
is_linear=0
shrinkage=1


Tree=1
num_leaves=9
num_cat=0
split_feature=34 38 0 15 34 11 37 38
split_gain=8.56657 9.7694 7.75674 6.40463 9.86835 6.10401 3.58754 0.768689
threshold=0.034317890975212102 0.0099928470012517097 -0.0079682996419291312 44.681292723994098 -0.012685669110371887 -0.0034599898104984979 0.01598151073332044 0.0074457456571922096
decision_type=2 2 2 2 2 2 2 2
left_child=1 2 7 4 -3 -4 -2 -1
right_child=6 3 5 -5 -6 -7 -8 -9
leaf_value=-0.0066372351204275586 -0.0051190158084755202 0.02300866821983355 0.01535347378088164 0.033103053190665067 -0.0086155542102847368 -0.0054053668982693781 -0.031649078461248689 -0.025034821520968215
leaf_weight=7.4939425438642528 11.739622414112093 13.240327924489977 15.236545294523237 8.2465367317199689 18.734080776572227 46.957950949668884 9.7398126572370511 13.735261991620062
leaf_count=30 47 53 61 33 75 188 39 55
internal_value=-0.00283849 0.000193226 -0.00552467 0.0121081 0.00462183 0 -0.0194591 -0.0203168
internal_weight=145.124 123.645 83.4237 40.2209 31.9744 62.1945 21.4794 21.2292
internal_count=581 495 334 161 128 249 86 85
is_linear=0
shrinkage=0.03


Tree=2
num_leaves=8
num_cat=0
split_feature=21 5 21 38 12 6 7
split_gain=12.9448 9.70207 8.24446 7.97949 7.76964 7.16282 7.59532
threshold=0.017358350183930074 0.11584823311470706 0.01151060023273155 0.0065535459818324105 71.921363706856468 -0.015139044072189582 0.02021896455484078
decision_type=2 2 2 2 2 2 2
left_child=2 5 -1 -4 -5 -2 -7
right_child=1 -3 3 4 -6 6 -8
leaf_value=0.011980282762428794 -0.006627313381281412 -0.017595333483304748 0.0068859201904378029 -0.022753342765457048 0.0056866381944054769 0.027459856202101927 9.1586616423194725e-06
leaf_weight=10.494143232703207 11.492403224110602 9.4840962439775449 11.491900518536566 52.410547807812691 8.4921592772006971 26.239058285951614 14.993418067693709
leaf_count=42 46 38 46 210 34 105 60
internal_value=-0.00276454 0.00730601 -0.0104934 -0.0141872 -0.0184945 0.0125387 0.0182871
internal_weight=145.098 62.209 82.8888 72.3946 60.9027 52.7249 41.2325
internal_count=581 249 332 290 244 211 165
is_linear=0
shrinkage=0.03


Tree=3
num_leaves=12
num_cat=0
split_feature=21 6 0 36 11 14 21 21 21 37 36
split_gain=12.2941 9.13675 10.6435 7.77244 12.0161 14.0284 7.58731 6.2033 5.54594 5.83429 0.419766
threshold=0.016551951367186579 0.014645056008939025 -0.0079682996419291312 0.0068133800155333489 0.015801459741955796 90.941627779524893 0.019603922163279091 0.01151060023273155 0.019603922163279091 -0.0043938986928843118 0.0066794150016033357
decision_type=2 2 2 2 2 2 2 2 2 2 2
left_child=1 2 10 4 6 -6 -2 -4 -5 -10 -1
right_child=3 -3 7 8 5 -7 -8 -9 9 -11 -12
leaf_value=-0.027456634280022339 -0.032819005108961893 -0.033509872248274335 0.024449779498120442 0.030923447201937345 0.028458169406190052 -0.016939224292149183 0.0025441617016600071 -0.002696634311845976 0.017328397445863057 -0.013085127092764687 -0.0090694566060685253
leaf_weight=12.465488582849504 11.484866857528688 11.980338364839552 7.4980408251285544 12.49020139873028 14.238674849271776 7.739107519388198 7.4937701672315589 33.183156043291092 11.496122732758524 7.4921884536743155 7.4841652214527121
leaf_count=50 46 48 30 50 57 31 30 133 46 30 30
internal_value=-0.00267147 -0.0113163 -0.00576139 0.00586405 -0.00247358 0.0117671 -0.0192294 0.00286658 0.0166598 0.00451011 -0.0226969
internal_weight=145.046 72.6112 60.6309 72.4349 40.9564 21.9778 18.9786 40.6812 31.4785 18.9883 19.9497
internal_count=581 291 243 290 164 88 76 163 126 76 80
is_linear=0
shrinkage=0.03


Tree=4
num_leaves=8
num_cat=0
split_feature=21 2 23 20 16 21 38
split_gain=11.6652 10.0682 7.52929 10.0602 8.88904 6.77371 5.99287
threshold=0.016551951367186579 0.028334880215243333 1.2895437947712467 0.020957712243901229 -0.54700312023378206 0.01151060023273155 0.0065535459818324105
decision_type=2 2 2 2 2 2 2
left_child=1 5 3 -2 -5 -1 -7
right_child=2 -3 -4 4 -6 6 -8
leaf_value=0.01430202050594849 0.030343777224842907 -0.037593637890234649 0.029685415231084051 0.0092445655052690485 -0.013673496033429905 0.0097736128936583653 -0.014857904634214089
leaf_weight=9.9972844868898374 7.4937296211719504 9.2232953906059247 8.2459049969911558 26.224981844425198 30.456216111779217 8.7424376606941205 44.605403319001198
leaf_count=40 30 37 33 105 122 35 179
internal_value=-0.00260861 -0.0110342 0.00570227 0.00158993 -0.00286058 -0.00590527 -0.0103431
internal_weight=144.989 72.5684 72.4208 64.1749 56.6812 63.3451 53.3478
internal_count=581 291 290 257 227 254 214
is_linear=0
shrinkage=0.03


Tree=5
num_leaves=11
num_cat=0
split_feature=21 5 40 3 23 35 11 11 41 22
split_gain=12.4579 13.0356 8.93544 10.5794 8.83996 8.37933 6.47516 16.2786 6.25189 2.10738
threshold=0.016551951367186579 0.095538505257175346 0.051817450220382762 0.021118783776759246 0.96194845834058218 0.01830560408190374 0.014671066545633217 0.0014478502140261586 1.0000000180025095e-35 0.076865766451495246
decision_type=2 2 2 2 2 2 2 2 2 2
left_child=2 6 3 8 -3 -4 7 -2 -1 -8
right_child=1 4 5 -5 -6 -7 9 -9 -10 -11
leaf_value=0.017404691287430381 0.019730865822430655 -0.029421435060301496 0.029496919946655365 -0.03044630114865467 0.0075697726932171657 -0.0069896261498942694 0.037930040142133324 -0.02510481538212056 -0.0086254514635637838 0.012699158080539461
leaf_weight=8.9716057628393155 28.47757014632225 7.9772121906280544 9.4778270125389117 15.440278515219687 11.475781276822088 8.9694844186305982 15.240699827671053 7.4866973161697379 30.901622027158737 9.7438506782054883
leaf_count=36 114 32 38 62 46 36 61 30 124 39
internal_value=0.00392406 0.012011 -0.00477738 -0.0108844 -0.00822894 0.0120743 0.0187655 0.00917144 -0.0018588 0.0303165
internal_weight=154.163 80.4018 73.7608 55.3135 19.453 18.4473 60.9488 35.9643 39.8732 24.9846
internal_count=618 322 296 222 78 74 244 144 160 100
is_linear=0
shrinkage=0.03


Tree=6
num_leaves=12
num_cat=0
split_feature=21 40 7 19 34 35 36 28 40 0 0
split_gain=11.7607 8.46493 13.8878 8.1843 8.00136 7.97203 6.71256 5.79723 6.84587 4.27559 0.137197
threshold=0.016551951367186579 0.051817450220382762 0.011253450215251742 0.12657280479606015 0.032496153790359424 0.01830560408190374 0.0052974122720070051 8.5000000000000018 0.011984135885101612 -0.0077077540932962698 0.010728026043207996
decision_type=2 2 2 2 2 2 2 2 2 2 2
left_child=1 2 9 7 6 -3 -5 -2 -9 -1 -4
right_child=3 5 10 4 -6 -7 -8 8 -10 -11 -12
leaf_value=-0.011364935741715597 0.035827003840029341 0.0287420458158671 -0.03572079840565047 -0.008695695129508442 -0.021654519852664221 -0.0068203099929087449 0.016598693359061154 0.023789040294451776 -0.0089507042338226785 0.0085281036073236779 -0.014124878482528634
leaf_weight=14.181305199861525 14.985024765133856 9.4873181879520434 11.444458127021791 11.474379017949103 7.4751404970884314 8.9660913199186307 27.722804754972458 10.239349439740183 8.4806860387325269 22.19205217063427 7.4580871760845175
leaf_count=57 60 38 46 46 30 36 111 41 34 89 30
internal_value=0.00381684 -0.00463561 -0.0105878 0.0116766 0.00289715 0.0117524 0.00876736 0.0225703 0.0088008 0.000193177 -0.0300844
internal_weight=154.107 73.7293 55.2759 80.3774 46.6723 18.4534 39.1972 33.7051 18.72 36.3734 18.9025
internal_count=618 296 222 322 187 74 157 135 75 146 76
is_linear=0
shrinkage=0.03


Tree=7
num_leaves=8
num_cat=0
split_feature=34 7 10 38 17 4 36
split_gain=9.79868 10.371 8.41511 8.06904 9.0673 4.92593 4.46985
threshold=0.035461747660304084 0.032655950450690925 0.0081387450041635629 0.0095420865226892408 -3.8373956077368416 0.096305573823552107 0.0043345422201390886
decision_type=2 2 2 2 2 2 2
left_child=1 3 -2 6 -5 -3 -1
right_child=2 5 -4 4 -6 -7 -8
leaf_value=-0.014123734824827813 0.0049684184021775756 -0.020399132599936538 -0.02795084032813008 -0.0049920003813355733 0.028415130840185251 0.0053295014514551211 0.0072885307852917809
leaf_weight=7.9616974145174018 10.960931494832041 14.202615126967432 12.929000765085219 7.7309221029281607 31.687258765101433 8.9882496595382673 59.582159146666527
leaf_count=32 44 57 52 31 127 36 239
internal_value=0.00369743 0.0070361 -0.0130507 0.0110295 0.0215763 -0.0102004 0.00421528
internal_weight=154.043 130.153 23.8899 106.962 39.4182 23.1909 67.5439
internal_count=618 522 96 429 158 93 271
is_linear=0
shrinkage=0.03


Tree=8
num_leaves=7
num_cat=0
split_feature=15 34 10 7 18 18
split_gain=10.1491 10.6741 7.44811 6.40887 8.1062 6.7488
threshold=102.22559685579067 0.035461747660304084 0.0081387450041635629 0.032655950450690925 0.94397107541619896 0.22760784677062976
decision_type=2 2 2 2 2 2
left_child=1 3 -3 5 -5 -1
right_child=-2 2 -4 4 -6 -7
leaf_value=-0.0030994110807041585 -0.023766233041595995 0.0048417870592928408 -0.026320440746923041 -0.024251561283324931 0.010096819729903733 0.016100539613073287
leaf_weight=18.200467094779015 9.2084972709417325 10.962457761168482 12.408872649073599 8.9746869057416934 11.725146651268004 82.528232559561729
leaf_count=73 37 44 50 36 47 331
internal_value=0.00357607 0.00571718 -0.011883 0.00936386 -0.0049592 0.0124925
internal_weight=154.008 144.8 23.3713 121.429 20.6998 100.729
internal_count=618 581 94 487 83 404
is_linear=0
shrinkage=0.03


Tree=9
num_leaves=8
num_cat=0
split_feature=13 33 18 22 12 22 3
split_gain=9.06808 9.16616 9.42034 5.62157 7.39267 5.86347 2.17196
threshold=-10.81194513817106 0.85602904054607398 0.97710927608209319 -0.054968269184978984 65.124367461130404 -0.40238079475423949 0.02694248266921229
decision_type=2 2 2 2 2 2 2
left_child=-1 3 6 5 -5 -2 -3
right_child=1 2 -4 4 -6 -7 -8
leaf_value=-0.024828612612936559 -0.005475853924109291 -0.0032713491838557234 0.0099084325899130229 -0.0019400642654180337 0.02677320933256758 0.02008010578670431 -0.026795524306188753
leaf_weight=7.4683312177658072 7.7251373678445807 7.4818826913833645 13.954869225621222 49.080083131790161 7.4785797148942939 47.599934160709381 13.18617035448551
leaf_count=30 31 30 56 197 30 191 53
internal_value=0.00344577 0.00530306 -0.00764145 0.00950436 0.00238519 0.0161835 -0.0199814
internal_weight=153.975 146.507 34.6229 111.884 56.5587 55.3251 20.6681
internal_count=618 588 139 449 227 222 83
is_linear=0
shrinkage=0.03


Tree=10
num_leaves=8
num_cat=0
split_feature=5 23 15 5 11 23 28
split_gain=8.88647 13.3388 9.44161 10.1432 8.29213 7.13187 1.74261
threshold=0.11584823311470706 1.0232408792960772 44.681292723994098 -0.093704677056070038 0.082195013811194553 0.86496693056949958 5.5000000000000009
decision_type=2 2 2 2 2 2 2
left_child=2 -2 3 -1 6 -5 -4
right_child=1 -3 4 5 -6 -7 -8
leaf_value=0.024504767917732345 -0.035765310656596848 0.0093295877776106238 0.040679146029400322 0.0074324770188263891 -0.00059489239203380946 -0.010172952211565115 0.012018177835149463
leaf_weight=10.478268921375273 11.669035121798517 8.4718230515718442 8.7224169671535545 28.411366701126099 10.96629363298416 60.059310123324394 7.4803034216165534
leaf_count=42 47 34 35 114 44 241 30
internal_value=0.000449917 -0.0169903 0.00357392 -0.00068864 0.0185951 -0.00431405 0.0310456
internal_weight=146.259 20.1409 126.118 98.9489 27.169 88.4707 16.2027
internal_count=587 81 506 397 109 355 65
is_linear=0
shrinkage=0.03


Tree=11
num_leaves=10
num_cat=0
split_feature=5 23 21 23 15 5 23 11 37
split_gain=8.44799 12.7228 8.99777 8.46101 12.3665 7.13414 7.12264 5.42449 0.436343
threshold=0.11584823311470706 1.0232408792960772 0.014703154694187733 0.86496693056949958 42.416706874450107 -0.0010085269805862882 0.91823190195968352 0.02523297800029212 0.0094320068789616202
decision_type=2 2 2 2 2 2 2 2 2
left_child=2 -2 6 5 -5 -4 8 -8 -1
right_child=1 -3 3 4 -6 -7 7 -9 -10
leaf_value=-0.0092808922889310568 -0.034937034923324915 0.0091002206839965443 0.034695779496221865 -0.0068051946628570293 0.024128269485082704 0.0046902485686045976 -0.0095667646467683456 0.016153040054838516 -0.029020629519100616
leaf_weight=7.4798492491245252 11.635226279497148 8.4751483500003797 15.199254035949709 40.381261631846428 13.948454707860945 15.695203974843023 13.942258983850481 11.468992367386816 7.9641403704881668
leaf_count=30 47 34 61 162 56 63 56 46 32
internal_value=0.000458779 -0.0165555 0.00350591 0.0090701 0.00144499 0.0211202 -0.00763262 0.00182587 -0.0224804
internal_weight=146.19 20.1104 126.079 85.2242 54.3297 30.8945 40.8552 25.4113 15.444
internal_count=587 81 506 342 218 124 164 102 62
is_linear=0
shrinkage=0.03


Tree=12
num_leaves=9
num_cat=0
split_feature=34 19 22 38 25 15 34 2
split_gain=7.57613 7.35039 6.99925 6.36718 5.55807 5.12718 8.08903 3.21865
threshold=0.034317890975212102 0.1125251782084712 0.056891682927384564 0.010895440650821885 0.16163663663663666 42.416706874450107 -0.027930448746805166 0.012946840898984015
decision_type=2 2 2 2 2 2 2 2
left_child=2 -2 3 4 -1 6 -4 -5
right_child=1 -3 5 7 -6 -7 -8 -9
leaf_value=-0.0066696428098474078 0.0011786697308566977 -0.030049586462907712 0.013044372592550989 0.032821135630415013 0.012141424266704639 0.0094821183489649623 -0.017761888771415969 0.0048968697743016652
leaf_weight=23.646889075636864 11.925613731145861 11.142211049795149 7.9776412397623053 11.462769016623499 28.39893864095211 13.941669091582297 29.377170234918594 8.2200285494327527
leaf_count=95 48 45 32 46 114 56 118 33
internal_value=0.000441825 -0.0145008 0.00355077 0.00956128 0.00338659 -0.00461578 -0.0104731 0.0233784
internal_weight=146.093 23.0678 123.025 71.7286 52.0458 51.2965 37.3548 19.6828
internal_count=587 93 494 288 209 206 150 79
is_linear=0
shrinkage=0.03


Tree=13
num_leaves=7
num_cat=0
split_feature=5 5 23 15 23 23
split_gain=7.9397 6.01915 12.0464 11.5677 6.43465 6.29773
threshold=-0.093704677056070038 0.11584823311470706 1.0232408792960772 44.681292723994098 0.86496693056949958 0.91070032027259662
decision_type=2 2 2 2 2 2
left_child=-1 3 -3 4 -2 -5
right_child=1 2 -4 5 -6 -7
leaf_value=0.02345119719165939 0.00702985505542924 -0.033909582962567388 0.0089439164478749313 0 -0.0096910444506107269 0.028808576279083446
leaf_weight=10.454314738512037 28.38391387462616 11.57819575071335 8.4767305105924589 11.449354171752931 59.998752817511559 15.687070786952971
leaf_count=42 114 47 34 46 241 63
internal_value=0.000442491 -0.00153784 -0.0159478 0.00106502 -0.00411847 0.0175862
internal_weight=146.028 135.574 20.0549 115.519 88.3827 27.1364
internal_count=587 545 81 464 355 109
is_linear=0
shrinkage=0.03


Tree=14
num_leaves=6
num_cat=0
split_feature=20 20 22 15 38
split_gain=8.14472 9.42004 6.70261 8.56936 4.90041
threshold=0.035592109465724199 0.031143385629713628 0.076865766451495246 42.416706874450107 0.010895440650821885
decision_type=2 2 2 2 2
left_child=1 2 4 -4 -1
right_child=-2 -3 3 -5 -6
leaf_value=0.0022525873920476482 0.027450503663530291 -0.0274603103814926 -0.014700983943566281 0.01119480694850717 0.020823289873250776
leaf_weight=62.667444512248039 7.4629136323928824 9.4032654464244825 37.294534951448441 13.9270823597908 15.173433363437651
leaf_count=252 30 38 150 56 61
internal_value=0.000443006 -0.00127596 0.000907267 -0.00722202 0.00649137
internal_weight=145.929 138.466 129.062 51.2216 77.8409
internal_count=587 557 519 206 313
is_linear=0
shrinkage=0.03


Tree=15
num_leaves=10
num_cat=0
split_feature=36 11 4 25 11 7 9 7 17
split_gain=7.10136 9.09024 8.35246 7.44723 8.0185 6.40629 3.45561 2.65833 2.28664
threshold=0.0086915059876981407 0.012090677317716738 0.027428541111523378 0.19314263322884015 0.082195013811194553 0.009825758723276198 0.014912756559027083 0.030168218963186624 -4.2300311175339749
decision_type=2 2 2 2 2 2 2 2 2
left_child=1 2 8 5 -5 -3 -2 -4 -1
right_child=6 3 7 4 -6 -7 -8 -9 -10
leaf_value=-0.036077145796615313 0.028373172675297056 0.004193855540069253 0.012207318864505446 0.019226601504987968 -0.0099043668288823494 -0.019115842616330366 0 -0.0081861549238136308 -0.01437214799665794
leaf_weight=7.4324332475662223 7.7056760787963849 20.872837677598 10.682823807001116 29.811534404754639 9.4351190775632841 17.101875215768814 7.9708576798439026 7.957211732864379 30.62141914665699
leaf_count=30 31 84 43 120 38 69 32 32 123
internal_value=-0.0014403 -0.00383825 -0.0127922 0.00270315 0.011719 -0.0063596 0.016312 0.00282519 -0.0205757
internal_weight=149.592 133.915 56.6939 77.2214 39.2467 37.9747 15.6765 18.64 38.0539
internal_count=602 539 228 311 158 153 63 75 153
is_linear=0
shrinkage=0.03


Tree=16
num_leaves=11
num_cat=0
split_feature=21 37 19 21 11 28 37 21 25 22
split_gain=12.096 8.49138 8.14958 8.66628 8.64376 6.23598 9.0134 5.16558 5.94535 1.05035
threshold=0.015844153353787905 0.049047596284899415 0.1327561655813522 0.023362304156427535 0.024546998674993218 8.5000000000000018 0.01598151073332044 0.011642717174407029 0.088799283154121875 0.1502769236883226
decision_type=2 2 2 2 2 2 2 2 2 2
left_child=1 7 5 4 -4 9 -7 -1 -9 -2
right_child=2 -3 3 -5 -6 6 -8 8 -10 -11
leaf_value=0.0015833437682808817 0.033388382074093129 0.010106437087953191 -0.027849983298232569 0.01557813959460337 0.0025485564304461939 0.017775020559920959 -0.018918216218951591 0 -0.025948160109497527 0.010290592344946146
leaf_weight=10.473745957016943 11.910198017954828 11.940260887145994 13.632608175277712 13.16480992734432 15.860805690288542 12.934956401586534 7.9531662017107001 10.16654561460018 34.006329610943794 7.4755990654230109
leaf_count=42 48 48 55 53 64 52 32 41 137 30
internal_value=-0.00140466 -0.010838 0.0060697 -0.00276789 -0.0119024 0.0154734 0.00271639 -0.0158744 -0.0202279 0.0269781
internal_weight=149.519 66.5869 82.9321 42.6582 29.4934 40.2739 20.8881 54.6466 44.1729 19.3858
internal_count=602 268 334 172 119 162 84 220 178 78
is_linear=0
shrinkage=0.03


Tree=17
num_leaves=11
num_cat=0
split_feature=33 37 23 34 7 19 20 9 5 37
split_gain=7.18498 9.23167 10.9214 8.79171 7.05264 10.6441 6.9202 8.01554 6.01896 5.8425
threshold=0.34196443231261808 0.01598151073332044 0.96194845834058218 0.0053539376498242816 0.01617109552688939 0.077557833737303988 0.024580491138100326 -0.014629764238598101 0.036678818751225702 0.042304983247535184
decision_type=2 2 2 2 2 2 2 2 2 2
left_child=6 4 3 -3 5 -2 7 -1 -6 -4
right_child=1 2 9 -5 8 -7 -8 -9 -10 -11
leaf_value=-0.034959004926963258 -0.0021506249540598332 0.0073724084987228126 -0.0058466708915295854 -0.026045727947669992 -0.019085458406779745 0.033235610202006827 0.0026728269387089011 0 0.013956951281362876 0.016825333816614284
leaf_weight=13.901429876685141 10.459080487489702 7.964851230382922 16.631205976009369 23.197226345539093 8.1772769093513471 19.071542963385582 14.424015089869497 8.4697526842355746 7.4365732520818701 19.661894485354424
leaf_count=56 42 32 67 94 33 77 58 34 30 79
internal_value=-0.00134151 0.00234487 -0.00449609 -0.0171224 0.012642 0.0208854 -0.0125484 -0.0223919 -0.00269857 0.0062815
internal_weight=149.395 112.6 67.4552 31.1621 45.1445 29.5306 36.7952 22.3712 15.6139 36.2931
internal_count=602 454 272 126 182 119 148 90 63 146
is_linear=0
shrinkage=0.03


Tree=18
num_leaves=12
num_cat=0
split_feature=12 37 33 3 16 33 18 0 5 25 19
split_gain=7.26757 11.175 6.09305 5.31495 6.95775 5.27289 4.69531 3.89614 3.7551 3.64002 2.0404
threshold=63.425202507319007 -0.00076089866575368415 0.34196443231261808 0.016915644741731687 18.795678477434922 0.56077212806026366 0.21539921412565224 0.010728026043207996 0.074411911112518894 0.36150921563765609 0.1327561655813522
decision_type=2 2 2 2 2 2 2 2 2 2 2
left_child=1 2 6 10 8 -4 -1 9 -5 -3 -2
right_child=3 7 5 4 -6 -7 -8 -9 -10 -11 -12
leaf_value=0.0049334729405722828 0.03092562999301611 -0.02345756458944824 0.02630872058298836 0.0032457543680740144 0.017062231349071474 -0.0022713571958939641 -0.019434061456368761 0 -0.020696507064171032 -0.0011705010063523176 0.0066317299640740379
leaf_weight=15.151514187455179 7.7097982913255718 33.208499819040298 13.378114983439447 8.1749437600374275 11.46739788353443 7.4173171967267981 9.6876547783613187 12.164689943194388 11.105647370219229 10.172518581151961 9.6328686326742154
leaf_count=61 31 134 54 33 46 30 39 49 45 41 39
internal_value=-0.00130308 -0.00592277 0.00473745 0.00796547 0 0.0161519 -0.00475134 -0.0148018 -0.0104892 -0.0188439 0.0202882
internal_weight=149.271 101.18 45.6346 48.0907 30.748 20.7954 24.8392 55.5457 19.2806 43.381 17.3427
internal_count=602 408 184 194 124 84 100 224 78 175 70
is_linear=0
shrinkage=0.03


Tree=19
num_leaves=13
num_cat=0
split_feature=12 37 11 11 9 5 11 1 37 1 32 37
split_gain=6.91829 10.568 5.12078 5.28523 5.05322 11.671 4.91846 4.45057 4.59256 4.24392 4.22157 3.5848
threshold=63.425202507319007 -0.00076089866575368415 0.080778730814451763 0.026472807406517144 -0.032904861387100519 -0.093704677056070038 -0.0061281263831806645 0.00093327775274842939 0.012117607352713168 0.016805308320781424 0.00053097596261975088 -0.016398399425922357
decision_type=2 2 2 2 2 2 2 2 2 2 2 2
left_child=1 4 3 6 5 -1 -2 8 -3 -5 -9 -6
right_child=2 7 -4 9 11 -7 -8 10 -10 -11 -12 -13
leaf_value=0.017769413520915565 0.015145653247337456 -0.0016952332666934395 -0.010005934250892835 0.035329503228626401 0.0020695453354282246 -0.023164499587866656 -0.011746548427094614 0.010336400367264319 -0.029453298271085927 0.0042258569213760944 -0.012762370532060668 0.025974200482256588
leaf_weight=8.9104283452034014 9.925751864910124 8.938335910439493 9.1650026738643628 9.936401233077051 14.384471178054811 12.396752193570135 10.386488884687425 8.931787773966791 20.544394269585609 8.656794145703314 17.080747425556183 9.924758166074751
leaf_count=36 40 36 37 40 58 50 42 36 83 35 69 40
internal_value=-0.00124947 -0.0057612 0.00779202 0.0126356 0.00459973 -0.00534692 0.000901963 -0.0144024 -0.0221566 0.0233932 -0.00412388 0.0136319
internal_weight=149.182 101.112 48.0704 38.9054 45.6164 21.3072 20.3122 55.4953 29.4827 18.5932 26.0125 24.3092
internal_count=602 408 194 157 184 86 82 224 119 75 105 98
is_linear=0
shrinkage=0.03


Tree=20
num_leaves=8
num_cat=0
split_feature=34 21 6 9 20 28 19
split_gain=11.6561 8.96149 9.57566 14.0621 8.01606 7.67546 5.63203
threshold=0.034317890975212102 0.01646595792490118 0.014645056008939025 -0.0072946382102889208 0.021035565835438558 8.5000000000000018 0.1125251782084712
decision_type=2 2 2 2 2 2 2
left_child=1 2 3 -1 -3 -6 -2
right_child=6 4 -4 -5 5 -7 -8
leaf_value=-0.020732562336958287 0 0.035730275947156054 -0.024781492206977732 0.013452930630775874 0.016823743272917684 -0.0058586736995849525 -0.029334792023278398
leaf_weight=12.874477326869963 10.37475296854973 10.931440874934195 11.102442890405653 36.836360290646553 31.931208997964859 19.628830179572105 11.510383933782576
leaf_count=52 42 44 45 148 129 79 47
internal_value=0.00251242 0.00622926 -0.00176111 0.00384981 0.0140511 0.0080122 -0.016569
internal_weight=145.19 123.305 60.8133 49.7108 62.4915 51.56 21.8851
internal_count=586 497 245 200 252 208 89
is_linear=0
shrinkage=0.03


Tree=21
num_leaves=9
num_cat=0
split_feature=34 21 9 7 37 23 23 19
split_gain=11.0604 8.52657 9.00096 10.2207 6.09741 5.97892 5.5363 5.37484
threshold=0.034317890975212102 0.01646595792490118 -0.0072946382102889208 0.012342737929636706 0.03658980374696031 1.0049871258638201 0.81843561178560187 0.1125251782084712
decision_type=2 2 2 2 2 2 2 2
left_child=1 2 -1 -4 6 -6 -3 -2
right_child=7 4 3 -5 5 -7 -8 -9
leaf_value=-0.021728118970576721 0 0.035620575794792629 0.017269465848388645 -0.0094259616543142574 -0.017113773979764321 0.01437386460093148 0.010881154610555561 -0.028675314316222372
leaf_weight=13.583297058939932 10.37475296854973 12.561877146363257 24.66808794438839 22.527519330382347 8.6522375196218508 8.9673371315002424 32.25799585878849 11.468475341796873
leaf_count=55 42 51 99 91 35 36 130 47
internal_value=0.00242702 0.00604995 -0.0017402 0.00435706 0.0136844 -0.000492211 0.0193608 -0.0161741
internal_weight=145.062 123.218 60.7789 47.1956 62.4394 17.6196 44.8199 21.8432
internal_count=586 497 245 190 252 71 181 89
is_linear=0
shrinkage=0.03


Tree=22
num_leaves=9
num_cat=0
split_feature=21 20 38 10 22 40 28 35
split_gain=8.60818 7.23858 7.07744 7.60422 10.8318 6.08669 8.86673 7.92082
threshold=0.016551951367186579 0.021035565835438558 0.0066132866631609223 0.029431736678751878 -0.10215648026353706 0.014016178187276742 8.5000000000000018 0.050821399120580819
decision_type=2 2 2 2 2 2 2 2
left_child=2 -2 -1 4 -4 7 -7 -3
right_child=1 5 3 -5 -6 6 -8 -9
leaf_value=0.012321090796109655 0.02966826386199144 0.023107086365656244 0.00062592529986076138 0.010095661501536398 -0.027381873422401885 0.0091558596866819983 -0.023271397839231944 -0.0047804978943676952
leaf_weight=14.679360345005987 11.629147708415983 21.947118163108826 20.577907711267468 11.629628658294676 25.631469458341602 14.326146855950357 11.833815559744833 12.65141838788986
leaf_count=59 47 89 83 47 104 58 48 51
internal_value=0.0023542 0.00961461 -0.00475535 -0.00960693 -0.0150898 0.00471418 -0.00559135 0.0127958
internal_weight=144.906 72.3876 72.5184 57.839 46.2094 60.7585 26.16 34.5985
internal_count=586 293 293 234 187 246 106 140
is_linear=0
shrinkage=0.03


Tree=23
num_leaves=9
num_cat=0
split_feature=5 15 20 35 4 5 11 19
split_gain=5.40696 8.45875 14.6983 20.9436 6.82264 6.35005 10.0904 9.99863
threshold=0.11584823311470706 30.259712931099681 0.019428888942727585 0.045859950390885203 0.049185516086469934 -0.0066633288131455184 0.0014478502140261586 0.10573932544290389
decision_type=2 2 2 2 2 2 2 2
left_child=1 5 -3 -4 -2 7 -7 -1
right_child=4 2 3 -5 -6 6 -8 -9
leaf_value=0.022766582555327933 -0.0306335049636638 -0.015366823646478076 0.037903304700246186 -0.012879504884702079 0.0027791988444018255 0.0058515451936144739 -0.023754640817141359 -0.0041643015832781571
leaf_weight=18.022405803203583 7.5238723605871227 8.9322901964187604 24.510391160845757 8.4150643646717054 10.64338445663452 17.398843258619308 19.710115045309067 29.600730776786804
leaf_count=73 31 36 99 34 43 70 80 120
internal_value=0.002304 0.00462509 0.0153381 0.0245005 -0.0119804 -0.000725867 -0.00990062 0.00623191
internal_weight=144.757 126.59 41.8577 32.9255 18.1673 84.7321 37.109 47.6231
internal_count=586 512 169 133 74 343 150 193
is_linear=0
shrinkage=0.03


Tree=24
num_leaves=9
num_cat=0
split_feature=34 24 6 33 24 19 20 19
split_gain=10.2944 6.80221 8.79636 6.55986 5.08977 4.98943 4.28198 3.03847
threshold=0.034317890975212102 -0.49137674695212602 0.014645056008939025 0.36775869254584431 -0.67793987621573815 0.1125251782084712 0.026040029816113811 0.11812348205659454
decision_type=2 2 2 2 2 2 2 2
left_child=1 4 3 -3 -1 -2 -4 -6
right_child=5 2 6 -5 7 -7 -8 -9
leaf_value=0.0074481990341430304 0 0.0010033621536604993 -0.012051656736965346 0.021455823069386648 -0.00036628917952056525 -0.027850553249500851 0.010797145113758899 -0.027794257969251935
leaf_weight=10.398620873689653 10.354980453848841 22.534043908119202 19.216720402240757 45.971130058169365 7.4295258820056906 11.389194935560225 8.9176864773035032 8.4268518686294538
leaf_count=42 42 91 78 186 30 47 36 34
internal_value=0.0022233 0.005726 0.00943901 0.0151603 -0.00711071 -0.0157565 -0.00407563 -0.0172633
internal_weight=144.639 122.895 96.6396 68.5052 26.255 21.7442 28.1344 15.8564
internal_count=586 497 391 277 106 89 114 64
is_linear=0
shrinkage=0.03


Tree=25
num_leaves=9
num_cat=0
split_feature=5 21 38 28 6 7 14 23
split_gain=7.28952 9.71785 11.2706 8.5861 7.7415 7.46423 7.18661 4.45746
threshold=0.11584823311470706 0.01646595792490118 0.0072885904398247965 7.5000000000000009 -0.017495894038419776 0.032107706045452739 9.0663815552591149 1.028822262468932
decision_type=2 2 2 2 2 2 2 2
left_child=1 2 6 -4 -3 -6 -1 -2
right_child=7 4 3 -5 5 -7 -8 -9
leaf_value=0.029344414625872291 -0.028556799742764694 -0.012682245725781915 -0.028017969617068254 -0.00083827355419356219 0.018769226437751911 -0.0072273753855989107 -0.0018850543830735333 0
leaf_weight=7.6948860734701183 11.074890017509462 9.9038244634866697 22.141576394438744 20.769198089838028 46.252799138426781 10.426829680800436 17.892056062817574 8.2210446894168836
leaf_count=31 46 40 90 84 188 42 72 33
internal_value=-0.00131059 0.0011409 -0.00657456 -0.0158199 0.00925715 0.0136479 0.00840953 -0.017672
internal_weight=154.377 135.081 68.4977 42.9108 66.5835 56.6796 25.5869 19.2959
internal_count=626 547 277 174 270 230 103 79
is_linear=0
shrinkage=0.03


Tree=26
num_leaves=12
num_cat=0
split_feature=37 34 20 35 1 26 6 12 40 26 34
split_gain=10.6187 12.1736 6.78977 11.8575 5.2354 6.82278 6.64865 5.74808 4.7574 3.99733 3.47611
threshold=0.016737676838165298 0.021604979804572547 0.022264159668091272 1.0000000180025095e-35 -0.01850709567983699 0.36788399570354463 -0.0031104176183123782 38.871339985080205 0.069019094758733038 0.21201923076923079 0.010523174445982166
decision_type=2 2 2 2 2 2 2 2 2 2 2
left_child=4 2 3 -2 9 7 -7 -6 -3 -1 -4
right_child=1 8 10 -5 5 6 -8 -9 -10 -11 -12
leaf_value=-0.021309638231474668 -0.014770665904596639 -0.035136262343544916 -0.021220935116931124 0.022405144486410102 -0.00011958897769105571 0.015834571349206347 -0.015605112684485126 0.023881579364089845 -0.0050422019911010325 0.0040367340615832577 0.0013467240435056853
leaf_weight=7.6447346508502987 10.150878146290781 15.554359003901483 13.338697463274004 18.596175536513329 10.816526159644125 7.9133377969265011 13.082733750343321 29.490642338991165 9.2727244645357114 10.40201114118099 7.9160043299198142
leaf_count=31 41 64 54 75 44 32 53 120 38 42 32
internal_value=-0.00129429 -0.00935583 -0.000291599 0.00868323 0.00616665 0.0103805 -0.00275674 0.0173851 -0.0256694 -0.00700673 -0.0127779
internal_weight=154.179 74.8288 50.0018 28.7471 79.35 61.3032 20.9961 40.3072 24.8271 18.0467 21.2547
internal_count=626 304 202 116 322 249 85 164 102 73 86
is_linear=0
shrinkage=0.03


Tree=27
num_leaves=11
num_cat=0
split_feature=37 23 34 20 23 15 15 22 35 40
split_gain=10.0665 14.3673 5.99698 9.35127 5.50629 8.31821 8.09531 5.04964 3.30226 1.73251
threshold=0.016737676838165298 1.0928010005299245 0.021604979804572547 0.022264159668091272 0.84408841315503369 31.815318938931526 22.554779974647818 -0.18981710299466495 -0.019819892138591307 0.063409026271087812
decision_type=2 2 2 2 2 2 2 2 2 2
left_child=4 2 3 -2 6 8 -1 -3 -6 -4
right_child=1 7 9 -5 5 -7 -8 -9 -10 -11
leaf_value=0.030436384852934664 0.0046307939852147833 0.027015773764385707 -0.038900236710543809 -0.024870974285493789 0.0069274844009135673 0.021816138984812886 -0.0039659104533367167 -0.00010398675585788563 -0.0099085593665543259 -0.011302209644571478
leaf_weight=14.163892239332201 19.305449619889259 7.6920833289623287 11.113249823451044 15.286569580435751 12.164469182491301 11.252273157238958 8.142649367451666 14.072433322668074 33.566374450922012 7.2601700425148001
leaf_count=58 78 31 46 62 49 46 33 57 136 30
internal_value=-0.00127742 -0.00913429 -0.0174845 -0.00864321 0.00598565 0.000590441 0.0179682 0.0103165 -0.00501327 -0.0309113
internal_weight=154.02 74.73 52.9654 34.592 79.2897 56.9831 22.3065 21.7645 45.7308 18.3734
internal_count=626 304 216 140 322 231 91 88 185 76
is_linear=0
shrinkage=0.03


Tree=28
num_leaves=9
num_cat=0
split_feature=5 4 32 12 12 38 32 19
split_gain=6.55753 5.82017 5.78499 9.77882 5.78262 5.13981 4.31114 4.73921
threshold=0.11584823311470706 0.072069008054349584 0.001892415383983215 53.365382833034907 48.86957515744502 0.0077932116399021785 0.0048002285768269379 0.1256245182130655
decision_type=2 2 2 2 2 2 2 2
left_child=2 -2 3 4 -1 -5 -4 -8
right_child=1 -3 6 5 -6 -7 7 -9
leaf_value=0.0036008312632661299 -0.029048413403664416 0.001490326573697631 -0.018924717751921616 0 -0.020530312411195756 0.026738798848278133 0.0068443148332066025 -0.011868215083923507
leaf_weight=35.478071123361588 11.271167665719988 7.8872695863246909 14.225949257612227 7.9040188491344479 9.5837151408195478 21.33400171995163 27.593061476945877 18.541211038827896
leaf_count=144 47 32 58 32 39 87 112 75
internal_value=-0.00124016 -0.0168146 0.00107955 0.00669524 -0.00186702 0.0196463 -0.00558553 -0.00054521
internal_weight=153.818 19.1584 134.66 74.2998 45.0618 29.238 60.3602 46.1343
internal_count=626 79 547 302 183 119 245 187
is_linear=0
shrinkage=0.03


Tree=29
num_leaves=10
num_cat=0
split_feature=37 23 34 20 23 5 14 21 22
split_gain=9.4616 13.5651 5.69522 8.81295 5.21624 8.2063 7.71392 5.51307 4.77446
threshold=0.016737676838165298 1.0928010005299245 0.021604979804572547 0.022264159668091272 0.84408841315503369 0.045636959206687318 12.788284694959886 0.012923986226630735 -0.18981710299466495
decision_type=2 2 2 2 2 2 2 2 2
left_child=4 2 3 -2 6 7 -1 -6 -3
right_child=1 8 -4 -5 5 -7 -8 -9 -10
leaf_value=0.028965145006626693 0.0045025141455539812 0.026284152086821812 -0.03012330169084898 -0.024149213723124015 0.015246138367221206 0.0214166897826857 -0.0051273042089317756 -0.0099834169618080899 -7.1636471253613474e-05
leaf_weight=14.832745209336283 19.289343804121017 7.6828700900077846 18.257636934518814 15.24206021428108 7.4373123347759238 11.484478294849394 7.4090271443128577 38.008218228816986 14.063082337379454
leaf_count=61 78 31 76 62 30 47 30 154 57
internal_value=-0.0012191 -0.00885083 -0.016988 -0.0083634 0.00582193 0.000564343 0.0175037 -0.00506973 0.0100377
internal_weight=153.707 74.535 52.789 34.5314 79.1718 56.93 22.2418 45.4455 21.746
internal_count=626 304 216 140 322 231 91 184 88
is_linear=0
shrinkage=0.03


Tree=30
num_leaves=10
num_cat=0
split_feature=24 17 17 26 21 36 21 10 25
split_gain=8.10997 6.50219 7.34908 6.26886 5.42117 2.5508 2.47828 3.76709 3.4674
threshold=-0.49137674695212602 2.7743150852872387 -5.0688633558680669 0.32672684458398749 0.014784565541581448 0.0058036057405418361 0.016728647141622765 0.020767983487649525 0.099668874172185437
decision_type=2 2 2 2 2 2 2 2 2
left_child=6 2 -2 5 -4 -3 8 -8 -1
right_child=1 3 4 -5 -6 -7 7 -9 -10
leaf_value=-0.00095922816651860957 -0.013676978118663023 0.015944814562473715 0.0019299198430315981 -0.021908904544404046 0.020222574827542812 -0.0034038446532241627 0.01291573409595357 -0.013864915252628413 -0.02763138112980898
leaf_weight=9.416906490921976 7.3520531505346289 8.3715936392545753 24.232538223266602 10.100590556859968 46.567116647958755 11.514907196164129 7.6237557828426343 7.2853949218988419 9.3256930410861951
leaf_count=38 30 34 98 41 190 47 31 30 38
internal_value=0.00268301 0.0067563 0.0112895 -0.00455622 0.0143926 0.00476872 -0.00963036 0 -0.0163382
internal_weight=141.791 108.139 78.1517 29.9871 70.7997 19.8865 33.6518 14.9092 18.7426
internal_count=577 440 318 122 288 81 137 61 76
is_linear=0
shrinkage=0.03


Tree=31
num_leaves=10
num_cat=0
split_feature=24 33 3 22 40 3 13 40 40
split_gain=7.69481 4.84493 7.52964 7.13759 6.61168 5.08516 3.12015 2.89345 1.82208
threshold=-0.49137674695212602 0.37494576293471832 0.016915644741731687 -0.054968269184978984 0.059874735875997349 -0.0028702763659978476 -2.0386663554358679 -0.0065040219652261469 0.029387897290944934
decision_type=2 2 2 2 2 2 2 2 2
left_child=6 3 5 7 -4 -3 8 -2 -1
right_child=1 2 4 -5 -6 -7 -8 -9 -10
leaf_value=-0.022196826142443629 0.020269006432279225 0.0073717055891847644 -0.005094734193006642 -0.019287894545775109 0.019762103798706816 0.031740650285210073 0.001955089298963555 -0.0024804125108367188 -0.0022208832102960205
leaf_weight=13.221571400761606 7.635969415307045 19.361998945474625 33.093324735760689 12.537678301334379 11.145356625318525 16.64747554063797 11.591030463576315 7.6544648259878176 8.7953382432460767
leaf_count=54 31 79 135 51 45 68 47 31 36
internal_value=0.0025823 0.00655281 0.010278 -0.0036555 0.00142713 0.0201097 -0.00941571 0.00904341 -0.0156909
internal_weight=141.684 108.076 80.2482 27.8281 44.2387 36.0095 33.6079 15.2904 22.0169
internal_count=577 440 327 113 180 147 137 62 90
is_linear=0
shrinkage=0.03


Tree=32
num_leaves=10
num_cat=0
split_feature=21 40 17 3 34 21 11 35 23
split_gain=6.9701 7.99906 7.81274 7.38235 5.32109 3.75357 2.54144 2.49596 1.46056
threshold=0.014784565541581448 0.038998003302746727 -5.0688633558680669 0.033769488604249671 0.035461747660304084 0.01265490309107809 0.031366918435863596 0.035126134093329549 1.0326174457441357
decision_type=2 2 2 2 2 2 2 2 2
left_child=1 5 -2 4 -4 -1 -3 -5 -7
right_child=2 6 3 7 -6 8 -8 -9 -10
leaf_value=-0.0016425067175333623 -0.011567916293829673 -0.0015819543815471895 0.021029235483713323 -0.011990522704739321 -0.0014070246828526394 -0.030682181808857786 0.019445048429452504 0.0058790703226269531 -0.0074294074701463115
leaf_weight=14.142569020390509 14.189966008067129 7.3923930525779715 46.004330962896347 11.291610360145571 10.039176583290098 10.450434997677805 8.414103299379347 12.055165395140646 7.6111784130334845
leaf_count=57 58 30 188 46 41 43 34 49 31
internal_value=0.00251581 -0.00644426 0.0073083 0.0110678 0.0168418 -0.0149083 0.00969559 -0.00243589 -0.0233487
internal_weight=141.591 48.0107 93.5802 79.3903 56.0435 32.2042 15.8065 23.3468 18.0616
internal_count=577 195 382 324 229 131 64 95 74
is_linear=0
shrinkage=0.03


Tree=33
num_leaves=10
num_cat=0
split_feature=24 17 17 5 26 23 10 17 33
split_gain=7.18277 5.88967 6.64901 6.89951 5.88992 3.79712 2.39387 3.30241 2.67996
threshold=-0.49137674695212602 2.7743150852872387 -5.0688633558680669 0.11584823311470706 0.32672684458398749 1.0366810449746613 0.012540563812401319 -4.2300311175339749 0.30504115226337453
decision_type=2 2 2 2 2 2 2 2 2
left_child=6 2 -2 -4 5 -3 8 -8 -1
right_child=1 4 3 -5 -6 -7 7 -9 -10
leaf_value=-0.011340109518539539 -0.013136572435434373 -0.0065094324749749776 0.016870032402716621 -0.010339653533951004 -0.021339605496089976 0.017112956016305907 -0.00024799853086850658 -0.027433322506102267 0.010344900403152748
leaf_weight=8.3423737436532992 7.3335870504379264 10.450979664921766 63.09553524851799 7.5542206764221183 10.07220585644245 9.4011757671833021 8.305609196424486 8.7898418009281141 8.1101370155811292
leaf_count=34 30 43 257 31 41 38 34 36 33
internal_value=0.00241856 0.00626169 0.0105868 0.0135496 -0.00449679 0.00453315 -0.00917781 -0.0164205 0
internal_weight=141.456 107.908 77.9833 70.6498 29.9244 19.8522 33.548 17.0955 16.4525
internal_count=577 440 318 288 122 81 137 70 67
is_linear=0
shrinkage=0.03


Tree=34
num_leaves=9
num_cat=0
split_feature=24 17 0 17 5 7 13 40
split_gain=6.80117 5.55534 6.77489 6.3113 6.54869 3.11509 2.8762 1.67846
threshold=-0.49137674695212602 2.7743150852872387 0.010427221558219847 -5.0688633558680669 0.11584823311470706 0.02255203298118633 -2.0386663554358679 0.029387897290944934
decision_type=2 2 2 2 2 2 2 2
left_child=6 3 -3 -2 -5 -4 7 -1
right_child=1 2 5 4 -6 -7 -8 -9
leaf_value=-0.021282007005024375 -0.012839734988352653 -0.025410254596012399 0.017341110141454539 0.016391664400058108 -0.010103622985147453 -0.0037180882061488207 0.0019037556495923582 -0.0020348326369601728
leaf_weight=13.155864059925081 7.3244129568338385 7.8182046413421658 7.8096832782030132 63.047865867614746 7.5456271618604651 14.279111877083777 11.574430629611014 8.7826667129993421
leaf_count=54 30 32 32 257 31 58 47 36
internal_value=0.00231292 0.00605669 -0.0043846 0.0102615 0.0131527 0.00392646 -0.00897266 -0.0150171
internal_weight=141.338 107.825 29.907 77.9179 70.5935 22.0888 33.513 21.9385
internal_count=577 440 122 318 288 90 137 90
is_linear=0
shrinkage=0.03


Tree=35
num_leaves=9
num_cat=0
split_feature=32 0 40 5 33 40 5 25
split_gain=5.10619 6.64355 5.37843 5.34897 8.33836 4.96142 3.79252 3.48039
threshold=0.0009925566461003179 -0.022560180797283832 0.048743222472573018 0.11584823311470706 0.34196443231261808 -0.029526616274857472 -0.010679981864090858 0.24880952380952384
decision_type=2 2 2 2 2 2 2 2
left_child=1 -1 5 4 -3 -2 -7 -4
right_child=2 3 7 -5 -6 6 -8 -9
leaf_value=-0.015783541110218239 0.0034785358777631417 -0.0038349114085884945 -0.0052141757668740024 -0.012106526455633381 0.019604515690347067 0 -0.022283392088671132 0.016960089953990964
leaf_weight=10.770567163825033 11.26929461956024 19.130821883678436 11.517809838056566 8.143606171011923 35.419035702943802 9.0135544687509519 30.172754794359207 9.3556156158447248
leaf_count=44 46 78 47 34 145 37 123 38
internal_value=-0.00162032 0.0037525 -0.00730993 0.00772479 0.0112741 -0.0125466 -0.0174644 0.00468264
internal_weight=144.793 73.464 71.329 62.6935 54.5499 50.4556 39.1863 20.8734
internal_count=592 301 291 257 223 206 160 85
is_linear=0
shrinkage=0.03


Tree=36
num_leaves=11
num_cat=0
split_feature=23 22 32 20 22 21 20 20 32 26
split_gain=6.12576 8.20968 7.37402 6.24633 6.17966 4.69096 3.81117 4.54885 3.32176 2.2602
threshold=0.9872764583793745 -0.34371446184939963 0.0013002422765756585 0.019996056179428744 -0.071314716309347312 0.022217855430331317 0.023967218167693014 0.019139425385256415 -0.0090256307062264712 0.28669275929549903
decision_type=2 2 2 2 2 2 2 2 2 2
left_child=2 -2 5 9 -5 8 7 -4 -1 -3
right_child=1 3 6 4 -6 -7 -8 -9 -10 -11
leaf_value=-0.016381838507812219 -0.017414663108467204 0.0045536760684976177 -0.022220245032700512 0.028521641364516469 0.0040004882390757791 0.020621112718406276 -0.028335579933792297 0.0026490841567980666 0.0021829285302406355 -0.015584065141339887
leaf_weight=10.164631083607672 9.8599949330091459 7.4060366004705411 8.6023326963186282 17.415796831250187 22.374175578355793 7.0959091037511817 14.10553467273712 14.390839278697966 25.628844305872917 7.6282378137111664
leaf_count=42 40 30 35 71 91 30 58 59 105 31
internal_value=-0.00158448 0.00506156 -0.00713427 0.00983848 0.0159435 0.00108267 -0.0165869 -0.00708856 -0.00328012 -0.0054135
internal_weight=144.672 64.6842 79.9881 54.8242 39.79 42.8894 37.0987 22.9932 35.7935 15.0343
internal_count=592 263 329 223 162 177 152 94 147 61
is_linear=0
shrinkage=0.03


Tree=37
num_leaves=8
num_cat=0
split_feature=34 23 22 32 20 32 34
split_gain=5.98494 6.79992 7.24007 6.12938 5.85196 5.45558 3.25123
threshold=-0.050502424154160445 0.9872764583793745 -0.34371446184939963 0.0009925566461003179 0.020782132207198264 -0.0083971330776282365 0.0053539376498242816
decision_type=2 2 2 2 2 2 2
left_child=-1 3 -3 5 -4 -2 -5
right_child=1 2 4 6 -6 -7 -8
leaf_value=0.021702694914385603 -0.015598502236291735 -0.016988837204674066 -0.0041913013920946551 -0.0052343140631173207 0.015852950464104853 0.0069393232875655667 -0.025263116560981753
leaf_weight=7.2094523608684531 12.567516446113585 9.8541384637355787 17.978857010602951 15.944714114069937 33.9036465883255 26.46706748008728 20.644853621721268
leaf_count=30 52 40 73 65 138 109 85
internal_value=-0.0015472 -0.00316907 0.00398598 -0.00915562 0.00873087 -0.000357973 -0.0176475
internal_weight=144.57 137.361 61.7366 75.6242 51.8825 39.0346 36.5896
internal_count=592 562 251 311 211 161 150
is_linear=0
shrinkage=0.03


Tree=38
num_leaves=12
num_cat=0
split_feature=23 32 20 28 14 14 19 20 20 1 23
split_gain=5.4643 6.65205 5.09571 6.77679 3.81334 6.09809 4.16259 3.61851 4.33733 3.53527 6.73236
threshold=0.9872764583793745 0.0013002422765756585 0.020782132207198264 7.5000000000000009 17.176065357580459 -2.7025136839470174 0.13887823852201089 0.023967218167693014 0.019139425385256415 -0.013806629453108564 0.86076352995089145
decision_type=2 2 2 2 2 2 2 2 2 2 2
left_child=1 9 3 -2 5 -4 -6 8 -3 -1 -11
right_child=2 7 4 -5 6 -7 -8 -9 -10 10 -12
leaf_value=-0.011370344472146693 -0.021141848109057601 -0.021367332664512153 0.012544543544596474 0.0094367620919603712 0.028471008654301404 -0.017929434635003079 0.00041010326962470075 -0.027196638014392909 0.0029273362026190583 0.017587500069171289 -0.0088903550088725389
leaf_weight=11.821268841624258 11.292234420776369 8.5736968219280261 13.751777976751329 10.362333804368971 13.196437358856203 7.3891387879848471 8.634853243827818 14.059145018458365 14.381872370839117 18.559534355998043 12.445422351360319
leaf_count=49 46 35 56 42 54 30 35 58 59 77 51
internal_value=-0.00151435 -0.00676578 0.00475656 -0.0063143 0.0107016 0.000616091 0.0189675 -0.0157564 -0.00653066 0.00102648 0.00661009
internal_weight=144.468 79.8409 64.6268 21.6546 42.9722 21.1409 21.8313 37.0147 22.9556 42.8262 31.005
internal_count=592 329 263 88 175 86 89 152 94 177 128
is_linear=0
shrinkage=0.03


Tree=39
num_leaves=7
num_cat=0
split_feature=23 2 33 18 18 18
split_gain=5.41803 4.8726 5.25778 9.54794 4.27685 1.98155
threshold=1.4031121004975498 0.03593970062582242 0.37494576293471832 0.44759914005997176 0.2865990042379018 0.94397107541619896
decision_type=2 2 2 2 2 2
left_child=1 2 4 -4 -1 -3
right_child=-2 5 3 -5 -6 -7
leaf_value=-0.0033371897612186605 0.017276466929403798 -0.025826303110112005 0.027301974140337901 -0.00090669076194550488 -0.028141271379010974 -0.0023928198414607154
leaf_weight=25.249986574053764 10.476485118269919 9.2396670728921908 10.467017158865927 73.898192912340164 7.6062944680452338 7.3847549557685843
leaf_count=103 43 38 43 304 31 30
internal_value=-0.00148234 -0.0032938 -0.000878313 0.00297062 -0.0107949 -0.0175971
internal_weight=144.322 133.846 117.221 84.3652 32.8563 16.6244
internal_count=592 549 481 347 134 68
is_linear=0
shrinkage=0.03


Tree=40
num_leaves=11
num_cat=0
split_feature=38 40 38 40 14 33 38 17 28 36
split_gain=6.66248 12.8363 8.24175 6.72702 6.069 7.8838 6.51256 4.17854 5.43235 1.75734
threshold=0.010911257488317323 0.025261374079617375 0.012873870943676268 -0.0024685049968774515 18.163689588447827 0.37494576293471832 0.0099928470012517097 -2.6149906992830707 8.5000000000000018 0.005651598896125219
decision_type=2 2 2 2 2 2 2 2 2 2
left_child=1 4 9 -4 5 -1 -6 -3 -9 -2
right_child=2 7 3 -5 6 -7 -8 8 -10 -11
leaf_value=-0.014594954980442856 0.0067551120530926923 0.021445970519567169 0.013148413204507573 -0.022923405300274979 -0.032888753599442211 0.015712627240901215 0 0.0075783094050164354 -0.017124188270270034 0.030988671517754071
leaf_weight=18.325549304485325 7.4031012803316143 11.532231211662291 7.1700112372636795 7.1440533101558668 17.721488043665889 10.254368945956228 8.2692698538303357 32.277552708983421 8.3285684734582883 11.480787351727484
leaf_count=75 30 47 30 30 73 42 34 132 34 47
internal_value=0.000128098 -0.00344084 0.0115697 -0.00453852 -0.0134727 -0.00291375 -0.0235098 0.00689178 0.00159361 0.0237633
internal_weight=139.907 106.709 33.198 14.3141 54.5707 28.5799 25.9908 52.1384 40.6061 18.8839
internal_count=574 437 137 60 224 117 107 213 166 77
is_linear=0
shrinkage=0.03


Tree=41
num_leaves=10
num_cat=0
split_feature=21 40 21 14 15 5 2 6 15
split_gain=7.86998 5.70451 9.34406 8.95525 5.18104 7.52192 5.02474 4.42475 3.51416
threshold=0.02261186103566348 0.033059685716223093 0.017358350183930074 18.163689588447827 30.259712931099681 0.10601048484767485 -0.015589984840495672 0.017047400969011636 10.176233570603809
decision_type=2 2 2 2 2 2 2 2 2
left_child=1 2 3 -1 8 -6 -4 -2 -3
right_child=7 4 6 -5 5 -7 -8 -9 -10
leaf_value=-0.0015589465456119828 0.027536943577367058 0.004512532064458839 -0.010785590400791089 -0.028087543729193316 0.027165614719232106 -0.0025788221366039176 0.013804373461796339 0 -0.018984560441130508
leaf_weight=23.465595215559006 11.421715825796129 10.296337634325029 9.1192463487386721 23.621405839920044 14.27148585021496 12.278290048241614 19.327526837587357 7.8940533995628348 8.0591792166233045
leaf_count=96 48 42 37 97 58 51 80 32 33
internal_value=0.000128813 -0.00269631 -0.00773671 -0.0157749 0.00543057 0.0136675 0.00523817 0.0170481 -0.00591886
internal_weight=139.755 120.439 75.5338 47.087 44.9053 26.5498 28.4468 19.3158 18.3555
internal_count=574 494 310 193 184 109 117 80 75
is_linear=0
shrinkage=0.03


Tree=42
num_leaves=6
num_cat=0
split_feature=21 0 31 12 2
split_gain=7.48226 4.39847 4.64689 5.73843 4.0969
threshold=0.02261186103566348 -0.024451942615665575 3.5000000000000004 63.425202507319007 0.017682349320282901
decision_type=2 2 2 2 2
left_child=1 -1 3 -3 -2
right_child=4 2 -4 -5 -6
leaf_value=-0.02204517129779349 0.028292527596309444 -0.0036355618244067415 -0.019912189838649955 0.0111572784888136 4.1559868852260625e-05
leaf_weight=7.7342223823070517 9.9644936472177523 71.624877572059631 8.4884908050298673 32.45447364449501 9.3086617290973646
leaf_count=32 42 294 35 133 38
internal_value=0.000122088 -0.0026303 -0.000803877 0.000959191 0.0166396
internal_weight=139.575 120.302 112.568 104.079 19.2732
internal_count=574 494 462 427 80
is_linear=0
shrinkage=0.03


Tree=43
num_leaves=8
num_cat=0
split_feature=21 38 20 12 3 10 6
split_gain=7.1459 4.3558 6.17616 6.1009 10.6032 6.38231 4.08336
threshold=0.02261186103566348 0.010911257488317323 0.026125758722727609 63.425202507319007 0.016915644741731687 0.0097110048865819438 0.017047400969011636
decision_type=2 2 2 2 2 2 2
left_child=1 3 -3 5 -5 -1 -2
right_child=6 2 -4 4 -6 -7 -8
leaf_value=-0.0035152178322728307 0.026405157222545959 0.026513919906404036 -0.0039722932911727899 0.026938657295914416 -0.006285457308785357 -0.023831857026612314 0
leaf_weight=45.138372868299484 11.336579203605654 8.350258797407152 11.543435409665106 10.738620907068251 24.087474778294563 20.393847852945328 7.8928751796483985
leaf_count=185 48 34 48 44 99 84 32
internal_value=0.000112759 -0.00257314 0.00939208 -0.00522868 0.00445851 -0.0105785 0.0162757
internal_weight=139.481 120.252 19.8937 100.358 34.8261 65.5322 19.2295
internal_count=574 494 82 412 143 269 80
is_linear=0
shrinkage=0.03


Tree=44
num_leaves=12
num_cat=0
split_feature=24 7 18 33 18 23 11 34 34 38 17
split_gain=6.32199 5.09527 7.39447 7.01986 6.59706 3.86075 3.21465 2.59223 4.3805 2.14877 2.09866
threshold=-0.40783086356668363 0.018458399889142361 0.91530382235552243 0.34196443231261808 0.15808823079821474 1.0403158577469653 0.02406828081126278 0.014096847337023434 0.032496153790359424 0.010514343260701312 -2.3836782909847645
decision_type=2 2 2 2 2 2 2 2 2 2 2
left_child=7 3 9 4 -2 -5 -4 10 -9 -3 -1
right_child=1 2 6 5 -6 -7 -8 8 -10 -11 -12
leaf_value=-0.0035144119806238211 0.014969968632074403 -0.023619650666560191 -0.0021368116762750852 0.0089568866843176692 -0.015505084402432907 0.030873108829917787 0.020298386981236188 0.011569720633689308 -0.015964894236742636 -0.0012924168095737455 -0.024296047975316148
leaf_weight=10.538904577493669 8.348251089453699 11.798722445964815 9.5290064215660113 28.586536571383476 14.151386797428129 11.439641550183294 8.6277041733264905 9.7317830771207827 7.3066185116767874 7.8346094191074362 11.458696007728575
leaf_count=43 34 49 39 119 58 47 35 40 31 32 47
internal_value=0.000119707 0.00421075 -0.00408498 0.00942829 -0.0032864 0.0167487 0.00873605 -0.00972087 0 -0.0163466 -0.0160874
internal_weight=139.352 100.316 37.79 62.5258 22.4996 40.0262 18.1567 39.036 17.0384 19.6333 21.9976
internal_count=574 413 155 258 92 166 74 161 71 81 90
is_linear=0
shrinkage=0.03


Tree=45
num_leaves=11
num_cat=0
split_feature=21 7 26 14 3 32 40 25 23 19
split_gain=6.22268 8.67706 6.50977 6.80512 6.42294 8.1201 5.13412 4.36358 3.96993 2.97589
threshold=0.014703154694187733 0.01824499153221917 0.049813972715998356 54.862152172618615 -0.0040057172359190809 0.0065801736339384806 0.066541872221912893 0.36747491638795987 1.1558420180176723 0.12014612215595734
decision_type=2 2 2 2 2 2 2 2 2 2
left_child=2 4 -1 7 5 -2 8 -4 -3 -6
right_child=1 6 3 -5 9 -7 -8 -9 -10 -11
leaf_value=0.011417996216007328 0.0084928057716047878 -0.021083062858630871 -0.026053972536868024 0.0076116328377314737 0.028710696012621943 -0.022026486500660039 0.0083736528234333966 0 0.0018524131763544649 0.0048650415718941801
leaf_weight=7.8763937801122657 29.021686479449272 21.63646669685841 27.628141954541206 7.6550142168998709 14.023504823446276 8.467893183231352 9.2945676445960981 8.57938104867935 7.5011341720819464 10.501079842448233
leaf_count=32 120 89 114 31 58 35 38 35 31 44
internal_value=-0.00231868 0.00192884 -0.0106089 -0.0152167 0.00888482 0.000453037 -0.00880864 -0.0205815 -0.0149571 0.0202026
internal_weight=152.185 100.446 51.7389 43.8625 62.0142 37.4896 38.4322 36.2075 29.1376 24.5246
internal_count=627 415 212 180 257 155 158 149 120 102
is_linear=0
shrinkage=0.03


Tree=46
num_leaves=7
num_cat=0
split_feature=34 15 0 2 38 2
split_gain=4.59262 4.30262 4.84871 5.53446 3.05425 1.13838
threshold=-0.038532773326374274 -16.38872632321085 -0.022560180797283832 -0.021293107446833156 0.009507219683215315 0.0078498923275802674
decision_type=2 2 2 2 2 2
left_child=5 4 -3 -4 -2 -1
right_child=1 2 3 -5 -6 -7
leaf_value=0.018561609399422304 -0.026551460990559751 -0.022081148913747295 0.016730655595498439 -0.0024119022927994909 -0.0032404326753398276 0.00046957609184266811
leaf_weight=8.3584984242916089 10.160949885845186 7.4587315022945395 13.853341966867445 92.251365482807159 12.697884276509283 7.2257989048957816
leaf_count=35 42 31 57 380 52 30
internal_value=-0.00223928 -0.00412843 -0.00147926 0.00021194 -0.0155083 0.0120336
internal_weight=152.007 136.422 113.563 106.105 22.8588 15.5843
internal_count=627 562 468 437 94 65
is_linear=0
shrinkage=0.03


Tree=47
num_leaves=12
num_cat=0
split_feature=21 8 11 26 14 10 11 11 4 5 19
split_gain=5.79045 6.38934 6.47962 6.17607 6.44122 5.49368 5.6108 5.34864 2.57642 1.69158 1.02418
threshold=0.014703154694187733 0.015972282596940723 0.01314699737768288 0.049813972715998356 54.862152172618615 0.025195164233300153 0.082195013811194553 -0.0014636047657982652 0.011417417634622009 1.0000000180025095e-35 0.086607300334576975
decision_type=2 2 2 2 2 2 2 2 2 2 2
left_child=3 2 7 -1 8 10 -7 -2 -5 -4 -3
right_child=1 5 9 4 -6 6 -8 -9 -10 -11 -12
leaf_value=0.011221853540920486 0.0074448432414878632 -0.0048782744002226182 0.030155187323261744 -0.010242340815480018 0.0074570514135306578 0.0085817811291652984 -0.018276553321352355 -0.019466693946438626 -0.029470003794454011 0.0089823825803373517 -0.024618347756902085
leaf_weight=7.8799444288015357 21.151366621255878 7.2912765741348293 9.8985044658184069 20.703871190547943 7.6572694778442374 25.594265386462212 7.2692577540874472 7.3167266696691504 15.363980457186697 12.109011545777319 9.6934893578290922
leaf_count=32 88 30 41 85 31 106 30 30 64 50 40
internal_value=-0.00218053 0.0019128 0.00936676 -0.0101925 -0.0147018 -0.00541584 0.00150294 0 -0.0199448 0.0208491 -0.018341
internal_weight=151.929 100.324 50.4756 51.6051 43.7251 49.8483 32.8635 28.4681 36.0679 22.0075 16.9848
internal_count=627 415 209 212 180 206 136 118 149 91 70
is_linear=0
shrinkage=0.03


Tree=48
num_leaves=11
num_cat=0
split_feature=21 7 17 11 26 40 7 40 19 18
split_gain=5.46415 7.89738 9.44813 6.10067 5.88277 6.83653 5.42063 4.85425 4.13394 3.58575
threshold=0.014703154694187733 0.01824499153221917 -4.9343943851937331 0.012090677317716738 0.049813972715998356 0.018121180067840251 -0.012154367210770184 0.066541872221912893 0.075089713458150464 0.91530382235552243
decision_type=2 2 2 2 2 2 2 2 2 2
left_child=4 2 -2 -4 -1 6 -6 9 -7 -3
right_child=1 7 3 -5 5 8 -8 -9 -10 -11
leaf_value=0.010946324634947373 -0.012954032256152119 -0.022058448357194258 0.0030532062210871557 0.024762190061314752 -0.0032369488823151037 -0.014485690692831859 -0.038327078090295945 0.0082807534864803647 0.0082099092300434665 0
leaf_weight=7.8861859589815131 12.314432531595228 17.867552340030674 25.533703491091728 24.005866810679436 7.5424615591764477 11.917967393994333 11.705105304718016 9.2892542481422407 12.461586326360701 11.214776948094366
leaf_count=32 51 74 106 100 31 49 49 38 51 46
internal_value=-0.00212795 0.00184575 0.00849749 0.0144167 -0.0099196 -0.0143346 -0.0268814 -0.00839492 -0.00257332 -0.014394
internal_weight=151.739 100.226 61.854 49.5396 51.5133 43.6271 19.2476 38.3716 24.3796 29.0823
internal_count=627 415 257 206 212 180 80 158 100 120
is_linear=0
shrinkage=0.03


Tree=49
num_leaves=12
num_cat=0
split_feature=37 23 36 23 37 20 11 4 36 4 2
split_gain=5.40027 6.22226 6.23589 6.06001 5.8998 5.74007 5.51162 4.83321 3.83067 3.65433 3.35897
threshold=0.0004673699147734745 1.0204436841507583 0.0063987233313845806 0.81558750676358083 0.044779168776483698 0.027197042846549353 0.045224966770369253 -0.0010685729831065858 0.0075990651445458331 -0.0010685729831065858 -0.0049519585440461191
decision_type=2 2 2 2 2 2 2 2 2 2 2
left_child=3 2 9 -1 6 7 -3 -5 -7 -2 -4
right_child=1 4 10 5 -6 8 -8 -9 -10 -11 -12
leaf_value=0.021268770191552971 -0.0013022349446037372 -0.013101353985885017 -0.016659001513435426 0.0012669967929358264 0.016430857264885506 0.025197066943252876 0.013770067160534999 -0.023254863277215713 -0.0013493525113213228 -0.028507254889971325 0.0047696345502454256
leaf_weight=13.500946417450903 7.2730964422225979 22.352986097335819 7.4379327148199108 14.332530692219732 14.560378193855284 7.775878965854643 7.2880265712738028 10.431610032916071 7.4354789853096008 20.436950907111168 18.704032629728317
leaf_count=57 30 92 31 59 59 32 30 43 31 86 77
internal_value=-0.00208006 -0.00628891 -0.0129837 0.00531533 0.00175191 -0.000471952 -0.00556747 -0.00946797 0.0127004 -0.0224399 -0.00154488
internal_weight=151.53 98.0534 53.852 53.4764 44.2014 39.9755 29.641 24.7641 15.2114 27.71 26.142
internal_count=627 405 224 222 181 165 122 102 63 116 108
is_linear=0
shrinkage=0.03


end of trees

feature_importances:
volatility=33
vol_ratio=30
return_20d=23
atr_pct=21
macro_usdjpy_ret_20=21
ma_20_60_cross=20
macro_nikkei_ret_20=19
macro_topix_ret_20=17
macro_topix_vol_20=17
bb_bandwidth=15
div_ma_10=14
macd_signal=14
macd_hist_change=13
vol_change=13
price_position_20d=11
bb_pct_b=10
gap=10
return_1d=9
rsi=9
macd=9
macro_usdjpy_vol_20=9
return_3d=8
return_5d=8
div_ma_5=8
ma_5_20_cross=8
lower_shadow_pct=8
month=8
return_10d=7
candle_body_pct=7
upper_shadow_pct=7
macro_usdjpy_ret_60=7
div_ma_60=5
return_2d=4
rsi_change=3
macd_hist=2
div_ma_20=1
streak=1
macro_nikkei_above_200dma=1

parameters:
[boosting: gbdt]
[objective: binary]
[metric: binary_logloss]
[tree_learner: serial]
[device_type: cpu]
[data_sample_strategy: bagging]
[data: ]
[valid: ]
[num_iterations: 50]
[learning_rate: 0.03]
[num_leaves: 15]
[num_threads: 0]
[seed: 43]
[deterministic: 0]
[force_col_wise: 0]
[force_row_wise: 0]
[histogram_pool_size: -1]
[max_depth: 4]
[min_data_in_leaf: 30]
[min_sum_hessian_in_leaf: 0.001]
[bagging_fraction: 0.7]
[pos_bagging_fraction: 1]
[neg_bagging_fraction: 1]
[bagging_freq: 5]
[bagging_seed: 11149]
[bagging_by_query: 0]
[feature_fraction: 0.6]
[feature_fraction_bynode: 1]
[feature_fraction_seed: 21351]
[extra_trees: 0]
[extra_seed: 16806]
[early_stopping_round: 0]
[early_stopping_min_delta: 0]
[first_metric_only: 0]
[max_delta_step: 0]
[lambda_l1: 0.5]
[lambda_l2: 2]
[linear_lambda: 0]
[min_gain_to_split: 0]
[drop_rate: 0.1]
[max_drop: 50]
[skip_drop: 0.5]
[xgboost_dart_mode: 0]
[uniform_drop: 0]
[drop_seed: 2965]
[top_rate: 0.2]
[other_rate: 0.1]
[min_data_per_group: 100]
[max_cat_threshold: 32]
[cat_l2: 10]
[cat_smooth: 10]
[max_cat_to_onehot: 4]
[top_k: 20]
[monotone_constraints: ]
[monotone_constraints_method: basic]
[monotone_penalty: 0]
[feature_contri: ]
[forcedsplits_filename: ]
[refit_decay_rate: 0.9]
[cegb_tradeoff: 1]
[cegb_penalty_split: 0]
[cegb_penalty_feature_lazy: ]
[cegb_penalty_feature_coupled: ]
[path_smooth: 0]
[interaction_constraints: ]
[verbosity: -1]
[saved_feature_importance_type: 0]
[use_quantized_grad: 0]
[num_grad_quant_bins: 4]
[quant_train_renew_leaf: 0]
[stochastic_rounding: 1]
[linear_tree: 0]
[max_bin: 255]
[max_bin_by_feature: ]
[min_data_in_bin: 5]
[bin_construct_sample_cnt: 200000]
[data_random_seed: 179]
[is_enable_sparse: 1]
[enable_bundle: 1]
[use_missing: 1]
[zero_as_missing: 0]
[feature_pre_filter: 1]
[pre_partition: 0]
[two_round: 0]
[header: 0]
[label_column: ]
[weight_column: ]
[group_column: ]
[ignore_column: ]
[categorical_feature: ]
[forcedbins_filename: ]
[precise_float_parser: 0]
[parser_config_file: ]
[objective_seed: 26397]
[num_class: 1]
[is_unbalance: 0]
[scale_pos_weight: 1]
[sigmoid: 1]
[boost_from_average: 1]
[reg_sqrt: 0]
[alpha: 0.9]
[fair_c: 1]
[poisson_max_delta_step: 0.7]
[tweedie_variance_power: 1.5]
[lambdarank_truncation_level: 30]
[lambdarank_norm: 1]
[label_gain: ]
[lambdarank_position_bias_regularization: 0]
[eval_at: ]
[multi_error_top_k: 1]
[auc_mu_weights: ]
[num_machines: 1]
[local_listen_port: 12400]
[time_out: 120]
[machine_list_filename: ]
[machines: ]
[gpu_platform_id: -1]
[gpu_device_id: -1]
[gpu_use_dp: 0]
[num_gpu: 1]

end of parameters

pandas_categorical:[]
