tree
version=v4
num_class=1
num_tree_per_iteration=1
label_index=0
max_feature_idx=44
objective=binary sigmoid:1
feature_names=return_1d return_2d return_3d return_5d return_10d return_20d div_ma_5 div_ma_10 div_ma_20 div_ma_60 ma_5_20_cross ma_20_60_cross rsi rsi_change macd macd_signal macd_hist macd_hist_change bb_pct_b bb_bandwidth atr_pct volatility vol_change vol_ratio candle_body_pct upper_shadow_pct lower_shadow_pct day_of_week month is_month_end is_month_start streak gap price_position_20d macro_usdjpy_ret_20 macro_usdjpy_ret_60 macro_usdjpy_vol_20 macro_topix_ret_20 macro_topix_vol_20 macro_topix_above_200dma macro_nikkei_ret_20 macro_nikkei_above_200dma macro_nikkei_vi macro_jgb10y macro_bias_score
feature_infos=[-0.1981767736821245:0.16164112703905098] [-0.279814880740477:0.22516065249629258] [-0.32813018930587845:0.2100840336134453] [-0.31120190670752468:0.29634206623826009] [-0.33791523482245134:0.37864557587740988] [-0.35191414384110209:0.39866534849233815] [-0.24055860049553274:0.081634717515553137] [-0.27620751341681576:0.11195249292575031] [-0.31739002066725713:0.13665244907459836] [-0.28187288120551646:0.23181504099202574] [-0.17068551286323064:0.096027230490198345] [-0.076525868562282273:0.12177709582109575] [15.190671289000946:94.493392070484589] [-20.991279197160267:22.968473739072834] [-297.79797957556821:286.27701590192737] [-203.22082717698572:248.90151849235255] [-198.50724222630498:77.593681433094844] [-83.41059021986446:44.900341491072624] [-0.35265776279393751:1.4149994850642287] [0.039375566362715338:0.45498248065178554] [0.013270410803617636:0.074442373769728037] [0.0086539236754676185:0.071779187433589409] [-0.87022508038585211:5.5663099714001092] [0.5301829414867576:1.8321432222570517] [-1:1] [0:0.87022900763358779] [0:0.95959595959595956] [0:4] [1:12] none [0:1] [-8:8] [-0.14466904478795084:0.15570934256055358] [0:1] [-0.10288784967882303:0.08505611680078462] [-0.13986255140503889:0.13160084488587853] [0.0024251968629527628:0.011841457708833433] [-0.22586490939044479:0.19897850606512013] [0.0040695656522785678:0.036437277456277402] [0:1] [-0.22859537662338159:0.23022297972565586] [0:1] none none none
tree_sizes=1273 1286 1383 1076 1292 1095 1284 878 1094 1079 1308 1383 1299 1365 1394 1261 1051 1265 1289 1181 989 991 1105 1198 1525 1207 1418 1417 1316 1292 893 869 1517 1528 786 1074 887 866 1156 760 886 1281 999 1162 975 1299 991 1073 1054 887 995 1211 977 975 887 1188 999

Tree=0
num_leaves=11
num_cat=0
split_feature=28 9 28 14 36 37 9 5 36 37
split_gain=14.0023 16.3146 10.5837 15.2388 10.014 9.69203 7.18775 6.96138 4.94898 4.21439
threshold=5.5000000000000009 0.0039074232310178899 1.5000000000000002 128.13930660078884 0.0055382943536720179 0.02097029122439165 0.031104858376660941 0.0223856809595574 0.006190981103895544 0.0030624047516705226
decision_type=2 2 2 2 2 2 2 2 2 2
left_child=2 5 -1 6 7 8 -4 -3 -2 -6
right_child=1 4 3 -5 9 -7 -8 -9 -10 -11
leaf_value=0.077718936912326703 0.12193428351823216 0.068496372711665074 0.095725010192456661 0.070902243487560926 0.078134958342866392 0.073751254476711575 0.12511719219579565 0.097394494384853481 0.092845010276322193 0.053556515313474433
leaf_weight=14.721995845437048 8.9829127192497271 10.729590192437174 15.96962261199951 7.4857605993747702 13.474369078874586 9.981014132499693 19.96202826499939 15.96962261199951 14.97152119874954 23.455383211374283
leaf_count=59 36 43 64 30 54 40 80 64 60 94
internal_value=0.0868027 0.0798134 0.0981376 0.105504 0.0709482 0.0959978 0.113588 0.0858097 0.106167 0.0612125
internal_weight=155.704 97.5644 58.1394 43.4174 63.629 33.9354 35.9317 26.6992 23.9544 36.9298
internal_count=624 391 233 174 255 136 144 107 96 148
is_linear=0
shrinkage=1


Tree=1
num_leaves=11
num_cat=0
split_feature=28 9 40 28 5 36 20 0 7 12
split_gain=13.22 15.4746 11.7491 10.0325 11.1349 9.45343 12.422 8.10878 7.19365 4.68942
threshold=5.5000000000000009 0.0039074232310178899 0.030145665505596279 1.5000000000000002 0.13047025878253996 0.0055382943536720179 0.021492886385512014 0.0088877885044459388 -0.012345360842355707 65.20238401509306
decision_type=2 2 2 2 2 2 2 2 2 2
left_child=3 2 7 -1 8 6 -3 -2 -5 -7
right_child=1 5 -4 4 -6 9 -8 -9 -10 -11
leaf_value=-0.0092285783604844334 0.030649123385735836 -0.023281144657691967 -0.015918408217443496 0 -0.011355864024224486 -0.015781633951708892 0.015099778526022701 -0.0038766032229619299 0.031876420166212338 -0.042710486560945476
leaf_weight=14.727749124169348 16.458101704716686 11.479347914457323 9.9807240515947324 8.4775834828615135 7.7336488366127005 26.970952570438385 15.220170214772223 7.4819386303424826 27.164684519171718 9.9916206300258619
leaf_count=59 66 46 40 34 31 108 61 30 109 40
internal_value=-0.000387624 -0.00717913 0.00858147 0.0106282 0.0178105 -0.0158108 -0.00135173 0.0198137 0.0248046 -0.0252647
internal_weight=155.687 97.5829 33.9208 58.1037 43.3759 63.6621 26.6995 23.94 35.6423 36.9626
internal_count=624 391 136 233 174 255 107 96 143 148
is_linear=0
shrinkage=0.03


Tree=2
num_leaves=12
num_cat=0
split_feature=28 36 37 11 20 28 14 8 8 35 2
split_gain=12.5048 14.7138 14.8071 12.0218 14.1161 9.49909 14.1267 7.45957 5.62973 4.3217 2.62857
threshold=5.5000000000000009 0.0055382943536720179 0.007958072948113017 0.018620279876379712 0.021492886385512014 1.5000000000000002 128.13930660078884 -0.017179639422406363 0.0060279486868600098 0.037607981997207725 0.011995036964489338
decision_type=2 2 2 2 2 2 2 2 2 2 2
left_child=5 3 8 10 -5 -1 7 -7 -3 -4 -2
right_child=1 2 9 4 -6 6 -8 -9 -10 -11 -12
leaf_value=-0.0089821121151116377 0.033607147102951838 0.0097383433322524807 -0.038318779492072963 -0.032889049280149185 0.012540156345132589 0 -0.015919116031967811 0.031887930191866712 -0.01584598159803987 -0.010400502727105675 0.0058195150860998754
leaf_weight=14.732715547084807 9.9674161523580569 17.70930835604668 19.740025192499164 8.9905458539724368 11.715341374278067 7.7288069278001741 7.4897626787424079 28.106323048472408 10.734704732894896 11.238584026694296 7.4839598387479773
leaf_count=59 40 71 79 36 47 31 30 113 43 45 30
internal_value=-0.000400503 -0.00700634 -0.016209 0.00704497 -0.00768418 0.010316 0.0173161 0.0251332 0 -0.0298903 0.0242853
internal_weight=155.637 97.5799 59.4226 38.1573 20.7059 58.0576 43.3249 35.8351 28.444 30.9786 17.4514
internal_count=624 391 238 153 83 233 174 144 114 124 70
is_linear=0
shrinkage=0.03


Tree=3
num_leaves=9
num_cat=0
split_feature=14 19 20 9 23 19 38 35
split_gain=11.851 7.1057 9.74571 13.3929 9.28104 7.93038 5.65603 4.67896
threshold=126.77218606942917 0.078996511102210926 0.021357108177050312 -0.0091834728854753665 1.1633175015496648 0.12819593981917229 0.009032086433952426 0.027902596173809194
decision_type=2 2 2 2 2 2 2 2
left_child=1 2 3 -1 5 -3 -6 -2
right_child=7 4 -4 -5 6 -7 -8 -9
leaf_value=0.011258951770346191 -0.035251048181127433 0.018853796003123677 0.011324267424059304 -0.032562215539469384 0.0051032522369591988 0 -0.022792236265849111 -0.0020457438655556073
leaf_weight=7.4677485823631313 9.2457919567823428 48.334711685776711 12.698246404528616 17.23084220290184 10.217586308717729 31.153226479887962 11.478409811854361 7.7307565808296195
leaf_count=30 37 194 51 69 41 125 46 31
internal_value=-0.000401004 0.00251209 -0.00820256 -0.0188999 0.00669975 0.0114883 -0.00970011 -0.0227298
internal_weight=155.557 138.581 37.3968 24.6986 101.184 79.4879 21.696 16.9765
internal_count=624 556 150 99 406 319 87 68
is_linear=0
shrinkage=0.03


Tree=4
num_leaves=11
num_cat=0
split_feature=28 9 40 28 14 36 20 0 8 38
split_gain=11.6639 14.0626 10.8566 8.96263 12.908 8.50004 10.8844 7.57333 7.00375 4.65051
threshold=5.5000000000000009 0.0039074232310178899 0.030145665505596279 1.5000000000000002 128.13930660078884 0.0055382943536720179 0.021492886385512014 0.0088877885044459388 -0.017179639422406363 0.010642590582007512
decision_type=2 2 2 2 2 2 2 2 2 2
left_child=3 2 7 -1 8 6 -3 -2 -5 -7
right_child=1 5 -4 4 -6 9 -8 -9 -10 -11
leaf_value=-0.0087686372902297076 0.029560717222785478 -0.021802460118779145 -0.015276635888652922 0 -0.01495813624949194 -0.030428533014210106 0.014122637787210608 -0.0037668628258407874 0.030823204270468276 -0.0042351112573905036
leaf_weight=14.735425651073454 16.411283195018772 11.49291814863682 9.9846845120191556 7.7277341037988618 7.4966210126876822 26.485821604728699 15.189208075404165 7.4818001091480246 28.010874733328823 10.492660596966742
leaf_count=59 66 46 40 31 30 106 61 30 113 42
internal_value=-0.000406087 -0.00678796 0.00823486 0.00994988 0.0167667 -0.0150183 -0.00126984 0.0190605 0.024259 -0.0239796
internal_weight=155.509 97.5384 33.8778 57.9707 43.2352 63.6606 26.6821 23.8931 35.7386 36.9785
internal_count=624 391 136 233 174 255 107 96 144 148
is_linear=0
shrinkage=0.03


Tree=5
num_leaves=9
num_cat=0
split_feature=34 19 19 23 8 10 28 15
split_gain=7.25695 9.83219 22.4376 8.82712 6.63454 5.65673 4.65402 4.58276
threshold=-0.032317857037125745 0.12256970434959315 0.078996511102210926 0.87883815148018163 0.0078810117625005768 0.058244725789192493 9.5000000000000018 64.914762202211108
decision_type=2 2 2 2 2 2 2 2
left_child=4 2 3 -2 -1 7 -4 -3
right_child=1 5 6 -5 -6 -7 -8 -9
leaf_value=0.027954306767920052 -0.035003229604507462 -0.0053123587830510334 0.022640133274915975 -0.0022744513049695663 -0.0039598575122887355 0.0077533671013067015 0.0014259737573221068 -0.02616679619188627
leaf_weight=13.70404899120331 9.7165614664554578 22.925617828965187 36.519924566149712 24.158426970243454 7.462344378232955 8.9709253311157209 14.705622434616087 19.958060041069984
leaf_count=55 39 92 147 97 30 36 59 80
internal_value=0.00109858 -0.00140779 0.00472218 -0.0135084 0.0166848 -0.0115482 0.0171143 -0.0160857
internal_weight=158.122 136.955 85.1005 33.875 21.1664 51.8546 51.2255 42.8837
internal_count=635 550 342 136 85 208 206 172
is_linear=0
shrinkage=0.03


Tree=6
num_leaves=11
num_cat=0
split_feature=11 20 38 40 14 21 38 16 34 2
split_gain=7.24658 14.9677 12.7624 9.60477 8.29998 8.0459 5.44087 3.08755 2.78674 1.29346
threshold=0.018119125359635561 0.023252730173349563 0.010462941952078553 0.04697245847115817 143.8495911795699 0.017291932794040153 0.0099625277096170983 27.62752359817312 0.02841439381710165 0.0072934801160607918
decision_type=2 2 2 2 2 2 2 2 2 2
left_child=3 6 4 7 -3 -5 9 8 -1 -2
right_child=1 2 -4 5 -6 -7 -8 -9 -10 -11
leaf_value=0.02221893626492491 -0.029968094796768558 0.025664880566155939 -0.018104955500546117 0.005823086779498941 -0.004749686738959885 -0.029054215433656525 0 -0.0013353562799526839 0.0041213765559577654 -0.010469818506610135
leaf_weight=31.805890589952469 17.956023573875431 23.124744400382042 11.210066631436346 12.191094622015955 9.9815859794616681 7.9893048256635657 11.452838167548178 7.4601520001888266 14.167150080204008 10.719887554645537
leaf_count=128 72 93 45 49 40 32 46 30 57 43
internal_value=0.0010558 -0.00478389 0.00688195 0.00790246 0.0163194 -0.00868314 -0.0177383 0.0145243 0.017359 -0.0243259
internal_weight=158.059 84.4451 44.3164 73.6136 33.1063 20.1804 40.1287 53.4332 45.973 28.6759
internal_count=635 339 178 296 133 81 161 215 185 115
is_linear=0
shrinkage=0.03


Tree=7
num_leaves=7
num_cat=0
split_feature=24 36 16 36 28 19
split_gain=7.20258 7.90705 10.0762 5.96181 10.316 10.0668
threshold=0.76556776556776562 0.0080213846019836638 1.4982710089757962 0.0055382943536720179 8.5000000000000018 0.076219932006282118
decision_type=2 2 2 2 2 2
left_child=1 3 -3 5 -5 -1
right_child=-2 2 -4 4 -6 -7
leaf_value=-0.012404660455720074 -0.018710641493254236 0.035173653048899946 -0.0018368927896511165 0.0029700616641435786 -0.020333089238860978 0.014965384355314372
leaf_weight=14.688842654228209 12.950835794210432 12.186330854892732 10.703690603375433 41.993021741509438 25.438719764351845 40.015875115990639
leaf_count=59 52 49 43 169 102 161
internal_value=0.00100278 0.00309578 0.0185074 0 -0.00593751 0.00717338
internal_weight=157.977 145.026 22.89 122.136 67.4317 54.7047
internal_count=635 583 92 491 271 220
is_linear=0
shrinkage=0.03


Tree=8
num_leaves=9
num_cat=0
split_feature=28 28 9 10 4 4 38 40
split_gain=7.017 11.8879 19.0539 14.4416 10.5735 7.04179 4.63165 4.43295
threshold=1.5000000000000002 6.5000000000000009 0.046030871004802056 0.02206053313641421 -0.050143997529382305 -0.030088718484310602 0.0086866262216703342 0.055718859153444884
decision_type=2 2 2 2 2 2 2 2
left_child=-1 3 4 5 -3 -2 -4 -5
right_child=1 2 6 7 -6 -7 -8 -9
leaf_value=-0.020278443488811741 0.00064435916442127244 0.027931127857110237 -0.0077279745931656332 -0.01098483456350521 -0.0011207347917674788 0.036017712902401626 -0.035868325340843402 0.010935043046400091
leaf_weight=10.735857114195822 7.7160312831401852 12.162908136844633 12.473332345485689 17.126436531543735 50.552310362458229 20.996892854571342 13.727638468146322 12.432550549507139
leaf_count=43 31 49 50 69 203 85 55 50
internal_value=0.000967508 0.0028688 -0.00389683 0.013228 0.00497084 0.0276612 -0.0245018 -0.00118129
internal_weight=157.924 147.188 88.9162 58.2719 62.7152 28.7129 26.201 29.559
internal_count=635 592 357 235 252 116 105 119
is_linear=0
shrinkage=0.03


Tree=9
num_leaves=9
num_cat=0
split_feature=34 19 19 34 8 26 20 2
split_gain=6.56056 9.00609 21.2361 8.39828 5.93191 5.1296 5.02361 6.00727
threshold=-0.032317857037125745 0.12053739173117507 0.078996511102210926 0.009521747375661806 0.0078810117625005768 0.093855581038463504 0.020950545365841542 0.016618156131573029
decision_type=2 2 2 2 2 2 2 2
left_child=4 2 3 -2 -1 -4 -3 -8
right_child=1 6 5 -5 -6 -7 7 -9
leaf_value=0.026480056578259494 -0.031494728115855526 0.0090314949333462815 0 -0.00078671451531428288 -0.0036562550877165447 0.022447540924218131 -0.0061661163275844831 -0.030082362376347573
leaf_weight=13.640095189213755 11.694935873150824 7.46667356789112 12.384757205843924 22.14813306927681 7.4573498219251624 36.680481404066086 32.385248094797134 13.957456529140471
leaf_count=55 47 30 50 89 30 148 130 56
internal_value=0.000933677 -0.00144435 0.0046074 -0.012982 0.0157841 0.0170668 -0.0108685 -0.014626
internal_weight=157.815 136.718 82.9083 33.8431 21.0974 49.0652 53.8094 46.3427
internal_count=635 550 334 136 85 198 216 186
is_linear=0
shrinkage=0.03


Tree=10
num_leaves=11
num_cat=0
split_feature=9 3 28 14 9 21 19 32 17 17
split_gain=18.8913 11.4157 8.72844 14.3405 9.85315 6.75854 6.08634 5.07417 1.70759 0.65893
threshold=-0.0070577328549131348 -0.025449027128953802 6.5000000000000009 134.23216669639035 0.044473267141785656 0.017125390433551969 0.091999990458513134 0.0064393325469358506 -0.69668829599536852 3.8298500507169693
decision_type=2 2 2 2 2 2 2 2 2 2
left_child=1 -1 3 4 -2 6 -4 9 -7 -3
right_child=2 7 5 -5 -6 8 -8 -9 -10 -11
leaf_value=-0.0063729162059019406 -0.006981329946274888 0.038202694103076258 -0.016449197889058634 -0.024630469178270695 0.021864544063816119 -0.013887239398351531 0.0067870479197015858 0.002362551530321999 -0.037293013850601381 0.014243920193062165
leaf_weight=12.917596116662024 15.623453661799429 14.358387693762785 19.94064436852932 11.981884956359862 24.23276475071907 12.459995925426485 16.195874601602554 8.1887281984090787 10.467724993824957 7.4471221119165412
leaf_count=52 63 58 80 48 98 50 65 33 42 30
internal_value=-0.000696502 0.0156641 -0.00732515 0.00141446 0.0104054 -0.0150363 -0.00583194 0.0254286 -0.0273097 0.0325344
internal_weight=153.814 42.9118 110.902 51.8381 39.8562 59.0642 36.1365 29.9942 22.9277 21.8055
internal_count=619 173 446 209 161 237 145 121 92 88
is_linear=0
shrinkage=0.03


Tree=11
num_leaves=12
num_cat=0
split_feature=11 1 21 21 2 21 14 38 21 3 23
split_gain=15.2874 8.24421 6.43747 7.98905 5.71029 5.49325 4.97429 4.10957 4.73093 3.37036 2.58699
threshold=0.012581876024113649 -0.0016302115007896798 0.01399064260877694 0.0199431924632168 -0.019083107936525841 0.023881539706364797 134.23216669639035 0.0080669995554190996 0.019413074206370274 0.0072181314114079251 1.0032670404731918
decision_type=2 2 2 2 2 2 2 2 2 2 2
left_child=1 4 -2 6 -1 -5 -4 10 -9 -6 -3
right_child=2 7 3 5 9 -7 -8 8 -10 -11 -12
leaf_value=0 -0.025566375690759726 0 0.0063350879007733306 -0.031400057840533818 0.043419609366810392 -1.8148162822811393e-05 -0.016758157004059016 -0.016542672030642726 0.0073304167126636366 0.012006491211574271 0.022879219984097331
leaf_weight=7.4434628486633327 15.457370534539221 7.4358196407556516 42.160483434796333 11.704922825098039 8.9017886519432086 9.4620004147291166 8.2237333059310895 14.688178613781931 10.915055409073828 9.6639852523803693 7.6501161903142929
leaf_count=30 62 30 170 47 36 38 33 59 44 39 31
internal_value=-0.000684293 0.00985301 -0.00897033 -0.00458339 0.0224061 -0.0192319 0.00178355 0.000803674 -0.00602807 0.0305554 0.0126246
internal_weight=153.707 66.6984 87.0085 71.5511 26.0092 21.1669 50.3842 40.6892 25.6032 18.5658 15.0859
internal_count=619 269 350 288 105 85 203 164 103 75 61
is_linear=0
shrinkage=0.03


Tree=12
num_leaves=11
num_cat=0
split_feature=9 3 28 14 9 9 14 19 4 0
split_gain=17.4039 10.6585 8.1643 13.2758 9.36496 6.73353 6.58676 4.42041 3.272 2.12325
threshold=-0.0070577328549131348 -0.025449027128953802 6.5000000000000009 134.23216669639035 0.044473267141785656 0.048763137603990092 15.44822228974431 0.15326304138975974 0.042728457585575537 0.0067355889724310955
decision_type=2 2 2 2 2 2 2 2 2 2
left_child=1 -1 3 4 -2 6 -4 9 -7 -3
right_child=2 7 5 -5 -6 8 -8 -9 -10 -11
leaf_value=-0.0061874106194291789 -0.0068356308624906003 0.037600057758180434 -0.016728447233788097 -0.02362555129117444 0.021286431121224806 -0.037607370718278223 0.0072118217280961227 0.0016047550706814427 -0.0098473224030213927 0.010345970762576606
leaf_weight=12.919967442750929 15.620023861527441 15.00354483723641 19.931462630629539 11.97618445754051 24.177767917513847 11.724177420139315 16.927976503968239 7.4483903497457495 10.469235748052595 7.4318198710679999
leaf_count=52 63 61 80 48 98 47 68 30 42 30
internal_value=-0.00066143 0.0150604 -0.00702582 0.00142434 0.0100911 -0.0144841 -0.00554239 0.024529 -0.0270288 0.0307716
internal_weight=153.631 42.8037 110.827 51.774 39.7978 59.0529 36.8594 29.8838 22.1934 22.4354
internal_count=619 173 446 209 161 237 148 121 89 91
is_linear=0
shrinkage=0.03


Tree=13
num_leaves=12
num_cat=0
split_feature=9 7 28 13 9 5 10 0 5 10 27
split_gain=16.5699 8.9193 7.72553 7.05692 6.4208 7.39008 5.96516 4.8382 4.18702 3.83128 2.0135
threshold=-0.0070577328549131348 -0.02541293570441126 6.5000000000000009 -0.99516715639196451 0.048763137603990092 -0.014670087011582565 0.035242760839838357 0.012938316142656505 0.081988187746842037 0.03750493174620529 2.5000000000000004
decision_type=2 2 2 2 2 2 2 2 2 2 2
left_child=1 -1 3 8 5 -4 -5 10 -2 -6 -3
right_child=2 7 4 6 9 -7 -8 -9 -10 -11 -12
leaf_value=-0.0082811173398480362 0 0.034898589809557769 -0.023549927394620966 0.020689312356715738 -0.03488935781285004 0.0033858359443579935 -0.0048260013487659943 0 -0.025907008157274782 -0.0050101076602097278 0.011115418658841711
leaf_weight=9.6879761070013029 14.12913464009762 15.732808440923693 11.453458696603773 18.466200098395351 14.448987752199175 25.407039061188698 11.418321341276167 7.4587514102458945 7.7053709477186194 7.7231797426939002 9.848489508032797
leaf_count=39 57 64 46 75 58 102 46 30 31 31 40
internal_value=-0.000650691 0.0147025 -0.00686271 0.0013563 -0.0141177 -0.00537904 0.0107787 0.0219578 -0.010733 -0.0263778 0.0277562
internal_weight=153.48 42.728 110.752 51.719 59.0327 36.8605 29.8845 33.04 21.8345 22.1722 25.5813
internal_count=619 173 446 209 237 148 121 134 88 89 104
is_linear=0
shrinkage=0.03


Tree=14
num_leaves=12
num_cat=0
split_feature=11 0 13 7 3 13 4 5 18 34 4
split_gain=13.3477 9.67652 6.99603 6.30235 6.22642 5.248 6.43069 4.02406 4.16264 3.53507 3.10831
threshold=0.012581876024113649 0.013423100699342496 0.14423954326202806 0.0099042767097134807 -0.025449027128953802 6.9675186756987779 0.02810948844808692 0.085900061924398821 0.64836972679939342 0.023267918416927217 0.020860783355869831
decision_type=2 2 2 2 2 2 2 2 2 2 2
left_child=1 3 7 4 -1 6 -4 8 -2 -5 -3
right_child=2 10 5 9 -6 -7 -8 -9 -10 -11 -12
leaf_value=0 -0.014296444065094269 -0.022106206662868291 0.019280995471546984 0.011669235606003513 0.031303674474078058 -0.016355828594271069 -0.0071243001592658237 -0.029273580921876981 0.0080349727194188938 -0.010680638785062082 0.0017905987320950469
leaf_weight=7.4451930969953564 27.602936878800392 7.4745499789714795 16.315528586506847 13.101853057742121 22.327353596687317 9.1788972169160825 12.649758994579313 13.432198494672773 7.6785950958728781 8.6819218546152097 7.4447842389345169
leaf_count=30 111 30 66 53 91 37 51 54 31 35 30
internal_value=-0.000647017 0.00921159 -0.0083985 0.0153727 0.0239567 0.000895079 0.0075495 -0.0157197 -0.00886362 0.00198191 -0.010493
internal_weight=153.334 66.4757 86.8579 51.5563 29.7725 38.1442 28.9653 48.7137 35.2815 21.7838 14.9193
internal_count=619 269 350 209 121 154 117 196 142 88 60
is_linear=0
shrinkage=0.03


Tree=15
num_leaves=11
num_cat=0
split_feature=11 20 35 36 35 2 8 36 10 25
split_gain=7.6315 21.2008 9.98011 9.63877 6.5885 7.59142 9.61189 5.9006 4.82547 2.22331
threshold=0.020709513129957727 0.022720617662692941 0.065211300325784718 0.0048815766993560369 -0.064962634155194196 0.0075467810366753882 -0.02206268515284408 0.0049597557690506501 -0.01254766810671276 0.29764306676449015
decision_type=2 2 2 2 2 2 2 2 2 2
left_child=4 7 3 -3 -1 6 -6 -2 -7 -9
right_child=1 2 -4 -5 5 8 -8 9 -10 -11
leaf_value=-0.014031801208889244 -0.041236201892562427 0.033859687503368818 -0.020840499877733544 0.0021797969066043379 0 0.017929318488560775 0.031514341963213954 -0.01835682020036658 -0.0065897058864057331 0
leaf_weight=9.1788029074668867 10.672883719205855 11.613936319947241 7.4756194651126853 27.718881145119667 13.360829785466192 7.8930222839117041 21.365670308470726 14.415228471159937 24.77549135684967 7.7118618637323371
leaf_count=37 43 47 30 112 54 32 87 58 100 31
internal_value=0.000373209 -0.00595736 0.00672564 0.0130827 0.00712968 0.0105492 0.0199075 -0.0238345 0 -0.0120967
internal_weight=156.182 79.6084 46.8084 39.3328 76.5738 67.395 34.7265 32.8 32.6685 22.1271
internal_count=631 321 189 159 310 273 141 132 132 89
is_linear=0
shrinkage=0.03


Tree=16
num_leaves=9
num_cat=0
split_feature=12 28 28 14 40 15 14 33
split_gain=10.7626 7.44826 8.91382 14.8614 6.53196 8.46977 7.16621 6.29539
threshold=38.272608892077919 6.5000000000000009 1.5000000000000002 102.29959805625118 0.030145665505596279 49.219855729739514 67.957515822751034 0.1406453652368447
decision_type=2 2 2 2 2 2 2 2
left_child=7 2 -2 -4 5 -3 -6 -1
right_child=1 4 3 -5 6 -7 -8 -9
leaf_value=0 -0.020433092458935379 0.0053796351163457662 0.02340610808922601 -0.0075211636334346259 -0.030945839778380849 -0.024527277365384122 0 0.028290879247682976
leaf_weight=10.408520892262461 8.7211197167634946 32.637795984745026 28.370453178882599 23.53857995569706 17.889685928821567 9.2102711349725706 9.6984096318483335 15.580815762281416
leaf_count=42 35 132 116 95 72 37 39 63
internal_value=0.000351785 -0.00313808 0.00430637 0.0093449 -0.00978697 -0.00167895 -0.0206341 0.0173293
internal_weight=156.056 130.066 60.6302 51.909 69.4362 41.8481 27.5881 25.9893
internal_count=631 526 246 211 280 169 111 105
is_linear=0
shrinkage=0.03


Tree=17
num_leaves=11
num_cat=0
split_feature=12 34 38 6 17 11 36 28 13 36
split_gain=10.2158 8.31535 8.59937 9.0029 7.83532 6.91094 6.70294 5.47837 3.90376 0.47816
threshold=38.272608892077919 0.0085734258052712082 0.0086238039987019694 0.0018400150145877691 -1.8143416464795832 0.022106637850872083 0.0080213846019836638 8.5000000000000018 -1.3835044022399712 0.0062550648346461181
decision_type=2 2 2 2 2 2 2 2 2 2
left_child=4 5 8 -4 -1 7 -7 -2 -3 -6
right_child=1 2 3 -5 9 6 -8 -9 -10 -11
leaf_value=-0.0064013632072822063 0.0095307467294109167 0 0.0083324807312505494 -0.018922622981639783 0.012877813818192497 -0.028928439767327219 0 -0.015641953965242997 0.023053725353774385 0.033773443512061213
leaf_weight=7.4664717465639141 18.162743732333187 10.600404292345049 19.766052827239037 19.325161173939705 8.8642024546861666 21.802432581782341 10.406383529305456 10.666193708777426 19.209254011511803 9.6221274733543378
leaf_count=30 74 43 80 78 36 88 42 43 78 39
internal_value=0.000324708 -0.00307385 0.00387345 -0.00504153 0.0168795 -0.0110282 -0.0201478 0 0.0156177 0.0267215
internal_weight=155.891 129.939 68.9009 39.0912 25.9528 61.0378 32.2088 28.8289 29.8097 18.4863
internal_count=631 526 279 158 105 247 130 117 121 75
is_linear=0
shrinkage=0.03


Tree=18
num_leaves=11
num_cat=0
split_feature=14 15 5 40 1 15 40 10 15 23
split_gain=8.1898 10.4007 9.03911 8.81116 7.64339 7.51984 4.65238 4.30703 1.16019 0.024601
threshold=-20.821475877420195 -44.202173264798873 -0.010293454082862251 -0.020121299621168372 0.02406168605930448 49.219855729739514 0.032343928674441032 0.025059433592565575 -90.663443513195219 1.0743482866318885
decision_type=2 2 2 2 2 2 2 2 2 2
left_child=1 3 6 -1 5 -4 -2 -6 -5 -3
right_child=2 9 4 8 7 -7 -8 -9 -10 -11
leaf_value=0.022103156387540918 -0.0055041987705139947 0.036854115609842003 0.01630303719828111 -0.0015587324183230717 0 -0.0025044146386486534 -0.035016812404630844 -0.025577870855060043 -0.020013828086004017 0.014488337869710707
leaf_weight=7.8131006211042431 12.885936215519907 7.7740594148635846 29.901804253458977 7.6422166824340847 9.5914697051048297 44.051453903317451 8.9069319069385511 11.406861513853071 8.3805101960897428 7.4088384211063385
leaf_count=32 52 32 121 31 39 178 36 46 34 30
internal_value=0.00032349 0.0119616 -0.00357587 -0.000227703 0.000404801 0.00513163 -0.0201262 -0.0145888 -0.0131935 0.0297699
internal_weight=155.763 39.0187 116.744 23.8358 94.9516 73.9533 21.7929 20.9983 16.0227 15.1829
internal_count=631 159 472 97 384 299 88 85 65 62
is_linear=0
shrinkage=0.03


Tree=19
num_leaves=10
num_cat=0
split_feature=12 34 17 23 11 36 2 1 37
split_gain=9.52309 7.78105 7.34412 6.89071 6.43162 6.16106 5.57037 3.07814 1.65129
threshold=38.272608892077919 0.0085734258052712082 -1.8143416464795832 0.8065563094610757 0.022106637850872083 0.0080213846019836638 0.0074790085905773749 0.020187857029289939 -1.0000000180025095e-35
decision_type=2 2 2 2 2 2 2 2 2
left_child=2 4 -1 -3 7 -6 -5 -2 -4
right_child=1 3 8 6 5 -7 -8 -9 -10
leaf_value=-0.0061662797507557234 0.0068434707713222361 -0.018911546089941264 0.010444978894154551 0.016399915917285401 -0.027909624985909393 0 -0.0010138031146877599 -0.012190270706785753 0.035094427148260436
leaf_weight=7.4663413912057903 18.658148646354679 8.1586597412824613 9.0832134038209968 29.761841714382172 21.756093427538872 10.406054630875586 30.905167490243912 10.131968662142752 9.3260648399591393
leaf_count=30 76 33 37 121 88 42 125 41 38
internal_value=0.000306929 -0.00297079 0.016318 0.00374746 -0.0106732 -0.0194772 0.00754037 0 0.0258826
internal_weight=155.654 129.778 25.8756 68.8257 60.9523 32.1621 60.667 28.7901 18.4093
internal_count=631 526 105 279 247 130 246 117 75
is_linear=0
shrinkage=0.03


Tree=20
num_leaves=8
num_cat=0
split_feature=9 33 0 19 14 23 15
split_gain=8.52902 8.41854 8.82975 5.45789 9.56387 6.81703 4.92226
threshold=-0.0070577328549131348 0.1406453652368447 0.013148858791980801 0.20507767135490054 126.77218606942917 1.1633175015496648 -44.202173264798873
decision_type=2 2 2 2 2 2 2
left_child=1 -1 6 4 5 -2 -3
right_child=3 2 -4 -5 -6 -7 -8
leaf_value=-0.0064511380719076035 0.0024456803536615549 0.0093983247402049299 -0.0046146323590885259 0.017036313304629073 -0.02866881490856505 -0.019144773294039318 0.040186077838770998
leaf_weight=12.591440126299856 79.27624374628067 10.970085218548773 7.9387479126453391 9.6742078363895398 10.929671704769133 13.622152656316755 13.97431041300297
leaf_count=51 321 45 32 39 44 55 58
internal_value=0.0020919 0.0128247 0.0205824 -0.00222593 -0.00445048 -0.000898928 0.0289055
internal_weight=158.977 45.4746 32.8831 113.502 103.828 92.8984 24.9444
internal_count=645 186 135 459 420 376 103
is_linear=0
shrinkage=0.03


Tree=21
num_leaves=8
num_cat=0
split_feature=38 5 19 25 19 38 19
split_gain=10.0863 9.89121 10.948 8.3135 7.73387 5.65746 4.76509
threshold=0.0065364509990858766 0.08144721933171474 0.20507767135490054 0.29544513457556942 0.078996511102210926 0.0085280322280887385 0.1182010787096215
decision_type=2 2 2 2 2 2 2
left_child=-1 3 5 4 -2 -3 -5
right_child=1 2 -4 6 -6 -7 -8
leaf_value=0.024525682683782773 -0.01662937385331844 -0.0023706321972565107 0.011526347543555367 0.022240514628330592 0.0038607848522600706 -0.035731490569630375 2.2301694248816894e-05
leaf_weight=14.16215345263481 21.420146495103836 8.1733330041170174 8.2059030979871732 24.221268936991692 53.226488322019577 14.38203029334545 15.046528697013853
leaf_count=58 87 33 33 99 216 58 61
internal_value=0.00203225 -0.000371738 -0.0150127 0.00364329 -0.00210374 -0.0254312 0.0145042
internal_weight=158.838 144.676 30.7613 113.914 74.6466 22.5554 39.2678
internal_count=645 587 124 463 303 91 160
is_linear=0
shrinkage=0.03


Tree=22
num_leaves=9
num_cat=0
split_feature=38 25 38 10 10 11 26 3
split_gain=9.59048 9.61954 8.15921 7.33507 8.14229 5.82494 4.31967 3.58925
threshold=0.0065364509990858766 0.16172067629446993 0.010462941952078553 0.025059433592565575 0.041853843237375739 0.038413817858342643 0.21073190789473686 -0.0041303991495738593
decision_type=2 2 2 2 2 2 2 2
left_child=-1 2 7 5 -5 -3 -4 -2
right_child=1 3 6 4 -6 -7 -8 -9
leaf_value=0.023942512484638741 -0.0027800036291311023 0.017695235393128166 -0.0094697595138971326 -0.022562847977643907 0.0083376091761027914 -0.001200069021772566 0.01680440840204913 -0.023658062418981888
leaf_weight=14.121222361922262 13.311303600668905 41.075424090027809 7.4275379329919842 12.842172831296923 13.399518921971319 19.753754928708076 11.075428232550619 25.708342835307121
leaf_count=58 54 168 30 52 54 80 45 104
internal_value=0.00197852 -0.000361582 -0.0097886 0.00577784 -0.00678028 0.0114775 0.00563081 -0.0173841
internal_weight=158.715 144.593 57.5226 87.0709 26.2417 60.8292 18.503 39.0196
internal_count=645 587 233 354 106 248 75 158
is_linear=0
shrinkage=0.03


Tree=23
num_leaves=10
num_cat=0
split_feature=5 8 40 40 23 11 13 13 17
split_gain=8.42599 5.29694 10.0116 8.88679 5.68809 5.54224 5.10972 3.31919 3.41501
threshold=0.08144721933171474 0.015499905174880408 -0.0049458815859768071 0.030145665505596279 0.98045381014103972 0.013843985678408279 4.7655604543048549 -1.3835044022399712 2.4686720153984756
decision_type=2 2 2 2 2 2 2 2 2
left_child=1 3 -3 5 -5 -1 -4 -2 -9
right_child=7 2 6 4 -6 -7 -8 8 -10
leaf_value=0.016154234141662348 -0.0223922392660964 -0.0083583527320179023 0.032534881120155255 -0.02479215825220444 0.0012742697182083389 -0.0013315905818708205 0.0034213762664594442 0.006381527839804029 -0.015018404689335669
leaf_weight=30.868905067443848 11.899809718132017 10.36798310279846 18.098448112607006 13.584911629557611 12.246363162994383 28.971736505627632 9.8289755433797819 13.086612090468408 9.620454400777815
leaf_count=127 48 42 74 55 50 117 40 53 39
internal_value=0.00191814 0.0056562 0.0146666 0.00121476 -0.0126918 0.00767667 0.0237031 -0.0106399 -0.0025598
internal_weight=158.574 123.967 38.2954 85.6719 25.8313 59.8406 27.9274 34.6069 22.7071
internal_count=645 505 156 349 105 244 114 140 92
is_linear=0
shrinkage=0.03


Tree=24
num_leaves=13
num_cat=0
split_feature=25 15 10 10 7 35 7 10 23 28 7 35
split_gain=8.7586 9.42611 5.56566 4.83711 6.27996 8.92091 5.80512 5.58151 4.9018 4.5039 2.42509 0.345262
threshold=0.16172067629446993 64.320920216731025 0.019566875886413596 0.024566637730619182 -0.018595923735614871 0.053387747164957096 -0.029846929915436592 0.041853843237375739 0.96968565967133136 3.5000000000000004 0.030524780132841923 0.02950493322693826
decision_type=2 2 2 2 2 2 2 2 2 2 2 2
left_child=1 2 9 4 6 -6 -2 8 -5 -1 -9 -3
right_child=3 11 -4 7 5 -7 -8 10 -10 -11 -12 -13
leaf_value=-0.022715507861031162 0.012002661845269023 -0.03286932125259158 0.015742396059851404 -0.028876260406349104 0.024407259353193888 -0.0048023709513401241 -0.019162037690110347 0.01992699953841056 0.0014830072890544099 7.7225193061539242e-05 -0.00080546327957140321 -0.011939462650038373
leaf_weight=8.3687871843576414 9.1280189752578753 7.3900102078914633 12.979728206992148 7.4142760336399096 36.890989109873772 10.589709609746931 8.1641198992729169 7.6770019233226758 7.6000581681728363 26.389966726303101 7.6751684248447418 8.1509351730346662
leaf_count=34 37 30 53 30 152 43 33 31 31 107 31 33
internal_value=0.00185532 -0.00654667 4.97998e-05 0.00761783 0.0121691 0.0176586 -0.00239473 -0.00177874 -0.0142593 -0.00593981 0.00979939 -0.0253601
internal_weight=158.419 63.2794 47.7385 95.1393 64.7728 47.4807 17.2921 30.3665 15.0143 34.7588 15.3522 15.5409
internal_count=645 257 194 388 265 195 70 123 61 141 62 63
is_linear=0
shrinkage=0.03


Tree=25
num_leaves=10
num_cat=0
split_feature=25 14 12 15 1 11 6 18 34
split_gain=6.59013 5.77878 8.37801 6.50828 5.12799 4.14468 3.5825 2.43674 1.66887
threshold=0.2556872561289848 -21.262901528023573 50.628346299703843 49.219855729739514 0.020187857029289939 -0.011891591009090817 -0.017970564708600787 0.23498662615271662 -0.0066740783279718987
decision_type=2 2 2 2 2 2 2 2 2
left_child=1 5 7 -4 6 -1 -2 -3 -8
right_child=4 2 3 -5 -6 -7 8 -9 -10
leaf_value=-0.00089811055565126429 -0.0024379928355582605 -0.0051258858261844197 0.010255125902941092 -0.010832201724379396 -0.0069501172048110063 0.023932294087859237 0.0033509739643206552 -0.030237804286616345 0.019813031219757665
leaf_weight=13.921531215310099 9.6496476382017118 7.6630723923444775 21.579414144158363 27.427398726344109 13.828604578971861 7.2972591072320929 10.724956274032587 14.333296343684195 29.56884473562241
leaf_count=57 39 31 88 111 56 30 44 58 121
internal_value=0.000459132 -0.00453358 -0.0087033 -0.00121462 0.00782556 0.00832108 0.0123156 -0.0232708 0.0161517
internal_weight=155.994 92.222 71.0032 49.0068 63.7721 21.2188 49.9434 21.9964 40.2938
internal_count=635 375 288 199 260 87 204 89 165
is_linear=0
shrinkage=0.03


Tree=26
num_leaves=12
num_cat=0
split_feature=9 32 18 18 38 5 25 0 5 24 40
split_gain=10.1677 10.9626 9.9917 11.2567 5.41285 4.17149 3.35909 2.53774 2.13254 2.03258 0.921923
threshold=-0.0070577328549131348 0.010229788900174787 0.64150986207871563 0.77241396876925672 0.0086866262216703342 -0.053347808542585189 0.28062500000000007 0.00054070409935269581 -0.005710519044627215 -0.069234865968400491 0.021619436998289724
decision_type=2 2 2 2 2 2 2 2 2 2 2
left_child=1 5 6 7 -5 -1 8 -4 -2 -8 -7
right_child=2 -3 3 4 -6 10 9 -9 -10 -11 -12
leaf_value=0.0042534322726877445 -0.031011256081472021 -0.014869206692415073 0.005237237651954431 0.004510530593711779 -0.014999157799893378 0.033589068564205647 -0.012196450654906847 0.028529812514425091 -0.010035264148958214 0.0059605446619775179 0.011576998867217242
leaf_weight=13.214816406369204 12.091478422284128 8.3659318983554822 10.320953056216242 22.40322582423687 23.73210109770298 13.637284114956861 9.1526265889406222 11.777221605181692 14.844608977437018 8.1438614875078184 8.2064247429370862
leaf_count=54 49 34 42 91 96 57 37 48 60 33 34
internal_value=0.000437585 0.0125259 -0.00423613 0.00280067 -0.00541989 0.0199176 -0.0150672 0.019611 -0.0214623 -0.00313837 0.0276132
internal_weight=155.891 43.4245 112.466 68.2335 46.1353 35.0585 44.2326 22.0982 26.9361 17.2965 21.8437
internal_count=635 179 456 277 187 145 179 90 109 70 91
is_linear=0
shrinkage=0.03


Tree=27
num_leaves=12
num_cat=0
split_feature=9 32 18 18 38 14 37 38 14 1 12
split_gain=9.66212 10.4698 9.51571 10.6967 5.12384 4.98738 3.36944 3.41756 3.12998 3.1024 3.03817
threshold=-0.0070577328549131348 0.010229788900174787 0.64150986207871563 0.77241396876925672 0.0086866262216703342 -76.847862557141511 0.007958072948113017 0.010918054601500379 57.442276534515265 -0.018184333607751287 57.425965833758752
decision_type=2 2 2 2 2 2 2 2 2 2 2
left_child=1 5 6 10 -5 -1 7 -2 -8 -7 -4
right_child=2 -3 3 4 -6 9 8 -9 -10 -11 -12
leaf_value=0.00040457096498378302 0.00087461211725643501 -0.014493083982871352 0.0010108842854185051 0.004387256427885438 -0.014587597052451308 0.0054207332881070032 -0.033412614743376388 -0.020298434110211535 -0.004574894531868056 0.033157798132986561 0.026473804837411029
leaf_weight=10.491741403937334 17.841573297977451 8.3772789090871793 7.5996105223894146 22.398012399673462 23.726118639111519 7.3258152902126303 11.077424690127375 7.9309221804141989 7.3584291189908972 17.129131942987449 14.476377889513968
leaf_count=43 72 34 31 91 96 30 45 32 30 72 59
internal_value=0.000432054 0.0122339 -0.00411979 0.00274436 -0.00526226 0.0194845 -0.0146942 -0.00609338 -0.0242106 0.0264538 0.0191434
internal_weight=155.732 43.324 112.408 68.2001 46.1241 34.9467 44.2083 25.7725 18.4359 24.4549 22.076
internal_count=635 179 456 277 187 145 179 104 75 102 90
is_linear=0
shrinkage=0.03


Tree=28
num_leaves=11
num_cat=0
split_feature=9 32 18 18 33 38 37 20 32 12
split_gain=9.1803 9.99432 9.07385 10.1529 4.96479 4.85084 3.20963 4.51866 3.32783 2.86999
threshold=-0.0070577328549131348 0.010229788900174787 0.64150986207871563 0.77241396876925672 0.21359908449361056 0.0086866262216703342 0.007958072948113017 0.020622406591756279 0.0020787254492242728 57.425965833758752
decision_type=2 2 2 2 2 2 2 2 2 2
left_child=1 4 6 9 -1 -5 8 -8 -2 -4
right_child=2 -3 3 5 -6 -7 7 -9 -10 -11
leaf_value=0.0026028604088420369 0.00092560228591679738 -0.014127975979813728 0.00098691052090855188 0.0042673655787102216 0.027408441470070818 -0.014188631324418371 -0.038986723452016356 -0.0067766371706557277 -0.019959986932452097 0.025808732282625663
leaf_weight=13.217583060264586 17.841987252235416 8.3874854147434217 7.5992842912673977 22.392732918262482 21.605076774954796 23.717826828360558 7.8044707030057934 10.605003908276556 7.9314863234758368 14.455784201622008
leaf_count=54 72 34 31 91 91 96 32 43 32 59
internal_value=0.000416808 0.0119405 -0.00401546 0.00268463 0.0190531 -0.00510923 -0.0143458 -0.023649 -0.00593612 0.0186728
internal_weight=155.559 43.2101 112.349 68.1656 34.8227 46.1106 44.1829 18.4095 25.7735 22.0551
internal_count=635 179 456 277 145 187 179 75 104 90
is_linear=0
shrinkage=0.03


Tree=29
num_leaves=11
num_cat=0
split_feature=9 32 18 18 19 14 7 24 12 0
split_gain=8.70569 9.52772 8.66714 9.63865 4.80757 4.77737 3.15326 4.12406 2.71206 1.42128
threshold=-0.0070577328549131348 0.010229788900174787 0.64150986207871563 0.77241396876925672 0.099365289789952946 -76.847862557141511 0.0031888473361841494 -0.14527903958468522 57.425965833758752 -0.013190917552668489
decision_type=2 2 2 2 2 2 2 2 2 2
left_child=1 5 6 8 -5 -1 7 -2 -4 -7
right_child=2 -3 3 4 -6 9 -8 -9 -10 -11
leaf_value=0 -0.01701955928263112 -0.013773441502148397 0.00096350417748687438 0.0083227848807469109 -0.011365729817473609 0.0090670746033567583 -0.028685128558273813 0.0023468462079448763 0.025166864366182793 0.031154893643392217
leaf_weight=10.465894877910609 19.227832332253456 8.3966197520494443 7.5989622622728374 14.038963347673414 32.055862218141556 8.2578369677066785 9.3944338113069517 15.524247229099272 14.431114256381987 15.97033959627152
leaf_count=43 78 34 31 57 130 34 38 63 59 68
internal_value=0.000392847 0.0116353 -0.00391896 0.00262656 -0.00496064 0.018609 -0.0140208 -0.00830325 0.0182175 0.0254639
internal_weight=155.362 43.0907 112.271 68.1249 46.0948 34.6941 44.1465 34.7521 22.0301 24.2282
internal_count=635 179 456 277 187 145 179 141 90 102
is_linear=0
shrinkage=0.03


Tree=30
num_leaves=7
num_cat=0
split_feature=4 3 5 22 19 16
split_gain=12.9542 10.4088 5.87796 7.41456 7.02221 0.116202
threshold=-0.056364744838175933 -0.028738212663548476 0.081988187746842037 -0.21589336712992543 0.078996511102210926 -20.733579424064136
decision_type=2 2 2 2 2 2
left_child=-1 5 4 -4 -3 -2
right_child=1 2 3 -5 -6 -7
leaf_value=0.026097389247881381 -0.032651928121029461 -0.0082599690540879848 0.009658624592276354 -0.019532803261259456 0.0089155912258577514 -0.012278285955835104
leaf_weight=11.999352619051932 7.6616955548524857 30.144957602024078 8.8554529547691327 24.868433028459549 60.083804219961166 7.6082218140363675
leaf_count=49 31 124 36 101 247 31
internal_value=-0.00130574 -0.00410993 -0.000928679 -0.011336 0.00296 -0.0259669
internal_weight=151.222 139.223 123.953 33.7239 90.2288 15.2699
internal_count=619 570 508 137 371 62
is_linear=0
shrinkage=0.03


Tree=31
num_leaves=7
num_cat=0
split_feature=4 3 28 1 17 21
split_gain=12.3339 9.94411 7.577 11.1515 8.07029 0.775636
threshold=-0.056364744838175933 -0.028738212663548476 6.5000000000000009 0.0089622422245241324 4.7370836340771882 0.017890703990923233
decision_type=2 2 2 2 2 2
left_child=-1 5 4 -4 -3 -2
right_child=1 2 3 -5 -6 -7
leaf_value=0.025495507750075894 -0.010198228130681976 0 0.0026844279259137542 -0.02139753696294304 0.02429481480498431 -0.033102168957036146
leaf_weight=11.961926370859144 7.3604695796966535 43.516979068517685 36.974689409136772 28.506903097033501 14.896208763122557 7.8991171568632126
leaf_count=49 30 179 152 116 61 32
internal_value=-0.00127835 -0.00401478 -0.000902028 -0.00790064 0.006697 -0.0253855
internal_weight=151.116 139.154 123.895 65.4816 58.4132 15.2596
internal_count=619 570 508 268 240 62
is_linear=0
shrinkage=0.03


Tree=32
num_leaves=13
num_cat=0
split_feature=28 17 9 35 35 17 15 7 36 19 15 15
split_gain=6.51888 10.7188 9.28815 12.1461 6.52158 6.18031 7.98561 3.02605 2.59116 2.53592 2.43437 2.28348
threshold=6.5000000000000009 4.2046779786989843 1.0000000180025095e-35 0.030214068013356913 0.022298967449830179 1.254631918062284 66.373288030729512 0.01361937756722624 0.0069045371770665182 0.086113189225014694 79.517076939586403 -28.432616944088114
decision_type=2 2 2 2 2 2 2 2 2 2 2 2
left_child=1 4 3 -2 10 6 -4 -6 -3 -7 -1 -5
right_child=2 8 5 11 7 9 -8 -9 -10 -11 -12 -13
leaf_value=-0.003180437236188972 -0.015542036891107888 0.0072389511589850668 0.0063788111576144214 0.0045475080669310775 0.019063559496161675 -0.0079673136740595375 -0.023372410724559933 -0.0021651236424162649 0.034113126835209034 -0.033053345084330131 -0.022023839003809033 0.030351104739056462
leaf_weight=20.767145663499836 11.276169136166574 8.8003046959638613 20.197970017790798 7.4167941808700588 12.18096047639847 9.1315952688455599 10.547297567129133 7.9071641117334357 9.4411948025226575 14.258919969201086 9.3454431593418104 9.7256176769733411
leaf_count=86 46 36 82 31 50 37 43 32 39 58 38 41
internal_value=-0.00124387 0.00539573 -0.0069233 0.00632408 -0.00169328 -0.0141223 -0.00417355 0.0105889 0.0238855 -0.0252496 -0.010503 0.0216121
internal_weight=150.997 68.4422 82.5544 28.4186 50.2007 54.1358 30.7453 20.0881 18.2415 23.3905 30.1126 17.1424
internal_count=619 281 338 118 206 220 125 82 75 95 124 72
is_linear=0
shrinkage=0.03


Tree=33
num_leaves=13
num_cat=0
split_feature=28 7 21 5 7 19 20 36 18 35 19 7
split_gain=6.19465 8.86655 6.82521 7.92453 7.27392 6.57644 9.32642 5.13447 3.14452 3.03772 1.77682 0.389303
threshold=6.5000000000000009 0.0052852557141845578 0.015274016170958428 0.073775349412182348 -0.0048457594280623224 0.069332971875333674 0.025872723475417289 0.0052974122720070051 0.7908349632460171 -0.027705565093941006 0.10118710787368931 0.017661718712899253
decision_type=2 2 2 2 2 2 2 2 2 2 2 2
left_child=2 5 3 9 -4 -2 -7 10 -6 -1 -3 -9
right_child=1 7 4 -5 8 6 -8 11 -10 -11 -12 -13
leaf_value=-0.0085347173257358192 -0.017567322412744085 0.0070011891061510555 -0.0049075373518432282 -0.027749237025187192 0.032470574046726604 0.018327273795882653 -0.013491594387669632 -0.011894193757260437 0.0089940457692345606 0.012454874814898861 -0.011158392250960951 -0.029937013093317907
leaf_weight=7.7371066957712218 9.1662830859422666 7.3908409029245359 11.781292170286177 7.829305186867713 12.13723833858967 24.642490208148956 9.8080662190914136 9.3196907192468661 15.252953886985777 13.617987453937531 7.4334024488925934 14.662109613418577
leaf_count=32 38 30 48 32 50 102 40 38 62 57 30 60
internal_value=-0.00121029 -0.00675355 0.00526249 -0.00517371 0.0132758 0.00225384 0.00861371 -0.0168594 0.0214091 0.00412829 -0.0014571 -0.0249579
internal_weight=150.779 82.4229 68.3559 29.1844 39.1715 43.6168 34.4506 38.806 27.3902 21.3551 14.8242 23.9818
internal_count=619 338 281 121 160 180 142 158 112 89 60 98
is_linear=0
shrinkage=0.03


Tree=34
num_leaves=6
num_cat=0
split_feature=4 7 5 28 21
split_gain=11.6256 16.3299 6.5462 6.20685 6.0226
threshold=-0.056364744838175933 -0.02342089642852543 0.081988187746842037 6.5000000000000009 0.014883598374129036
decision_type=2 2 2 2 2
left_child=-1 -2 3 -3 -4
right_child=1 2 4 -5 -6
leaf_value=0.024845562253217934 -0.034232037028385141 0.012984194027354339 -0.031083978652232971 -0.0024123058802818552 -0.0027379711542537279
leaf_weight=11.90461492538452 12.323487177491186 37.010634392499924 8.132084906101225 55.284924894571304 25.950592458248138
leaf_count=49 50 154 33 227 106
internal_value=-0.00119913 -0.00386252 -0.000297095 0.00374708 -0.0112651
internal_weight=150.606 138.702 126.378 92.2956 34.0827
internal_count=619 570 520 381 139
is_linear=0
shrinkage=0.03


Tree=35
num_leaves=9
num_cat=0
split_feature=4 11 20 5 14 6 38 38
split_gain=7.22973 5.4756 11.0042 8.1527 7.14019 5.79376 5.39499 4.14888
threshold=-0.050143997529382305 0.018119125359635561 0.02380744068755087 0.030659222336161144 -76.847862557141511 0.0032517346236509751 0.0083688977389175401 0.0108963542977383
decision_type=2 2 2 2 2 2 2 2
left_child=7 4 3 -3 -2 -6 -4 -1
right_child=1 2 6 -5 5 -7 -8 -9
leaf_value=0.028182344558860328 -0.017849740732217463 -0.033298730034196436 0.022522971443197811 -0.0053589532477232868 0.019881269753339797 0.00014973304809856307 -0.0024944693942984281 0
leaf_weight=10.371406167745592 8.8208805024623853 15.675909519195555 9.30468298494816 25.568346962332726 21.81154677271843 34.277166962623596 21.087568238377571 8.5286125093698484
leaf_count=43 36 64 38 104 92 141 86 35
internal_value=0.000560243 -0.00183053 -0.0075275 -0.0173739 0.00426973 0.0085014 0.00561936 0.0170728
internal_weight=155.446 136.546 71.6365 41.2443 64.9096 56.0887 30.3923 18.9
internal_count=639 561 292 168 269 233 124 78
is_linear=0
shrinkage=0.03


Tree=36
num_leaves=7
num_cat=0
split_feature=4 7 17 28 28 34
split_gain=6.89268 10.481 7.83866 6.27006 4.70702 4.19183
threshold=-0.050143997529382305 -0.022606637177420806 -1.3734018756704252 6.5000000000000009 5.5000000000000009 0.018508871895296378
decision_type=2 2 2 2 2 2
left_child=4 -2 5 -4 -1 -3
right_child=1 2 3 -5 -6 -7
leaf_value=-0.00052954861314913066 -0.027141846647314297 0.0020257988388486278 0.004215201389068896 -0.011383041612420011 0.027289771157101506 0.022774291821163101
leaf_weight=7.3672104626894024 11.298273280262945 21.363376170396805 40.897261843085289 46.798017203807831 11.48609699308872 16.05877548456192
leaf_count=30 46 88 169 192 48 66
internal_value=0.000547396 -0.00178436 0.000778462 -0.00400968 0.0166915 0.0120137
internal_weight=155.269 136.416 125.117 87.6953 18.8533 37.4222
internal_count=639 561 515 361 78 154
is_linear=0
shrinkage=0.03


Tree=37
num_leaves=7
num_cat=0
split_feature=4 7 17 16 34 38
split_gain=6.54176 9.97743 7.42872 4.22566 3.97399 3.96512
threshold=-0.050143997529382305 -0.022606637177420806 -1.3734018756704252 -16.215713780736667 0.018508871895296378 0.0108963542977383
decision_type=2 2 2 2 2 2
left_child=5 -2 4 -4 -3 -1
right_child=1 2 3 -5 -6 -7
leaf_value=0.027197861708582672 -0.026492293367069961 0.0019703761201260413 0.012271519975366766 -0.0064652416043416931 0.02220616026740959 0
leaf_weight=10.285597130656244 11.277380421757696 21.36163666844368 10.212049096822737 77.455687344074249 16.027186036109924 8.5123570114374143
leaf_count=43 46 88 42 319 66 35
internal_value=0.000538184 -0.00172945 0.000767422 -0.00389036 0.0117126 0.0162905
internal_weight=155.132 136.334 125.057 87.6677 37.3888 18.798
internal_count=639 561 515 361 154 78
is_linear=0
shrinkage=0.03


Tree=38
num_leaves=10
num_cat=0
split_feature=4 12 10 26 22 38 13 5 12
split_gain=6.22559 8.67361 9.99615 9.30806 4.15918 3.79031 3.67769 4.51626 4.03548
threshold=-0.050143997529382305 54.430785390197265 0.022811018593582148 0.49365787368222896 -0.1049067242410867 0.0108963542977383 3.942223382580178 -0.031439728766681933 47.176184089034457
decision_type=2 2 2 2 2 2 2 2 2
left_child=5 6 4 -4 -3 -1 7 -2 -8
right_child=1 2 3 -5 -6 -7 8 -9 -10
leaf_value=0.026626316791190239 -0.027201632071015589 0 -0.0095149796430520159 0.021855615479403553 0.025523691876557352 0 0.016560035208661041 -0.0063112646124288676 -0.011147496746942018
leaf_weight=10.234889432787897 14.572503730654715 7.2802293151617077 39.855922043323517 8.5676372498273832 19.75740373134613 8.5123570114374143 7.2605880051851255 31.637466311454773 7.3533008694648743
leaf_count=43 60 30 163 35 82 35 30 131 30
internal_value=0.000538018 -0.0016701 0.00494511 -0.00302033 0.018953 0.0159268 -0.0100122 -0.0140654 0.00205188
internal_weight=155.032 136.285 75.4612 48.4236 27.0376 18.7472 60.8239 46.21 14.6139
internal_count=639 561 310 198 112 78 251 191 60
is_linear=0
shrinkage=0.03


Tree=39
num_leaves=6
num_cat=0
split_feature=19 14 38 4 16
split_gain=6.41782 7.24801 5.07063 6.11185 0.840645
threshold=0.21106396566804334 137.34608553789488 0.012515970798271639 -0.050143997529382305 28.912119517166115
decision_type=2 2 2 2 2
left_child=1 2 3 -1 -2
right_child=4 -3 -4 -5 -6
leaf_value=0.020710178530503522 0.025058152943221147 -0.024577286750566384 -0.015007645868416753 0 0.0054860081894321398
leaf_weight=12.8238358348608 7.5450149625539762 9.2609202265739423 14.555512025952337 103.34217269718647 7.3814026713371277
leaf_count=54 31 38 59 427 30
internal_value=0.00053365 -0.00145731 0.000413274 0.00269375 0.0180574
internal_weight=154.909 139.982 130.722 116.166 14.9264
internal_count=639 578 540 481 61
is_linear=0
shrinkage=0.03


Tree=40
num_leaves=7
num_cat=0
split_feature=40 19 5 35 35 19
split_gain=3.98204 5.67131 3.76383 3.69608 6.78419 5.15428
threshold=0.080457215747953184 0.16984100640272551 0.11916662721701089 0.05685331462893662 0.084295450389748075 0.078996511102210926
decision_type=2 2 2 2 2 2
left_child=2 -2 3 5 -5 -1
right_child=1 -3 -4 4 -6 -7
leaf_value=-0.0046308781372724726 -0.027999475112930706 0.0042220291576775711 -0.014615114119658599 -0.01727439899889625 0.01312140856781116 0.010012468333768228
leaf_weight=26.681318417191505 8.0659269988536817 7.398262917995452 8.8377414941787702 16.089903324842457 8.120741128921507 78.200950890779495
leaf_count=111 33 30 36 66 33 323
internal_value=0.000385728 -0.0130072 0.00215893 0.00362717 -0.00628347 0.00613001
internal_weight=153.395 15.4642 137.931 129.093 24.2106 104.882
internal_count=632 63 569 533 99 434
is_linear=0
shrinkage=0.03


Tree=41
num_leaves=11
num_cat=0
split_feature=6 3 16 6 36 36 8 19 21 19
split_gain=4.00104 7.75034 4.69342 6.7296 4.57176 5.29352 4.44243 5.92709 1.44358 0.170366
threshold=0.0030091646127100038 0.01059248384809597 -2.6049722053499695 0.010187847860353068 0.0074235845784227919 0.0054101259058263402 0.018484683716012282 0.099365289789952946 0.018119233432115949 0.12543111796684042
decision_type=2 2 2 2 2 2 2 2 2 2
left_child=1 4 3 -2 5 -1 -4 -8 -6 -3
right_child=2 9 6 -5 8 -7 7 -9 -10 -11
leaf_value=0.0048945540147891054 -0.0083266118795699839 0.011024185765182562 -0.025598487290307965 0.022701071573781793 0.018315159403034305 -0.014782445663710389 0.011325077581447303 -0.011252595334704288 0 0.029157507617255086
leaf_weight=21.43560579419136 10.578138619661333 8.8482856005430239 10.059967279434202 10.130517810583113 10.531853020191194 22.770105168223381 12.928152516484259 31.094526618719101 7.616533711552619 7.3073483705520621
leaf_count=89 44 37 41 42 44 94 53 127 31 30
internal_value=0.000354265 0.0051103 -0.00444596 0.00685388 0 -0.00511746 -0.00913034 -0.00409226 0.0120065 0.0223607
internal_weight=153.301 78.5097 74.7913 20.7087 62.3541 44.2057 54.0826 44.0227 18.1484 16.1556
internal_count=632 325 307 86 258 183 221 180 75 67
is_linear=0
shrinkage=0.03


Tree=42
num_leaves=8
num_cat=0
split_feature=38 20 5 10 38 20 22
split_gain=6.40558 6.89378 8.07341 6.01962 5.73943 7.59702 3.68503
threshold=0.0064393853639291938 0.01996189848106698 0.081988187746842037 0.0035695534135719025 0.010642590582007512 0.017229681886431265 -0.21589336712992543
decision_type=2 2 2 2 2 2 2
left_child=-1 4 3 -3 5 -2 -4
right_child=1 2 6 -5 -6 -7 -8
leaf_value=0.020028714690265834 0.0011430096214546702 0.00014096642694004749 0.0051162165389332581 0.017360689829845448 0.00691613893257429 -0.029613517719328908 -0.016414028476097939
leaf_weight=11.706237465143202 9.7228497713804263 45.076552242040634 7.8092456012964275 30.979412958025932 8.3183239698410016 17.824225082993507 21.767243146896362
leaf_count=49 41 187 32 127 34 73 89
internal_value=0.000363825 -0.00141501 0.00236222 0.00761225 -0.0124732 -0.0189076 -0.0102903
internal_weight=153.204 141.498 105.632 76.056 35.8654 27.5471 29.5765
internal_count=632 583 435 314 148 114 121
is_linear=0
shrinkage=0.03


Tree=43
num_leaves=10
num_cat=0
split_feature=33 23 12 12 23 36 3 26 32
split_gain=6.66613 7.72722 9.13791 6.66663 4.9517 4.53648 4.43248 4.37199 3.51579
threshold=0.91514244313210857 0.99273034954116068 58.063797495318148 32.766857102270457 1.1819342695592387 0.0067213542211298286 0.04131612038716815 0.080803571428571447 -0.0026130199600949973
decision_type=2 2 2 2 2 2 2 2 2
left_child=1 2 3 -1 7 -4 -2 -3 -6
right_child=6 4 5 -5 8 -7 -8 -9 -10
leaf_value=0.011797696129568125 -0.026183711092759927 0 0.019995618564086701 -0.016197452077605451 0.011872255468679769 -0.0036247665743896849 0 0.023118908071435233 -0.011042451581570949
leaf_weight=7.2319540977478018 10.762460663914682 11.314796492457388 15.123917385935785 39.329296007752419 8.6969143003225344 10.255410984158514 11.233870983123778 27.511744797229767 11.610138788819311
leaf_count=30 44 47 63 162 36 42 46 114 48
internal_value=0.000363771 0.00307646 -0.00334773 -0.0112335 0.0109912 0.0103355 -0.014085 0.0170287 -0.000371757
internal_weight=153.071 131.074 71.9406 46.5613 59.1336 25.3793 21.9963 38.8265 20.3071
internal_count=632 542 297 192 245 105 90 161 84
is_linear=0
shrinkage=0.03


Tree=44
num_leaves=8
num_cat=0
split_feature=38 18 12 19 35 19 10
split_gain=6.04197 4.95407 10.488 5.26109 5.24456 4.85809 4.62577
threshold=0.0064393853639291938 0.7862843421069704 56.881660650934514 0.091999990458513134 -0.010530900344071279 0.099365289789952946 0.054180288307400189
decision_type=2 2 2 2 2 2 2
left_child=-1 2 3 -2 -4 -3 -7
right_child=1 5 4 -5 -6 6 -8
leaf_value=0.019490942464635813 -0.012363897233041364 0.004312579798546096 -0.0015603135125188182 0.0031497766959876963 0.025783142681767048 -0.024160657060699489 0
leaf_weight=11.65933236479759 32.251338869333267 12.381458118557928 7.3683238923549679 42.401202514767647 18.534782975912094 19.480781361460689 8.8821671456098539
leaf_count=49 134 51 30 175 77 80 36
internal_value=0.000355978 -0.00136826 0.0021082 -0.00350447 0.0179132 -0.00999613 -0.0166091
internal_weight=152.959 141.3 100.556 74.6525 25.9031 40.7444 28.3629
internal_count=632 583 416 309 107 167 116
is_linear=0
shrinkage=0.03


Tree=45
num_leaves=11
num_cat=0
split_feature=5 13 13 19 25 33 3 33 37 13
split_gain=6.51535 6.17666 6.93704 5.13261 4.7479 6.13698 4.37972 4.54412 4.19015 2.72903
threshold=0.086762148726248003 -1.3835044022399712 2.8746898447956934 0.078996511102210926 0.21160864682762495 0.60777791402106551 -0.030190578401762532 0.28493650467394743 -0.0086018101931820672 -0.94393399817544565
decision_type=2 2 2 2 2 2 2 2 2 2
left_child=3 -2 -3 4 5 -1 7 -5 -8 -6
right_child=1 2 -4 6 9 -7 8 -9 -10 -11
leaf_value=-0.029811191155694264 -0.027850811712986909 0.013735059007643324 -0.018787370082999841 0.0084799101233697695 -0.0069279298242566475 0.0026162718469801443 -0.0013242801908533344 -0.018053327614230657 0.015410308237069903 0.013482902565308671
leaf_weight=9.400402784347536 10.014989271759989 11.466733098030092 8.490584582090376 9.9765262007713336 7.7105236351490047 7.7627888470888129 15.187508687376974 8.8220248073339445 54.571945890784264 11.564749017357824
leaf_count=39 41 47 35 41 32 32 63 36 228 48
internal_value=0.00114523 -0.0108454 0 0.00426403 -0.00477904 -0.0156194 0.00817395 -0.00378938 0.0116226 0.00472936
internal_weight=154.969 29.9723 19.9573 124.996 36.4385 17.1632 88.558 18.7986 69.7595 19.2753
internal_count=642 123 82 519 151 71 368 77 291 80
is_linear=0
shrinkage=0.03


Tree=46
num_leaves=8
num_cat=0
split_feature=28 28 12 19 38 40 12
split_gain=4.91017 5.22846 10.1766 6.74906 7.65758 6.07364 3.36142
threshold=1.5000000000000002 6.5000000000000009 37.296869715121169 0.11028790269229886 0.011817984257900545 0.038657667377616008 50.279418391675996
decision_type=2 2 2 2 2 2 2
left_child=-1 3 -3 6 -5 -4 -2
right_child=1 2 5 4 -6 -7 -8
leaf_value=-0.014303425994438968 0.0015024664089024918 0.021363148705276648 -0.00030433618408559632 -0.0071074186596436347 0.023536007923679613 -0.019447766152771134 0.028499585366665893
leaf_weight=14.433105528354643 7.2624725401401546 12.160450890660284 50.633704841136932 25.975601688027382 7.9091237336397162 20.230441823601723 16.179841890931129
leaf_count=59 30 51 209 107 33 84 69
internal_value=0.00108769 0.00295453 -0.00171526 0.00980028 0.000540255 -0.00635911 0.021501
internal_weight=154.785 140.352 83.0246 57.327 33.8847 70.8641 23.4423
internal_count=642 583 344 239 140 293 99
is_linear=0
shrinkage=0.03


Tree=47
num_leaves=9
num_cat=0
split_feature=28 28 9 38 28 38 12 38
split_gain=4.6604 4.98086 12.5253 7.34418 5.27785 5.0995 4.87589 4.12485
threshold=1.5000000000000002 6.5000000000000009 0.048763137603990092 0.011397823297622933 3.5000000000000004 0.0082645354118781062 68.24242650508377 0.0086866262216703342
decision_type=2 2 2 2 2 2 2 2
left_child=-1 4 3 -3 5 -2 -6 -4
right_child=1 2 7 -5 6 -7 -8 -9
leaf_value=-0.013916328033607631 0.012709735132430882 0.01239824435284905 -0.0041346533502748797 -0.0092115536150404933 0.024550369973471965 -0.012420031023466893 0 -0.031293475358669769
leaf_weight=14.444986298680304 11.525709614157678 41.494703456759453 11.502315238118173 18.496350809931755 22.176902115345001 13.599714651703833 9.9023062884807569 11.453061357140539
leaf_count=59 49 174 47 75 93 56 41 48
internal_value=0.00106675 0.00289061 -0.00166417 0.00541134 0.00958149 -0.00025219 0.0172865 -0.019708
internal_weight=154.596 140.151 82.9464 59.9911 57.2046 25.1254 32.0792 22.9554
internal_count=642 583 344 249 239 105 134 95
is_linear=0
shrinkage=0.03


Tree=48
num_leaves=9
num_cat=0
split_feature=5 38 12 12 33 7 11 14
split_gain=5.84525 6.63957 6.03301 10.8493 7.13133 7.12826 6.95931 2.65145
threshold=0.086762148726248003 0.0085280322280887385 51.816440974848355 41.492576882290571 0.92103820808516035 -0.0033947882872309727 0.026064720813038126 -23.230736011239511
decision_type=2 2 2 2 2 2 2 2
left_child=2 -2 3 5 6 -1 -4 -5
right_child=1 -3 4 7 -6 -7 -8 -9
leaf_value=0 0.0033726843913646754 -0.022992028538015154 0.025422562662635168 0 -0.0098544646054710208 0.028653599641250076 0.0015566138429279628 -0.019380681462076343
leaf_weight=25.4436254799366 14.446005389094354 15.40934246778488 26.869824334979057 9.5057612359523755 9.8513164371252042 9.5913323014974576 20.495810553431511 22.772357389330864
leaf_count=106 59 64 113 40 41 40 85 94
internal_value=0.00101859 -0.0103533 0.00398404 -0.00191988 0.0110133 0.00915107 0.0158807 -0.0142068
internal_weight=154.385 29.8553 124.53 67.3131 57.217 35.035 47.3656 32.2781
internal_count=642 123 519 280 239 146 198 134
is_linear=0
shrinkage=0.03


Tree=49
num_leaves=7
num_cat=0
split_feature=28 14 28 9 18 36
split_gain=4.4375 5.29541 9.42103 11.3428 5.94019 5.00921
threshold=1.5000000000000002 128.13930660078884 6.5000000000000009 0.048763137603990092 0.4507489015595384 0.0049597557690506501
decision_type=2 2 2 2 2 2
left_child=-1 2 4 -4 -2 -3
right_child=1 5 3 -5 -6 -7
leaf_value=-0.013625019254065724 -0.00057034706364647656 0.0052351863097126541 0.0051022941712083039 -0.020942472117065333 0.022412117981286332 -0.023577557888216596
leaf_weight=14.442184180021284 12.526351660490034 7.3874065130949047 59.862258568406105 17.806551709771156 31.821577101945877 10.330982655286787
leaf_count=59 52 30 249 74 135 43
internal_value=0.000992172 0.00277969 0.00512487 -0.00105636 0.0158524 -0.0114913
internal_weight=154.177 139.735 122.017 77.6688 44.3479 17.7184
internal_count=642 583 510 323 187 73
is_linear=0
shrinkage=0.03


Tree=50
num_leaves=8
num_cat=0
split_feature=28 15 34 7 33 19 19
split_gain=5.33035 6.37806 6.76419 4.56443 7.33523 3.44553 3.17266
threshold=1.5000000000000002 9.0993093258960354 0.0083882466098512704 0.019031641285967498 0.13313638601674055 0.10844901226135305 0.10118710787368931
decision_type=2 2 2 2 2 2 2
left_child=-1 3 5 4 -2 -3 -4
right_child=1 2 6 -5 -6 -7 -8
leaf_value=-0.017848062511036079 -0.0082856218077614705 -0.0012441718927154899 0.013611216527811342 -0.0044677749570019489 0.021440244744517133 -0.019161570610197479 -0.0012643351550828599
leaf_weight=12.196320995688437 7.708067297935485 19.254687830805779 17.725283145904541 12.537244111299513 30.260641396045685 23.190566137433052 32.114939019083977
leaf_count=50 32 80 74 52 130 97 132
internal_value=-0.00022849 0.00139861 -0.00316892 0.00983297 0.0149176 -0.0117928 0.00405771
internal_weight=154.988 142.791 92.2855 50.506 37.9687 42.4453 49.8402
internal_count=647 597 383 214 162 177 206
is_linear=0
shrinkage=0.03


Tree=51
num_leaves=10
num_cat=0
split_feature=7 11 20 35 40 8 11 36 35
split_gain=4.71952 6.6071 8.4889 6.62399 6.4229 6.03037 5.15222 3.03829 1.22642
threshold=-0.022606637177420806 0.022106637850872083 0.022562127743926897 0.061465475981697611 0.072860437626275157 -0.049791927094468953 -0.00065470652497773274 0.0076943225189459582 0.026584233439057584
decision_type=2 2 2 2 2 2 2 2 2
left_child=5 4 7 -4 6 -1 -2 -3 -7
right_child=1 2 3 -5 -6 8 -8 -9 -10
leaf_value=0.0062795621570689089 0.0047417547754644608 -0.02429798436275506 0.0103456073375871 -0.017997838246975494 -0.013228774177806397 -0.030008334534837842 0.024091011819175907 -0.0013435192364622934 -0.0070402329537820408
leaf_weight=8.4527937471866625 37.215748429298401 16.804675459861759 31.601761654019356 7.341862127184867 8.1437471807003003 8.4459662288427335 20.071043521165848 9.5131938904523832 7.2187941670417777
leaf_count=35 159 70 131 30 34 35 84 39 30
internal_value=-0.000236849 0.00196387 -0.00457746 0.00401765 0.00865299 -0.0119739 0.012358 -0.0172112 -0.0222685
internal_weight=154.81 130.692 65.2615 38.9436 65.4305 24.1176 57.2868 26.3179 15.6648
internal_count=647 547 270 161 277 100 243 109 65
is_linear=0
shrinkage=0.03


Tree=52
num_leaves=8
num_cat=0
split_feature=28 9 40 34 10 6 2
split_gain=5.0435 6.50743 6.55123 5.34831 6.08372 3.76283 3.50387
threshold=1.5000000000000002 -0.0070577328549131348 0.056249465035666198 0.017866425470434603 0.029608547529054067 -0.016717290437561483 0.021851742780097719
decision_type=2 2 2 2 2 2 2
left_child=-1 2 5 4 -3 -2 -5
right_child=1 3 -4 6 -6 -7 -8
leaf_value=-0.017393770971242058 0 -0.00040785596044581385 -0.010490117150995759 0.01237473432040675 -0.019290667102196103 0.023784078002276336 -0.0054411972935726341
leaf_weight=12.188856065273283 7.2650959491729763 44.095839962363243 7.165254294872283 25.758797496557236 23.135265424847603 22.366016149520874 12.65550723671913
leaf_count=50 30 184 30 107 96 98 52
internal_value=-0.000251465 0.0013321 0.0119167 -0.00236807 -0.00749196 0.0181299 0.00615535
internal_weight=154.631 142.442 36.7964 105.645 67.2311 29.6311 38.4143
internal_count=647 597 158 439 280 128 159
is_linear=0
shrinkage=0.03


Tree=53
num_leaves=8
num_cat=0
split_feature=7 4 34 4 21 25 14
split_gain=4.47527 9.22277 8.57565 7.96691 6.13954 2.77765 2.64763
threshold=-0.022606637177420806 -0.021939537392237581 -0.0060182771961215234 -0.056364744838175933 0.014702379474289705 0.14839839839839844 -18.871945080092242
decision_type=2 2 2 2 2 2 2
left_child=3 5 6 -1 -4 -2 -3
right_child=1 2 4 -5 -6 -7 -8
leaf_value=0.0045670726926946206 0.0017082408388507367 0 -0.007646469019224297 -0.027220135564972065 0.0092392274981633552 0.02743516499396477 -0.02039055037442853
leaf_weight=11.971510872244837 7.2459971010684994 8.6819967627525347 26.879055798053741 12.098168864846228 54.392901331186295 12.609966069459913 20.540688499808311
leaf_count=50 30 37 114 50 227 54 85
internal_value=-0.000257348 0.00188659 -0.0014839 -0.0116973 0.00342497 0.0197484 -0.0149614
internal_weight=154.42 130.351 110.495 24.0697 81.272 19.856 29.2227
internal_count=647 547 463 100 341 84 122
is_linear=0
shrinkage=0.03


Tree=54
num_leaves=7
num_cat=0
split_feature=28 11 21 3 6 19
split_gain=4.73295 5.6936 7.02259 6.81996 7.48875 6.38635
threshold=1.5000000000000002 0.022562943800754857 0.014555775160954756 -0.025449027128953802 0.0032517346236509751 0.11028790269229886
decision_type=2 2 2 2 2 2
left_child=-1 3 -3 -2 -5 -4
right_child=1 2 5 4 -6 -7
leaf_value=-0.016866478311496319 -0.012741127140453378 -0.021728580483774369 0.012157678501110191 0.025262693791491729 0.0024383758303112035 -0.0069103775526269335
leaf_weight=12.17344883084297 9.892348960041998 14.165957659482954 23.68226957321167 21.155673772096634 34.257434159517288 38.936012730002403
leaf_count=50 41 59 99 93 144 161
internal_value=-0.000250244 0.00128359 -0.00408597 0.00775364 0.01199 0.000222127
internal_weight=154.263 142.09 76.7842 65.3055 55.4131 62.6183
internal_count=647 597 319 278 237 260
is_linear=0
shrinkage=0.03


Tree=55
num_leaves=10
num_cat=0
split_feature=12 12 5 7 2 37 28 5 35
split_gain=5.73107 6.42066 6.7589 8.17804 5.71291 6.03763 5.12512 3.03259 1.3029
threshold=41.492576882290571 51.344061509643659 0.04410179776847168 0.0099042767097134807 -0.021532708384116913 -1.0000000180025095e-35 5.5000000000000009 0.010466450204461132 -0.010530900344071279
decision_type=2 2 2 2 2 2 2 2 2
left_child=4 7 6 -4 -1 -6 -3 8 -2
right_child=1 2 3 -5 5 -7 -8 -9 -10
leaf_value=-0.0061484426049357461 -0.0049152436720308786 0.02755515605647791 0.0093379657794987747 -0.013703121595131811 0.0002335435197862552 0.030767989116172689 0.00098173261989885504 0 -0.024761447095369021
leaf_weight=12.146224543452261 7.4173590689897564 9.5666930377483386 18.863819569349289 37.595118805766106 11.831494212150574 11.908737823367119 18.284617483615875 9.176927447319029 16.971039488911629
leaf_count=50 31 41 79 157 50 51 76 38 71
internal_value=-0.000975195 -0.00426355 6.81843e-05 -0.00569205 0.00908496 0.0173337 0.0118466 -0.0149578 -0.020124
internal_weight=153.762 117.876 84.3102 56.4589 35.8865 23.7402 27.8513 33.5653 24.3884
internal_count=644 493 353 236 151 101 117 140 102
is_linear=0
shrinkage=0.03


Tree=56
num_leaves=8
num_cat=0
split_feature=40 9 9 11 11 20 26
split_gain=5.41881 4.94336 7.35343 6.56962 4.30059 5.70246 3.05786
threshold=0.089496387461070817 -0.0086815906827793377 0.013033693430499598 0.022106637850872083 -0.010925169013797085 0.018228893191627914 0.31905722670579612
decision_type=2 2 2 2 2 2 2
left_child=1 4 6 -4 5 -1 -3
right_child=-2 2 3 -5 -6 -7 -8
leaf_value=0.02184379978816756 -0.02265963688153905 -0.027178261108386323 0.013901841854601622 -0.0040925583290402313 0.021984392263128524 -0.0063770203347230225 -0.0014414819980466543
leaf_weight=6.9594041258096722 7.7150598764419547 11.810650125145914 23.388675540685654 62.008688390254974 13.259525582194327 20.317182838916779 8.142943009734152
leaf_count=31 32 49 98 257 57 86 34
internal_value=-0.000933524 0.000404913 -0.0029248 0.000869478 0.00914192 0.0013113 -0.0184467
internal_weight=153.602 145.887 105.351 85.3974 40.5361 27.2766 19.9536
internal_count=644 612 438 355 174 117 83
is_linear=0
shrinkage=0.03


end of trees

feature_importances:
month=36
bb_bandwidth=30
macro_topix_vol_20=28
div_ma_60=24
macd=22
return_20d=21
rsi=20
div_ma_10=19
macro_usdjpy_vol_20=19
ma_20_60_cross=17
return_10d=15
ma_5_20_cross=15
macro_usdjpy_ret_60=15
macro_nikkei_ret_20=15
atr_pct=14
bb_pct_b=13
macro_usdjpy_ret_20=13
macd_signal=12
volatility=12
return_5d=11
rsi_change=10
macd_hist_change=10
vol_ratio=10
div_ma_20=9
return_1d=8
return_3d=8
upper_shadow_pct=8
price_position_20d=8
macro_topix_ret_20=8
div_ma_5=7
gap=7
return_2d=6
macd_hist=6
lower_shadow_pct=5
vol_change=3
candle_body_pct=3
day_of_week=1

parameters:
[boosting: gbdt]
[objective: binary]
[metric: binary_logloss]
[tree_learner: serial]
[device_type: cpu]
[data_sample_strategy: bagging]
[data: ]
[valid: ]
[num_iterations: 500]
[learning_rate: 0.03]
[num_leaves: 15]
[num_threads: 0]
[seed: 42]
[deterministic: 0]
[force_col_wise: 0]
[force_row_wise: 0]
[histogram_pool_size: -1]
[max_depth: 4]
[min_data_in_leaf: 30]
[min_sum_hessian_in_leaf: 0.001]
[bagging_fraction: 0.7]
[pos_bagging_fraction: 1]
[neg_bagging_fraction: 1]
[bagging_freq: 5]
[bagging_seed: 400]
[bagging_by_query: 0]
[feature_fraction: 0.6]
[feature_fraction_bynode: 1]
[feature_fraction_seed: 30056]
[extra_trees: 0]
[extra_seed: 12879]
[early_stopping_round: 0]
[early_stopping_min_delta: 0]
[first_metric_only: 0]
[max_delta_step: 0]
[lambda_l1: 0.5]
[lambda_l2: 2]
[linear_lambda: 0]
[min_gain_to_split: 0]
[drop_rate: 0.1]
[max_drop: 50]
[skip_drop: 0.5]
[xgboost_dart_mode: 0]
[uniform_drop: 0]
[drop_seed: 17869]
[top_rate: 0.2]
[other_rate: 0.1]
[min_data_per_group: 100]
[max_cat_threshold: 32]
[cat_l2: 10]
[cat_smooth: 10]
[max_cat_to_onehot: 4]
[top_k: 20]
[monotone_constraints: ]
[monotone_constraints_method: basic]
[monotone_penalty: 0]
[feature_contri: ]
[forcedsplits_filename: ]
[refit_decay_rate: 0.9]
[cegb_tradeoff: 1]
[cegb_penalty_split: 0]
[cegb_penalty_feature_lazy: ]
[cegb_penalty_feature_coupled: ]
[path_smooth: 0]
[interaction_constraints: ]
[verbosity: -1]
[saved_feature_importance_type: 0]
[use_quantized_grad: 0]
[num_grad_quant_bins: 4]
[quant_train_renew_leaf: 0]
[stochastic_rounding: 1]
[linear_tree: 0]
[max_bin: 255]
[max_bin_by_feature: ]
[min_data_in_bin: 5]
[bin_construct_sample_cnt: 200000]
[data_random_seed: 175]
[is_enable_sparse: 1]
[enable_bundle: 1]
[use_missing: 1]
[zero_as_missing: 0]
[feature_pre_filter: 1]
[pre_partition: 0]
[two_round: 0]
[header: 0]
[label_column: ]
[weight_column: ]
[group_column: ]
[ignore_column: ]
[categorical_feature: ]
[forcedbins_filename: ]
[precise_float_parser: 0]
[parser_config_file: ]
[objective_seed: 16083]
[num_class: 1]
[is_unbalance: 0]
[scale_pos_weight: 1]
[sigmoid: 1]
[boost_from_average: 1]
[reg_sqrt: 0]
[alpha: 0.9]
[fair_c: 1]
[poisson_max_delta_step: 0.7]
[tweedie_variance_power: 1.5]
[lambdarank_truncation_level: 30]
[lambdarank_norm: 1]
[label_gain: ]
[lambdarank_position_bias_regularization: 0]
[eval_at: ]
[multi_error_top_k: 1]
[auc_mu_weights: ]
[num_machines: 1]
[local_listen_port: 12400]
[time_out: 120]
[machine_list_filename: ]
[machines: ]
[gpu_platform_id: -1]
[gpu_device_id: -1]
[gpu_use_dp: 0]
[num_gpu: 1]

end of parameters

pandas_categorical:[]
