tree
version=v4
num_class=1
num_tree_per_iteration=1
label_index=0
max_feature_idx=44
objective=binary sigmoid:1
feature_names=return_1d return_2d return_3d return_5d return_10d return_20d div_ma_5 div_ma_10 div_ma_20 div_ma_60 ma_5_20_cross ma_20_60_cross rsi rsi_change macd macd_signal macd_hist macd_hist_change bb_pct_b bb_bandwidth atr_pct volatility vol_change vol_ratio candle_body_pct upper_shadow_pct lower_shadow_pct day_of_week month is_month_end is_month_start streak gap price_position_20d macro_usdjpy_ret_20 macro_usdjpy_ret_60 macro_usdjpy_vol_20 macro_topix_ret_20 macro_topix_vol_20 macro_topix_above_200dma macro_nikkei_ret_20 macro_nikkei_above_200dma macro_nikkei_vi macro_jgb10y macro_bias_score
feature_infos=[-0.15807562854189028:0.19280199076906812] [-0.19745591058900258:0.20318396439925945] [-0.23837838624295249:0.27648600256514033] [-0.22312077480031678:0.26466038425487959] [-0.22794526474391108:0.51396648044692728] [-0.24732908425321964:0.60998936311615415] [-0.16915640225460579:0.14127428137218562] [-0.1870841462002984:0.20210384634114292] [-0.22029774307858255:0.33166417833005718] [-0.16933761871668943:0.42714161878857998] [-0.10587927235867489:0.22633411109306634] [-0.10451971795917625:0.22575615227315504] [8.1967060021082148:97.208545822261641] [-45.895008662445541:31.316699080493841] [-45.321285109579094:266.59734177812197] [-25.6156451012777:228.33225001260345] [-80.038367193888718:70.86452205301434] [-26.599713861336028:27.477926891613379] [-0.2838966303180615:1.4364283109293134] [0.040274051968061941:0.6407999405582322] [0.014894075275995651:0.075648032788874303] [0.0077021828282352106:0.058762458247950636] [-0.7282439959821021:10.583262480262359] [0.399928592221377:2.6429734386181001] [-1:1] [0:0.94467978343156966] [0:0.96428527832031252] [0:4] [1:12] none [0:1] [-9:8] [-0.11365943186759964:0.13760566149007269] [0:1] [-0.10288784967882303:0.08505611680078462] [-0.13986255140503889:0.13160084488587853] [0.0024251968629527628:0.011841457708833433] [-0.22586490939044479:0.19897850606512013] [0.0040695656522785678:0.036437277456277402] [0:1] [-0.22859537662338159:0.23022297972565586] [0:1] none none none
tree_sizes=862 1098 991 1201 1200 1100 991 1103 888 1098 1089 1187 1402 1203 996 1209 1166 993 1205 1091 1090 869 949 873 1000 1265 1376 888 987 865 1303 990 863 995 1269 1182 1179 1299 1076 1204 975 994 998 998 895 964 881 865 890 893

Tree=0
num_leaves=7
num_cat=0
split_feature=36 14 28 16 18 7
split_gain=19.0779 12.5788 9.57913 15.4103 6.66637 4.16335
threshold=0.0085586150258135565 -17.690067795948746 2.5000000000000004 0.12497918138598142 0.74899942796200869 0.018853999849701746
decision_type=2 2 2 2 2 2
left_child=1 -1 4 -4 -3 -2
right_child=5 2 3 -5 -6 -7
leaf_value=0.12020206630333255 0.097304227285642475 0.11397352866008116 0.070209914715667218 0.092436283618386655 0.083963691872443347 0.130597693808779
leaf_weight=7.7337777316570273 7.4843010306358364 13.721218556165697 54.136444121599197 53.388014018535614 9.2306379377841932 9.9790680408477765
leaf_count=31 30 55 217 214 37 40
internal_value=0.0914198 0.0874648 0.0850081 0.081197 0.101661 0.119155
internal_weight=155.673 138.21 130.476 107.524 22.9519 17.4634
internal_count=624 554 523 431 92 70
is_linear=0
shrinkage=1


Tree=1
num_leaves=9
num_cat=0
split_feature=34 23 9 12 34 34 35 36
split_gain=18.4015 20.5513 14.3462 12.0604 9.37079 9.90916 7.99751 4.85979
threshold=-0.027930448746805166 1.0222932663352564 -0.0016076862420244576 70.990683527484308 0.035715623315696228 0.011900313398034325 0.035347488336312967 0.0076638607761992453
decision_type=2 2 2 2 2 2 2 2
left_child=7 2 6 -4 5 -3 -2 -1
right_child=1 4 3 -5 -6 -7 -8 -9
leaf_value=0.0022304427628959621 -0.014542486541264273 0.00084977703807496334 -0.030451936989689846 0.0064883065963992461 -0.015983740454188246 0.028812003395513097 0.014742212764299462 0.033746152341652652
leaf_weight=7.9814214706420925 12.723575234413149 24.697636514902115 40.679695338010788 8.2308239042758924 8.7349424213170987 21.453367382287979 17.213401362299919 13.955204665660856
leaf_count=32 51 99 163 33 35 86 69 56
internal_value=-0.000105519 -0.00447441 -0.014214 -0.0239302 0.00926136 0.0148164 0.00169492 0.0240506
internal_weight=155.67 133.733 78.8475 48.9105 54.8859 46.151 29.937 21.9366
internal_count=624 536 316 196 220 185 120 88
is_linear=0
shrinkage=0.03


Tree=2
num_leaves=8
num_cat=0
split_feature=11 35 36 11 14 20 15
split_gain=19.0239 13.6737 11.9533 9.42178 11.2636 2.51944 2.23945
threshold=0.14435596779476159 -0.0028213129801106236 0.0084297479004498983 -0.04798584256639931 87.070422529615271 0.031703422705348212 -12.630488193651273
decision_type=2 2 2 2 2 2 2
left_child=2 -2 3 6 -5 -4 -1
right_child=1 -3 5 4 -6 -7 -8
leaf_value=0.0035743408142867405 0.00079903856278750005 -0.044890988721169894 0.0092874430351044309 -0.006373552967249136 0.027790919051031104 0.037449712883753129 0.028232841971047081
leaf_weight=7.7265204936265972 9.2345633059740084 11.488391056656836 8.963589012622835 92.823060050606728 7.4818697273731223 8.200772747397421 9.7255018651485425
leaf_count=31 37 46 36 372 30 33 39
internal_value=-8.07541e-05 -0.0255922 0.00404466 0.000333678 -0.00318509 0.0260296 0.0195769
internal_weight=155.644 20.723 134.921 117.757 100.305 17.1644 17.452
internal_count=624 83 541 472 402 69 70
is_linear=0
shrinkage=0.03


Tree=3
num_leaves=10
num_cat=0
split_feature=11 19 11 35 20 20 38 38 35
split_gain=18.0803 14.5349 13.843 12.9914 9.07558 7.84071 7.36998 3.09046 1.88957
threshold=0.14435596779476159 0.18413252613692249 0.019069780769817694 -0.0028213129801106236 0.02701442806255715 0.0359531210494635 0.01059579863023492 0.007996741483552958 0.031322588482372245
decision_type=2 2 2 2 2 2 2 2 2
left_child=1 2 4 -2 -1 8 -7 -4 -3
right_child=3 5 7 -5 -6 6 -8 -9 -10
leaf_value=-0.00585036522597728 0.00077935464062241547 0.040809263209125937 -0.0045994167208401196 -0.043712442997058107 0.017376383799221004 -0.007090863591542978 0.019012117755377221 -0.02837999626292196 0.012029035187557524
leaf_weight=30.923634350299835 9.2342824786901492 9.959469214081766 10.226383581757547 11.497935220599173 25.42503297328949 16.219803884625435 18.167441681027412 16.480802163481712 7.4820472300052634
leaf_count=124 37 40 41 46 102 65 73 66 30
internal_value=-4.25736e-05 0.00397826 -0.00366567 -0.0249106 0.00460906 0.0161874 0.0065746 -0.0207516 0.0317422
internal_weight=155.617 134.885 83.0559 20.7322 56.3487 51.8288 34.3872 26.7072 17.4415
internal_count=624 541 333 83 226 208 138 107 70
is_linear=0
shrinkage=0.03


Tree=4
num_leaves=10
num_cat=0
split_feature=11 19 11 35 20 20 38 35 19
split_gain=17.1473 13.8367 13.5457 12.3593 8.20047 7.50066 6.99168 1.78062 1.63279
threshold=0.14435596779476159 0.18413252613692249 -0.04798584256639931 -0.0028213129801106236 0.042062375452971423 0.0359531210494635 0.01059579863023492 0.031322588482372245 0.11313047039380195
decision_type=2 2 2 2 2 2 2 2 2
left_child=1 2 8 -2 -4 7 -7 -3 -1
right_child=3 5 4 -5 -6 6 -8 -9 -10
leaf_value=0.028575759506861989 0.00076015565622619696 0.039888171885802015 -0.013857685824100371 -0.042601150741308179 0.013865031417081185 -0.0068997899979840746 0.018519363801525413 0.011749884204051568 0.0049794831339392892
leaf_weight=7.967475697398184 9.2340056300163287 9.9303775727748889 58.386543422937393 11.496105968952177 9.2278254330158216 16.224221929907799 18.144861131906509 7.4775923639535895 7.4702846705913544
leaf_count=32 37 40 234 46 37 65 73 30 30
internal_value=-3.80813e-05 0.00387644 -0.00357614 -0.024259 -0.00956905 0.015798 0.00638803 0.0310306 0.0198985
internal_weight=155.559 134.829 83.0521 20.7301 67.6144 51.7771 34.3691 17.408 15.4378
internal_count=624 541 333 83 271 208 138 70 62
is_linear=0
shrinkage=0.03


Tree=5
num_leaves=9
num_cat=0
split_feature=34 23 34 21 31 2 36 20
split_gain=17.1721 12.3167 16.8548 10.3663 9.00415 5.43219 4.03976 1.99365
threshold=0.035715623315696228 1.0222932663352564 -0.02891774736185437 0.029115859648289093 1.0000000180025095e-35 0.015578597678795549 0.0060562062630251769 0.040657917587106025
decision_type=2 2 2 2 2 2 2 2
left_child=1 2 -1 -4 7 -6 -2 -3
right_child=6 4 3 -5 5 -7 -8 -9
leaf_value=0.0246240824146924 -0.0032383819961045268 0.014113577018527014 -0.0024526520771974182 -0.028082700248217598 -0.015232189100043422 0.010391399277519184 -0.033467457395034865 0.035530552053133803
leaf_weight=12.654713094234465 7.4840770512819317 17.693152949213985 47.870344579219818 19.47088286280632 9.7211942821741122 18.170722633600235 13.983605220913885 11.20063905417919
leaf_count=51 30 71 192 78 39 73 56 45
internal_value=-0.000948712 0.00298032 -0.00444432 -0.0106758 0.0134902 0.000537355 -0.0247423 0.0246641
internal_weight=158.249 136.782 79.9959 67.3412 56.7857 27.8919 21.4677 28.8938
internal_count=635 549 321 270 228 112 86 116
is_linear=0
shrinkage=0.03


Tree=6
num_leaves=8
num_cat=0
split_feature=11 34 20 34 34 35 9
split_gain=18.6191 14.0628 8.82776 12.9743 8.99679 8.1312 3.77923
threshold=0.14833085804244897 0.036365321028393967 0.026132898467456082 0.011641043650135631 -0.02891774736185437 0.0046911314008757374 0.0038514693538452848
decision_type=2 2 2 2 2 2 2
left_child=1 2 3 -1 -4 -2 -3
right_child=5 6 4 -5 -6 -7 -8
leaf_value=-0.026074576731607756 -0.0016544212677421252 -0.0028952861062245794 0.029767031493381588 0.01214627000161375 0.0061246676605710279 -0.0400208773602354 -0.034677805960042572
leaf_weight=14.219393983483316 9.2298911362886447 7.4881649911403638 17.325266942381859 13.463696107268332 76.494766786694527 12.22344361245632 7.7452178001403809
leaf_count=57 37 30 70 54 307 49 31
internal_value=-0.000919564 0.00317515 0.00676843 -0.00741458 0.0111773 -0.0257027 -0.0220742
internal_weight=158.19 136.737 121.503 27.6831 93.82 21.4533 15.2334
internal_count=635 549 488 111 377 86 61
is_linear=0
shrinkage=0.03


Tree=7
num_leaves=9
num_cat=0
split_feature=34 23 34 34 0 24 36 20
split_gain=15.5401 11.5756 15.5247 10.1366 8.59416 4.94069 3.8876 3.09781
threshold=0.035715623315696228 1.0222932663352564 -0.02891774736185437 0.011476410558069696 0.00051903942845277229 -0.54348757390807145 0.0060562062630251769 0.029003196747280153
decision_type=2 2 2 2 2 2 2 2
left_child=1 2 -1 -4 5 -3 -2 -6
right_child=6 4 3 -5 7 -7 -8 -9
leaf_value=0.023572568005023407 -0.0026360836531544459 0.0041717335295427573 -0.020179209912158179 0.0025002496020224327 -0.011627549116360349 0.032589124487565208 -0.03208953016204702 0.0078026114458551342
leaf_weight=12.600280568003653 7.4869238883256939 10.199267551302912 38.165875598788261 29.164427638053894 9.4628380239009875 18.636805340647697 13.976148948073385 18.40461303293705
leaf_count=51 30 41 153 117 38 75 56 74
internal_value=-0.000916656 0.00281981 -0.00437481 -0.0103504 0.0130205 0.0239469 -0.0235551 0.000365768
internal_weight=158.097 136.634 79.9306 67.3303 56.7035 28.8361 21.4631 27.8675
internal_count=635 549 321 270 228 116 86 112
is_linear=0
shrinkage=0.03


Tree=8
num_leaves=7
num_cat=0
split_feature=11 23 38 38 6 13
split_gain=17.4713 9.747 9.5984 9.58422 3.21977 2.26046
threshold=0.14833085804244897 1.2764463141234617 0.012557300122894317 0.008907906550449084 -0.012958405173073175 -1.4189006293928832
decision_type=2 2 2 2 2 2
left_child=1 2 3 -1 -2 -3
right_child=4 5 -4 -5 -6 -7
leaf_value=0.0045058497685800817 -0.0050389608146256658 0.0048971900631335054 0.021196401079666891 -0.013372807866832743 -0.033086176898764447 0.030315988318141144
leaf_weight=57.026014074683189 7.7168226242065456 7.4646549522876766 14.314750283956526 46.856324091553688 13.696987614035605 10.942558526992796
leaf_count=229 31 30 58 188 55 44
internal_value=-0.000882208 0.00308177 -9.62577e-05 -0.00351696 -0.0249133 0.0222332
internal_weight=158.018 136.604 118.197 103.882 21.4138 18.4072
internal_count=635 549 475 417 86 74
is_linear=0
shrinkage=0.03


Tree=9
num_leaves=9
num_cat=0
split_feature=34 23 34 21 0 2 15 20
split_gain=14.6152 10.6667 14.5479 9.78529 8.211 5.15254 2.01997 2.00785
threshold=0.035715623315696228 1.0222932663352564 -0.02891774736185437 0.029115859648289093 0.00051903942845277229 0.013857778389586352 1.493170245113012 0.040657917587106025
decision_type=2 2 2 2 2 2 2 2
left_child=1 2 -1 -4 7 -6 -2 -3
right_child=6 4 3 -5 5 -7 -8 -9
leaf_value=0.022961899784621334 -0.0054441604663707606 0.012971840991965147 -0.0019401119014199816 -0.026814561616814045 -0.015672784502647148 0.0095544536832246618 -0.029346669741685216 0.033976046894404345
leaf_weight=12.559357717633246 7.4877934753894833 17.636497914791111 47.877215623855591 19.459367334842682 9.2196979522705096 18.622861862182617 13.95236814022064 11.136143386363981
leaf_count=51 30 71 192 78 37 75 56 45
internal_value=-0.000846822 0.00277488 -0.00412573 -0.00991094 0.0125775 0.000207632 -0.0228156 0.0232686
internal_weight=157.951 136.511 79.8959 67.3366 56.6152 27.8426 21.4402 28.7726
internal_count=635 549 321 270 228 112 86 116
is_linear=0
shrinkage=0.03


Tree=10
num_leaves=9
num_cat=0
split_feature=11 12 20 32 17 14 35 17
split_gain=12.0118 8.41126 14.6085 7.50021 5.55505 5.49788 8.38624 5.42741
threshold=0.14833085804244897 54.298038286097558 0.026269893429269168 0.0026847516180336099 -0.11270759764966652 2.2072456246678205 0.04845855219862983 -2.0187828277137778
decision_type=2 2 2 2 2 2 2 2
left_child=1 2 4 -4 -1 -3 -7 -2
right_child=7 5 3 -5 -6 6 -8 -9
leaf_value=-0.00114555523313884 -0.00025378620913721068 0.031776888125893306 0.01578085344133141 -0.0074621963506685211 -0.034433120313857021 0.01339921420488056 -0.013752976198382774 -0.030122687769050704
leaf_weight=8.2314358949661273 10.442983672022821 9.204054191708563 27.839294075965881 18.905602887272835 12.235743433237074 43.362715989351273 10.96820294857025 12.674967795610426
leaf_count=33 42 37 112 76 49 175 44 51
internal_value=0.00059848 0.0042825 -0.00291877 0.00615219 -0.023007 0.011986 0.00735783 -0.0183218
internal_weight=153.865 130.747 67.2121 46.7449 20.4672 63.535 54.3309 23.118
internal_count=619 526 270 188 82 256 219 93
is_linear=0
shrinkage=0.03


Tree=11
num_leaves=10
num_cat=0
split_feature=23 34 15 38 12 32 5 21 32
split_gain=11.6682 17.8798 9.90498 12.3449 8.31498 8.23452 8.83135 5.92095 3.59215
threshold=1.0222932663352564 -0.02891774736185437 -5.6961603531635108 0.0084286571121877703 42.463092699691721 0.0032676874582521225 0.13061702214136175 0.022007975077031811 0.0097795626384908924
decision_type=2 2 2 2 2 2 2 2 2
left_child=1 -1 4 -4 -3 6 -2 -7 -9
right_child=5 2 3 -5 -6 7 -8 8 -10
leaf_value=0.023705222879961543 0.030314480312427408 -0.011775992386453542 -0.0004674593535891813 -0.028352239773574268 0.025525383200470288 -0.019399898056796143 0 -0.0061901333109293123 0.017186732046474754
leaf_weight=13.035780683159826 22.304916441440582 8.4785163849592227 24.943452045321465 35.627632319927216 8.7154626101255399 8.9583092480897921 12.112732961773871 7.6950139701366451 11.892317235469816
leaf_count=53 90 34 100 143 35 36 49 31 48
internal_value=0.000559361 -0.00617316 -0.0118385 -0.0174909 0.00703978 0.0103905 0.0198762 -0.00110785 0.00758547
internal_weight=153.764 90.8008 77.7651 60.5711 17.194 62.9633 34.4176 28.5456 19.5873
internal_count=619 365 312 243 69 254 139 115 79
is_linear=0
shrinkage=0.03


Tree=12
num_leaves=12
num_cat=0
split_feature=23 22 0 21 19 19 2 27 12 26 0
split_gain=10.9913 10.3093 6.83091 6.30068 9.47184 5.95139 4.88822 3.15139 3.14214 2.69977 1.66785
threshold=1.0222932663352564 -0.24010953412858002 0.0026204768261199889 0.027744125079947581 0.13622889206648717 0.21739752048356056 0.00046706835915855121 1.5000000000000002 66.557365791848284 0.33333392673189305 -0.022347332250483683
decision_type=2 2 2 2 2 2 2 2 2 2 2
left_child=1 9 8 4 -3 -5 -4 -8 10 -1 -2
right_child=2 3 6 5 -6 -7 7 -9 -10 -11 -12
leaf_value=-0.0096560905506877601 0.0071718441111655231 -0.0040734775990556808 -0.018524465396160886 -0.02239001769379656 0.023496610389444193 0.0026105959332395848 0.018149451704269372 -0.0019896935982593174 0.00140773568823014 -0.037296420207883582 0.030300360116523681
leaf_weight=10.418771371245386 7.4248410910367957 26.397220656275749 7.4670151770114925 15.898004472255709 16.139465183019638 13.910081580281256 9.9186587184667605 13.397322267293928 8.6351022720336896 7.9630020856857291 16.065175846219066
leaf_count=42 30 106 30 64 65 56 40 54 35 32 65
internal_value=0.000546752 -0.00598709 0.0100951 -0.000452773 0.00663589 -0.0108212 0 0.00674203 0.019339 -0.0248507 0.0247146
internal_weight=153.635 90.7265 62.9081 72.3448 42.5367 29.8081 30.783 23.316 32.1251 18.3818 23.49
internal_count=619 365 254 291 171 120 124 94 130 74 95
is_linear=0
shrinkage=0.03


Tree=13
num_leaves=10
num_cat=0
split_feature=34 23 9 7 32 5 36 2 5
split_gain=11.1638 9.42186 13.9296 10.7471 6.25218 5.92499 4.99439 3.22289 3.19952
threshold=0.035715623315696228 0.92076225687522417 0.030467429360153796 0.016503334271413383 0.0032676874582521225 0.01537503151157449 0.0046061955180631406 0.0060914186909135646 0.13061702214136175
decision_type=2 2 2 2 2 2 2 2 2
left_child=1 2 6 -4 8 -6 -1 -2 -3
right_child=7 4 3 -5 5 -7 -8 -9 -10
leaf_value=-0.0073075507727351696 -0.026895852108504023 0.024810621709838818 -0.029864737097328932 0.003313597343374003 -0.015977248713166269 0.0097996172644287689 0.018252180169317671 -0.0018977881144834946 0.0039279244359750965
leaf_weight=7.7343840748071697 12.94070887565613 26.68394148349762 20.388878881931305 12.631861507892607 9.9452060163021105 22.047483623027802 19.860568106174469 9.2107244580984098 12.105571314692495
leaf_count=31 52 108 82 51 40 89 80 37 49
internal_value=0.000523773 0.00400749 -0.00442837 -0.0172799 0.011361 0.000876795 0.0105717 -0.0181405 0.0191734
internal_weight=153.549 131.398 60.6157 33.0207 70.7822 31.9927 27.595 22.1514 38.7895
internal_count=619 530 244 133 286 129 111 89 157
is_linear=0
shrinkage=0.03


Tree=14
num_leaves=8
num_cat=0
split_feature=11 34 23 34 36 21 36
split_gain=10.7943 12.2522 8.15652 12.3609 7.90999 7.74515 3.364
threshold=0.14833085804244897 0.036365321028393967 1.0242692859963929 -0.02891774736185437 0.0061335412762187442 0.018113724723211305 0.0061623745756878541
decision_type=2 2 2 2 2 2 2
left_child=1 2 3 -1 -2 -4 -3
right_child=4 6 5 -5 -6 -7 -8
leaf_value=0.027113465290327585 -0.037197267084073934 -0.0016218165637899577 -0.0081963647707580384 -0.0052500786500834611 -0.0016311644252219658 0.022002093458612908 -0.030305501702986248
leaf_weight=10.99877607822418 8.631734713912012 7.9784967899322536 7.4269081801176062 55.573080807924271 14.406962171196936 40.167098224163055 8.2283297628164274
leaf_count=45 35 32 30 223 58 163 33
internal_value=0.000497292 0.00400021 0.00762424 0.000513019 -0.0174623 0.0168468 -0.0187379
internal_weight=153.411 130.373 114.166 66.5719 23.0387 47.594 16.2068
internal_count=619 526 461 268 93 193 65
is_linear=0
shrinkage=0.03


Tree=15
num_leaves=10
num_cat=0
split_feature=11 20 38 40 11 28 2 36 35
split_gain=16.5327 12.9729 14.0054 10.9087 9.84567 6.19426 4.21202 3.58105 3.3919
threshold=-0.043714444410176238 0.045870694295438781 0.0088616659400370789 0.017280220207760991 0.12310508260328258 6.5000000000000009 0.003019235344641658 0.0062550648346461181 0.031322588482372245
decision_type=2 2 2 2 2 2 2 2 2
left_child=8 2 3 -2 7 -4 -6 -3 -1
right_child=1 4 5 -5 6 -7 -8 -9 -10
leaf_value=0.0028071682568668885 -0.01820241050876378 0.0065230222028006312 -0.0057934595317045007 0.0080247106304241877 -0.019724661570894239 -0.031482579610667111 0.0077164560805731176 0.036661473915566248 0.031108299888355544
leaf_weight=7.3783924132585552 19.564901858568192 8.9168720692396182 15.608006879687307 39.931437030434608 7.9161109775304777 27.334917396306992 7.646972581744194 9.0248338729143125 12.894974336028097
leaf_count=30 79 36 63 161 32 110 31 37 52
internal_value=-0.00121773 -0.00516405 -0.0104998 -0.000667447 0.0103999 -0.0231527 -0.00604401 0.0245916 0.0226586
internal_weight=156.217 135.944 102.439 59.4963 33.5048 42.9429 15.5631 17.9417 20.2734
internal_count=631 549 413 240 136 173 63 73 82
is_linear=0
shrinkage=0.03


Tree=16
num_leaves=10
num_cat=0
split_feature=36 14 40 37 21 12 35 21 7
split_gain=7.85084 8.21903 10.5228 9.03342 8.28272 10.4622 6.11695 4.2632 3.82537
threshold=0.0080213846019836638 4.7834399180085549 0.014492004836522023 0.039131906743077434 0.022368497417003721 60.692222269285715 0.040090918997515053 0.028360011582024804 0.014101222434404471
decision_type=2 2 2 2 2 2 2 2 2
left_child=1 4 6 -4 5 -1 -3 -6 -2
right_child=8 2 3 -5 7 -7 -8 -9 -10
leaf_value=-0.012942525803069318 0 -0.0094989101035995935 0.012312800330835042 -0.014144645987476064 0.025697452950084514 0.021975647970003821 -0.040776881920495819 0 0.022947234288430363
leaf_weight=31.029812291264534 10.570361241698267 15.342156916856768 20.056679472327232 22.28817743062973 14.877750575542452 7.9427961260080329 11.420054867863653 8.6907517164945585 13.898798465728758
leaf_count=125 43 62 81 90 60 32 46 35 57
internal_value=-0.00116642 -0.00419486 -0.0112356 -0.00128466 0.00345968 -0.00473462 -0.0252748 0.0169068 0.0136462
internal_weight=156.117 131.648 69.1071 42.3449 62.5411 38.9726 26.7622 23.5685 24.4692
internal_count=631 531 279 171 252 157 108 95 100
is_linear=0
shrinkage=0.03


Tree=17
num_leaves=8
num_cat=0
split_feature=11 34 11 11 36 36 28
split_gain=15.4433 10.8563 8.64825 9.47621 4.50673 2.65219 2.38934
threshold=-0.043714444410176238 0.035715623315696228 0.15019906631235339 -0.028411021593489124 0.006088598026508435 0.006067605486716904 6.5000000000000009
decision_type=2 2 2 2 2 2 2
left_child=5 2 3 -2 -4 -1 -3
right_child=1 6 4 -5 -6 -7 -8
leaf_value=0.005584251607245308 -0.026029595779094038 -0.0087843025963292628 -0.034706010738278593 0.0049653850528691545 -0.0015694304176138367 0.0309834061685446 -0.034923748312176088
leaf_weight=8.9136107861995715 7.7213542908430091 9.4154498577117938 7.6125787794589979 93.403552800416946 7.9687827527523041 11.308552250266073 9.6732165068387967
leaf_count=36 31 38 31 378 32 46 39
internal_value=-0.00112803 -0.00494602 -0.0012096 0.0019944 -0.0207185 0.021973 -0.0247976
internal_weight=156.017 135.795 116.706 101.125 15.5814 20.2222 19.0887
internal_count=631 549 472 409 63 82 77
is_linear=0
shrinkage=0.03


Tree=18
num_leaves=10
num_cat=0
split_feature=36 14 20 16 23 1 36 16 23
split_gain=7.38589 6.9205 9.93637 8.37091 7.32638 6.30056 6.0922 4.00962 2.34488
threshold=0.0077766786520461926 24.353843706892352 0.045985667835595191 0.12497918138598142 0.99034943260820973 0.0087598967634294773 0.0063726376729655249 -2.1189720608409739 1.0838276535833935
decision_type=2 2 2 2 2 2 2 2 2
left_child=1 2 3 -1 6 -6 -3 -2 -9
right_child=7 4 -4 -5 5 -7 -8 8 -10
leaf_value=-0.011636597047714369 -0.0040193015890319745 -0.037122467243608771 0.029750099670964047 0.0078426556481346436 0.016394588443824513 -0.013574618340272777 -0.0016662657281781336 0.024543148719231168 0.0013116848827447916
leaf_weight=42.198615804314613 8.3403012752532977 13.05133503675461 7.4164052307605735 33.442480757832527 8.6246415078640002 13.359732508659361 7.7160441726446143 14.402670338749887 7.323051154613494
leaf_count=170 34 53 30 135 35 54 31 59 30
internal_value=-0.00112257 -0.00442431 0.000514719 -0.00285105 -0.0139491 -0.000805353 -0.0259113 0.0116398 0.0181154
internal_weight=155.875 125.809 83.0575 75.6411 42.7518 21.9844 20.7674 30.066 21.7257
internal_count=631 508 335 305 173 89 84 123 89
is_linear=0
shrinkage=0.03


Tree=19
num_leaves=9
num_cat=0
split_feature=11 20 23 15 36 15 11 26
split_gain=14.5107 12.0667 11.6974 10.4157 7.00656 3.25636 2.55487 1.90717
threshold=-0.043714444410176238 0.045870694295438781 1.4348230322392577 49.757755556481776 0.0081443842700233398 127.85114377116732 -0.073691581293608852 0.1260508304884454
decision_type=2 2 2 2 2 2 2 2
left_child=6 2 4 7 -2 -5 -1 -3
right_child=1 3 -4 5 -6 -7 -8 -9
leaf_value=0.0034310599278345889 -0.016860117330027097 0.0077758421257928733 0.017696780725163824 -0.019544665801495498 0.0051074745572032487 0.0049512593652085426 0.02885427463928884 0.032663062963394038
leaf_weight=7.4083082824945476 78.650140762329102 8.0895081311464327 10.134418264031408 7.434042274951933 13.466456219553946 7.3532199710607529 12.749952927231787 10.461563870310782
leaf_count=30 317 33 41 30 55 30 52 43
internal_value=-0.00108239 -0.00478688 -0.0099379 0.0102555 -0.013449 -0.00733145 0.021341 0.0243533
internal_weight=155.748 135.589 102.251 33.3383 92.1166 14.7873 20.1583 18.5511
internal_count=631 549 413 136 372 60 82 76
is_linear=0
shrinkage=0.03


Tree=20
num_leaves=9
num_cat=0
split_feature=11 35 35 11 19 23 15 15
split_gain=10.4163 9.33454 8.87735 9.3461 8.30804 7.09514 3.02339 1.47483
threshold=-0.043714444410176238 0.031322588482372245 -0.019552645938641363 0.15762484212495445 0.15560014777350137 1.5103265842869302 29.242340767511969 -10.149762358480961
decision_type=2 2 2 2 2 2 2 2
left_child=1 -1 4 5 -2 -4 -6 -3
right_child=2 7 3 -5 6 -7 -8 -9
leaf_value=-0.0056151804850829044 -0.012307304993754657 0.01212917228178525 -0.007461686156655465 -0.033300078312383317 0.030272939703732689 0.018898635921468326 0.0070399281825907749 0.040384560231733029
leaf_weight=8.5928816795349139 9.6763438731431943 7.3800032585859299 82.01886311173439 10.016143038868902 9.3847730308771151 8.1452221721410734 16.29525251686573 7.5936474502086622
leaf_count=35 39 30 331 41 39 33 66 31
internal_value=-0.00021018 0.0172775 -0.00356695 -0.00817507 0.00882697 -0.00455917 0.0176462 0.0304123
internal_weight=159.103 23.5665 135.537 100.18 35.3564 90.1641 25.68 14.9737
internal_count=645 96 549 405 144 364 105 61
is_linear=0
shrinkage=0.03


Tree=21
num_leaves=7
num_cat=0
split_feature=5 36 32 38 3 12
split_gain=11.5825 10.9017 6.42403 7.66797 2.84818 1.04278
threshold=-0.091817336286777226 0.0081862498936358784 0.020275428976444857 0.0088616659400370789 0.025424914925524126 30.622486321968193
decision_type=2 2 2 2 2 2
left_child=5 2 3 -2 -3 -1
right_child=1 4 -4 -5 -6 -7
leaf_value=0.0080228103152882538 0 0.0024394035509707418 0.015982537698802757 -0.015553132827454281 0.0273018566892975 0.030570388136541591
leaf_weight=7.4052033424377433 55.260391503572464 9.5409500151872653 8.3869115412235242 60.917361691594124 9.3519573509693128 8.0764915496110898
leaf_count=30 223 39 34 247 39 33
internal_value=-0.00017961 -0.00304147 -0.00640374 -0.00838987 0.0168996 0.0227952
internal_weight=158.939 143.458 124.565 116.178 18.8929 15.4817
internal_count=645 582 504 470 78 63
is_linear=0
shrinkage=0.03


Tree=22
num_leaves=8
num_cat=0
split_feature=34 11 36 16 36 19 36
split_gain=14.1813 9.68807 7.48503 7.96038 4.6384 3.87496 3.35311
threshold=0.035715623315696228 0.14833085804244897 0.0076995000225777216 11.486989519274937 0.0058625641493879341 0.16911625321296284 0.0063726376729655249
decision_type=2 2 2 2 2 2 2
left_child=1 2 3 -1 -2 -4 -3
right_child=4 6 5 -5 -6 -7 -8
leaf_value=0.0059891931429701803 0 -0.028219598013022779 0.004944483290445981 -0.01791838501070598 -0.02968714415079458 0.030379340028713748 0
leaf_weight=81.437353432178497 7.6756296008825329 8.2209248840808851 12.012369245290758 12.60523661971092 15.264445498585699 13.913170933723448 7.7053491026163092
leaf_count=329 31 34 49 51 62 58 31
internal_value=-0.000136909 0.003537 0.00660612 0.0023221 -0.0210405 0.0203296 -0.0169027
internal_weight=158.834 135.894 119.968 94.0426 22.9401 25.9255 15.9263
internal_count=645 552 487 380 93 107 65
is_linear=0
shrinkage=0.03


Tree=23
num_leaves=7
num_cat=0
split_feature=34 11 36 14 36 6
split_gain=13.4622 9.24733 8.44821 6.55641 4.40571 3.27652
threshold=0.035715623315696228 0.15762484212495445 0.0076995000225777216 -17.023902905815728 0.0058625641493879341 -0.0015042372328411501
decision_type=2 2 2 2 2 2
left_child=1 2 3 -1 -2 -4
right_child=4 -3 5 -5 -6 -7
leaf_value=0.025542741811989053 0 -0.019989363715164341 0.0031884215899450324 -0.00067553098366779699 -0.028989652962235272 0.027810420535279816
leaf_weight=7.3829486519098273 7.6756296008825329 11.50956669449806 9.3027747422456759 90.530038431286812 15.211671248078344 17.030635595321655
leaf_count=30 31 47 38 366 62 71
internal_value=-0.000148034 0.00342925 0.00599975 0.00162301 -0.0205398 0.0204807
internal_weight=158.643 135.756 124.246 97.913 22.8873 26.3334
internal_count=645 552 505 396 93 109
is_linear=0
shrinkage=0.03


Tree=24
num_leaves=8
num_cat=0
split_feature=34 11 34 34 6 2 37
split_gain=12.8048 8.82195 6.71344 8.42577 5.56086 3.19552 1.44399
threshold=0.035715623315696228 0.14833085804244897 -0.027930448746805166 -0.011840203062258246 -0.0032299921840327622 0.0073794510398894628 -0.0082317769909931431
decision_type=2 2 2 2 2 2 2
left_child=1 2 6 -4 -3 -2 -1
right_child=5 4 3 -5 -6 -7 -8
leaf_value=0.029194365716751214 -0.029104588977493736 0.0011900128744879977 -0.013587934485936167 0.0072713422018350019 -0.030649625455826432 -0.0040068257772351316 0.0069339505848086767
leaf_weight=10.694092139601709 12.960450202226641 7.5705486536025992 19.783045455813408 81.283124521374702 8.2944854199886304 9.869203716516493 8.0031338483095151
leaf_count=45 53 31 80 329 34 40 33
internal_value=-0.000140585 0.00334537 0.00627899 0.00285829 -0.0161843 -0.0200557 0.0219816
internal_weight=158.458 135.628 119.763 101.066 15.865 22.8297 18.6972
internal_count=645 552 487 409 65 93 78
is_linear=0
shrinkage=0.03


Tree=25
num_leaves=11
num_cat=0
split_feature=23 15 38 36 38 21 18 40 12 5
split_gain=11.4374 9.01188 8.04266 12.527 6.57137 6.07864 8.25547 8.00756 5.89312 5.24931
threshold=1.0222932663352564 -5.6961603531635108 0.0085545268139082704 0.0054855478218233346 0.011418544105874319 0.026152321419716917 0.87465596232387066 0.047254976475725526 41.986097440795028 0.045998113646696266
decision_type=2 2 2 2 2 2 2 2 2 2
left_child=1 8 3 -3 -4 7 -7 9 -1 -2
right_child=5 2 4 -5 -6 6 -8 -9 -10 -11
leaf_value=-0.0026064512173054203 0.002760451430677175 0.026850134685695623 -0.02614302136491976 -0.010908405321386093 0 0.033385023117106373 0 0.022480507022894971 0.026116088053995085 -0.023746001593920374
leaf_weight=11.60110926628113 15.964334756135942 9.4518624395132047 28.549135595560074 23.421146124601364 11.062744855880736 16.733310461044315 10.808238998055456 10.108946785330771 9.8066285997629148 8.3460920304059965
leaf_count=47 65 38 116 95 46 69 44 41 40 34
internal_value=0.00139628 -0.00506869 -0.0101892 0.00043529 -0.0189639 0.0112797 0.0213371 0.00209028 0.0110174 -0.00688277
internal_weight=155.854 93.8926 72.4849 32.873 39.6119 61.9609 27.5415 34.4194 21.4077 24.3104
internal_count=635 382 295 133 162 253 113 140 87 99
is_linear=0
shrinkage=0.03


Tree=26
num_leaves=12
num_cat=0
split_feature=23 3 20 32 40 21 16 32 38 5 40
split_gain=10.8179 7.44969 6.57354 7.32138 7.80699 5.9684 4.9955 6.94434 5.83972 3.94663 2.93538
threshold=1.0222932663352564 0.011985366755820183 0.050246157095745973 -0.00028934207788527949 0.049130561826799209 0.019842492961580947 -7.1715563757436005 -0.0032185728388031127 0.0091556495495517965 0.10224705829523352 0.039275293191748502
decision_type=2 2 2 2 2 2 2 2 2 2 2
left_child=1 6 3 9 -5 -3 8 -8 -1 -2 -7
right_child=2 5 -4 4 -6 10 7 -9 -10 -11 -12
leaf_value=0.01750843412119182 0.026839124121252306 0.021640956155401545 0.032722544128002622 -0.014325271304926638 0.01470041648291929 -0.010307734111052593 0 -0.027229315885564872 -0.013603338359152818 0 0.0077858645754244797
leaf_weight=8.198761001229288 14.440121397376062 10.982974037528036 8.8712436854839307 19.666559517383579 11.326660349965094 16.856816753745083 13.28221459686756 23.447997853159904 9.5198276638984662 7.5831803679466239 11.515496686100958
leaf_count=33 59 45 37 80 46 69 54 95 39 31 47
internal_value=0.00137703 -0.00490996 0.0109965 0.00603104 -0.00301492 0.00463841 -0.011997 -0.0180498 0.000347703 0.0185769 -0.00244108
internal_weight=155.692 93.8041 61.8878 53.0165 30.9932 39.3553 54.4488 36.7302 17.7186 22.0233 28.3723
internal_count=635 382 253 216 126 161 221 149 72 90 116
is_linear=0
shrinkage=0.03


Tree=27
num_leaves=7
num_cat=0
split_feature=34 14 12 34 16 19
split_gain=7.77354 6.65245 10.2293 10.6813 5.77475 5.64491
threshold=-0.027389906991610199 -17.023902905815728 41.687609005794037 0.011900313398034325 -6.9907630331842165 0.18926646978213504
decision_type=2 2 2 2 2 2
left_child=5 -2 4 -4 -3 -1
right_child=1 2 3 -5 -6 -7
leaf_value=0.00068190679543540583 0.022854734945917009 1.8658793755490396e-05 -0.0087903478631276774 0.010885628605794461 -0.025974859608367828 0.03130407851896283
leaf_weight=11.664776697754862 7.3967591226100913 9.8538494259119052 44.348474010825157 50.962392911314964 20.948094606399536 10.365719258785246
leaf_count=48 30 40 180 208 85 44
internal_value=0.00136114 -0.00134295 -0.00321391 0.00158368 -0.0177079 0.0171206
internal_weight=155.54 133.51 126.113 95.3109 30.8019 22.0305
internal_count=635 543 513 388 125 92
is_linear=0
shrinkage=0.03


Tree=28
num_leaves=8
num_cat=0
split_feature=34 14 12 34 17 21 14
split_gain=7.41375 6.34553 9.66502 10.0775 5.71601 2.326 1.45612
threshold=-0.027389906991610199 -17.023902905815728 41.687609005794037 0.011900313398034325 -0.6422370143427808 0.037638125616501671 4.7834399180085549
decision_type=2 2 2 2 2 2 2
left_child=5 -2 4 -4 -3 6 -1
right_child=1 2 3 -5 -6 -7 -8
leaf_value=0.01483154145939727 0.022353204077952833 0.0018306407520335564 -0.0085364815154874724 0.010574139109164332 -0.02476089603646402 0.029612779427625767 -0.0011370717369416821
leaf_weight=7.5030289739370364 7.3809470832347861 8.5954147726297396 44.356679350137711 50.948834702372551 22.188826933503151 7.1550883501768103 7.3029927462339401
leaf_count=31 30 35 180 208 90 31 30
internal_value=0.00133895 -0.00129682 -0.00312574 0.00153296 -0.0172199 0.0167552 0.00686459
internal_weight=155.432 133.471 126.09 95.3055 30.7842 21.9611 14.806
internal_count=635 543 513 388 125 92 61
is_linear=0
shrinkage=0.03


Tree=29
num_leaves=7
num_cat=0
split_feature=34 14 12 9 6 19
split_gain=7.07951 6.0532 9.12823 9.76643 5.45552 5.33439
threshold=-0.027389906991610199 -17.023902905815728 41.687609005794037 0.0038514693538452848 -0.01936293049336613 0.18926646978213504
decision_type=2 2 2 2 2 2
left_child=5 -2 4 -4 -3 -1
right_child=1 2 3 -5 -6 -7
leaf_value=0.00045824089132444134 0.021866377034775047 0 0.018756851230517468 -0.0035316424299712454 -0.025077677449433948 0.030290482286461941
leaf_weight=11.649697899818422 7.3637037575244895 10.352513119578363 20.883738353848457 74.412284150719643 20.410700157284737 10.241502016782759
leaf_count=48 30 42 85 303 83 44
internal_value=0.00131987 -0.00125106 -0.003039 0.00148378 -0.0167425 0.0164101
internal_weight=155.314 133.423 126.059 95.296 30.7632 21.8912
internal_count=635 543 513 388 125 92
is_linear=0
shrinkage=0.03


Tree=30
num_leaves=11
num_cat=0
split_feature=23 15 40 15 20 4 37 19 40 36
split_gain=7.24966 10.4312 7.84928 7.09296 6.18398 7.40856 5.56157 6.68916 4.00343 3.08713
threshold=0.95001161237387877 -5.6961603531635108 0.051935666033145929 -11.331602951751183 0.026618886437915042 0.040904310801326178 0.0057920376383329151 0.19835318198721638 -0.045628019154482051 0.0066637042847446154
decision_type=2 2 2 2 2 2 2 2 2 2
left_child=1 3 4 -1 -2 -6 8 -8 -3 -4
right_child=2 6 9 -5 5 -7 7 -9 -10 -11
leaf_value=-0.0064246218110453543 -0.020094265112980261 -0.015604222248272666 0.029062783183662413 0.02817111562558677 0.01662318549810729 -0.0065935215179578448 -0.028052953065558679 -0.00040784178738698145 0.0089559663654446547 0.0032696427464605714
leaf_weight=7.6388427019119289 8.6411852240562421 7.4004394561052349 14.041526243090631 9.7085495442152006 22.999458864331245 21.75230011343956 23.210875138640404 13.176645591855047 14.384072348475454 8.3318943977355939
leaf_count=31 35 31 57 40 95 89 94 54 59 34
internal_value=0.000454458 -0.00593998 0.00700979 0.0130724 0.000273185 0.00521819 -0.012105 -0.0189757 0 0.0211293
internal_weight=151.286 75.5194 75.7664 17.3474 53.3929 44.7518 58.172 36.3875 21.7845 22.3734
internal_count=619 309 310 71 219 184 238 148 90 91
is_linear=0
shrinkage=0.03


Tree=31
num_leaves=8
num_cat=0
split_feature=23 9 40 13 21 8 33
split_gain=6.86935 4.97852 9.04276 6.87416 6.8116 8.73547 4.20375
threshold=1.4415101977998923 0.030467429360153796 0.051935666033145929 -6.3388813921762646 0.023960567905458464 -0.015653444685996238 0.79483441378331832
decision_type=2 2 2 2 2 2 2
left_child=1 4 3 -3 5 -1 -4
right_child=-2 2 6 -5 -6 -7 -8
leaf_value=-0.013296865149461434 0.021828328642403663 0.0080765158569051955 -0.0044340331882120106 -0.016757341687726923 0.022029832131094069 0.01138210837937163 0.020841475511503386
leaf_weight=23.309552699327469 10.502397224307058 10.276978194713591 8.071352496743204 49.577225387096405 13.696476161479948 24.22663077712059 11.500052303075789
leaf_count=95 43 42 33 204 56 99 47
internal_value=0.000438991 -0.00133655 -0.0063056 -0.0121276 0.00486722 -0.000464779 0.0102777
internal_weight=151.161 140.658 79.4256 59.8542 61.2327 47.5362 19.5714
internal_count=619 576 326 246 250 194 80
is_linear=0
shrinkage=0.03


Tree=32
num_leaves=7
num_cat=0
split_feature=11 23 19 20 19 17
split_gain=6.86072 8.28829 6.60982 8.4715 6.5859 6.32505
threshold=0.14833085804244897 1.4197856647831906 0.18413252613692249 0.0359531210494635 0.11755094824806896 -2.0187828277137778
decision_type=2 2 2 2 2 2
left_child=1 2 4 -4 -1 -2
right_child=5 -3 3 -5 -6 -7
leaf_value=0.0054166811501630925 0.0034524432349414937 0.026347652864305154 0.026733757962257208 0 -0.012038254766489979 -0.025785643535626509
leaf_weight=31.186432793736458 9.5089386403560656 10.716408431529997 14.828041225671766 28.045989945530891 43.220705062150955 13.549887761473654
leaf_count=127 39 44 61 116 176 56
internal_value=0.000448702 0.00330704 0.000669502 0.009905 -0.00457572 -0.0138167
internal_weight=151.056 127.998 117.281 42.874 74.4071 23.0588
internal_count=619 524 480 177 303 95
is_linear=0
shrinkage=0.03


Tree=33
num_leaves=8
num_cat=0
split_feature=11 34 20 18 37 13 32
split_gain=6.51424 7.01648 6.5979 7.83345 6.07903 5.15034 0.968464
threshold=0.14833085804244897 0.041574042605586954 0.026546436315141902 0.44645694874104386 0.016216918756090663 -4.3874276982233473 0.004998664624093375
decision_type=2 2 2 2 2 2 2
left_child=1 2 3 -1 -4 -2 -7
right_child=5 -3 4 -5 -6 6 -8
leaf_value=-0.022379508890258873 0.0039023088608212669 -0.019199586253269233 0.01734997252409556 0.0057867321532741349 0.0011423791597916131 -0.030917727825167159 -0.0082668099371766435
leaf_weight=12.835298180580137 8.0542162060737628 9.2708771973848325 43.760434210300446 19.348797500133514 42.684242427349091 7.6816470324993116 7.2724200487136841
leaf_count=52 33 38 181 79 174 32 30
internal_value=0.000447147 0.00323423 0.00540105 -0.00565956 0.00972346 -0.0134657 -0.0230616
internal_weight=150.908 127.9 118.629 32.1841 86.4447 23.0083 14.9541
internal_count=619 524 486 131 355 95 62
is_linear=0
shrinkage=0.03


Tree=34
num_leaves=11
num_cat=0
split_feature=23 14 40 36 15 37 40 40 36 4
split_gain=6.71143 11.3283 7.13063 5.28556 9.76629 5.25624 6.49143 4.84319 2.8134 1.92007
threshold=0.95001161237387877 23.460969026821548 0.051935666033145929 0.0044643454617557445 -5.6961603531635108 0.017018739364093264 0.0066428614026400332 0.02762581564899769 0.0066637042847446154 0.0185195472848424
decision_type=2 2 2 2 2 2 2 2 2 2
left_child=1 3 5 -1 -5 6 -2 -3 -4 -7
right_child=2 7 8 4 -6 9 -8 -9 -10 -11
leaf_value=-0.015379307882644274 0 -0.033922923309955749 0.027839180526949388 0.026577780043274907 -0.0026316462770950531 0 0.027748308684379597 -0.0027986244239965219 0.0030754513221605702 -0.017735196050911149
leaf_weight=10.62658244371414 25.595000848174095 12.682456567883493 13.95094569027424 12.809461385011671 30.490154266357422 7.3022740185260799 8.2428259849548322 8.6752108484506589 8.3096519261598569 12.049034506082533
leaf_count=43 106 52 57 53 125 30 34 36 34 49
internal_value=0.000410605 -0.00574552 0.00673661 0.0015004 0.00647025 0.000289565 0.0075528 -0.0232449 0.020229 -0.0112263
internal_weight=150.734 75.2839 75.4497 53.9262 43.2996 53.1891 33.8378 21.3577 22.2606 19.3513
internal_count=619 309 310 221 178 219 140 88 91 79
is_linear=0
shrinkage=0.03


Tree=35
num_leaves=10
num_cat=0
split_feature=11 38 38 20 34 21 17 35 16
split_gain=10.7174 8.70295 9.41412 8.8928 7.37484 5.30004 4.46931 1.77182 1.10024
threshold=0.15602163973215336 0.0077482390424239668 0.0084763836862541374 0.029696444693655937 -0.03025476398350951 0.013024639099859668 0.61132256363238568 -0.017466213472270949 -0.59593774255256349
decision_type=2 2 2 2 2 2 2 2 2
left_child=1 3 8 5 -4 -1 -5 -2 -3
right_child=7 2 4 6 -6 -7 -8 -9 -10
leaf_value=0 -0.0049879585352058942 0.010493882032493294 0.02308791807654885 0.020235352427606369 -0.00080146968531455019 -0.030640152505994403 -0.0072192345651373039 -0.028247840827231082 0.033323120467603697
leaf_weight=8.8823447078466433 7.6851581633091 8.1654785573482531 11.765595912933348 8.9253110587596911 67.93450365960598 13.586881339550017 7.8773807287216178 9.9901391714811307 10.646733477711676
leaf_count=36 31 33 51 37 278 55 32 42 44
internal_value=0.000199219 0.00320761 0.0080077 -0.00827436 0.00302042 -0.020077 0.00716761 -0.020432 0.0260954
internal_weight=155.46 137.784 98.5123 39.2719 79.7001 22.4692 16.8027 17.6753 18.8122
internal_count=639 566 406 160 329 91 69 73 77
is_linear=0
shrinkage=0.03


Tree=36
num_leaves=10
num_cat=0
split_feature=15 23 36 19 9 20 9 25 21
split_gain=6.82524 11.9554 10.1576 7.42616 7.32568 6.40486 5.83362 5.43518 3.9154
threshold=-6.6877994713636992 1.0442349568042928 0.0044643454617557445 0.18413252613692249 0.11524339962002854 0.033808123075819943 0.26629197940972166 0.20464290004254895 0.020214413016368022
decision_type=2 2 2 2 2 2 2 2 2
left_child=2 3 -1 5 -5 -2 7 -3 -4
right_child=1 6 8 4 -6 -7 -8 -9 -10
leaf_value=-0.011627048516062093 -0.025215547128128204 0.0011791430899245436 0.033536189685704931 0.019304856938867892 -0.0088304774450160897 0 -0.012734490922392663 0.023440632014871197 0.0040534761729161192
leaf_weight=8.618308901786806 30.297320112586021 20.824822217226028 12.418354764580728 10.557143852114676 22.57666289806366 14.021208450198172 7.3815436065196982 20.298263281583786 8.2685699760913831
leaf_count=35 123 86 52 44 94 57 30 84 34
internal_value=0.000191231 -0.00278709 0.0128317 -0.010091 0.000295732 -0.0178578 0.00851664 0.0130927 0.0238093
internal_weight=155.262 125.957 29.3052 77.4523 33.1338 44.3185 48.5046 41.1231 20.6869
internal_count=639 518 121 318 138 180 200 170 86
is_linear=0
shrinkage=0.03


Tree=37
num_leaves=11
num_cat=0
split_feature=13 9 34 34 38 20 20 21 38 2
split_gain=6.91254 6.85935 8.1656 13.5097 6.79668 5.46016 5.23956 4.18841 2.64046 3.50561
threshold=3.1957217864144494 0.024778379428528643 0.013065909420544643 0.029955035811310208 0.0075087569692970169 0.045985667835595191 0.042352888675871482 0.019842492961580947 0.0083726253616534987 0.0073794510398894628
decision_type=2 2 2 2 2 2 2 2 2 2
left_child=1 6 5 -4 -2 -3 7 -1 -6 -10
right_child=4 2 3 -5 8 -7 -8 -9 9 -11
leaf_value=0.00840090915249583 -0.0096162912600233907 -0.028982865176841014 0.01882394228644094 -0.020485231112575178 0.031548290100088569 -0.001833676816183063 0.02461730931049334 -0.009401226106733147 -0.0037988186478521524 0.016969558387436055
leaf_weight=22.537220686674118 9.850491136312483 20.648199483752251 15.717489510774614 12.0854095518589 7.3302197754383078 11.606415569782255 7.2541787624359122 21.056953817605972 8.9314548224210757 18.069061681628227
leaf_count=93 40 84 65 50 30 49 30 86 37 75
internal_value=0.000192417 -0.00371287 -0.0104965 0.00100561 0.0100567 -0.0203289 0.00410958 0 0.016333 0.00979419
internal_weight=155.087 110.906 60.0575 27.8029 44.1812 32.2546 50.8484 43.5942 34.3307 27.0005
internal_count=639 457 248 115 182 133 209 179 142 112
is_linear=0
shrinkage=0.03


Tree=38
num_leaves=9
num_cat=0
split_feature=11 38 38 6 12 38 25 25
split_gain=9.89467 7.9073 8.77695 6.93309 5.76473 5.53918 2.42019 0.539494
threshold=0.15602163973215336 0.0077482390424239668 0.0084763836862541374 -0.014462571778411254 64.715252590246152 0.014373774980379292 0.23100956686361063 0.10761033684505712
decision_type=2 2 2 2 2 2 2 2
left_child=1 3 7 -1 -5 -4 -2 -3
right_child=6 2 5 4 -6 -7 -8 -9
leaf_value=0.013866009835172782 -0.028826459557069802 0.011204192184161273 0 -0.023096388209309295 0.002105190193615096 0.023320786268270121 -0.0036297963924570779 0.031528181392914481
leaf_weight=8.0003594905137998 9.5875058621168154 8.2853704094886798 71.067449986934662 20.476471424102787 10.74194687604904 8.3867494612932187 7.991086781024932 10.408256739377974
leaf_count=33 40 34 292 83 44 37 33 43
internal_value=0.000191307 0.00308766 0.00767818 -0.00785166 -0.0143686 0.00285441 -0.0196793 0.0251985
internal_weight=154.945 137.367 98.1478 39.2188 31.2184 79.4542 17.5786 18.6936
internal_count=639 566 406 160 127 329 73 77
is_linear=0
shrinkage=0.03


Tree=39
num_leaves=10
num_cat=0
split_feature=11 38 38 21 23 3 21 25 16
split_gain=9.46497 7.4837 8.38532 8.28308 5.92448 5.74684 4.00503 2.30602 1.23224
threshold=0.15602163973215336 0.0077482390424239668 0.0084763836862541374 0.022126342045280203 1.0242692859963929 -0.013613752393890509 0.028588166864890914 0.23100956686361063 -0.59593774255256349
decision_type=2 2 2 2 2 2 2 2 2
left_child=1 3 8 5 -4 -1 -5 -2 -3
right_child=7 2 4 6 -6 -7 -8 -9 -10
leaf_value=0.00013268625266938246 -0.028227820905236168 0.0092813122485596537 -0.0038115459192965351 0.021356150077619009 0.012303137955886844 -0.02849701913512357 -0.0052279152558479909 -0.0035438039103264083 0.031971521421530084
leaf_weight=8.3522971570491791 9.54023724794388 8.1333158165216464 46.679958269000053 7.7962081730365735 32.722867652773857 15.085925534367561 7.972787156701088 7.9880243092775336 10.504636377096174
leaf_count=34 40 33 193 32 136 61 33 33 44
internal_value=0.000197056 0.00303089 0.00750191 -0.00760672 0.00278435 -0.0184967 0.00799552 -0.0192619 0.0246557
internal_weight=154.776 137.248 98.0408 39.2072 79.4028 23.4382 15.769 17.5283 18.638
internal_count=639 566 406 160 329 95 65 73 77
is_linear=0
shrinkage=0.03


Tree=40
num_leaves=8
num_cat=0
split_feature=34 11 19 11 19 36 26
split_gain=9.84344 8.98957 7.44837 7.67938 4.63396 3.28561 1.14793
threshold=0.035715623315696228 0.14833085804244897 0.18413252613692249 0.019069780769817694 0.29028622368348383 0.006088598026508435 0.31698682344804369
decision_type=2 2 2 2 2 2 2
left_child=1 2 3 -1 -4 -3 -2
right_child=6 5 4 -5 -6 -7 -8
leaf_value=0.0049701921720094657 -0.026649467146274652 -0.031934712158424715 0.019463237475006376 -0.01504160598631908 0 -0.0034882108628634225 -0.0060091993464340306
leaf_weight=43.589202970266342 12.567226916551592 7.1198094040155437 30.011881083250046 25.373554214835167 17.740225225687027 9.322729676961897 7.256756827235221
leaf_count=179 52 31 125 103 74 38 30
internal_value=-0.00232655 0.000616043 0.00374003 -0.00239781 0.0126457 -0.0187466 -0.0210243
internal_weight=152.981 133.157 116.715 68.9628 47.7521 16.4425 19.824
internal_count=632 550 481 282 199 69 82
is_linear=0
shrinkage=0.03


Tree=41
num_leaves=8
num_cat=0
split_feature=34 11 19 11 36 36 17
split_gain=9.37055 8.59941 7.05321 7.25855 4.39748 3.16653 1.79133
threshold=0.035715623315696228 0.14833085804244897 0.18413252613692249 0.019069780769817694 0.0078267619889680947 0.006088598026508435 -0.27939760723990886
decision_type=2 2 2 2 2 2 2
left_child=1 2 3 -1 -4 -3 -2
right_child=6 5 4 -5 -6 -7 -8
leaf_value=0.0048300452078275753 -0.0042633180069126227 -0.031409623912315693 0.0060855120476804711 -0.014625278612676984 0.027846991029452716 -0.0034026658059423316 -0.02707551563039514
leaf_weight=43.56672690808773 7.255837261676791 7.0560693740844753 36.69683550298214 25.369950667023659 10.969564795494078 9.32070744037628 12.516340434551237
leaf_count=179 30 31 151 103 48 38 52
internal_value=-0.00228764 0.00058143 0.00363776 -0.00232889 0.0123152 -0.0183911 -0.0205537
internal_weight=152.752 132.98 116.603 68.9367 47.6664 16.3768 19.7722
internal_count=632 550 481 282 199 69 82
is_linear=0
shrinkage=0.03


Tree=42
num_leaves=8
num_cat=0
split_feature=34 11 19 20 11 2 17
split_gain=8.92602 8.23607 6.70416 7.96763 6.86142 2.51776 1.69261
threshold=0.035715623315696228 0.14833085804244897 0.18413252613692249 0.0359531210494635 0.019069780769817694 -0.010157946410476957 -0.27939760723990886
decision_type=2 2 2 2 2 2 2
left_child=1 2 4 -4 -1 -3 -2
right_child=6 5 3 -5 -6 -7 -8
leaf_value=0.004693838420913251 -0.0041650885144607604 -0.0013822191978927123 0.027035756186636995 0.0016836893699721713 -0.014221815590985523 -0.027119502152023606 -0.026459493027983859
leaf_weight=43.544408664107323 7.2513862699270275 7.1456533074378994 17.486128777265549 30.074617698788643 25.363814771175385 9.1638247370719892 12.470762625336645
leaf_count=179 30 30 73 126 103 39 52
internal_value=-0.00224193 0.000556782 0.00354895 0.0120221 -0.00226187 -0.0180452 -0.0200911
internal_weight=152.501 132.778 116.469 47.5607 68.9082 16.3095 19.7221
internal_count=632 550 481 199 282 69 82
is_linear=0
shrinkage=0.03


Tree=43
num_leaves=8
num_cat=0
split_feature=34 11 9 21 32 36 26
split_gain=8.50508 7.86729 5.02695 7.36614 6.98381 3.11946 1.23303
threshold=0.035715623315696228 0.14833085804244897 0.14483091704253798 0.046880549836719472 0.0063190910739190373 0.006088598026508435 0.31698682344804369
decision_type=2 2 2 2 2 2 2
left_child=1 2 4 -4 -1 -3 -2
right_child=6 5 3 -5 -6 -7 -8
leaf_value=0.0058192679585130852 -0.025299505518160077 -0.030650549021001408 0.02527739625738127 -0.0075966599613701852 -0.011370764512379642 -0.0029382360384745993 -0.0048817568278715553
leaf_weight=62.756599292159081 12.452529668807985 6.9542212188243893 16.853148981928829 7.0845136642456046 29.653065770864487 9.3044022619724256 7.2167838215827933
leaf_count=259 52 31 70 30 122 38 30
internal_value=-0.00219633 0.000533381 0.00345984 0.0151342 2.02993e-05 -0.017672 -0.0196423
internal_weight=152.275 132.606 116.347 23.9377 92.4097 16.2586 19.6693
internal_count=632 550 481 100 381 69 82
is_linear=0
shrinkage=0.03


Tree=44
num_leaves=7
num_cat=0
split_feature=34 9 19 36 9 17
split_gain=8.09755 4.81533 6.1314 6.77395 5.3869 1.67225
threshold=0.035715623315696228 0.28004351162821667 0.18413252613692249 0.0062550648346461181 0.024778379428528643 -0.27939760723990886
decision_type=2 2 2 2 2 2
left_child=1 2 4 -4 -1 -2
right_child=5 -3 3 -5 -6 -7
leaf_value=0.0031154995097206748 -0.0035961748578877671 -0.020295394526405858 -0.00067047798453153892 0.019905233501817818 -0.012922192496737964 -0.025507081854016501
leaf_weight=43.130356937646866 7.2246003597974804 7.220406085252761 26.053281798958778 26.586505547165871 29.471151918172836 12.387167811393736
leaf_count=177 30 30 109 113 121 52
internal_value=-0.00216222 0.000498339 0.00211519 0.00979528 -0.00336552 -0.0192093
internal_weight=152.073 132.462 125.241 52.6398 72.6015 19.6118
internal_count=632 550 520 222 298 82
is_linear=0
shrinkage=0.03


Tree=45
num_leaves=8
num_cat=0
split_feature=11 19 21 9 35 15 2
split_gain=4.68414 7.84894 6.5037 6.3231 6.86868 5.95229 3.99282
threshold=-0.04798584256639931 0.13622889206648717 0.012799559055481325 0.27586839990600392 0.003583998788920129 -11.331602951751183 0.014953533424208023
decision_type=2 2 2 2 2 2 2
left_child=5 2 -2 4 -3 -1 -4
right_child=1 3 6 -5 -6 -7 -8
leaf_value=-0.0030063786246352078 0.011840055066861416 0.019024153689169983 -0.021980640190991583 -0.016212864805786372 0.001141178651590717 0.027863305578559816 0
leaf_weight=7.72546158730984 7.3383406847715369 29.504365891218185 24.354253560304642 8.9209983050823194 55.928665429353714 11.358034968376158 9.0199538469314557
leaf_count=32 30 126 100 37 232 48 37
internal_value=0.00239078 0.0002215 -0.0103724 0.00506871 0.00778254 0.0155553 -0.0160738
internal_weight=154.15 135.067 40.7125 94.354 85.433 19.0835 33.3742
internal_count=642 562 167 395 358 80 137
is_linear=0
shrinkage=0.03


Tree=46
num_leaves=7
num_cat=0
split_feature=34 20 21 34 34 17
split_gain=7.94713 5.02152 8.58951 6.72344 8.99147 4.12785
threshold=-0.04309693831980526 0.045985667835595191 0.046880549836719472 0.041110437125884254 0.011641043650135631 0.12326253621318763
decision_type=2 2 2 2 2 2
left_child=-1 3 5 4 -2 -3
right_child=1 2 -4 -5 -6 -7
leaf_value=0.025128440815045096 -0.0074084403573256687 0.029771786940138781 -0.010252276707900753 -0.023079073774010844 0.010343813827055154 4.429718996950392e-05
leaf_weight=10.659601762890814 60.01138037443161 13.726433917880064 9.7189794182777387 10.863043457269667 41.823076158761978 7.1484468877315512
leaf_count=47 247 57 41 46 174 30
internal_value=0.00233152 0.000209827 0.0106911 -0.00264153 0 0.0211415
internal_weight=153.951 143.291 30.5939 112.697 101.834 20.8749
internal_count=642 595 128 467 421 87
is_linear=0
shrinkage=0.03


Tree=47
num_leaves=7
num_cat=0
split_feature=23 36 11 21 15 21
split_gain=5.18611 5.00514 8.39778 6.16208 4.02806 2.00231
threshold=1.3446071981921239 0.0043209750435972902 -0.04798584256639931 0.022368497417003721 13.09635942713629 0.020040166513044102
decision_type=2 2 2 2 2 2
left_child=1 -1 5 -4 -2 -3
right_child=4 2 3 -5 -6 -7
leaf_value=-0.015402779417733882 0.029995780574649869 0.030990315674814452 -0.009696091076245179 0.0047271069201022869 0 0.005590240503935329
leaf_weight=14.115340560674666 8.1037275493144971 8.0971857011318189 40.945165768265724 67.620038002729416 7.1875671595334998 7.7274489700794211
leaf_count=58 34 35 169 284 30 32
internal_value=0.00227343 0.00022614 0.00233401 -0.000653903 0.0177788 0.0214475
internal_weight=153.796 138.505 124.39 108.565 15.2913 15.8246
internal_count=642 578 520 453 64 67
is_linear=0
shrinkage=0.03


Tree=48
num_leaves=7
num_cat=0
split_feature=34 11 20 36 21 38
split_gain=7.63129 5.19133 7.49821 9.35649 8.19315 4.72011
threshold=-0.04309693831980526 -0.04798584256639931 0.045985667835595191 0.0050549896365396094 0.046880549836719472 0.011677255677062086
decision_type=2 2 2 2 2 2
left_child=-1 5 3 -3 -4 -2
right_child=1 2 4 -5 -6 -7
leaf_value=0.024638804726405245 0.025080089457039247 0.0055314249815072002 0.020517974652475093 -0.013479451813246092 -0.010131677753790966 -0.0027418769979053485
leaf_weight=10.582152754068373 11.25819478929043 34.860528379678726 20.84676651656628 59.13917376101017 9.7178481668233854 7.2533472180366507
leaf_count=47 48 144 87 245 41 30
internal_value=0.00222906 0.000151381 -0.00201623 -0.00630451 0.0102887 0.014243
internal_weight=153.658 143.076 124.564 93.9997 30.5646 18.5115
internal_count=642 595 517 389 128 78
is_linear=0
shrinkage=0.03


Tree=49
num_leaves=7
num_cat=0
split_feature=34 15 15 38 36 32
split_gain=7.292 4.95474 9.89437 5.91183 5.73052 1.17592
threshold=-0.04309693831980526 -5.6961603531635108 -2.0983215276654037 0.0083952149930773181 0.0046947725878894427 0.0042961529003874297
decision_type=2 2 2 2 2 2
left_child=-1 4 -3 -4 -2 -6
right_child=1 2 3 -5 5 -7
leaf_value=0.024158336045650708 -0.0061147433523182793 -0.027415904234783583 0.0086812792391526943 -0.0055416843793293534 0.025767391680514271 0.0053469869939832999
leaf_weight=10.509714707732199 9.5300060808658618 10.854367211461065 43.585449025034904 59.831959947943687 11.87271884083748 7.3006831258535376
leaf_count=47 39 45 180 250 50 31
internal_value=0.00218399 0.000154261 -0.00257438 0.000361295 0.0109659 0.0199398
internal_weight=153.485 142.975 114.272 103.417 28.7034 19.1734
internal_count=642 595 475 430 120 81
is_linear=0
shrinkage=0.03


end of trees

feature_importances:
macro_usdjpy_ret_20=42
ma_20_60_cross=37
macro_usdjpy_vol_20=34
atr_pct=24
volatility=22
vol_ratio=22
macro_topix_vol_20=22
bb_bandwidth=19
macd_signal=16
macro_usdjpy_ret_60=14
div_ma_60=12
rsi=11
macd=11
macro_nikkei_ret_20=11
gap=10
return_3d=9
macd_hist_change=9
macd_hist=8
return_20d=6
div_ma_5=5
macro_topix_ret_20=5
return_1d=4
rsi_change=4
upper_shadow_pct=4
lower_shadow_pct=4
return_5d=3
div_ma_10=3
bb_pct_b=3
month=3
return_10d=2
return_2d=1
div_ma_20=1
vol_change=1
candle_body_pct=1
day_of_week=1
streak=1
price_position_20d=1

parameters:
[boosting: gbdt]
[objective: binary]
[metric: binary_logloss]
[tree_learner: serial]
[device_type: cpu]
[data_sample_strategy: bagging]
[data: ]
[valid: ]
[num_iterations: 50]
[learning_rate: 0.03]
[num_leaves: 15]
[num_threads: 0]
[seed: 42]
[deterministic: 0]
[force_col_wise: 0]
[force_row_wise: 0]
[histogram_pool_size: -1]
[max_depth: 4]
[min_data_in_leaf: 30]
[min_sum_hessian_in_leaf: 0.001]
[bagging_fraction: 0.7]
[pos_bagging_fraction: 1]
[neg_bagging_fraction: 1]
[bagging_freq: 5]
[bagging_seed: 400]
[bagging_by_query: 0]
[feature_fraction: 0.6]
[feature_fraction_bynode: 1]
[feature_fraction_seed: 30056]
[extra_trees: 0]
[extra_seed: 12879]
[early_stopping_round: 0]
[early_stopping_min_delta: 0]
[first_metric_only: 0]
[max_delta_step: 0]
[lambda_l1: 0.5]
[lambda_l2: 2]
[linear_lambda: 0]
[min_gain_to_split: 0]
[drop_rate: 0.1]
[max_drop: 50]
[skip_drop: 0.5]
[xgboost_dart_mode: 0]
[uniform_drop: 0]
[drop_seed: 17869]
[top_rate: 0.2]
[other_rate: 0.1]
[min_data_per_group: 100]
[max_cat_threshold: 32]
[cat_l2: 10]
[cat_smooth: 10]
[max_cat_to_onehot: 4]
[top_k: 20]
[monotone_constraints: ]
[monotone_constraints_method: basic]
[monotone_penalty: 0]
[feature_contri: ]
[forcedsplits_filename: ]
[refit_decay_rate: 0.9]
[cegb_tradeoff: 1]
[cegb_penalty_split: 0]
[cegb_penalty_feature_lazy: ]
[cegb_penalty_feature_coupled: ]
[path_smooth: 0]
[interaction_constraints: ]
[verbosity: -1]
[saved_feature_importance_type: 0]
[use_quantized_grad: 0]
[num_grad_quant_bins: 4]
[quant_train_renew_leaf: 0]
[stochastic_rounding: 1]
[linear_tree: 0]
[max_bin: 255]
[max_bin_by_feature: ]
[min_data_in_bin: 5]
[bin_construct_sample_cnt: 200000]
[data_random_seed: 175]
[is_enable_sparse: 1]
[enable_bundle: 1]
[use_missing: 1]
[zero_as_missing: 0]
[feature_pre_filter: 1]
[pre_partition: 0]
[two_round: 0]
[header: 0]
[label_column: ]
[weight_column: ]
[group_column: ]
[ignore_column: ]
[categorical_feature: ]
[forcedbins_filename: ]
[precise_float_parser: 0]
[parser_config_file: ]
[objective_seed: 16083]
[num_class: 1]
[is_unbalance: 0]
[scale_pos_weight: 1]
[sigmoid: 1]
[boost_from_average: 1]
[reg_sqrt: 0]
[alpha: 0.9]
[fair_c: 1]
[poisson_max_delta_step: 0.7]
[tweedie_variance_power: 1.5]
[lambdarank_truncation_level: 30]
[lambdarank_norm: 1]
[label_gain: ]
[lambdarank_position_bias_regularization: 0]
[eval_at: ]
[multi_error_top_k: 1]
[auc_mu_weights: ]
[num_machines: 1]
[local_listen_port: 12400]
[time_out: 120]
[machine_list_filename: ]
[machines: ]
[gpu_platform_id: -1]
[gpu_device_id: -1]
[gpu_use_dp: 0]
[num_gpu: 1]

end of parameters

pandas_categorical:[]
