tree
version=v4
num_class=1
num_tree_per_iteration=1
label_index=0
max_feature_idx=44
objective=binary sigmoid:1
feature_names=return_1d return_2d return_3d return_5d return_10d return_20d div_ma_5 div_ma_10 div_ma_20 div_ma_60 ma_5_20_cross ma_20_60_cross rsi rsi_change macd macd_signal macd_hist macd_hist_change bb_pct_b bb_bandwidth atr_pct volatility vol_change vol_ratio candle_body_pct upper_shadow_pct lower_shadow_pct day_of_week month is_month_end is_month_start streak gap price_position_20d macro_usdjpy_ret_20 macro_usdjpy_ret_60 macro_usdjpy_vol_20 macro_topix_ret_20 macro_topix_vol_20 macro_topix_above_200dma macro_nikkei_ret_20 macro_nikkei_above_200dma macro_nikkei_vi macro_jgb10y macro_bias_score
feature_infos=[-0.047573324675198925:0.047032439022514749] [-0.052871223227637376:0.050100198868800794] [-0.078625938667899131:0.060579091775125216] [-0.079144063347538429:0.070190430904915058] [-0.10699996948242185:0.11742775503970204] [-0.1182423924334487:0.15884581472014592] [-0.046754045093518014:0.03136102171888943] [-0.065679653588011352:0.057611183675024734] [-0.095283898731975444:0.091383476178522549] [-0.086355409043981882:0.12109266072274501] [-0.058392300957105903:0.065549920908115844] [-0.042748625708304955:0.064274238635985359] [4.3321721234716364:99.078285278722376] [-31.4914123830169:24.909606094271432] [-4.0148556247349632:6.6759841301698373] [-3.5218467914220124:5.4278448928573138] [-2.4130647582626752:2.3328558279840159] [-0.79483865050966607:0.60413765747863146] [-0.29899250290519275:1.2942002598775366] [0.015966985924506762:0.20663538136815932] [0.0062028219888735359:0.03098835320355546] [0.0037467866522835347:0.018685482479757546] [-0.82513331758797714:3.6311208267090622] [0.55432004082819386:1.8220195466454623] [-1:1] [0:0.9499969482421875] [0:0.97058638734056779] [0:4] [1:12] none [0:1] [-11:9] [-0.063431099566931937:0.055611174876266878] [0:1] [-0.10288784967882303:0.08505611680078462] [-0.13986255140503889:0.13160084488587853] [0.0024251968629527628:0.011841457708833433] [-0.22586490939044479:0.19897850606512013] [0.0040695656522785678:0.036437277456277402] [0:1] [-0.22859537662338159:0.23022297972565586] [0:1] none none none
tree_sizes=1390 1271 1529 1398 1250 1307 1100 1101 1523 991 1101 1194 1299 1201 1401 1085 1190 1083 1087 1415 1208 1296 1298 1097 955 1097 1386 1291 1192 789 1209 1101 1094 1183 1073 898 975 892 1183 766 1320 1104 1501 1174 1205 899 1193 897 1618 1711

Tree=0
num_leaves=12
num_cat=0
split_feature=37 18 7 14 35 36 1 0 2 28 9
split_gain=14.6241 10.503 8.4542 8.05467 13.5106 7.87804 3.92287 3.86444 3.53906 3.48148 1.36765
threshold=0.0083438914525212366 0.49472696618479534 0.018431678846153019 -0.20642233010765662 0.027430432568370081 0.0043757886670886008 -1.0000000180025095e-35 0.0074474525193231065 -0.0084216210948395136 8.5000000000000018 -0.016549808412914025
decision_type=2 2 2 2 2 2 2 2 2 2 2
left_child=3 5 7 10 6 -2 -5 -3 -7 -6 -1
right_child=1 2 -4 4 9 8 -8 -9 -10 -11 -12
leaf_value=-0.10307301729418869 -0.1317856415822059 -0.13797587617354262 -0.10900986256203533 -0.11267451595855286 -0.084728989018136969 -0.088171191801467708 -0.13723786322808232 -0.11390856354882492 -0.11084075638856343 -0.11278973205427333 -0.080353249500641516
leaf_weight=9.2200598716735858 7.475724220275878 38.624575138092041 13.70549440383911 7.9741058349609402 11.711967945098879 10.466013908386232 11.711967945098875 7.475724220275878 17.194165706634521 7.475724220275878 11.711967945098875
leaf_count=37 30 155 55 32 47 42 47 30 69 30 47
internal_value=-0.11359 -0.120767 -0.128312 -0.1021 -0.111018 -0.108245 -0.1274 -0.134327 -0.1006 -0.0938162 -0.0878888
internal_weight=154.747 94.9417 59.8058 59.8058 38.8738 35.1359 19.6861 46.1003 27.6602 19.1877 20.932
internal_count=621 381 240 240 156 141 79 185 111 77 84
is_linear=0
shrinkage=1


Tree=1
num_leaves=11
num_cat=0
split_feature=20 8 5 38 38 20 12 28 40 5
split_gain=12.7536 19.1844 17.5186 13.542 10.9663 8.00914 5.08419 5.44064 5.06209 1.41044
threshold=0.01407107197369249 -7.6473923117266585e-05 0.030211209206471471 0.007939838977807331 0.014373774980379292 0.01143366485173237 37.404696122611483 3.5000000000000004 -0.015726833911407109 -0.014413369035024491
decision_type=2 2 2 2 2 2 2 2 2 2
left_child=1 8 3 -3 6 -4 -2 -8 -1 -10
right_child=4 2 5 -5 -6 -7 7 -9 9 -11
leaf_value=0 0 -0.037982089840955677 0.029642807377042155 -0.002585427175783815 0.016876650327265302 -0.003857476726449463 -0.00016153192256090996 -0.031072039074001648 0.035389387743346018 0.016022046871768131
leaf_weight=8.7272670716047269 8.7225439101457578 13.190779417753218 13.706479087471964 30.887756809592247 7.4762241691350928 8.9663386195898038 7.7206627577543285 22.919432684779167 14.961144596338267 17.447935104370121
leaf_count=35 35 53 55 124 30 36 31 92 60 70
internal_value=0.000336469 0.00609317 -0.00369047 -0.0146924 -0.0123228 0.0165478 -0.0187792 -0.0242299 0.0217517 0.0269359
internal_weight=154.727 107.888 66.7514 44.0785 46.8389 22.6728 39.3626 30.6401 41.1363 32.4091
internal_count=621 433 268 177 188 91 158 123 165 130
is_linear=0
shrinkage=0.03


Tree=2
num_leaves=13
num_cat=0
split_feature=37 20 8 8 14 35 33 33 2 24 37 32
split_gain=13.6667 10.9296 14.5095 7.61338 7.421 12.6887 7.27985 4.13116 5.4299 3.49991 3.30802 2.12792
threshold=0.0083438914525212366 0.01407107197369249 -7.6473923117266585e-05 0.015442393156398582 -0.20642233010765662 0.027430432568370081 0.25722639292816069 0.25331107453962137 0.0097335441065368195 -0.30000915527343747 -0.0043938986928843118 -0.0019910728651076899
decision_type=2 2 2 2 2 2 2 2 2 2 2 2
left_child=4 2 6 -4 11 9 -2 -3 -9 -6 -7 -1
right_child=1 7 3 -5 5 10 -8 8 -10 -11 -12 -13
leaf_value=0.0067974204728829301 -0.0028400611984314757 -0.00015838488735277665 -0.018916943200873559 0.0054910370277191983 0.0014347133404015435 0.02835932208691945 0.030503725119676233 -0.039035672363532885 -0.0053193126512161267 -0.021903460221276268 0.00099411865125757434 0.032064474772118365
leaf_weight=7.4852556735277203 7.4870528131723431 7.7201420366764095 27.35219968855381 16.444081112742424 7.4684905409812954 11.728177770972254 14.47186642885208 12.677507147192957 8.7145303040742856 12.192710652947424 7.4760064929723731 13.478205502033232
leaf_count=30 30 31 110 66 30 47 58 51 35 49 30 54
internal_value=0.000333677 -0.00660643 9.64164e-05 -0.00958542 0.0114386 0.00284978 0.0192208 -0.0212611 -0.0275709 -0.0130318 0.0195123 0.0250736
internal_weight=154.696 94.8674 65.7552 43.7963 59.8288 38.8654 21.9589 29.1122 21.392 19.6612 19.2042 20.9635
internal_count=621 381 264 176 240 156 88 117 86 79 77 84
is_linear=0
shrinkage=0.03


Tree=3
num_leaves=12
num_cat=0
split_feature=20 8 5 38 19 20 14 2 2 4 20
split_gain=11.4856 17.3637 16.2592 12.7069 10.2867 9.45361 7.5952 5.19551 3.73557 3.42533 0.55039
threshold=0.01407107197369249 -7.6473923117266585e-05 0.030211209206471471 0.007939838977807331 0.092828587835569756 0.017548710494298281 2.2866732337522113 -0.015065964920490891 -0.010319234723577929 -0.018317295745792824 0.015346403545572576
decision_type=2 2 2 2 2 2 2 2 2 2 2
left_child=1 7 3 -3 8 -6 -4 -1 -2 -9 -10
right_child=4 2 6 -5 5 -7 -8 9 10 -11 -12
leaf_value=0 -0.0037721476921255752 -0.036750272245072629 0.028201902145424753 -0.0024091230734765014 -0.013809869788184929 0.023207107174738752 -0.0046195050026058742 0.043757938370840417 -0.013910125866916338 0.017039474834389175 -0.037932513930743469
leaf_weight=7.9834545701742163 8.4551402628421801 13.134968742728232 14.217221498489382 30.866739958524704 10.942413628101351 9.7152426540851575 8.4740867614746076 7.4947127252817145 7.456030040979388 25.715434685349464 10.184584379196165
leaf_count=32 34 53 57 124 44 39 34 30 30 103 41
internal_value=0.000330082 0.00579438 -0.00351452 -0.0141385 -0.0116919 0.00344889 0.0159559 0.0206778 -0.0236037 0.0256382 -0.0309933
internal_weight=154.64 107.887 66.693 44.0017 46.7534 20.6577 22.6913 41.1936 26.0958 33.2101 17.6406
internal_count=621 433 268 177 188 83 91 165 105 133 71
is_linear=0
shrinkage=0.03


Tree=4
num_leaves=11
num_cat=0
split_feature=20 8 5 38 38 20 33 28 40 19
split_gain=10.9333 16.486 15.4142 12.1063 9.88505 7.49011 6.01508 7.23653 4.75038 4.71755
threshold=0.01407107197369249 -7.6473923117266585e-05 0.030211209206471471 0.007939838977807331 0.014373774980379292 0.01143366485173237 0.25331107453962137 3.5000000000000004 -0.015726833911407109 0.038784523129005689
decision_type=2 2 2 2 2 2 2 2 2 2
left_child=1 8 3 -3 6 -4 -2 -8 -1 -10
right_child=4 2 5 -5 -6 -7 7 -9 9 -11
leaf_value=0 0 -0.035911679510193188 0.028181260073036167 -0.0023415842461261432 0.016217233644528595 -0.0041280867001711975 0 -0.033830906410521486 0.010008299433790276 0.035984000049421871
leaf_weight=8.7364564538001996 12.198227882385252 13.085874199867247 13.733729079365732 30.862068399786949 7.4822594225406638 8.9701863974332792 7.4568420052528408 19.572052970528603 15.73231680691242 16.741825744509697
leaf_count=35 49 53 55 124 30 36 30 79 63 67
internal_value=0.00030618 0.00563941 -0.00343178 -0.0137919 -0.0114274 0.0155081 -0.0175951 -0.0250234 0.0201376 0.0251457
internal_weight=154.572 107.862 66.6519 43.9479 46.7094 22.7039 39.2271 27.0289 41.2106 32.4741
internal_count=621 433 268 177 188 91 158 109 165 130
is_linear=0
shrinkage=0.03


Tree=5
num_leaves=11
num_cat=0
split_feature=37 23 37 20 4 8 19 19 12 23
split_gain=13.4558 9.5536 10.5718 8.80841 8.52319 10.3353 9.53225 6.72971 3.84924 2.12668
threshold=0.0083438914525212366 1.0189733029962209 -0.023556425138535061 0.009253886120716601 -0.0023000521045532514 0.029021875376177557 0.071894008621595812 0.049816951487757798 60.234386709513622 0.89664745761941622
decision_type=2 2 2 2 2 2 2 2 2 2
left_child=1 8 -3 -2 6 -6 -5 -4 9 -1
right_child=3 2 7 4 5 -7 -8 -9 -10 -11
leaf_value=0.015832934153047571 0.014865510063906455 0.021591011068935614 0.00078402390198282481 0.013805605780076719 -0.025416277266707751 0.0034794476235760212 -0.018911496491924844 -0.032350770730963208 0.0030607494957254331 0.040071000357551477
leaf_weight=17.20056435465813 12.421852901577948 8.7222145050764102 9.9726670682430285 20.20815043151379 37.720027074217796 13.678423613309858 10.426820084452627 8.2124090194702131 10.687746480107306 8.478238105773924
leaf_count=69 50 35 40 81 152 55 42 33 43 34
internal_value=0.000402007 0.0110032 -0.00205792 -0.00662491 -0.0103339 -0.0176032 0.00173394 -0.0151593 0.0206615 0.0266946
internal_weight=157.729 63.2738 26.9073 94.4553 82.0334 51.3985 30.635 18.1851 36.3665 25.6788
internal_count=634 254 108 380 330 207 123 73 146 103
is_linear=0
shrinkage=0.03


Tree=6
num_leaves=9
num_cat=0
split_feature=37 20 34 6 9 3 24 21
split_gain=12.7595 8.34872 8.05522 7.94688 7.37719 7.00238 5.85596 2.28035
threshold=0.0083438914525212366 0.009253886120716601 0.025744540301089084 -0.0093558893594543977 0.025176938058971966 0.030988166305034429 0.35462644749604871 0.0083286936935203244
decision_type=2 2 2 2 2 2 2 2
left_child=3 -2 5 -1 6 -3 -5 -4
right_child=1 2 7 4 -6 -7 -8 -9
leaf_value=-0.01138201570017594 0.014469736384452829 -0.008723523481280325 -0.0085242409586286389 0.028633120005164225 -0.0022189332521695667 0.017483066933648088 0.0012782785783534815 -0.036682794024739639
leaf_weight=9.9668062180280668 12.43328909575939 56.120276033878326 7.4598536789417293 28.418269470334053 13.942107230424879 8.7006713002920133 10.951913282275198 9.6670843660831434
leaf_count=40 50 226 30 114 56 35 44 39
internal_value=0.000414873 -0.00642975 -0.0100485 0.0107377 0.0154062 -0.00456343 0.0218159 -0.027376
internal_weight=157.66 94.3812 81.9479 63.2791 53.3123 64.8209 39.3702 17.1269
internal_count=634 380 330 254 214 261 158 69
is_linear=0
shrinkage=0.03


Tree=7
num_leaves=9
num_cat=0
split_feature=37 20 33 5 36 34 16 33
split_gain=12.1677 9.18542 10.6201 15.4878 7.54755 6.60005 2.97971 0.157101
threshold=-0.023556425138535061 0.015668522909115353 0.44347976717737186 0.029262192280547387 0.005796328881898659 -0.0017128926264934339 -0.24896645053571123 0.35170761360834951
decision_type=2 2 2 2 2 2 2 2
left_child=6 2 4 -4 -2 -3 -1 -7
right_child=1 5 3 -5 -6 7 -8 -9
leaf_value=0.0037664138237189794 -0.0017691782263943613 0.0021765584159187624 -0.017054776708103337 0.010190177674944133 0.023641455656974383 -0.014050763481079403 0.028657131596632093 -0.036158661321456079
leaf_weight=9.2346829175949114 16.211716860532761 7.4441448003053692 43.904399931430817 29.364455342292786 22.4471645206213 7.6745829880237606 12.960903912782667 8.3754867464303953
leaf_count=37 65 30 177 118 90 31 52 34
internal_value=0.000394535 -0.00296951 0.00059219 -0.00595572 0.0130536 -0.0192414 0.0200884 -0.0291466
internal_weight=157.618 135.422 111.928 73.2689 38.6589 23.4942 22.1956 16.0501
internal_count=634 545 450 295 155 95 89 65
is_linear=0
shrinkage=0.03


Tree=8
num_leaves=13
num_cat=0
split_feature=37 23 37 26 26 11 14 38 32 11 27 5
split_gain=11.5665 8.84602 9.83051 7.62376 10.8752 6.58248 9.5438 6.46141 5.87585 3.82556 3.27087 2.27187
threshold=0.0083438914525212366 1.0189733029962209 -0.023556425138535061 0.2105253647525864 0.044464065495181261 0.023325559605792304 0.12472736394607865 0.0078995955767183126 -0.0009017024474142209 0.019534745175754601 1.5000000000000002 0.0089002528322400538
decision_type=2 2 2 2 2 2 2 2 2 2 2 2
left_child=1 7 -3 4 10 6 -5 -1 -4 -9 -2 -6
right_child=3 2 8 5 11 -7 -8 9 -10 -11 -12 -13
leaf_value=-0.0027415881733858158 -0.0078984637431133015 0.020449380224913251 0.002399359084258076 -0.0070326124133939403 -0.010084639722162888 -0.017807267337750336 0.020599040178650028 0.032546396862574427 -0.028557493482605455 0.0049925424028823013 0.016354545316313758 -0.032636121805624779
leaf_weight=7.6861266940832129 7.4475130587816221 8.7325684130191821 8.212929233908655 19.369213342666626 11.16384766995907 9.9309535026550275 21.109609588980675 20.220530807971958 9.9498500525951368 8.4793111979961378 7.9517560750246048 17.284137457609177
leaf_count=31 30 35 33 78 45 40 85 81 40 34 32 70
internal_value=0.000382369 0.0102125 -0.00232836 -0.00613648 -0.0150277 0.00158934 0.00731551 0.0195113 -0.0149659 0.0257499 0.00420337 -0.0255226
internal_weight=157.538 63.2813 26.8953 94.257 43.8473 50.4098 40.4788 36.386 18.1628 28.6998 15.3993 28.448
internal_count=634 254 108 380 177 203 163 146 73 115 62 115
is_linear=0
shrinkage=0.03


Tree=9
num_leaves=8
num_cat=0
split_feature=21 20 33 15 4 21 33
split_gain=10.2766 16.4518 12.2787 12.23 7.52076 5.67084 5.35309
threshold=0.015382159349533901 0.01407107197369249 0.47722782911311273 0.032586068218666914 0.036975958714773334 0.0069252398621971129 0.24427851941885864
decision_type=2 2 2 2 2 2 2
left_child=1 2 5 -4 6 -1 -3
right_child=-2 4 3 -5 -6 -7 -8
leaf_value=0.031509177260125962 0.029523629230318656 -0.0062564685994940718 -0.020613068687107126 0.0054405021617810832 0.00602580793924966 0.0072070889291842187 -0.033564672004859006
leaf_weight=14.227586537599562 8.2351527512073499 13.165628850460051 22.30166207253933 45.722616702318192 7.9176630079746237 26.942427948117256 18.945080116391182
leaf_count=57 33 53 90 184 32 108 77
internal_value=0.000361566 -0.00151779 0.00443918 -0.00323169 -0.0175628 0.0170236 -0.0238312
internal_weight=157.458 149.223 109.194 68.0243 40.0284 41.17 32.1107
internal_count=634 601 439 274 162 165 130
is_linear=0
shrinkage=0.03


Tree=10
num_leaves=9
num_cat=0
split_feature=21 35 18 21 20 20 19 19
split_gain=6.4269 15.0089 14.4887 8.71043 8.75091 6.25335 4.99203 4.98644
threshold=0.0067698047604022879 0.02950493322693826 0.5215063957002094 0.015070088306994552 0.014834881369238908 0.010617913578422117 0.092828587835569756 0.030807979116214485
decision_type=2 2 2 2 2 2 2 2
left_child=1 2 -1 4 5 -2 -6 -3
right_child=3 7 -4 -5 6 -7 -8 -9
leaf_value=0.015752893739707056 -0.018107745148483425 0.0034536966330750117 -0.030686941786838593 0.021620778259129125 -0.030575216454650219 0.0023863920974445782 -0.0041841244281528031 0.036477755861122015
leaf_weight=9.2346877306699771 14.926122486591337 7.957674756646159 10.861283197998999 7.7288627326488486 17.684847474098209 59.606495842337608 12.854968369007109 12.220851883292196
leaf_count=37 60 32 44 31 72 240 52 49
internal_value=-0.00159737 0.00828965 -0.00917337 -0.00534101 -0.00783115 -0.00188778 -0.0208675 0.0256165
internal_weight=153.076 40.2745 20.096 112.801 105.072 74.5326 30.5398 20.1785
internal_count=617 162 81 455 424 300 124 81
is_linear=0
shrinkage=0.03


Tree=11
num_leaves=10
num_cat=0
split_feature=26 35 11 15 12 36 5 7 12
split_gain=9.46308 5.47655 7.52181 9.70891 4.76516 10.1858 9.279 5.35801 3.22997
threshold=0.28571228382499658 0.001149359990594623 0.018179145810030776 0.27422569194774565 66.471356011569213 0.0064025124615287952 0.013029510663080003 -0.017397464806715748 52.838688600552942
decision_type=2 2 2 2 2 2 2 2 2
left_child=4 8 3 -3 6 -6 7 -1 -2
right_child=1 2 -4 -5 5 -7 -8 -9 -10
leaf_value=-0.023633773287671172 0.029742691166419151 -0.0024104528769291578 -0.019724492685982063 0.031724589312128341 0.02161120700030603 -0.017217650949033301 -0.028962363613353203 0.00033699692722876534 0.0052954035695986449
leaf_weight=8.2035419195890409 9.9544234573841113 23.327768668532375 10.423270747065542 8.4596859067678434 11.431040212512018 8.9147316813468915 18.433005392551422 40.651937484741211 13.158117637038229
leaf_count=33 40 94 42 34 46 36 75 164 53
internal_value=-0.00154667 0.00685588 0 0.0075702 -0.00799056 0.00390834 -0.0118138 -0.00416424 0.0179522
internal_weight=152.958 65.3233 42.2107 31.7875 87.6343 20.3458 67.2885 48.8555 23.1125
internal_count=617 263 170 128 354 82 272 197 93
is_linear=0
shrinkage=0.03


Tree=12
num_leaves=11
num_cat=0
split_feature=40 21 17 19 28 12 18 27 28 9
split_gain=12.423 9.48261 10.6362 9.04929 8.60729 6.3387 12.6332 5.38816 2.92024 2.7795
threshold=0.035073714590360357 0.0072962037176987861 0.23739648777238412 0.053716411014372252 8.5000000000000018 66.190672954543686 0.40125718524802217 2.5000000000000004 3.5000000000000004 -0.0033578591463233856
decision_type=2 2 2 2 2 2 2 2 2 2
left_child=1 4 3 -3 8 6 7 -2 -1 -8
right_child=5 2 -4 -5 -6 -7 9 -9 -10 -11
leaf_value=0.0087159236232768611 -0.012587515016285824 0.0072664017079934395 0.026894667569087961 -0.015627490456706725 -0.0034822900875157428 0.0044267587043859925 -0.010289621398296771 0.018253816499453856 0.037762865426370411 -0.036979005387034893
leaf_weight=7.941884294152266 8.1857684403657931 24.109489172697067 8.1975213736295682 35.137766152620316 9.4285870343446714 12.912790238857268 8.8919713050127047 7.9556013345718375 12.20142415165901 17.916093081235886
leaf_count=32 33 97 33 142 38 52 36 32 49 73
internal_value=-0.00149969 0.00486537 -0.001244 -0.0061333 0.0184703 -0.0125993 -0.0180211 0.002123 0.0288096 -0.029976
internal_weight=152.879 97.0167 67.4448 59.2473 29.5719 55.8622 42.9494 16.1414 20.1433 26.8081
internal_count=617 391 272 239 119 226 174 65 81 109
is_linear=0
shrinkage=0.03


Tree=13
num_leaves=10
num_cat=0
split_feature=40 28 7 9 5 7 0 38 23
split_gain=11.838 8.85732 12.539 8.56392 7.6556 6.89649 6.42304 4.82241 3.00429
threshold=0.024671143710632618 8.5000000000000018 -0.010616448771968979 0.024807449480457888 0.0098850114027317932 -0.0073160206286464347 0.0078438981884819698 0.010285489362410647 1.2202130843913082
decision_type=2 2 2 2 2 2 2 2 2
left_child=1 2 -1 -4 7 -2 8 -3 -7
right_child=5 4 3 -5 -6 6 -8 -9 -10
leaf_value=-0.012936447993555757 0.0068088866075657279 0.018493502838443192 0.033121493356647172 0.003575428943365037 -0.022609429051006213 -0.02463246083795791 0.0015880155025943022 -0.0068131378087400215 -0.0010477540571358225
leaf_weight=10.183013662695883 13.906603276729582 10.414816096425058 22.374893173575401 16.631991311907768 12.293006822466849 34.005437105894089 13.34557758271694 12.194348677992819 7.3967719674110404
leaf_count=41 56 42 90 67 50 138 54 49 30
internal_value=-0.00144106 0.00593637 0.0139939 0.0216781 -0.0051561 -0.0106019 -0.0153729 0.0047903 -0.0210069
internal_weight=152.746 84.0921 49.1899 39.0069 34.9022 68.6544 54.7478 22.6092 41.4022
internal_count=617 339 198 157 141 278 222 91 168
is_linear=0
shrinkage=0.03


Tree=14
num_leaves=12
num_cat=0
split_feature=26 25 21 35 11 4 11 32 34 18 36
split_gain=8.91877 8.35219 5.65998 4.99166 6.93083 4.11779 4.00396 2.56691 2.54401 3.9227 1.25557
threshold=0.28571228382499658 0.40000203450520838 0.006551239852851813 0.001149359990594623 0.018179145810030776 0.0072417227152050687 0.0013991872016809739 1.0000000180025095e-35 0.020147679143185052 0.23300315699201243 0.005142851287573272
decision_type=2 2 2 2 2 2 2 2 2 2 2
left_child=1 8 -3 5 6 -2 -5 -4 9 -1 -10
right_child=3 2 7 4 -6 -7 -8 -9 10 -11 -12
leaf_value=0.0079056976826944181 0.028851556743496279 0.022718675911011198 -0.013719870427308803 0 -0.018785027517145364 0.0024053554690321253 0.02058538343672044 0.0052040940336706481 -0.0084518323133198122 -0.013324757511785579 -0.031576793668730056
leaf_weight=7.7061048299074164 11.4440044015646 8.6968489736318606 9.8371850699186343 20.830979228019718 10.378095328807829 11.656628847122191 10.916968941688536 11.112730562686918 7.6680544763803509 32.807318553328514 9.5805879682302457
leaf_count=31 46 35 40 84 42 47 44 45 31 133 39
internal_value=-0.00139796 -0.00766818 0.00470359 0.00675964 8.38242e-05 0.0173593 0.00744406 -0.00344946 -0.014214 -0.00875172 -0.024022
internal_weight=152.636 87.4088 29.6468 65.2267 42.126 23.1006 31.7479 20.9499 57.7621 40.5134 17.2486
internal_count=617 354 120 263 170 93 128 85 234 164 70
is_linear=0
shrinkage=0.03


Tree=15
num_leaves=9
num_cat=0
split_feature=40 5 8 16 22 28 35 3
split_gain=11.1599 8.20776 12.0186 5.88095 7.15617 6.61952 4.11678 2.59465
threshold=0.035073714590360357 -0.014109137647690393 0.021852800187927457 -0.85250197789216031 0.22928464481075087 11.500000000000002 0.046226040366996408 -0.0033036067273520815
decision_type=2 2 2 2 2 2 2 2
left_child=3 -2 6 -1 5 -5 -3 -6
right_child=1 2 -4 4 7 -7 -8 -9
leaf_value=-0.012183653496851628 0.0089895621590536136 -0.032241066338923957 0.006389054885973018 0.017999529260645918 0.0078317440383937741 -0.0072300258844991659 -0.0032889001606102482 -0.0108811587776475
leaf_weight=11.648058101534842 12.622107863426207 23.47805051505566 12.617832109332083 54.104971617460251 7.688914060592654 9.1647405028343183 7.4019121378660193 16.86696021258831
leaf_count=47 51 96 51 218 31 37 30 68
internal_value=0 -0.0105389 -0.0166814 0.00594682 0.00873613 0.0140056 -0.0263796 -0.0043084
internal_weight=155.594 56.1199 43.4978 99.4736 87.8256 63.2697 30.88 24.5559
internal_count=629 228 177 401 354 255 126 99
is_linear=0
shrinkage=0.03


Tree=16
num_leaves=10
num_cat=0
split_feature=40 12 33 7 7 16 28 7 7
split_gain=10.5142 9.32041 11.8726 7.78361 8.82255 9.26177 3.8696 2.21974 1.61372
threshold=0.035073714590360357 66.190672954543686 0.44347976717737186 -0.017397464806715748 -0.0050380164154173639 0.11192081874742056 8.5000000000000018 -0.0089483178954044354 0.003535079634937818
decision_type=2 2 2 2 2 2 2 2 2
left_child=3 2 7 -1 6 -6 -5 -2 -4
right_child=1 -3 8 4 5 -7 -8 -9 -10
leaf_value=-0.01451200102391694 0.012084264859659535 0.010748532642100921 -0.013021007880048714 0.03672669849056738 -0.0089698159560402217 0.012859172351743102 0.0071821924272938214 -0.0067857423506891574 -0.03636718124280236
leaf_weight=12.40663333237171 7.9400320202112225 12.410264849662779 10.012846663594248 10.939227819442751 28.776634499430656 37.677755206823349 9.6754122376441938 10.349190533161162 15.316255420446394
leaf_count=50 32 50 41 44 116 152 39 42 63
internal_value=0 -0.0102528 -0.0167661 0.00575669 0.00907423 0.00320158 0.0253849 0.00105078 -0.0293154
internal_weight=155.504 56.0286 43.6183 99.4757 87.069 66.4544 20.6146 18.2892 25.3291
internal_count=629 228 178 401 351 268 83 74 104
is_linear=0
shrinkage=0.03


Tree=17
num_leaves=9
num_cat=0
split_feature=40 12 18 16 28 15 40 8
split_gain=9.97534 8.87416 14.7331 5.36668 6.46786 7.35506 1.71043 0.469593
threshold=0.035073714590360357 66.190672954543686 0.40125718524802217 -0.85250197789216031 11.500000000000002 0.18161328232435145 0.063409026271087812 0.0034330601009966654
decision_type=2 2 2 2 2 2 2 2
left_child=3 2 6 -1 5 -5 -2 -4
right_child=1 -3 7 4 -6 -7 -8 -9
leaf_value=-0.011705978317961156 0.01531434932304215 0.010464590090316231 -0.01444987026538946 0.02178982677896522 -0.010422980928733479 0.0026558920147003898 -0.0020812386512608417 -0.033337865306041423
leaf_weight=11.63166807591915 7.462072625756262 12.418725639581679 10.291993111371996 33.311872139573097 11.888646855950354 42.628690153360367 7.4214441925287247 18.329050213098526
leaf_count=47 30 50 42 134 48 172 30 76
internal_value=0 -0.00999877 -0.016373 0.00560448 0.00827356 0.0115853 0.00653283 -0.0284231
internal_weight=155.384 55.9233 43.5046 99.4609 87.8292 75.9406 14.8835 28.621
internal_count=629 228 178 401 354 306 60 118
is_linear=0
shrinkage=0.03


Tree=18
num_leaves=9
num_cat=0
split_feature=40 5 9 10 5 9 16 20
split_gain=9.42827 7.42488 10.1011 8.06926 5.52017 16.4557 7.43809 2.90134
threshold=0.035073714590360357 -0.014109137647690393 0.05546557335420154 0.013933734291965873 0.036140424518830712 0.024807449480457888 -0.66459503643919071 0.01143366485173237
decision_type=2 2 2 2 2 2 2 2
left_child=4 -2 3 -3 5 6 -1 -6
right_child=1 2 -4 -5 7 -7 -8 -9
leaf_value=-0.0089934313649723853 0.0087743951435258361 -0.030048574830089228 0.010482322427514137 0.0024331687233046856 0.031499956211164748 -0.025306265464270051 0.013418761957469374 0.0034087299839777978
leaf_weight=15.073106199502943 12.61318029463291 26.991279125213623 8.6216179430484754 7.5722540766000739 8.2180650532245618 14.073459222912787 54.388655662536621 7.6906826049089423
leaf_count=61 51 111 35 31 33 57 219 31
internal_value=0 -0.00974586 -0.015636 -0.0227783 0.00543416 0.00194494 0.00822986 0.0206548
internal_weight=155.242 55.7983 43.1852 34.5635 99.444 83.5352 69.4618 15.9087
internal_count=629 228 177 142 401 337 280 64
is_linear=0
shrinkage=0.03


Tree=19
num_leaves=12
num_cat=0
split_feature=37 12 7 19 36 36 5 20 23 6 1
split_gain=9.58004 10.7423 11.7186 16.6178 8.70474 8.12272 9.77737 5.34466 3.92807 2.27811 0.978638
threshold=0.011808602571326545 67.833152293551578 0.003535079634937818 0.071000554812107999 0.0064025124615287952 0.0071638962918784792 -0.012483914628281632 0.012565933848919535 0.84163475104649466 0.0066205999924671549 -0.0068027559817070973
decision_type=2 2 2 2 2 2 2 2 2 2 2
left_child=4 2 3 -2 8 -6 -7 -3 -1 -4 -10
right_child=1 7 9 -5 5 6 -8 -9 10 -11 -12
leaf_value=0.00070257312149345967 0.0095352438321495304 0.024362428067446575 -0.037306326236246121 -0.029385745019803428 -0.024774961783876802 0.02718446955319085 -0.0074615641917985557 -0.0035191074525905068 0.0088564001375641965 -0.012664329964859014 0.029808928655399362
leaf_weight=9.6791981607675535 30.097455963492393 10.713548079133036 13.011505410075189 12.179306760430334 8.4215186536312086 9.9429165571928042 16.387594893574715 9.645179331302641 7.4437721818685558 11.432223364710806 16.143340423703194
leaf_count=39 122 43 54 50 34 40 66 39 30 47 65
internal_value=0 -0.00658958 -0.0124526 -0.00215943 0.00823992 -0.00192455 0.00608749 0.0113491 0.0187906 -0.0281781 0.0249919
internal_weight=155.098 87.0792 66.7205 42.2768 68.0183 34.752 26.3305 20.3587 33.2663 24.4437 23.5871
internal_count=629 355 273 172 274 140 106 82 134 101 95
is_linear=0
shrinkage=0.03


Tree=20
num_leaves=10
num_cat=0
split_feature=37 17 19 17 0 20 11 33 12
split_gain=10.4579 8.77355 10.0264 9.30792 5.54638 5.51192 5.80316 2.54242 1.04669
threshold=-0.010198208577822885 -0.058732038462343809 0.030807979116214485 0.049959512762659343 -0.0068073820410139421 0.013025405788293481 0.018179145810030776 0.80702551106923726 40.72963361189953
decision_type=2 2 2 2 2 2 2 2 2
left_child=4 5 -3 -4 -1 6 -2 8 -6
right_child=1 2 3 -5 7 -7 -8 -9 -10
leaf_value=-0.0056896750011592176 0.010191953425451879 -0.021844692334463345 0.016611509213809633 -0.0043274886222156791 0.0095624179335860801 -0.027220881099084143 -0.020913630535135973 0.0017340211353424322 0.031464076577974863
leaf_weight=8.454561769962309 10.181728363037111 12.967420831322668 32.38119050860405 39.858800917863846 7.9487573206424775 18.976757973432541 7.4450557678937903 7.4517686814069739 11.666472017765043
leaf_count=34 41 53 131 162 32 78 30 30 47
internal_value=-0.000529181 -0.00481669 0.000378652 0.00505092 0.0132469 -0.0166923 -0.00297424 0.0196624 0.0249887
internal_weight=157.333 121.811 85.2074 72.24 35.5216 36.6035 17.6268 27.067 19.6152
internal_count=638 495 346 293 143 149 71 109 79
is_linear=0
shrinkage=0.03


Tree=21
num_leaves=11
num_cat=0
split_feature=37 32 19 19 19 20 18 1 18 18
split_gain=9.95696 8.21675 7.5985 9.26261 6.6654 8.16284 5.46966 5.08497 7.0712 2.0152
threshold=-0.010198208577822885 0.0016832269209656749 0.049816951487757798 0.042642340929624621 0.038583096324104504 0.015976867269854606 0.84366099993730981 -0.0094708099034168641 0.76742276872535664 0.29251438433592769
decision_type=2 2 2 2 2 2 2 2 2 2
left_child=7 2 3 -2 -3 -6 -4 -1 9 -9
right_child=1 4 6 -5 5 -7 -8 8 -10 -11
leaf_value=-0.0057695834888857054 -0.0095929711445531252 -0.013919941935177654 -0.026831546919935043 0.023850956350665378 0.017745992463007898 -0.011483064949142481 0 0.011046236018361721 -0.0026234037605061813 0.037317000440571721
leaf_weight=7.9609382748603812 27.569035038352013 11.487228155136107 27.09902024269104 7.9191601872444144 30.163556501269341 9.5222594738006574 7.9406647384166709 8.9393214136362129 8.1927483975887281 10.412151798605917
leaf_count=32 112 47 111 32 122 39 32 36 33 42
internal_value=-0.000515101 -0.00470344 -0.0112721 -0.000855561 0.00415101 0.0101585 -0.0208012 0.0129266 0.0188627 0.0280553
internal_weight=157.206 121.701 70.5279 35.4882 51.173 39.6858 35.0397 35.5052 27.5442 19.3515
internal_count=638 495 287 144 208 161 143 143 111 78
is_linear=0
shrinkage=0.03


Tree=22
num_leaves=11
num_cat=0
split_feature=37 32 19 19 19 20 18 0 18 18
split_gain=9.4464 7.72852 7.22363 8.8031 6.31023 7.73607 5.21039 5.19558 5.89041 3.75041
threshold=-0.010198208577822885 0.0016832269209656749 0.049816951487757798 0.042642340929624621 0.038583096324104504 0.015976867269854606 0.84366099993730981 -0.0068073820410139421 0.76742276872535664 0.30706261370594595
decision_type=2 2 2 2 2 2 2 2 2 2
left_child=7 2 3 -2 -3 -6 -4 -1 9 -9
right_child=1 4 6 -5 5 -7 -8 8 -10 -11
leaf_value=-0.005671422506714003 -0.0093308080242684114 -0.01358354312424935 -0.026168228193414793 0.023271801462192078 0.017236102112723226 -0.011212831078621926 0 0.0089791306222306976 -0.0011637733092251835 0.039741958311433803
leaf_weight=8.4522586762905103 27.549805879592896 11.468377649784086 27.004482209682465 7.9224702119827262 30.183051690459251 9.5076218694448453 7.9406647384166709 9.6782796829938942 7.9428474307060233 9.404028192162512
leaf_count=34 112 47 111 32 122 39 32 39 32 38
internal_value=-0.000493821 -0.00457832 -0.0109573 -0.000795516 0.00400175 0.00985058 -0.020265 0.0126004 0.0188288 0.0271829
internal_weight=157.054 121.576 70.4174 35.4723 51.1591 39.6907 34.9451 35.4774 27.0252 19.0823
internal_count=638 495 287 144 208 161 143 143 109 77
is_linear=0
shrinkage=0.03


Tree=23
num_leaves=9
num_cat=0
split_feature=17 8 5 11 14 34 13 0
split_gain=7.29796 6.67964 9.26563 8.15522 6.34793 5.95874 5.13869 3.06174
threshold=-0.20650445947379167 0.0032110483651462129 0.040468682185499157 0.00033897590267539807 3.4538794858979291 0.02489034192042228 -3.4257051152694156 -0.0021798526535784508
decision_type=2 2 2 2 2 2 2 2
left_child=-1 5 3 -3 -4 6 -2 -7
right_child=1 2 4 -5 -6 7 -8 -9
leaf_value=-0.021562966455398333 0.026559825806262771 0.001666695835719036 0.021054196358160505 -0.021397262038204735 -0.0081591593983283434 -0.016790109496581475 0.0057123601306490598 0.0058772338796624938
leaf_weight=11.599478259682654 15.836349189281462 21.770942464470863 15.115973606705667 30.066163688898087 8.6795910000801069 9.3524182736873644 37.038517475128174 7.420404225587844
leaf_count=48 64 89 61 123 35 38 150 30
internal_value=-0.000472292 0.00137973 -0.0046151 -0.01173 0.0100105 0.00804618 0.0129701 -0.00640513
internal_weight=156.88 145.28 75.6327 51.8371 23.7956 69.6477 52.8749 16.7728
internal_count=638 590 308 212 96 282 214 68
is_linear=0
shrinkage=0.03


Tree=24
num_leaves=8
num_cat=0
split_feature=37 1 8 28 0 9 8
split_gain=9.09627 8.05036 10.4163 6.55292 5.63747 4.65599 3.6237
threshold=0.058640122891176157 -0.011136197830714288 0.0032110483651462129 3.5000000000000004 0.0023152973492441835 -0.0012437859546155629 0.02014114562416067
decision_type=2 2 2 2 2 2 2
left_child=1 5 3 -3 -2 -1 -4
right_child=4 2 6 -5 -6 -7 -8
leaf_value=0 -0.03366361254335911 0.034169038770584706 -0.0091701834099315038 0.008217392552256373 0 -0.028362078014360192 0.0046350297890782131
leaf_weight=10.398168146610262 9.1774412244558352 10.620019719004629 35.869886621832848 45.410596609115601 8.3299966752529127 8.9791223555803281 27.983579725027084
leaf_count=42 38 43 147 184 34 37 113
internal_value=-0.00045567 0.00210615 0.00514839 0.0144028 -0.0197291 -0.0147348 -0.00293529
internal_weight=156.769 139.261 119.884 56.0306 17.5074 19.3773 63.8535
internal_count=638 566 487 227 72 79 260
is_linear=0
shrinkage=0.03


Tree=25
num_leaves=9
num_cat=0
split_feature=40 5 12 17 23 36 21 4
split_gain=8.10174 7.94313 11.8167 5.96824 8.85549 8.94696 6.82717 1.60479
threshold=0.035073714590360357 -0.015523728007288294 66.190672954543686 0.23739648777238412 1.0640073338985361 0.0048922641903527452 0.010511333758284924 -0.0023701991114457028
decision_type=2 2 2 2 2 2 2 2
left_child=3 -2 7 4 6 -6 -1 -3
right_child=1 2 -4 -5 5 -7 -8 -9
leaf_value=0.016028448167088469 0.010607086217066016 -0.010004932216729479 0.0070228643473913954 0.02726316964654955 0.015762821210160764 -0.017035684907661549 -0.0057078871264351471 -0.030901386612360932
leaf_weight=42.035277038812637 12.093084439635275 10.05826200544834 13.13120976090431 8.150313198566435 7.8907695263624182 27.129186809062958 16.022247821092606 19.118364766240123
leaf_count=170 49 41 53 33 32 110 65 81
internal_value=0.000138749 -0.00890904 -0.015053 0.00522484 0.00260439 -0.00878794 0.00978975 -0.0252827
internal_weight=155.629 54.4009 42.3078 101.228 93.0775 35.02 58.0575 29.1766
internal_count=634 224 175 410 377 142 235 122
is_linear=0
shrinkage=0.03


Tree=26
num_leaves=12
num_cat=0
split_feature=40 5 9 21 23 23 27 23 5 28 28
split_gain=7.68236 6.88501 6.07104 6.75875 4.95385 8.2533 6.72023 4.58402 4.42366 3.76432 2.87189
threshold=0.035913360362268561 -0.015523728007288294 0.022504043125049267 0.0093029317387200144 1.0552429230122866 1.1595079731281348 3.5000000000000004 0.76711117211300384 0.014229814693378475 8.5000000000000018 5.5000000000000009
decision_type=2 2 2 2 2 2 2 2 2 2 2
left_child=4 -2 10 -4 6 8 7 -1 -6 -7 -3
right_child=1 2 3 -5 5 9 -8 -9 -10 -11 -12
leaf_value=-0.00023604702514920428 0.0094626038212671237 -0.038008051846870415 0.014219545142621323 -0.017636357477883665 0 0.019117427045932101 -0.0080797578141078644 0.0200937843730889 -0.028891505689578691 -0.0029656096007956529 -0.011274299991047801
leaf_weight=11.347459927201269 11.847923085093496 8.6441766321659106 9.7286593317985552 10.075647220015524 8.6858076006174105 12.09236577153206 11.875504598021505 37.73694121837616 9.7861958444118482 10.85175137221813 12.775493279099463
leaf_count=46 48 36 40 42 35 49 48 153 40 44 53
internal_value=0.000139268 -0.00883036 -0.0146294 -0.00143065 0.00501295 -0.00264814 0.0103749 0.015275 -0.0169142 0.00867124 -0.025028
internal_weight=155.448 53.0719 41.224 19.8043 102.376 41.4161 60.9599 49.0844 18.472 22.9441 21.4197
internal_count=634 219 171 82 415 168 247 199 75 93 89
is_linear=0
shrinkage=0.03


Tree=27
num_leaves=11
num_cat=0
split_feature=40 18 12 21 34 14 0 35 7 38
split_gain=7.27565 6.02071 10.9454 5.23037 8.05655 5.9296 4.23661 3.01699 1.88403 1.33225
threshold=0.035073714590360357 0.40125718524802217 66.190672954543686 0.0072962037176987861 -0.028362441417357828 1.3485354979093247 0.0035778208328335341 0.0224853285777501 0.0042331372464415882 0.0083952149930773181
decision_type=2 2 2 2 2 2 2 2 2 2
left_child=3 7 9 6 -5 -6 8 -2 -1 -3
right_child=1 2 -4 4 5 -7 -8 -9 -10 -11
leaf_value=0.028748203895400865 -0.0056056514091960769 -0.034492112017376793 0.0059146373436334207 0.020041566150293528 0.00055959731754598441 -0.020833881154352352 0 0.017628455773990085 0.005254482529695609 -0.013803577011930602
leaf_weight=13.076560303568845 7.3819460868835431 11.70243848860264 13.375290989875792 12.860196128487585 44.235778912901878 13.216798573732374 10.352280899882315 7.9424604773521423 7.4059096574783316 13.76972423493862
leaf_count=53 30 50 54 52 179 54 42 32 30 58
internal_value=0.000105416 -0.00848623 -0.0146733 0.00492761 9.22389e-05 -0.0046449 0.0148197 0.00621541 0.0221438 -0.0256734
internal_weight=155.319 54.1719 38.8475 101.148 70.3128 57.4526 30.8348 15.3244 20.4825 25.4722
internal_count=634 224 162 410 285 233 125 62 83 108
is_linear=0
shrinkage=0.03


Tree=28
num_leaves=10
num_cat=0
split_feature=37 38 9 32 21 24 2 18 18
split_gain=6.93344 5.7896 6.92119 6.93136 5.98473 5.83048 3.78916 3.40376 4.38933
threshold=-0.010198208577822885 0.0090356026599184066 -0.021103654833055822 0.0029526493964273652 0.008247052134884832 -0.19999440511067704 0.0052224575076147426 0.17457759431511988 0.7900938071937299
decision_type=2 2 2 2 2 2 2 2 2
left_child=7 4 -3 -4 6 -6 -2 -1 -9
right_child=1 2 3 -5 5 -7 -8 8 -10
leaf_value=-0.0013934753070156145 0.00071079906176096572 0.0078665759482492228 -0.025234774540995673 -2.4893555679264142e-05 0.0094586416640789605 -0.015791581388806521 0.020817427601326471 0.025625871892455566 0
leaf_weight=10.161051541566847 19.141615957021713 12.286047637462614 25.61810702085495 17.102918490767479 10.669111832976343 20.128668963909149 16.097330808639526 16.239361137151722 7.6842903047800055
leaf_count=41 78 50 105 70 44 83 66 66 31
internal_value=0.000104045 -0.00319298 -0.0102624 -0.0159301 0.00260379 -0.00654356 0.0109232 0.0117564 0.0175967
internal_weight=155.129 121.044 55.0071 42.721 66.0367 30.7978 35.2389 34.0847 23.9237
internal_count=634 496 225 175 271 127 144 138 97
is_linear=0
shrinkage=0.03


Tree=29
num_leaves=6
num_cat=0
split_feature=40 11 34 11 13
split_gain=7.02098 5.404 4.73328 5.91561 1.19573
threshold=0.075167417120873395 -0.022553614914033401 -0.048256493500189838 -0.0076032027281166528 0.60401860263419149
decision_type=2 2 2 2 2
left_child=1 -1 -3 -4 -2
right_child=4 2 3 -5 -6
leaf_value=0.024494611056376386 -0.024505505363509043 0.020281519846372456 -0.015649665357128327 0.0019500151684468778 -0.003960930805368623
leaf_weight=7.3865246176719657 8.6729293316602689 8.3621478080749494 18.372736930847168 104.98577070236206 7.2187752872705451
leaf_count=30 36 34 75 429 30
internal_value=0.000107111 0.00244408 0.00074751 -0.000759443 -0.0174975
internal_weight=154.999 139.107 131.721 123.359 15.8917
internal_count=634 568 538 504 66
is_linear=0
shrinkage=0.03


Tree=30
num_leaves=10
num_cat=0
split_feature=37 25 26 24 34 16 38 38 25
split_gain=7.39517 6.46187 5.62642 4.8208 4.64667 4.08814 5.43249 2.94471 2.60464
threshold=0.011808602571326545 0.42105189188627795 0.19433505533184744 -0.2413811851909258 0.034830690815106487 -0.82470939514514507 0.0074589959269974601 0.0083525224806211395 0.053342166572138049
decision_type=2 2 2 2 2 2 2 2 2
left_child=4 2 8 -4 5 -1 -7 -3 -2
right_child=1 7 3 -5 -6 6 -8 -9 -10
leaf_value=-0.0040503813017864661 -0.0012103428048864902 0.021455797007474693 0.011044220911339029 -0.0098334161505250449 -0.0076820464412126538 -0.0023967366710439704 0.020360188946863447 -0.0010063590098130079 -0.024241892791703242
leaf_weight=9.8789425343275052 7.5704516768455532 8.3383805602788943 14.855744391679762 21.916107133030891 11.116559296846388 10.357948035001753 38.15650662779808 7.9408658742904654 20.107575535774231
leaf_count=40 31 34 61 90 45 42 155 33 83
internal_value=0.00117829 -0.00483164 -0.0092029 -0.000877401 0.00830792 0.011754 0.0153021 0.0107671 -0.0189539
internal_weight=150.239 80.7291 64.4499 36.7719 69.51 58.3934 48.5145 16.2792 27.678
internal_count=614 332 265 151 282 237 197 67 114
is_linear=0
shrinkage=0.03


Tree=31
num_leaves=9
num_cat=0
split_feature=21 38 28 38 28 17 36 36
split_gain=9.84686 8.74123 9.46689 8.57844 8.25515 5.73176 4.31417 5.45969
threshold=0.0067698047604022879 0.017782938876266353 9.5000000000000018 0.0071143805668462496 3.5000000000000004 0.029119459056829364 0.0076243293797604106 0.0048556314556027257
decision_type=2 2 2 2 2 2 2 2
left_child=3 2 4 -1 -2 -4 7 -5
right_child=1 -3 5 6 -6 -7 -8 -9
leaf_value=-0.0082582824697039776 0.0016808738756690616 0.023947710795270645 0.018283554709356966 0.0037538346423739151 -0.019156094796505971 -0.0047927076129458254 0.0002745139719173213 0.038884722311173098
leaf_weight=9.5645555406808835 24.001636818051338 7.5970443338155738 16.938276946544647 7.3439431339502397 46.643755197525024 16.974927634000778 7.5831932276487342 13.498273625969885
leaf_count=39 98 31 69 30 192 69 31 55
internal_value=0.00112968 -0.00326724 -0.00579776 0.0139997 -0.0120189 0.00669163 0.0220326 0.0285752
internal_weight=150.146 112.156 104.559 37.99 70.6454 33.9132 28.4254 20.8422
internal_count=614 459 428 155 290 138 116 85
is_linear=0
shrinkage=0.03


Tree=32
num_leaves=9
num_cat=0
split_feature=21 35 8 21 28 28 35 36
split_gain=9.3269 11.2331 8.4741 7.72632 7.53462 7.68239 5.77423 1.56462
threshold=0.0067698047604022879 0.028409734978965377 0.00039663999780549107 0.015382159349533901 9.5000000000000018 3.5000000000000004 0.065211300325784718 0.0048922641903527452
decision_type=2 2 2 2 2 2 2 2
left_child=1 2 -1 4 5 -2 -6 -3
right_child=3 7 -4 -5 6 -7 -8 -9
leaf_value=0.014479105323835041 0.0021190923385216586 0.010056391776848649 -0.022728703845486663 0.022811771673178792 0.012897300883331152 -0.01785899196316873 -0.013404125070889943 0.035068683223883686
leaf_weight=9.3544550240039843 24.250911623239517 7.6036160141229656 8.4970913082361204 7.3284831047058097 25.365623891353607 47.060736507177353 8.0645979940891248 12.491860851645468
leaf_count=38 99 31 35 30 103 194 33 51
internal_value=0.00112417 0.0136582 -0.00298128 -0.00315343 -0.00550404 -0.010988 0.00573058 0.0280505
internal_weight=150.017 37.947 17.8515 112.07 104.742 71.3116 33.4302 20.0955
internal_count=614 155 73 459 429 293 136 82
is_linear=0
shrinkage=0.03


Tree=33
num_leaves=10
num_cat=0
split_feature=21 35 18 34 37 28 36 20 25
split_gain=8.89223 10.327 9.10106 8.56903 9.42818 12.4119 6.98512 3.99738 1.24706
threshold=0.0072962037176987861 0.028409734978965377 0.43822064977034564 0.030468181880203952 -0.014209895761508438 2.5000000000000004 0.0046403044386678907 0.012959942433331916 0.25790117996500694
decision_type=2 2 2 2 2 2 2 2 2
left_child=1 2 -1 4 8 -6 -3 -5 -2
right_child=3 6 -4 7 5 -7 -8 -9 -10
leaf_value=0.017889120949869747 0.0055454505953160815 0 -0.017612086877009232 -0.033670090303694299 0.025110186574770918 -0.0098386389050588753 0.034334437941698867 -0.0036154814246330846 0.026568465225644742
leaf_weight=9.1117112785577792 7.8378510326147106 7.2989277541637447 13.368979558348654 9.109899118542673 8.6325943619012815 59.56960666179657 16.83513554930687 9.0122487992048246 9.0771017074584943
leaf_count=37 32 30 55 37 35 245 69 37 37
internal_value=0.00111464 0.0117879 -0.00232432 -0.00369447 0.000287914 -0.00461203 0.0246792 -0.0213141 0.0192365
internal_weight=149.854 46.6148 22.4807 103.239 85.1172 68.2022 24.1341 18.1221 16.915
internal_count=614 191 92 423 349 280 99 74 69
is_linear=0
shrinkage=0.03


Tree=34
num_leaves=9
num_cat=0
split_feature=21 35 21 28 37 28 33 36
split_gain=8.43042 10.2454 7.19866 7.14076 8.20958 7.1015 6.72366 1.3455
threshold=0.0067698047604022879 0.028409734978965377 0.015382159349533901 9.5000000000000018 0.022108062311542834 4.5000000000000009 0.53742981487300556 0.0048922641903527452
decision_type=2 2 2 2 2 2 2 2
left_child=1 6 3 5 -5 -2 -1 -3
right_child=2 7 -4 4 -6 -7 -8 -9
leaf_value=0.012274906622674031 0 0.0096901915666680171 0.022136168825554879 0.018124858864612497 -0.0099908210689776209 -0.018891207992474509 -0.020918729564031315 0.033471126180671433
leaf_weight=9.5892639756202716 32.266640663146973 7.5994332432746914 7.2962844371795645 18.995497405529022 14.414907455444334 38.892918452620506 8.2023363411426526 12.408919289708136
leaf_count=39 132 31 30 77 59 161 34 51
internal_value=0.00109988 0.0130437 -0.00296248 -0.00523703 0.0056916 -0.0105885 -0.00283771 0.0268218
internal_weight=149.666 37.8 111.866 104.57 33.4104 71.1596 17.7916 20.0084
internal_count=614 155 459 429 136 293 73 82
is_linear=0
shrinkage=0.03


Tree=35
num_leaves=7
num_cat=0
split_feature=38 20 17 38 20 35
split_gain=8.5458 10.6493 8.26512 7.09003 5.01146 4.39292
threshold=0.017782938876266353 0.015668522909115353 0.05942638742552004 0.011337888718538554 0.017548710494298281 0.011270950048906882
decision_type=2 2 2 2 2 2
left_child=1 2 5 -4 -3 -1
right_child=-2 4 3 -5 -6 -7
leaf_value=-0.0019991617309749149 0.027628359240308226 -0.030032967970072658 -0.0009732477568437101 -0.029671323408773372 -0.0025990410736214942 0.011868579258670841
leaf_weight=28.696210891008377 7.2787642627954474 13.814590334892275 29.165058672428131 9.2592320591211301 12.424959063529966 55.195808291435242
leaf_count=117 30 58 120 38 52 226
internal_value=-0.000209298 -0.00202178 0.00167362 -0.00938564 -0.0186777 0.00701423
internal_weight=155.835 148.556 122.316 38.4243 26.2395 83.892
internal_count=641 611 501 158 110 343
is_linear=0
shrinkage=0.03


Tree=36
num_leaves=8
num_cat=0
split_feature=37 20 17 28 19 28 23
split_gain=8.38851 8.1209 7.35447 7.22603 6.08879 3.94419 2.83597
threshold=-0.031385914297993582 0.015668522909115353 0.05942638742552004 2.5000000000000004 0.092828587835569756 5.5000000000000009 0.89875431674800754
decision_type=2 2 2 2 2 2 2
left_child=6 2 5 -4 -3 -2 -1
right_child=1 4 3 -5 -6 -7 -8
leaf_value=0.00088509546618113658 -0.001969559387309023 -0.029393168621283709 0.011663046536867422 -0.017300224938697272 0 0.011313776276334314 0.027097240664972322
leaf_weight=7.3283470869064358 30.899686008691788 14.108030498027803 8.2126235067844373 28.234507948160172 10.801721200346945 45.937568634748459 10.181707456707953
leaf_count=30 127 60 34 116 45 187 42
internal_value=-0.000218935 -0.00287369 0.000508339 -0.0101166 -0.0177065 0.00586724 0.018111
internal_weight=155.704 138.194 113.284 36.4471 24.9098 76.8373 17.5101
internal_count=641 569 464 150 105 314 72
is_linear=0
shrinkage=0.03


Tree=37
num_leaves=7
num_cat=0
split_feature=38 20 17 17 20 19
split_gain=8.02424 9.69252 7.40579 7.17793 4.82385 4.14788
threshold=0.017782938876266353 0.015668522909115353 0.084119601218541631 0.21529634872843964 0.017548710494298281 0.043135093797160282
decision_type=2 2 2 2 2 2
left_child=1 2 5 -4 -3 -1
right_child=-2 4 3 -5 -6 -7
leaf_value=-0.00078890751956464569 0.026827872252510737 -0.029098551792562086 -0.020762857605830153 0.009388364498537775 -0.0021810025748359471 0.011400619095237005
leaf_weight=43.61907634139061 7.23681916296482 13.682958424091341 19.786574348807338 8.3400398939847928 12.37766048312187 50.504533484578133
leaf_count=179 30 58 82 34 52 206
internal_value=-0.000206829 -0.00196519 0.00154784 -0.0112948 -0.0179151 0.00569678
internal_weight=155.548 148.311 122.25 28.1266 26.0606 94.1236
internal_count=641 611 501 116 110 385
is_linear=0
shrinkage=0.03


Tree=38
num_leaves=10
num_cat=0
split_feature=37 26 11 11 14 10 4 6 38
split_gain=7.81687 6.33152 9.01209 7.49543 6.77243 5.65748 3.71455 2.6438 2.12474
threshold=-0.031385914297993582 0.21429369403907209 0.018179145810030776 0.0039458618533648746 0.10995238798511765 0.0020235957575840406 -0.0013125484665051366 -0.0037282486605450054 0.011677255677062086
decision_type=2 2 2 2 2 2 2 2 2
left_child=8 3 4 7 -3 -5 -4 -2 -1
right_child=1 2 6 5 -6 -7 -8 -9 -10
leaf_value=0.0018208149381743555 -0.0021814920419767386 0 0.0014157919294476664 0.013740566473255106 0.021155295587085163 -0.0092878870324826241 -0.021376078833839841 -0.024978980170712147 0.025426174084235482
leaf_weight=7.3028541356325176 8.0163644403219241 26.334963038563728 9.0057067573070544 14.130133494734762 23.875873804092407 21.721306383609772 12.677292153239248 22.18379919230938 10.141690656542776
leaf_count=30 33 108 37 58 97 91 53 92 42
internal_value=-0.000203076 -0.00276978 0.00320735 -0.00939906 0.0102501 0 -0.0119563 -0.0199048 0.0175193
internal_weight=155.39 137.945 71.8938 66.0516 50.2108 35.8514 21.683 30.2002 17.4445
internal_count=641 569 295 274 205 149 90 125 72
is_linear=0
shrinkage=0.03


Tree=39
num_leaves=6
num_cat=0
split_feature=38 38 21 33 13
split_gain=7.39964 8.61664 8.53178 7.64909 4.61048
threshold=0.017782938876266353 0.012673391633790916 0.01182299831167548 0.44347976717737186 -2.185579972057702
decision_type=2 2 2 2 2
left_child=1 2 3 -1 -4
right_child=-2 -3 4 -5 -6
leaf_value=0.013504907716675289 0.025851945574195158 -0.023461006710937437 0 -0.0020579951288555672 -0.032990291856147581
leaf_weight=40.967678859829903 7.1780081540346137 13.015132635831831 7.1255021095275879 79.249746859073639 7.6966948658227903
leaf_count=167 30 54 30 328 32
internal_value=-0.000191822 -0.00188218 0.000400176 0.00325701 -0.0195113
internal_weight=155.233 148.055 135.04 120.217 14.8222
internal_count=641 611 557 495 62
is_linear=0
shrinkage=0.03


Tree=40
num_leaves=11
num_cat=0
split_feature=40 4 12 32 21 34 19 36 32 10
split_gain=6.93374 7.54806 11.2008 8.83314 4.31405 5.87459 6.16978 4.33214 2.65369 2.12784
threshold=0.020321626672549557 -0.0023000521045532514 66.190672954543686 -0.00047294031887357141 0.0072072781557556758 -0.028362441417357828 0.056325029763682775 0.006660659854349567 0.004551223053464116 0.025266726566354428
decision_type=2 2 2 2 2 2 2 2 2 2
left_child=4 3 8 -2 7 -6 -7 -1 -3 -4
right_child=1 2 9 -5 5 6 -8 -9 -10 -11
leaf_value=0.026171712670733972 -0.013969394570772137 -0.030707883945453988 0.013573155607241686 0.019916350912082777 0.0163333415098256 0.0046427488375104806 -0.016847338722286703 0.0010027971049577835 -0.0053257340236817496 -0.0055624984127982374
leaf_weight=11.326218888163568 10.427560657262804 22.985842511057857 8.152960464358328 13.215154632925985 11.853576406836508 21.746730208396912 21.414975002408028 14.206447765231131 7.2839242666959754 7.813143551349639
leaf_count=47 43 99 33 54 49 88 88 58 31 32
internal_value=-0.00175161 -0.00861257 -0.0155172 0.00446228 0.00408329 -0.000490302 -0.00596146 0.0138026 -0.0257735 0.00379727
internal_weight=150.427 69.8786 46.2359 23.6427 80.5479 55.0153 43.1617 25.5327 30.2698 15.9661
internal_count=622 292 195 97 330 225 176 105 130 65
is_linear=0
shrinkage=0.03


Tree=41
num_leaves=9
num_cat=0
split_feature=37 12 4 19 24 17 13 4
split_gain=6.47585 9.47219 11.1763 11.6818 4.27921 4.24268 4.22371 3.42678
threshold=0.0097610035112830635 74.155140298339163 -0.0023000521045532514 0.071894008621595812 0.66190378502172009 0.14632173332431356 1.0000000180025095e-35 0.024475208239417626
decision_type=2 2 2 2 2 2 2 2
left_child=4 2 3 -2 5 6 -1 -4
right_child=1 -3 7 -5 -6 -7 -8 -9
leaf_value=0.011633802023049386 0.016500934695091236 0.014357522928076466 -0.024963520795749164 -0.022015025427880083 -0.011894425285239978 0.027569628948701963 -0.0051738191360906913 -0.0025629018907559397
leaf_weight=28.798230603337288 18.486087530851368 13.039847552776335 34.417555555701256 8.7191646397113782 8.8071131855249387 7.158472627401351 20.873811468482018 9.8567853868007642
leaf_count=118 75 53 147 37 36 30 85 41
internal_value=-0.00169298 -0.00718343 -0.0116011 0.00298086 0.00515847 0.00837068 0.00435353 -0.0206269
internal_weight=150.157 84.5194 71.4796 27.2053 65.6376 56.8305 49.672 44.2743
internal_count=622 353 300 112 269 233 203 188
is_linear=0
shrinkage=0.03


Tree=42
num_leaves=13
num_cat=0
split_feature=40 28 16 38 10 5 28 11 17 28 23 16
split_gain=6.37856 7.30426 8.78708 5.79038 4.66612 5.63652 4.36701 5.37903 4.29187 4.375 3.75712 3.51888
threshold=0.020321626672549557 6.5000000000000009 -0.3214619554757509 0.0099653941385011557 -0.0028402249691101274 0.029262192280547387 8.5000000000000018 0.0095791948025818491 0.062996637022168414 8.5000000000000018 0.97643763008823192 0.096530580195311994
decision_type=2 2 2 2 2 2 2 2 2 2 2 2
left_child=3 2 -2 4 -1 -6 7 -5 9 -3 -8 -4
right_child=1 8 11 6 5 -7 10 -9 -10 -11 -12 -13
leaf_value=0.026558313092383018 0.026390802915236218 -0.021464462919002239 -0.018615912126798088 0.014935475122517708 -0.0070937326110464384 0.017280112477041105 0 -0.012491128841981954 -0.033164644615516624 0.0021526974877070404 -0.026274465505702269 0.0012616741233934165
leaf_weight=11.506396040320395 7.4830277860164633 10.542502954602243 10.902507558465006 14.329016730189325 15.974643319845201 13.722813189029692 7.6079846024513271 8.2977644950151426 10.147007063031195 13.150614082813261 8.9305957704782468 17.30700321495533
leaf_count=47 31 45 46 60 65 56 31 34 43 54 37 73
internal_value=-0.00164406 -0.0082483 0.000913494 0.00394913 0.01164 0.00407555 -0.00395004 0.00407081 -0.0178419 -0.00862501 -0.014988 -0.006648
internal_weight=149.902 69.5327 35.6925 80.3692 41.2039 29.6975 39.1654 22.6268 33.8401 23.6931 16.5386 28.2095
internal_count=622 292 150 330 168 121 162 94 142 99 68 119
is_linear=0
shrinkage=0.03


Tree=43
num_leaves=10
num_cat=0
split_feature=31 1 34 12 33 3 21 13 21
split_gain=5.05901 5.83147 4.53792 10.3343 5.46177 4.10764 4.02422 5.6056 3.79321
threshold=-2.4999999999999996 0.0025584339959947582 0.0012352704006407535 78.105124753780402 0.51702644690906518 -0.01730261315632697 0.0074257650289172071 -4.0745427464455402 0.0057879342152607162
decision_type=2 2 2 2 2 2 2 2 2
left_child=5 6 4 -4 -3 -1 8 -8 -2
right_child=1 2 3 -5 -6 -7 7 -9 -10
leaf_value=-0.00050401370184855897 -0.011332014826466936 0.030434764005250223 -0.012266539553036656 0.023530974362499252 0.0018476906277656066 0.027263532649871566 0 -0.021457146036971228 0.010971972089922599
leaf_weight=7.7110533565282822 10.856227725744249 7.496947348117831 29.530555292963982 7.3124283254146567 20.758163675665855 7.2516249567270261 15.112176463007925 31.018363893032074 12.64448745548725
leaf_count=32 45 31 124 30 86 30 63 129 52
internal_value=-0.00160461 -0.00358917 0.0026595 -0.00392967 0.011439 0.013697 -0.00955158 -0.0145268 0
internal_weight=149.692 134.729 65.0981 36.843 28.2551 14.9627 69.6313 46.1305 23.5007
internal_count=622 560 271 154 117 62 289 192 97
is_linear=0
shrinkage=0.03


Tree=44
num_leaves=10
num_cat=0
split_feature=37 12 4 19 3 12 38 35 4
split_gain=5.92033 8.61142 10.3443 10.7435 4.10471 4.38779 6.31716 4.07399 3.32907
threshold=0.0097610035112830635 74.155140298339163 -0.0023000521045532514 0.071894008621595812 0.020564734486699269 46.786865543122339 0.010285489362410647 0.01753819340906038 0.024475208239417626
decision_type=2 2 2 2 2 2 2 2 2
left_child=4 2 3 -2 5 6 -1 -7 -4
right_child=1 -3 8 -5 -6 7 -8 -9 -10
leaf_value=0.014706818823724268 0.015918431965944432 0.013718497694194892 -0.024068089837348646 -0.021109745040729232 -0.011545991725435228 0.0010743473809843032 -0.013891829541651454 0.023570670213141607 -0.0020691394669083837
leaf_weight=10.246823787689211 18.477587774395946 13.017646253108976 34.092009946703911 8.6312380284070951 8.941103443503378 13.704909041523932 13.861293017864226 18.712456494569778 9.8224681317806226
leaf_count=42 75 53 147 37 37 56 57 77 41
internal_value=-0.00153153 -0.0068056 -0.0110455 0.00297327 0.00501763 0.00819897 -0.000966388 0.0151109 -0.0197787
internal_weight=149.508 84.041 71.0233 27.1088 65.4666 56.5255 24.1081 32.4174 43.9145
internal_count=622 353 300 112 269 232 99 133 188
is_linear=0
shrinkage=0.03


Tree=45
num_leaves=7
num_cat=0
split_feature=11 11 10 5 16 2
split_gain=6.5159 8.54363 5.62193 10.4699 5.55369 1.95073
threshold=-0.020909910773660997 -0.0098729595856578128 0.0039319643729766049 0.029586450282283797 0.091562906390082563 -0.0038868278138772245
decision_type=2 2 2 2 2 2
left_child=-1 5 4 -4 -3 -2
right_child=1 2 3 -5 -6 -7
leaf_value=0.020753945497640661 -0.004809724246004436 0.0039974475312088654 -0.017663305021052515 0.0071164678655081283 0.029433707552238203 -0.028581386077299081
leaf_weight=11.861658170819281 8.2615528553724307 61.211095839738846 27.351713940501213 29.467416226863861 7.4874600917100897 8.7517172545194608
leaf_count=49 34 253 115 122 31 37
internal_value=0.00107711 -0.000721171 0.00197951 -0.00475205 0.00773614 -0.0195471
internal_weight=154.393 142.531 125.518 56.8191 68.6986 17.0133
internal_count=641 592 521 237 284 71
is_linear=0
shrinkage=0.03


Tree=46
num_leaves=10
num_cat=0
split_feature=19 18 19 28 37 18 19 28 1
split_gain=5.65085 7.67696 7.31651 7.10048 6.53955 6.63321 6.05928 5.95726 4.4026
threshold=0.032789158936393885 0.7780482586294587 0.049816951487757798 9.5000000000000018 0.022108062311542834 0.86976047287281044 0.062827264404752017 6.5000000000000009 -0.0049051716568869188
decision_type=2 2 2 2 2 2 2 2 2
left_child=1 8 3 7 6 -6 -4 -2 -1
right_child=2 -3 4 -5 5 -7 -8 -9 -10
leaf_value=-0.014040598164894093 0.014163654504014092 -0.030257419550268172 -0.009785380475912318 0.032157248604674074 -0.019397020745481507 0.0075874026188867518 0.012908709995639133 -0.010862878796563703 0.010572464990979974
leaf_weight=9.3060205578804052 21.512712344527245 9.030076786875723 12.965298116207121 11.549816891551016 23.751359209418297 9.7708263993263227 31.875776886940002 11.064411148428915 13.508470728993416
leaf_count=38 89 38 53 47 102 40 132 46 56
internal_value=0.00104886 -0.00970679 0.00407659 0.0135893 -0.00129833 -0.0111252 0.00588909 0.00509322 0
internal_weight=154.335 31.8446 122.49 44.1269 78.3633 33.5222 44.8411 32.5771 22.8145
internal_count=641 132 509 182 327 142 185 135 94
is_linear=0
shrinkage=0.03


Tree=47
num_leaves=7
num_cat=0
split_feature=11 11 10 12 38 2
split_gain=5.99975 8.13323 5.23734 7.26806 6.21285 1.84456
threshold=-0.020909910773660997 -0.0098729595856578128 0.0039319643729766049 67.597972850689075 0.010285489362410647 -0.0038868278138772245
decision_type=2 2 2 2 2 2
left_child=-1 5 4 -4 -3 -2
right_child=1 2 3 -5 -6 -7
leaf_value=0.019899828049152853 -0.0046967233532414178 0.013842354734802116 -0.014786662040485728 0.00582545483365018 -0.0043684329834137578 -0.027935882611003333
leaf_weight=11.855801820755003 8.2514801472425479 45.280230671167374 28.926548779010773 27.776451215147972 23.395719736814499 8.7081139385700208
leaf_count=49 34 187 123 114 97 37
internal_value=0.00101239 -0.000710814 0.00192097 -0.00457965 0.00747822 -0.0191085
internal_weight=154.194 142.339 125.379 56.703 68.676 16.9596
internal_count=641 592 521 237 284 71
is_linear=0
shrinkage=0.03


Tree=48
num_leaves=14
num_cat=0
split_feature=26 33 36 26 5 5 38 11 34 26 3 8 20
split_gain=6.19621 6.22427 5.77756 4.52975 5.08879 8.2766 4.3605 4.15967 5.53617 3.68578 3.14849 2.91483 2.6863
threshold=0.2105253647525864 0.44347976717737186 0.0065992573228417662 0.37499493353214924 0.029586450282283797 -0.025394143438395463 0.0092026063218191099 0.0043706564156078551 0.0091719668098241298 0.078786296928712571 0.011598894836447606 0.0084676745625848152 0.012032296799009353
decision_type=2 2 2 2 2 2 2 2 2 2 2 2 2
left_child=1 6 11 7 5 -5 -1 8 -2 -8 -4 -3 -9
right_child=3 2 10 4 -6 -7 9 12 -10 -11 -12 -13 -14
leaf_value=0.017884089949971819 0.038329839917858835 0.010788737749782786 -0.034300275019002062 0.017936543570170799 0.014939231830575397 -0.013342170229103644 -0.016513041581466534 -0.0081048033839250366 0.0052401643148164501 0.0081623895670198485 -0.0049231660954705842 -0.01019164104921653 0.012786564539194452
leaf_weight=11.003564760088922 8.7965474128723162 7.8192151933908489 10.764921084046366 7.9392593950033179 13.11701889336109 28.65705993771553 8.9988375455141085 8.8747278749942797 11.308665752410887 8.2030023038387281 7.253148913383483 12.581910833716391 8.7973746359348279
leaf_count=45 36 33 47 33 54 119 37 37 47 34 30 53 36
internal_value=0.000971821 -0.00571017 -0.0133865 0.0062417 0 -0.00559006 0.00444336 0.0137891 0.0225544 -0.00434039 -0.0248973 -0.0012355 0.0017753
internal_weight=154.115 66.6246 38.4192 87.4907 49.7133 36.5963 28.2054 37.7773 20.1052 17.2018 18.0181 20.4011 17.6721
internal_count=641 279 163 362 206 152 116 156 83 71 77 86 73
is_linear=0
shrinkage=0.03


Tree=49
num_leaves=15
num_cat=0
split_feature=26 33 32 36 28 38 26 17 6 18 6 28 33 4
split_gain=5.91868 5.93542 5.66345 5.54549 5.18031 4.1403 3.51357 3.49254 2.74798 2.65263 3.04254 1.92518 1.72558 1.62533
threshold=0.2105253647525864 0.44347976717737186 0.0022522923647722019 0.0065992573228417662 9.5000000000000018 0.0092026063218191099 0.078786296928712571 1.0000000180025095e-35 -0.0010793005327712373 0.72773062986540882 0.0085572798281676517 6.5000000000000009 0.68978984568358481 0.019894957817737428
decision_type=2 2 2 2 2 2 2 2 2 2 2 2 2 2
left_child=1 5 4 12 7 -1 -7 -2 -6 11 -11 -4 -3 -5
right_child=2 3 9 13 8 6 -8 -9 -10 10 -12 -13 -14 -15
leaf_value=0.017434376073526766 -0.012062603731312104 0.0083240495472548352 0.033726128436944662 -0.031754455500576928 0.024705274632430375 -0.016119289961493585 0.0079648296851746302 0.0050952908230203001 0 -0.0070115485389281897 0.016608185138734296 0.0088235841917011174 -0.0078894846256375509 -0.0072781977251141937
leaf_weight=11.000409737229349 25.472052350640297 7.3190126270055798 7.9870326966047314 10.733196943998339 7.5883224159479141 8.9910670667886752 8.2038696408271772 14.529958978295324 7.2878005951642972 7.7066844552755338 7.2714065164327621 9.6052732169628126 13.075232923030851 7.1991968005895606
leaf_count=45 105 31 33 47 31 37 34 61 30 32 30 40 55 30
internal_value=0.000961024 -0.00557332 0.00611286 -0.0130845 0 0.0043304 -0.00421445 -0.00552734 0.0141502 0.0156245 0.00417729 0.0231838 -0.00117726 -0.0243969
internal_weight=153.971 66.522 87.4485 38.3266 54.8781 28.1953 17.1949 40.002 14.8761 32.5704 14.9781 17.5923 20.3942 17.9324
internal_count=641 279 362 163 227 116 71 166 61 135 62 73 86 77
is_linear=0
shrinkage=0.03


end of trees

feature_importances:
month=28
atr_pct=26
macro_topix_vol_20=24
bb_bandwidth=23
macro_topix_ret_20=23
volatility=21
return_20d=20
bb_pct_b=18
ma_20_60_cross=17
rsi=17
price_position_20d=15
macro_usdjpy_vol_20=15
macro_nikkei_ret_20=15
div_ma_20=13
macd_hist_change=13
macro_usdjpy_ret_60=13
return_10d=12
vol_ratio=11
lower_shadow_pct=11
macro_usdjpy_ret_20=11
div_ma_10=10
div_ma_60=9
macd_hist=9
gap=9
return_1d=7
return_3d=7
macd=7
return_2d=6
ma_5_20_cross=6
return_5d=5
div_ma_5=5
rsi_change=5
candle_body_pct=5
upper_shadow_pct=4
macd_signal=3
day_of_week=3
vol_change=1
streak=1

parameters:
[boosting: gbdt]
[objective: binary]
[metric: binary_logloss]
[tree_learner: serial]
[device_type: cpu]
[data_sample_strategy: bagging]
[data: ]
[valid: ]
[num_iterations: 50]
[learning_rate: 0.03]
[num_leaves: 15]
[num_threads: 0]
[seed: 42]
[deterministic: 0]
[force_col_wise: 0]
[force_row_wise: 0]
[histogram_pool_size: -1]
[max_depth: 4]
[min_data_in_leaf: 30]
[min_sum_hessian_in_leaf: 0.001]
[bagging_fraction: 0.7]
[pos_bagging_fraction: 1]
[neg_bagging_fraction: 1]
[bagging_freq: 5]
[bagging_seed: 400]
[bagging_by_query: 0]
[feature_fraction: 0.6]
[feature_fraction_bynode: 1]
[feature_fraction_seed: 30056]
[extra_trees: 0]
[extra_seed: 12879]
[early_stopping_round: 0]
[early_stopping_min_delta: 0]
[first_metric_only: 0]
[max_delta_step: 0]
[lambda_l1: 0.5]
[lambda_l2: 2]
[linear_lambda: 0]
[min_gain_to_split: 0]
[drop_rate: 0.1]
[max_drop: 50]
[skip_drop: 0.5]
[xgboost_dart_mode: 0]
[uniform_drop: 0]
[drop_seed: 17869]
[top_rate: 0.2]
[other_rate: 0.1]
[min_data_per_group: 100]
[max_cat_threshold: 32]
[cat_l2: 10]
[cat_smooth: 10]
[max_cat_to_onehot: 4]
[top_k: 20]
[monotone_constraints: ]
[monotone_constraints_method: basic]
[monotone_penalty: 0]
[feature_contri: ]
[forcedsplits_filename: ]
[refit_decay_rate: 0.9]
[cegb_tradeoff: 1]
[cegb_penalty_split: 0]
[cegb_penalty_feature_lazy: ]
[cegb_penalty_feature_coupled: ]
[path_smooth: 0]
[interaction_constraints: ]
[verbosity: -1]
[saved_feature_importance_type: 0]
[use_quantized_grad: 0]
[num_grad_quant_bins: 4]
[quant_train_renew_leaf: 0]
[stochastic_rounding: 1]
[linear_tree: 0]
[max_bin: 255]
[max_bin_by_feature: ]
[min_data_in_bin: 5]
[bin_construct_sample_cnt: 200000]
[data_random_seed: 175]
[is_enable_sparse: 1]
[enable_bundle: 1]
[use_missing: 1]
[zero_as_missing: 0]
[feature_pre_filter: 1]
[pre_partition: 0]
[two_round: 0]
[header: 0]
[label_column: ]
[weight_column: ]
[group_column: ]
[ignore_column: ]
[categorical_feature: ]
[forcedbins_filename: ]
[precise_float_parser: 0]
[parser_config_file: ]
[objective_seed: 16083]
[num_class: 1]
[is_unbalance: 0]
[scale_pos_weight: 1]
[sigmoid: 1]
[boost_from_average: 1]
[reg_sqrt: 0]
[alpha: 0.9]
[fair_c: 1]
[poisson_max_delta_step: 0.7]
[tweedie_variance_power: 1.5]
[lambdarank_truncation_level: 30]
[lambdarank_norm: 1]
[label_gain: ]
[lambdarank_position_bias_regularization: 0]
[eval_at: ]
[multi_error_top_k: 1]
[auc_mu_weights: ]
[num_machines: 1]
[local_listen_port: 12400]
[time_out: 120]
[machine_list_filename: ]
[machines: ]
[gpu_platform_id: -1]
[gpu_device_id: -1]
[gpu_use_dp: 0]
[num_gpu: 1]

end of parameters

pandas_categorical:[]
