tree
version=v4
num_class=1
num_tree_per_iteration=1
label_index=0
max_feature_idx=44
objective=binary sigmoid:1
feature_names=return_1d return_2d return_3d return_5d return_10d return_20d div_ma_5 div_ma_10 div_ma_20 div_ma_60 ma_5_20_cross ma_20_60_cross rsi rsi_change macd macd_signal macd_hist macd_hist_change bb_pct_b bb_bandwidth atr_pct volatility vol_change vol_ratio candle_body_pct upper_shadow_pct lower_shadow_pct day_of_week month is_month_end is_month_start streak gap price_position_20d macro_usdjpy_ret_20 macro_usdjpy_ret_60 macro_usdjpy_vol_20 macro_topix_ret_20 macro_topix_vol_20 macro_topix_above_200dma macro_nikkei_ret_20 macro_nikkei_above_200dma macro_nikkei_vi macro_jgb10y macro_bias_score
feature_infos=[-0.13602141542579893:0.11910260640052783] [-0.19084926355374487:0.14911564625850349] [-0.22948373619814977:0.16367305751765904] [-0.27185561195713481:0.23210478221139197] [-0.27897235409103605:0.29183236463750384] [-0.281129900076864:0.32840515885498589] [-0.17383931142610315:0.098652375253655181] [-0.2215975038060928:0.17684762010924085] [-0.25927519705087104:0.24085446478417999] [-0.25928134191907154:0.29289555512627974] [-0.16919303999819457:0.16020741201237709] [-0.14077527705902459:0.11890007745933384] [11.190631099544561:89.226666666666659] [-33.288961590754582:22.005845816587495] [-173.03235148619524:219.77424281061303] [-130.42719694861708:157.32280114675325] [-115.28490471976941:94.404593903501407] [-34.089738133384486:23.746330313493928] [-0.30004999808834848:1.3153261460694361] [0.037094812146728419:0.47510270347168093] [0.013938000942951438:0.070407424641952321] [0.0089391460912640903:0.058749993868785572] [-0.89797218908805698:12.284913516976298] [0.49763425975292824:2.1160472859538753] [-1:1] [0:0.91666666666666663] [0:0.953125] [0:4] [1:12] none [0:1] [-9:10] [-0.17344173441734423:0.13900026730820647] [0:1] [-0.10288784967882303:0.08505611680078462] [-0.13986255140503889:0.13160084488587853] [0.0024251968629527628:0.011841457708833433] [-0.22586490939044479:0.19897850606512013] [0.0040695656522785678:0.036437277456277402] [0:1] [-0.22859537662338159:0.23022297972565586] [0:1] none none none
tree_sizes=971 990 996 1090 1092 682 890 679 889 873 781 853 784 684 895 883 877 1088 981 1086 1290 1308 1399 1315 1097 850 1089 993 861 892 991 994 1391 1084 686 857 683 681 756 1080 683 893 785 685 687 1403 995 1308 1296 1291

Tree=0
num_leaves=8
num_cat=0
split_feature=9 4 4 16 14 22 14
split_gain=20.5126 12.6424 9.20601 15.6563 7.4425 6.31283 5.11454
threshold=-0.050922420546695282 -0.046643935485713765 0.012937179965702985 10.066325904148362 -38.887362342563613 -0.12309492154080624 -58.327980547934423
decision_type=2 2 2 2 2 2 2
left_child=4 -2 5 -4 6 -3 -1
right_child=1 2 3 -5 -6 -7 -8
leaf_value=-0.15723250648236545 -0.15311594768228498 -0.20757793795827803 -0.16284019198306388 -0.19263617222111798 -0.13273375022855363 -0.18581371408158834 -0.1835126617538782
leaf_weight=13.887315511703495 9.4235355257987958 20.087009936571121 29.262557685375214 30.006521016359329 7.4396333098411551 34.718288779258728 9.1755477488040924
leaf_count=56 38 81 118 121 30 140 37
internal_value=-0.177635 -0.183061 -0.186083 -0.178093 -0.156362 -0.194748 -0.167739
internal_weight=154 123.498 114.074 59.2691 30.5025 54.8053 23.0629
internal_count=621 498 460 239 123 221 93
is_linear=0
shrinkage=1


Tree=1
num_leaves=8
num_cat=0
split_feature=9 4 12 16 34 28 12
split_gain=19.4569 12.0027 10.6509 9.80631 7.05227 3.8054 2.58033
threshold=-0.050922420546695282 -0.046643935485713765 46.444235720020181 12.374071417998055 0.010103050245114488 8.5000000000000018 38.969881182647143
decision_type=2 2 2 2 2 2 2
left_child=4 -2 6 -4 5 -1 -3
right_child=1 2 3 -5 -6 -7 -8
leaf_value=0.019537479523495563 0.026086944361885443 -0.0073259198256322719 0.0062136162738316084 -0.015332625285144301 0.039669010305253397 -0.0047882402216421751 -0.028684408223102056
leaf_weight=10.438444435596471 9.4445363879203779 12.634171962738039 59.267836645245552 25.513219714164734 11.922547847032545 8.192455589771269 16.594204694032669
leaf_count=42 38 51 239 103 48 33 67
internal_value=0.00223278 -0.0030543 -0.00600578 -0.000301391 0.0229317 0.00868658 -0.0209928
internal_weight=154.007 123.454 114.009 84.7811 30.5534 18.6309 29.2284
internal_count=621 498 460 342 123 75 118
is_linear=0
shrinkage=0.03


Tree=2
num_leaves=8
num_cat=0
split_feature=2 11 20 3 11 36 22
split_gain=14.0966 10.9213 9.81682 9.76222 8.09514 6.77823 7.25187
threshold=-0.0017204050832806404 0.07456131153273117 0.029100106675130796 0.025812413323658693 -0.034517760492735854 0.0076788407034818198 -0.10326919678993839
decision_type=2 2 2 2 2 2 2
left_child=4 2 3 -2 -1 6 -6
right_child=1 -3 -4 -5 5 -7 -8
leaf_value=0.02989817401503064 -0.0047454172456936087 0.022093349815469093 0.010907309539058184 -0.029628285573827396 -0.0049590280960987061 -0.013692439531352482 0.019697537081488359
leaf_weight=15.909295693039892 38.671736270189285 8.931599020957945 14.390366747975348 23.278141334652901 14.360838353633875 10.416136145591734 28.046178773045543
leaf_count=64 156 36 58 94 58 42 113
internal_value=0.00217615 -0.00580556 -0.00974183 -0.0149641 0.0121748 0.00566722 0.0111627
internal_weight=154.004 85.2718 76.3402 61.9499 68.7324 52.8232 42.407
internal_count=621 344 308 250 277 213 171
is_linear=0
shrinkage=0.03


Tree=3
num_leaves=9
num_cat=0
split_feature=9 11 10 2 23 14 14 40
split_gain=17.7579 13.1358 21.7406 7.78873 10.4148 7.07046 4.93606 4.37963
threshold=-0.050922420546695282 0.049366843606015072 0.044519906372190284 0.0049953495202017537 1.075215725092985 -38.887362342563613 -65.356231152874201 0.038657667377616008
decision_type=2 2 2 2 2 2 2 2
left_child=5 3 -3 4 -2 6 -1 -5
right_child=1 2 -4 7 -6 -7 -8 -9
leaf_value=0.023664923617433491 -0.0069801649434673551 0.036689716170937643 -0.018022782548986236 -0.007181814308867952 0.023422897169901126 0.044725673519969054 -0.0016689477974800835 -0.026731749663467582
leaf_weight=11.204466700553898 39.395863741636276 14.916942089796068 8.6756261140108091 29.185705363750458 11.412252470850943 7.4856784939765921 11.93541219830513 19.78790445625782
leaf_count=45 159 60 35 118 46 30 48 80
internal_value=0.00211896 -0.00293459 0.0161482 -0.00782257 0.000193225 0.0218687 0.010908 -0.0161142
internal_weight=154 123.374 23.5926 99.7817 50.8081 30.6256 23.1399 48.9736
internal_count=621 498 95 403 205 123 93 198
is_linear=0
shrinkage=0.03


Tree=4
num_leaves=9
num_cat=0
split_feature=9 11 10 22 28 14 14 41
split_gain=16.8737 12.4044 20.6095 7.27631 7.8165 6.73126 5.09772 4.79025
threshold=-0.050922420546695282 0.049366843606015072 0.044519906372190284 0.14760688930873858 9.5000000000000018 -38.887362342563613 -8.5627841414084269 1.0000000180025095e-35
decision_type=2 2 2 2 2 2 2 2
left_child=5 3 -3 4 -2 7 -5 -1
right_child=1 2 -4 6 -6 -7 -8 -9
leaf_value=0.020434808803866274 -0.006707729417156136 0.035644285386451875 -0.017608258414633999 -0.014108149250566155 -0.031033241236841733 0.043617265911542101 0.011278829819328352 -0.0050643517320853445
leaf_weight=14.44673249125481 53.923365116119385 14.951909154653551 8.6607738733291608 7.6786078363657024 15.062975719571112 7.4962702542543402 23.032995134592056 8.7068398743867874
leaf_count=58 218 60 35 31 61 30 93 35
internal_value=0.0020758 -0.00285149 0.0156766 -0.00760923 -0.0129551 0.0213191 0.00399845 0.0106093
internal_weight=153.96 123.311 23.6127 99.6979 68.9863 30.6498 30.7116 23.1536
internal_count=621 498 95 403 279 123 124 93
is_linear=0
shrinkage=0.03


Tree=5
num_leaves=5
num_cat=0
split_feature=14 36 19 19
split_gain=8.68522 11.4482 12.6457 14.5018
threshold=-65.356231152874201 0.0088352077389240637 0.18168924433446099 0.11315127420077743
decision_type=2 2 2 2
left_child=-1 2 3 -2
right_child=1 -3 -4 -5
leaf_value=0.018850000007513988 -0.0060351853960644367 -0.035947362579533536 -0.027075227073094229 0.015727308520199785
leaf_weight=13.468358576297758 82.69998773932457 7.9128174483776084 14.354465991258619 38.721324786543846
leaf_count=54 334 32 58 156
internal_value=-0.00237693 -0.00470101 -0.00227576 0.000925745
internal_weight=157.157 143.689 135.776 121.421
internal_count=634 580 548 490
is_linear=0
shrinkage=0.03


Tree=6
num_leaves=7
num_cat=0
split_feature=9 40 9 9 34 2
split_gain=10.5548 8.80674 11.4165 8.40601 5.16517 0.679339
threshold=-0.084024516261557949 0.087799878180499738 -0.0010327351028322767 0.02191226419966523 0.013821019345783616 -0.018889344377267466
decision_type=2 2 2 2 2 2
left_child=5 2 4 -4 -2 -1
right_child=1 -3 3 -5 -6 -7
leaf_value=0.0063443320422032629 -0.0223936126748055 -0.031553766748452255 0.021263812042316789 -0.0010073341425597161 -0.003009949952746289 0.024911574032296331
leaf_weight=7.4883520454168346 26.504239097237587 8.6508262753486616 17.814456850290298 60.89351898431778 26.75520084798336 8.9864776879549009
leaf_count=30 107 35 72 246 108 36
internal_value=-0.00231987 -0.00513933 -0.00285061 0.00424959 -0.0133889 0.0188845
internal_weight=157.093 140.618 131.967 78.708 53.2594 16.4748
internal_count=634 568 533 318 215 66
is_linear=0
shrinkage=0.03


Tree=7
num_leaves=5
num_cat=0
split_feature=9 36 19 15
split_gain=10.0574 10.4231 10.5141 14.9375
threshold=-0.084024516261557949 0.0088352077389240637 0.18168924433446099 40.542439551710721
decision_type=2 2 2 2
left_child=-1 2 3 -2
right_child=1 -3 -4 -5
leaf_value=0.01843580736029974 -0.0046763230515046786 -0.033740123343853894 -0.024947180888378502 0.021582417895749609
leaf_weight=16.48271282017231 95.014749392867088 8.6212602853775007 14.553403437137602 22.365956321358681
leaf_count=66 384 35 59 90
internal_value=-0.0022534 -0.00500942 -0.00254421 0.000479172
internal_weight=157.038 140.555 131.934 117.381
internal_count=634 568 533 474
is_linear=0
shrinkage=0.03


Tree=8
num_leaves=7
num_cat=0
split_feature=9 40 11 4 14 26
split_gain=9.53204 8.48944 10.7895 5.4531 5.3336 1.64631
threshold=-0.084024516261557949 0.087799878180499738 0.020960568123117643 0.013353542558250166 95.385589702087387 0.25641813281463371
decision_type=2 2 2 2 2 2
left_child=5 2 3 -2 -4 -1
right_child=1 -3 4 -5 -6 -7
leaf_value=0.027425167491862527 -0.01662522952938756 -0.030854057164156633 0.011108710470476449 -5.1270011796904804e-05 -0.012487370595797466 0.0051111575896237906
leaf_weight=7.496368661522868 43.759583383798599 8.6158757507801038 47.601638495922089 32.345224261283875 8.1416093707084638 8.9928434789180738
leaf_count=30 177 35 192 131 33 36
internal_value=-0.00219608 -0.00488333 -0.00263849 -0.00995489 0.00708946 0.0179362
internal_weight=156.953 140.464 131.848 76.1048 55.7432 16.4892
internal_count=634 568 533 308 225 66
is_linear=0
shrinkage=0.03


Tree=9
num_leaves=7
num_cat=0
split_feature=16 21 4 7 25 34
split_gain=7.89019 10.9114 6.52192 8.93005 8.79366 5.68497
threshold=13.533391968602571 0.032875250343098752 0.012937179965702985 -0.0030763205111594646 0.17468859723983635 0.0023414100061142089
decision_type=2 2 2 2 2 2
left_child=1 2 3 -1 -4 -2
right_child=5 -3 4 -5 -6 -7
leaf_value=0 0.00053108007358922214 0.027185920433600654 0.02357738551836891 -0.021628117011161501 -0.0034905291657643736 -0.025183324304152318
leaf_weight=54.002512276172638 10.612894058227541 10.987326651811598 16.150221973657608 23.169282808899879 23.763941094279289 18.192024663090706
leaf_count=218 43 44 65 94 96 74
internal_value=-0.00213766 0.00101617 -0.00172896 -0.00686988 0.00770634 -0.0158028
internal_weight=156.878 128.073 117.086 77.1718 39.9142 28.8049
internal_count=634 517 473 312 161 117
is_linear=0
shrinkage=0.03


Tree=10
num_leaves=6
num_cat=0
split_feature=9 19 11 19 17
split_gain=10.2873 10.0299 16.4504 6.19134 1.09885
threshold=-0.084024516261557949 0.18168924433446099 0.072983541642794317 0.11315127420077743 0.2309309275213294
decision_type=2 2 2 2 2
left_child=4 2 3 -2 -1
right_child=1 -3 -4 -5 -6
leaf_value=0.031076918580993963 -0.0070471781555705749 -0.025038443690653209 0.033133814001531946 0.0078764270758044652 0.0081236496822578025
leaf_weight=7.741180941462515 80.19803149998188 12.773517072200773 10.962985157966612 33.387780159711838 7.4965169578790665
leaf_count=31 325 52 44 135 30
internal_value=0.000996018 -0.00162162 0.0010192 -0.00247033 0.0229075
internal_weight=152.56 137.322 124.549 113.586 15.2377
internal_count=617 556 504 460 61
is_linear=0
shrinkage=0.03


Tree=11
num_leaves=7
num_cat=0
split_feature=35 11 7 11 21 21
split_gain=7.92851 9.18816 12.7522 10.1777 5.79755 4.10474
threshold=-0.088583591891673683 0.072983541642794317 0.0083493592138259767 -0.032579456622543461 0.022847077952058755 0.013829061700647743
decision_type=2 2 2 2 2 2
left_child=-1 2 3 -2 -3 -4
right_child=1 4 5 -5 -6 -7
leaf_value=0.026615240796670919 0.021199740274884409 0.035447655254707826 0 -0.0024921691078423616 0 -0.021521538872435863
leaf_weight=8.1830692738294584 19.394759014248848 7.462419047951701 11.845314681529997 64.441051200032234 8.6776127219200117 32.486766740679741
leaf_count=33 78 30 48 261 35 132
internal_value=0.000987977 -0.000706669 -0.0035822 0.00318027 0.0191784 -0.0162796
internal_weight=152.491 144.308 128.168 83.8358 16.14 44.3321
internal_count=617 584 519 339 65 180
is_linear=0
shrinkage=0.03


Tree=12
num_leaves=6
num_cat=0
split_feature=40 9 9 38 19
split_gain=12.7182 7.77602 10.3207 9.26141 4.05872
threshold=0.087799878180499738 -0.084024516261557949 0.076315504101729256 0.0066785424997837335 0.1662642608427948
decision_type=2 2 2 2 2
left_child=1 -1 3 -3 -4
right_child=-2 2 4 -5 -6
leaf_value=0.023584232459101066 -0.029556004688127455 0.019924019696083851 0.029910037559224861 -0.0059287387660425161 0.00063417938669456289
leaf_weight=13.487934276461599 9.2976591736078245 12.120466649532316 11.709648773074152 97.926626369357109 7.8829616457223883
leaf_count=54 38 49 47 397 32
internal_value=0.000981566 0.00344864 0.00091326 -0.00264266 0.0199755
internal_weight=152.425 143.128 129.64 110.047 19.5926
internal_count=617 579 525 446 79
is_linear=0
shrinkage=0.03


Tree=13
num_leaves=5
num_cat=0
split_feature=40 9 36 9
split_gain=12.1458 7.36054 10.1959 9.36254
threshold=0.087799878180499738 -0.084024516261557949 0.0087959143494123811 -0.0010327351028322767
decision_type=2 2 2 2
left_child=1 -1 3 -3
right_child=-2 2 -4 -5
leaf_value=0.022976615960870323 -0.028919609222999926 -0.0063484886578171083 -0.026203094194236325 0.010344878219248224
leaf_weight=13.48225189745426 9.2617448419332487 48.30423529446125 9.3103231489658338 71.992399543523788
leaf_count=54 38 196 38 291
internal_value=0.000970292 0.00338034 0.000909686 0.00352493
internal_weight=152.351 143.089 129.607 120.297
internal_count=617 579 525 487
is_linear=0
shrinkage=0.03


Tree=14
num_leaves=7
num_cat=0
split_feature=35 35 4 11 21 5
split_gain=7.28194 8.63775 13.1866 8.1839 7.68211 3.86246
threshold=-0.088583591891673683 -0.036433885771237344 -0.024648097095640916 0.072983541642794317 0.029225165551425809 -0.057586007240091434
decision_type=2 2 2 2 2 2
left_child=-1 4 5 -4 -2 -3
right_child=1 2 3 -5 -6 -7
leaf_value=0.025477567528624751 -0.031897205088259481 0.00028296200778685763 -0.0065099275631882005 0.017799178811352446 0.0031937075420200999 0.026571678262071217
leaf_weight=8.1900697052478773 11.810767263174059 8.1718061268329638 84.665374144911766 12.391864553093908 7.7002738565206519 19.365377813577652
leaf_count=33 48 33 344 50 31 78
internal_value=0.000924482 -0.000697953 0.00219259 -0.00295811 -0.0183415 0.0198256
internal_weight=152.296 144.105 124.594 97.0572 19.511 27.5372
internal_count=617 584 505 394 79 111
is_linear=0
shrinkage=0.03


Tree=15
num_leaves=7
num_cat=0
split_feature=35 3 2 3 36 37
split_gain=12.5013 11.791 8.52343 12.4823 5.05687 5.42458
threshold=-0.088583591891673683 0.015888111878773929 0.00052341209279793699 0.070257495611385293 0.0090503095185719678 0.046902554699084227
decision_type=2 2 2 2 2 2
left_child=-1 4 -3 -4 5 -2
right_child=1 2 3 -5 -6 -7
leaf_value=0.033088450800470688 0.009633285193159884 0.012549525930191893 -0.026364622738542752 0.011499511418717146 -0.015933802855121661 -0.0089789401296640776
leaf_weight=7.6879299879074088 73.961506351828575 7.4028292000293723 35.134134635329247 8.0778681486844999 8.0966915637254697 14.830239236354826
leaf_count=31 299 30 143 33 33 60
internal_value=0 -0.00207603 -0.0135919 -0.0187591 0.00394144 0.00623009
internal_weight=155.191 147.503 50.6148 43.212 96.8884 88.7917
internal_count=629 598 206 176 392 359
is_linear=0
shrinkage=0.03


Tree=16
num_leaves=7
num_cat=0
split_feature=35 7 7 22 21 35
split_gain=11.8969 12.0828 8.46642 7.32298 6.0524 11.8819
threshold=-0.088583591891673683 0.017961149703597867 0.051203481490899656 0.13541629985106499 0.030967810777779995 -0.030004096651680131
decision_type=2 2 2 2 2 2
left_child=-1 4 3 -3 5 -2
right_child=1 2 -4 -5 -6 -7
leaf_value=0.03227004165681284 -0.021687018080805781 -0.034743950311508127 0.0073391404627864629 -0.0030248836232698714 0.02396806418000446 0.0052685308928936163
leaf_weight=7.6969911158084861 15.732023417949675 17.850786879658703 8.8214728236198408 12.051262795925139 9.2105983197689039 83.77493579685688
leaf_count=31 64 73 36 49 37 339
internal_value=0 -0.00201905 -0.0160295 -0.0234216 0.0030352 0.00051576
internal_weight=155.138 147.441 38.7235 29.902 108.718 99.507
internal_count=629 598 158 122 440 403
is_linear=0
shrinkage=0.03


Tree=17
num_leaves=9
num_cat=0
split_feature=3 15 40 36 3 15 11 38
split_gain=8.27465 7.4909 6.9866 7.86357 5.96955 6.72042 5.70415 1.45496
threshold=0.021235819405791893 -39.866900584266375 0.072860437626275157 0.0081862498936358784 0.070257495611385293 40.542439551710721 -0.011398272993350276 0.0095567710018403893
decision_type=2 2 2 2 2 2 2 2
left_child=1 7 3 -3 5 6 -2 -1
right_child=4 2 -4 -5 -6 -7 -8 -9
leaf_value=0.0066342541874058426 -0.004013622727560142 0.0069850525364363253 -0.023573404944712786 -0.020732177440703339 0.0080703334228847175 0.0043659974028081722 -0.03383683266485802 0.030027752903065821
leaf_weight=7.4473920464515713 11.271025389432905 76.700982481241226 7.3223830610513678 8.293128773570059 10.052309930324553 9.1287330538034421 15.864874839782717 8.9718578606843931
leaf_count=30 46 310 30 34 41 37 65 36
internal_value=0 0.00459389 0.00091788 0.00369372 -0.0102842 -0.0159199 -0.0230903 0.0221039
internal_weight=155.053 108.736 92.3165 84.9941 46.3169 36.2646 27.1359 16.4192
internal_count=629 440 374 344 189 148 111 66
is_linear=0
shrinkage=0.03


Tree=18
num_leaves=8
num_cat=0
split_feature=35 16 9 9 17 33 20
split_gain=11.1652 8.2396 7.1419 11.6337 6.71205 5.18898 1.33917
threshold=-0.088583591891673683 12.374071417998055 -0.050922420546695282 -0.011114212465073573 4.3315604825436411 0.15989690721649488 0.028845422770301065
decision_type=2 2 2 2 2 2 2
left_child=-1 2 5 -4 6 -2 -3
right_child=1 4 3 -5 -6 -7 -8
leaf_value=0.031257326965370688 -0.00049285716959865378 -0.031206885214555176 -0.018507494148546882 0.0042068896417397248 0.004634464346927371 0.028396224642968548 -0.0085893216261374514
leaf_weight=7.6970624029636374 7.67191353440285 12.400438576936727 25.548257052898407 73.752412617206573 8.3324714154005033 11.706870362162588 7.8505188822746268
leaf_count=31 31 51 104 299 34 47 32
internal_value=0 -0.00196182 0.00147738 -0.00173905 -0.0158948 0.0172815 -0.0246732
internal_weight=154.96 147.263 118.679 99.3007 28.5834 19.3788 20.251
internal_count=629 598 481 403 117 78 83
is_linear=0
shrinkage=0.03


Tree=19
num_leaves=9
num_cat=0
split_feature=7 15 37 33 7 22 36 37
split_gain=9.03982 7.4685 7.13386 10.5768 6.91924 5.56031 1.94829 1.65023
threshold=0.017961149703597867 -39.866900584266375 0.056917854751801451 0.66179432059952237 0.051203481490899656 0.36452972120015142 0.0064712341951762295 0.0062929723144858904
decision_type=2 2 2 2 2 2 2 2
left_child=1 7 3 -3 5 6 -2 -1
right_child=4 2 -4 -5 -6 -7 -8 -9
leaf_value=0.028630769222600057 -0.032100377096809768 -0.0015833199801241465 -0.020647595318144581 0.022965815618757632 0.0081199958508944049 0.0012356615718613156 -0.0089073949982654884 0.0054929610425976157
leaf_weight=10.43176554143429 14.576775193214418 66.385378763079643 10.03317318856716 18.293167471885681 10.068160906434057 8.3429162800312024 9.2669054269790632 7.459339350461959
leaf_count=42 60 269 41 74 41 34 38 30
internal_value=0 0.00451305 0.00082014 0.00395453 -0.0114497 -0.018127 -0.0250537 0.0212603
internal_weight=154.858 112.603 94.7117 84.6785 42.2548 32.1866 23.8437 17.8911
internal_count=629 456 384 343 173 132 98 72
is_linear=0
shrinkage=0.03


Tree=20
num_leaves=11
num_cat=0
split_feature=9 12 12 2 24 17 11 21 7 11
split_gain=7.59591 11.2563 10.9291 10.1388 8.72491 7.91551 3.4004 2.60464 2.25082 1.82895
threshold=-0.050922420546695282 46.444235720020181 38.969881182647143 0.0054444247200323712 0.13431800158604285 0.66211175069257966 -0.034943035139422145 0.015652944511252997 -0.0042641380863542308 0.005102778386320451
decision_type=2 2 2 2 2 2 2 2 2 2
left_child=6 2 7 4 -3 -5 8 -2 -1 -4
right_child=1 3 9 5 -6 -7 -8 -9 -10 -11
leaf_value=0.027895685141589542 0.011038068810108702 0.0013774517386727862 -0.039077801290993634 -0.02484684770974941 0.028535149188468095 0.0010145731635561575 0 -0.0098988645673981478 0.0046672404043622134 -0.011866100464744556
leaf_weight=11.667861565947534 9.1136071532964724 27.870957568287849 11.483315676450731 13.149738788604735 16.849503248929977 32.045790582895279 9.9371217340230924 8.1331706047058088 8.9520797431468981 7.8843998610973349
leaf_count=47 37 113 47 54 68 131 40 33 36 32
internal_value=0.000310694 -0.00287623 -0.0164918 0.00274313 0.0127143 -0.00692611 0.0133339 0.000382707 0.0197786 -0.0308497
internal_weight=157.088 126.53 36.6145 89.916 44.7205 45.1955 30.5571 17.2468 20.6199 19.3677
internal_count=638 515 149 366 181 185 123 70 83 79
is_linear=0
shrinkage=0.03


Tree=21
num_leaves=11
num_cat=0
split_feature=9 12 12 2 8 31 18 26 2 11
split_gain=7.22388 10.7271 10.4532 9.6075 6.59019 5.64601 4.05647 2.60706 2.32181 1.73812
threshold=-0.050922420546695282 46.444235720020181 38.969881182647143 0.0054444247200323712 0.02115372043256308 -1.4999999999999998 0.10251100402008484 0.26506681858102504 -0.0021772129245205547 0.005102778386320451
decision_type=2 2 2 2 2 2 2 2 2 2
left_child=6 2 7 5 -5 -3 -1 -2 -8 -4
right_child=1 3 9 4 -6 -7 8 -9 -10 -11
leaf_value=-0.00094082611618536631 -0.008750588590528208 -0.00090729851991871275 -0.038279638298176565 0.010435868245919879 -0.013655811455803675 0.020035438676312349 0.029762242620016373 0.012224634892586775 0.0060297361844669755 -0.011593451265807703
leaf_weight=10.408202201128008 9.347128242254259 16.306839048862457 11.413815140724184 12.034401670098303 33.115759938955307 28.448018938302994 10.189282923936847 7.9024837613105765 9.9400075078010524 7.8749063462018958
leaf_count=42 38 66 47 49 136 115 41 32 40 32
internal_value=0.000297257 -0.00280936 -0.016119 0.00266968 -0.00674596 0.0123715 0.0130035 0.000351186 0.0203249 -0.0302019
internal_weight=156.981 126.443 36.5383 89.905 45.1502 44.7549 30.5375 17.2496 20.1293 19.2887
internal_count=638 515 149 366 185 181 123 70 81 79
is_linear=0
shrinkage=0.03


Tree=22
num_leaves=12
num_cat=0
split_feature=2 12 10 11 37 0 20 3 16 20 1
split_gain=6.49443 7.63358 8.59946 8.18703 7.5744 6.2796 5.98469 5.97376 4.18947 3.11019 2.52538
threshold=-0.0017204050832806404 49.671410780999828 0.035210563798169343 -0.034943035139422145 0.023418890181349687 -0.00065429862291188623 0.028969785956076695 0.025812413323658693 -7.7539550693603738 0.018728858075952683 -0.014665259491393743
decision_type=2 2 2 2 2 2 2 2 2 2 2
left_child=1 3 10 -1 5 -2 9 -7 -5 -6 -3
right_child=4 2 -4 8 6 7 -8 -9 -10 -11 -12
leaf_value=0.020456460193640866 -0.011723594192761399 0.0090211024026160581 -0.0076318118760419738 0 -0.0024282286249498164 0.022852566329179373 0.0069967960117237561 -0.0039475018505915295 -0.01988936929416214 -0.025554910181671928 0.033687476452507331
leaf_weight=9.6558063477277738 13.46682934463024 9.9296623766422307 7.6331651508808127 21.7503138333559 9.0688265115022642 15.562763944268228 7.3448946774005881 10.725046798586844 14.004000931978227 23.32712422311306 14.399034380912781
leaf_count=39 55 40 31 88 37 63 30 44 57 96 58
internal_value=0.000284096 0.00647664 0.0172706 -0.00121236 -0.00557001 0.00334802 -0.0145835 0.0118822 -0.00823521 -0.0200346 0.0256397
internal_weight=156.867 77.372 31.9619 45.4101 79.4955 39.7546 39.7408 26.2878 35.7543 32.396 24.3287
internal_count=638 313 129 184 325 162 163 107 145 133 98
is_linear=0
shrinkage=0.03


Tree=23
num_leaves=11
num_cat=0
split_feature=7 11 41 36 7 21 21 21 6 7
split_gain=5.64829 5.44345 7.83063 5.90249 4.968 3.87844 4.29946 3.38763 2.91775 2.57945
threshold=0.017961149703597867 -0.032579456622543461 1.0000000180025095e-35 0.0079925233203345814 0.044945436847001523 0.016644094843864029 0.024788109107406867 0.019116031404937266 0.015597757998036969 -0.02959619387683422
decision_type=2 2 2 2 2 2 2 2 2 2
left_child=1 5 9 -4 7 -1 -7 8 -2 -3
right_child=4 2 3 -5 -6 6 -8 -9 -10 -11
leaf_value=-0.00041186708012324924 -0.0046565687482026793 -0.0017217913828275599 0.0074413129521049247 -0.017488330234602455 0.0054859151970351296 0.037032049719569408 0.0048419874834333817 -0.0010208172548128306 -0.033355530340272117 -0.027558167690604186
leaf_weight=7.672223553061488 7.3072841614484849 7.6926625967025783 68.124865874648094 7.5395269989967337 12.210018038749693 7.9482835829257992 9.096783831715582 11.174909025430678 9.6417973488569242 8.3399534076452237
leaf_count=31 30 31 276 31 50 32 37 46 40 34
internal_value=0.000279382 0.00372847 8.91358e-05 0.00437769 -0.00902708 0.015651 0.0229527 -0.0157717 -0.0235715 -0.0175592
internal_weight=156.748 116.414 91.697 75.6644 40.334 24.7173 17.0451 28.124 16.9491 16.0326
internal_count=638 472 372 307 166 100 69 116 70 65
is_linear=0
shrinkage=0.03


Tree=24
num_leaves=9
num_cat=0
split_feature=9 15 2 17 40 23 31 2
split_gain=6.41131 6.96148 6.88375 8.71194 5.09242 4.78336 3.02831 3.01191
threshold=-0.050922420546695282 -13.593939938210619 0.014867785177427375 3.5211619010361841 0.0066428614026400332 1.024332925208632 -1.4999999999999998 -0.0021772129245205547
decision_type=2 2 2 2 2 2 2 2
left_child=6 5 4 -4 -3 -2 -1 -8
right_child=1 2 3 -5 -6 -7 7 -9
leaf_value=-0.00011418112592904711 -0.030120991060657607 -0.0045182652071294772 -0.023315112405325994 0.0062548791168542664 0.011266036088857652 -0.00021828997745284751 0.028356480194184026 0.0033900517019257825
leaf_weight=9.9190809130668658 10.6456655561924 26.111096680164337 18.460152342915535 13.628447785973547 47.848725095391273 9.4967361539602262 10.636093705892566 9.9276988953351939
leaf_count=40 44 106 76 56 194 39 43 40
internal_value=0.0002476 -0.0026765 0.00037305 -0.0106862 0.00552376 -0.0179931 0.0122338 0.0183369
internal_weight=156.674 126.191 106.048 32.0886 73.9598 20.1424 30.4829 20.5638
internal_count=638 515 432 132 300 83 123 83
is_linear=0
shrinkage=0.03


Tree=25
num_leaves=7
num_cat=0
split_feature=11 23 36 36 18 14
split_gain=8.25877 7.90251 6.90368 8.50232 6.37756 5.92761
threshold=0.069584365448027832 1.3742225072319858 0.0046947725878894427 0.0087959143494123811 0.41815540251869798 89.181428662042904
decision_type=2 2 2 2 2 2
left_child=1 2 4 -4 -1 -2
right_child=5 -3 3 -5 -6 -7
leaf_value=0 0.031861869456144498 0.022870109072957494 0.0020661409841446115 -0.021447454250386733 -0.032354406325601714 0
leaf_weight=9.1307113021612185 9.7221390902996081 8.1164036840200406 94.266633152961731 14.079749345779417 11.838554069399832 8.3434919714927656
leaf_count=37 39 33 384 58 49 34
internal_value=8.12514e-07 -0.00249459 -0.00452489 -0.00118689 -0.0195139 0.0180883
internal_weight=155.498 137.432 129.316 108.346 20.9693 18.0656
internal_count=634 561 528 442 86 73
is_linear=0
shrinkage=0.03


Tree=26
num_leaves=9
num_cat=0
split_feature=20 35 0 16 16 9 38 3
split_gain=6.49715 10.3169 9.01515 8.2798 5.96604 5.17938 1.30638 0.582763
threshold=0.038485651382454349 -0.0048633063187535344 -0.014534622363498504 -6.7570312788238285 -3.8421066957460899 0.039411963419658962 0.010040062377045673 1.0000000180025095e-35
decision_type=2 2 2 2 2 2 2 2
left_child=1 3 6 -1 -4 -5 -3 -2
right_child=7 2 4 5 -6 -7 -8 -9
leaf_value=-0.034327930027589854 0.024133328564251627 0.030047262177659809 0.0095573486108461933 0.006100146783096839 -0.0065570839649980806 -0.020451501277356999 0.0073405591924165098 0.0059650408184125699
leaf_weight=11.7383846193552 7.4027663767337781 8.4053394049406069 28.64405345916748 15.034394681453707 60.403087645769119 8.4836009442806226 7.9129038155078879 7.3888924717903137
leaf_count=48 30 34 116 61 248 35 32 30
internal_value=0 -0.00198421 0.00264621 -0.0156243 -0.00111268 -0.00374219 0.021859 0.0177425
internal_weight=155.413 140.622 105.365 35.2564 89.0471 23.518 16.3182 14.7917
internal_count=634 574 430 144 364 96 66 60
is_linear=0
shrinkage=0.03


Tree=27
num_leaves=8
num_cat=0
split_feature=11 19 14 19 1 35 11
split_gain=7.759 7.85076 6.66972 6.90159 8.5383 7.68773 2.47096
threshold=0.069584365448027832 0.17548692378111047 42.080071751267958 0.13511301346090601 0.021525332351984065 -0.036433885771237344 0.029190218148730355
decision_type=2 2 2 2 2 2 2
left_child=2 -2 3 5 -5 -1 -4
right_child=1 -3 6 4 -6 -7 -8
leaf_value=-0.026549037889087905 0.032819317959868193 -0.0033688310089124056 -0.026967492407191929 0.024634885844887256 -0.0094923755001854598 -0.00017134135167013324 -0.0024653112339098164
leaf_weight=9.4731831848621351 10.191860139369966 7.8552519083023062 10.329369157552721 17.507974505424503 7.8844313025474539 84.032075583934784 8.0360109061002714
leaf_count=39 41 32 43 71 32 343 33
internal_value=1.33555e-05 0.017555 -0.00240428 0.00018534 0.0135713 -0.00350078 -0.0182778
internal_weight=155.31 18.0471 137.263 118.898 25.3924 93.5053 18.3654
internal_count=634 73 561 485 103 382 76
is_linear=0
shrinkage=0.03


Tree=28
num_leaves=7
num_cat=0
split_feature=11 20 38 37 21 14
split_gain=7.39353 6.57295 6.62822 6.67628 6.28698 3.90015
threshold=0.071983042379688347 0.038485651382454349 0.0070570602137410322 0.053073017408123764 0.014379972200416924 89.181428662042904
decision_type=2 2 2 2 2 2
left_child=1 2 4 -4 -1 -2
right_child=5 -3 3 -5 -6 -7
leaf_value=0.023036576690069536 0.029019477044555868 0.016305974963028783 -0.0045880482806459361 -0.027584549798630661 -0.0063338517904413345 0
leaf_weight=11.842112973332407 9.1926116794347781 13.017916619777678 91.430412158370018 11.797065153717993 10.035376474261282 7.8685691207647315
leaf_count=48 37 53 374 49 41 32
internal_value=0 -0.002296 -0.00457578 -0.00783302 0.00953386 0.0176165
internal_weight=155.184 138.123 125.105 103.227 21.8775 17.0612
internal_count=634 565 512 423 89 69
is_linear=0
shrinkage=0.03


Tree=29
num_leaves=7
num_cat=0
split_feature=11 19 20 38 37 20
split_gain=7.04237 6.82484 6.23659 6.29966 6.66789 5.7151
threshold=0.071983042379688347 0.17548692378111047 0.038485651382454349 0.0071143805668462496 0.053073017408123764 0.019439942114609265
decision_type=2 2 2 2 2 2
left_child=2 -2 3 5 -5 -1
right_child=1 -3 -4 4 -6 -7
leaf_value=0.026012273953968639 0.032046068874292198 -0.0024123484791826119 0.015890033127716328 -0.0045635491794851629 -0.028124988136604565 -0.0018744870718633774
leaf_weight=8.3882874548435229 9.4212690591812152 7.6211630553007117 13.010381087660788 90.408207893371582 11.044989779591559 15.17463259398937
leaf_count=34 38 31 53 370 46 62
internal_value=4.72657e-06 0.017214 -0.00222854 -0.00445274 -0.00776776 0.00872472
internal_weight=155.069 17.0424 138.026 125.016 101.453 23.5629
internal_count=634 69 565 512 416 96
is_linear=0
shrinkage=0.03


Tree=30
num_leaves=8
num_cat=0
split_feature=40 3 31 26 13 3 23
split_gain=6.03405 4.90228 9.14926 6.14797 5.4432 4.93479 3.97615
threshold=0.087799878180499738 0.021235819405791893 -1.4999999999999998 0.090009000900090022 6.4204237787758283 0.070257495611385293 0.91909907471231667
decision_type=2 2 2 2 2 2 2
left_child=1 2 3 -1 -4 6 -3
right_child=-2 5 4 -5 -6 -7 -8
leaf_value=-0.025779798845520906 -0.02240830719283236 0.003374097332097929 0.015407375043635209 0.00098729042523378681 -0.0062522914378898139 0.01235923647924419 -0.01813390591204439
leaf_weight=8.5663214623928052 7.3375400304794303 8.9607967287302035 60.296824082732201 24.671154767274857 10.318258643150328 7.6379191279411307 22.416140303015709
leaf_count=35 31 37 245 100 42 31 93
internal_value=0.000826842 0.00241661 0.00587371 -0.00655738 0.0119509 -0.00625773 -0.011708
internal_weight=150.205 142.867 103.853 33.2375 70.6151 39.0149 31.3769
internal_count=614 583 422 135 287 161 130
is_linear=0
shrinkage=0.03


Tree=31
num_leaves=8
num_cat=0
split_feature=40 3 14 1 21 9 34
split_gain=5.75979 4.59164 7.75886 11.8632 10.1157 5.69148 4.47482
threshold=0.087799878180499738 0.021235819405791893 2.8999391855884373 0.0035205451166632211 0.019433396157011035 0.076315504101729256 -0.020564556758440319
decision_type=2 2 2 2 2 2 2
left_child=1 2 3 -1 -4 6 -3
right_child=-2 5 4 -5 -6 -7 -8
leaf_value=-0.010527103768115571 -0.021957155817857656 0.003201807360771539 0.024524648026861457 0.016599846093337815 -0.0048756992394614115 0.01006011884891223 -0.020725211570422938
leaf_weight=40.501747891306877 7.3052389472722998 8.2829774767160433 29.683433711528778 19.926220878958702 13.770618185400961 11.238222494721411 19.438854023814201
leaf_count=165 31 34 120 81 56 46 81
internal_value=0.000783088 0.00233676 0.00568259 -0.00109644 0.0150731 -0.00606011 -0.013337
internal_weight=150.147 142.842 103.882 60.428 43.4541 38.9601 27.7218
internal_count=614 583 422 246 176 161 115
is_linear=0
shrinkage=0.03


Tree=32
num_leaves=12
num_cat=0
split_feature=7 31 26 25 26 17 15 2 9 16 25
split_gain=5.52805 7.59974 6.6007 8.61209 5.97132 5.664 5.07996 4.38054 4.23275 4.06019 1.44502
threshold=0.017961149703597867 -1.4999999999999998 0.23015346701507944 0.20574420200626176 0.090009000900090022 4.3315604825436411 -2.5502887006878514 0.0061594033232461607 0.039411963419658962 8.9439344184982819 0.25956195431587364
decision_type=2 2 2 2 2 2 2 2 2 2 2
left_child=1 4 7 -4 -1 9 -6 -3 -7 -2 -11
right_child=5 2 3 -5 6 8 -8 -9 -10 10 -12
leaf_value=-0.025710095144113723 0 0.024970950152911064 0.01438763925116726 -0.012198618337308875 -0.012610452619584983 -0.0093636703029019094 0.012066418559684548 0.0014664409016694026 0.018389546583135484 -0.033825811849517801 -0.0085290017763223567
leaf_weight=8.7776970565319044 7.2359602153301266 25.187296316027641 19.392014637589455 20.39070525765419 11.816406726837158 7.4918627142906171 14.325487405061722 11.944606676697729 7.8007214069366455 8.5672784894704801 7.1439279913902274
leaf_count=36 30 102 79 83 48 31 58 49 32 36 30
internal_value=0.000755166 0.00421358 0.0094911 0.000470169 -0.00688893 -0.00869311 0.000275711 0.0182547 0.00441531 -0.0176838 -0.0254322
internal_weight=150.074 111.834 76.9146 39.7827 34.9196 38.2398 26.1419 37.1319 15.2926 22.9472 15.7112
internal_count=614 455 313 162 142 159 106 151 63 96 66
is_linear=0
shrinkage=0.03


Tree=33
num_leaves=9
num_cat=0
split_feature=7 38 20 20 35 36 36 11
split_gain=5.25359 6.66511 5.24536 8.55404 6.28647 4.01825 8.35049 1.90829
threshold=0.017961149703597867 0.0066785424997837335 0.021814421255607383 0.024650055866002538 0.047612426125369763 0.0062086792255458163 0.0044643454617557445 0.005102778386320451
decision_type=2 2 2 2 2 2 2 2
left_child=1 -1 4 -4 -3 6 -2 -7
right_child=5 2 3 -5 -6 7 -8 -9
leaf_value=0.025905341484204605 0.007051325817042816 0.0014600228381389758 0.024720856904047458 0 -0.021290912924938721 -0.0057262409299223748 -0.028620118017963523 0.012405199636891281
leaf_weight=9.434780687093733 7.2714483886957195 30.873322263360023 16.034112885594368 41.564543455839157 13.913952529430388 9.2035729885101336 14.49045345187187 7.2070468217134467
leaf_count=38 30 126 65 169 57 38 61 30
internal_value=0.00071619 0.00408869 0.00147679 0.00746632 -0.00589534 -0.00850138 -0.0164794 0.00190438
internal_weight=149.993 111.821 102.386 57.5987 44.7873 38.1725 21.7619 16.4106
internal_count=614 455 417 234 183 159 91 68
is_linear=0
shrinkage=0.03


Tree=34
num_leaves=5
num_cat=0
split_feature=40 35 36 40
split_gain=5.40299 4.32575 8.41203 7.18653
threshold=0.087799878180499738 -0.088583591891673683 0.0090503095185719678 0.0047367143212333493
decision_type=2 2 2 2
left_child=1 -1 3 -3
right_child=-2 2 -4 -5
leaf_value=0.021971253381549819 -0.021390107459267161 -0.0053113494944432935 -0.021846310564631367 0.0090912684281781782
leaf_weight=7.3819748163223258 7.2479724735021582 49.68855394423008 11.296052575111387 74.292380839586258
leaf_count=30 31 203 47 303
internal_value=0.000703769 0.00221018 0.000718175 0.0032073
internal_weight=149.907 142.659 135.277 123.981
internal_count=614 583 553 506
is_linear=0
shrinkage=0.03


Tree=35
num_leaves=7
num_cat=0
split_feature=14 13 24 16 38 38
split_gain=6.56923 4.81513 3.99377 6.05733 5.66297 3.16096
threshold=-65.356231152874201 -7.9950754505749186 0.26419823116962321 11.429537006005919 0.0070570602137410322 0.0088339553591261707
decision_type=2 2 2 2 2 2
left_child=-1 5 4 -4 -3 -2
right_child=1 2 3 -5 -6 -7
leaf_value=0.022066397112793752 0.026668496686914976 0.0093086133405392239 0.010511037551329648 -0.011711303610749884 -0.010111849988387808 0
leaf_weight=11.27743026614189 7.3849134743213645 14.522851988673208 37.793412148952484 12.918501198291777 64.232137933373451 8.312439560890196
leaf_count=46 30 59 154 54 264 34
internal_value=0.00186791 0 -0.00195768 0.00433593 -0.00620302 0.0147107
internal_weight=156.442 145.164 129.467 50.7119 78.755 15.6974
internal_count=641 595 531 208 323 64
is_linear=0
shrinkage=0.03


Tree=36
num_leaves=5
num_cat=0
split_feature=9 36 19 19
split_gain=6.54747 7.2425 5.84544 6.15139
threshold=-0.090327762488738819 0.0090503095185719678 0.18168924433446099 0.073561425778944353
decision_type=2 2 2 2
left_child=-1 2 3 -2
right_child=1 -3 -4 -5
leaf_value=0.020887274340443948 -0.0059652036362479567 -0.024394613681601066 -0.016252834493310036 0.0082610615430573717
leaf_weight=12.729245886206625 36.761276751756668 8.284238785505293 12.372544288635252 86.203661024570465
leaf_count=52 150 35 51 353
internal_value=0.00183527 -1.39928e-05 0.00170268 0.00386058
internal_weight=156.351 143.622 135.337 122.965
internal_count=641 589 554 503
is_linear=0
shrinkage=0.03


Tree=37
num_leaves=5
num_cat=0
split_feature=9 36 19 19
split_gain=6.241 6.91263 5.54468 5.80086
threshold=-0.090327762488738819 0.0090503095185719678 0.18168924433446099 0.073561425778944353
decision_type=2 2 2 2
left_child=-1 2 3 -2
right_child=1 -3 -4 -5
leaf_value=0.020393838241536635 -0.0057989406606242817 -0.023904915889351858 -0.015861568155693732 0.0080130893734308983
leaf_weight=12.695027485489843 36.738501280546188 8.2419377416372281 12.347134262323378 86.266090825200081
leaf_count=52 150 35 51 353
internal_value=0.00176847 -3.26862e-05 0.00163867 0.003741
internal_weight=156.289 143.594 135.352 123.005
internal_count=641 589 554 503
is_linear=0
shrinkage=0.03


Tree=38
num_leaves=6
num_cat=0
split_feature=14 36 2 31 4
split_gain=5.89828 5.15954 3.85732 6.87434 4.53365
threshold=-65.356231152874201 0.0086915059876981407 0.018837329329826628 1.5000000000000002 0.0027305665359599334
decision_type=2 2 2 2 2
left_child=-1 2 3 -2 -4
right_child=1 -3 4 -5 -6
leaf_value=0.020915035820172508 0.0010337811322966327 -0.019898209734496571 -0.024204748100315206 0.022560672923930956 0
leaf_weight=11.185342550277708 85.731447398662567 8.9140744507312757 7.6970119923353186 14.279710933566092 28.410749614238739
leaf_count=46 349 38 32 58 118
internal_value=0.00170386 0 0.00152753 0.00463652 -0.00648151
internal_weight=156.218 145.033 136.119 100.011 36.1078
internal_count=641 595 557 407 150
is_linear=0
shrinkage=0.03


Tree=39
num_leaves=9
num_cat=0
split_feature=40 19 11 23 14 3 21 35
split_gain=5.66852 4.40199 5.84622 5.99176 5.86174 5.5156 8.85363 6.59098
threshold=0.087799878180499738 0.073561425778944353 -0.0015842304411510242 0.93204871062115913 14.066845534115147 0.021235819405791893 0.018654814396917352 -0.0048633063187535344
decision_type=2 2 2 2 2 2 2 2
left_child=1 2 3 -1 -4 7 -7 -3
right_child=-2 5 4 -5 -6 6 -8 -9
leaf_value=-0.033732393932640825 -0.018877509479959604 -0.0011655799808332654 0.01589848995174525 0 -0.013393716162791842 -0.021277579374730869 0.0082560218131970137 0.016791366932027263
leaf_weight=7.940561428666113 9.0889632701873762 25.540887087583542 13.588314130902292 7.5600309371948242 7.8589784204959861 13.082637608051298 20.588603749871254 50.887152895331383
leaf_count=33 39 105 55 31 32 55 85 206
internal_value=0.00165131 0.00325712 -0.00529047 -0.0183899 0.00429825 0.0063026 -0.00334808 0.0107225
internal_weight=156.136 147.047 36.9479 15.5006 21.4473 110.099 33.6712 76.428
internal_count=641 602 151 64 87 451 140 311
is_linear=0
shrinkage=0.03


Tree=40
num_leaves=5
num_cat=0
split_feature=35 36 4 19
split_gain=6.80755 7.3095 5.16095 7.90573
threshold=-0.088583591891673683 0.0090503095185719678 -0.051788829770598059 0.18168924433446099
decision_type=2 2 2 2
left_child=-1 2 -2 -4
right_child=1 -3 3 -5
leaf_value=0.022070713003881994 0.014180572007823985 -0.026088871080071536 -0.001215202165584506 -0.027007617907069351
leaf_weight=7.5524473041295996 13.856830865144728 10.391218766570089 109.57075181603432 10.095280036330221
leaf_count=31 56 44 449 42
internal_value=-0.00227952 -0.0039452 -0.00175164 -0.00392259
internal_weight=151.467 143.914 133.523 119.666
internal_count=622 591 547 491
is_linear=0
shrinkage=0.03


Tree=41
num_leaves=7
num_cat=0
split_feature=34 11 36 13 21 21
split_gain=4.79374 4.68602 7.90217 6.64758 4.59136 3.80454
threshold=0.041200949234203928 -0.011398272993350276 0.0083377806787460953 3.5745896613269399 0.015023590074467828 0.018767089364217834
decision_type=2 2 2 2 2 2
left_child=1 4 3 -3 -1 -6
right_child=-2 2 -4 -5 5 -7
leaf_value=-0.0089495004610185801 -0.01927146234977822 0.003454439235796935 -0.028659081921546762 -0.01578107822536777 0.024782499281140909 0.0039622459681938954
leaf_weight=10.320775851607321 11.57445143163204 63.276277363300323 8.8461230695247632 19.334624901413918 11.785861343145369 26.216447845101357
leaf_count=42 48 259 38 79 48 108
internal_value=-0.00221999 -0.000450321 -0.00451577 -0.00113686 0.00681961 0.0117105
internal_weight=151.355 139.78 91.457 82.6109 48.3231 38.0023
internal_count=622 574 376 338 198 156
is_linear=0
shrinkage=0.03


Tree=42
num_leaves=6
num_cat=0
split_feature=16 19 19 11 3
split_gain=4.6049 5.41066 6.00048 6.10443 4.57621
threshold=-25.700748179372049 0.22126613967864125 0.12947186765378663 0.010221303278437401 0.025812413323658693
decision_type=2 2 2 2 2
left_child=-1 2 4 -4 -2
right_child=1 -3 3 -5 -6
leaf_value=0.01767547645409898 -0.0020291463159012816 -0.02478859721185353 0.019649336741097777 -0.0033785110494400708 -0.017728399804368401
leaf_weight=7.6655779629945746 78.172935649752617 8.1837256103754026 18.191343858838081 18.408455565571785 20.631695374846458
leaf_count=31 319 34 75 76 87
internal_value=-0.00217095 -0.00356176 -0.00182753 0.00810357 -0.00574285
internal_weight=151.254 143.588 135.404 36.5998 98.8046
internal_count=622 591 557 151 406
is_linear=0
shrinkage=0.03


Tree=43
num_leaves=5
num_cat=0
split_feature=35 36 34 9
split_gain=6.13564 6.77462 4.92069 4.61058
threshold=-0.088583591891673683 0.0090503095185719678 0.041200949234203928 -0.050922420546695282
decision_type=2 2 2 2
left_child=-1 2 3 -2
right_child=1 -3 -4 -5
leaf_value=0.021004599055464503 0.013053155163488568 -0.025095926638079885 -0.01877147116254085 -0.0022774534697671046
leaf_weight=7.541313260793685 19.197547107934952 10.308004498481749 11.528429582715033 102.54996989667416
leaf_count=31 78 44 48 421
internal_value=-0.00211481 -0.00370399 -0.00159202 0.000190607
internal_weight=151.125 143.584 133.276 121.748
internal_count=622 591 547 499
is_linear=0
shrinkage=0.03


Tree=44
num_leaves=5
num_cat=0
split_feature=35 36 34 4
split_gain=5.85426 6.46172 4.68781 5.51479
threshold=-0.088583591891673683 0.0090503095185719678 0.041200949234203928 -0.051788829770598059
decision_type=2 2 2 2
left_child=-1 2 3 -2
right_child=1 -3 -4 -5
leaf_value=0.020536773670887416 0.017982601410887016 -0.024539738036667886 -0.018341908347030336 -0.0019270778584696245
leaf_weight=7.5274786353111258 12.079892367124556 10.271270975470541 11.491866305470465 109.62753038108349
leaf_count=31 49 44 48 450
internal_value=-0.00205793 -0.00361257 -0.00154874 0.000186554
internal_weight=150.998 143.471 133.199 121.707
internal_count=622 591 547 499
is_linear=0
shrinkage=0.03


Tree=45
num_leaves=12
num_cat=0
split_feature=5 11 11 9 9 36 15 36 21 19 2
split_gain=7.69671 8.1554 6.86793 11.1514 10.263 5.68603 5.50648 3.64559 3.56456 3.3068 3.18565
threshold=0.018921015838010983 0.066907699521657663 -0.032579456622543461 -0.012256082768687034 0.020921882059781755 0.0063794003401976612 -61.168249471906385 0.0076378465208449446 0.015023590074467828 0.10724739379448402 -0.0087797466523507044
decision_type=2 2 2 2 2 2 2 2 2 2 2
left_child=2 5 6 10 -5 8 -1 -7 -2 -8 -4
right_child=1 -3 3 4 -6 7 9 -9 -10 -11 -12
leaf_value=0 -0.0048069419922944726 0.011534989114155864 -0.018397662113882912 0.024948856179069751 -0.0083326740127480838 0.0095375820850012154 0.0073825049737363353 -0.011827390295336554 -0.030608818144814157 0.036876249639749836 0.00017234712255263552
leaf_weight=9.6752837449312228 10.037498503923418 14.415768146514891 19.612519115209583 20.385522887110714 11.159682333469389 11.478557109832765 8.3478306680917758 12.999375849962233 15.241660863161085 10.953870564699171 10.914700567722319
leaf_count=40 42 59 81 83 46 47 34 55 64 45 45
internal_value=0.000997009 -0.0067264 0.00662935 0.000600006 0.0129329 -0.0125483 0.0181881 -0.00127845 -0.0220172 0.0267154 -0.0116946
internal_weight=155.222 64.1729 91.0494 62.0724 31.5452 49.7571 28.977 24.4779 25.2792 19.3017 30.5272
internal_count=641 267 374 255 129 208 119 102 106 79 126
is_linear=0
shrinkage=0.03


Tree=46
num_leaves=8
num_cat=0
split_feature=7 38 20 12 19 19 38
split_gain=9.09169 5.89285 8.73375 6.25974 3.78796 7.62625 2.60351
threshold=0.017961149703597867 0.0070199623320135835 0.039745459631467903 49.671410780999828 0.1249372488878434 0.19111526993710551 0.0086267442094106143
decision_type=2 2 2 2 2 2 2
left_child=1 -1 3 -3 6 -6 -2
right_child=4 2 -4 -5 5 -7 -8
leaf_value=0.020983653932948307 -0.029598807736989741 -0.007396324828005711 0.027447473922216845 0.0083181276840335831 0.011112300201852296 -0.023070652194324037 -0.0044798348244931693
leaf_weight=16.522978991270065 9.9815502017736453 52.648204043507576 9.0207868665456754 36.896287396550179 13.766762405633928 7.2844035029411307 8.9567705839872342
leaf_count=67 43 217 37 151 57 31 38
internal_value=0.000972796 0.0053423 0.00220594 -0.000717155 -0.0109007 -0.00104083 -0.019998
internal_weight=155.078 115.088 98.5653 89.5445 39.9895 21.0512 18.9383
internal_count=641 472 405 368 169 88 81
is_linear=0
shrinkage=0.03


Tree=47
num_leaves=11
num_cat=0
split_feature=7 25 9 15 0 38 38 13 9 37
split_gain=8.68358 7.36829 5.92914 5.27194 5.15962 4.85993 6.28459 3.89077 3.20426 2.70583
threshold=0.017961149703597867 0.20080645161290325 0.10267271606292487 9.2989532458913171 -0.0010785926287590339 0.012673391633790916 0.0070848923051476829 -7.9950754505749186 0.0059510944847080052 0.02899913280706912
decision_type=2 2 2 2 2 2 2 2 2 2
left_child=1 4 3 8 7 6 -3 -1 -2 -6
right_child=2 5 -4 -5 9 -7 -8 -9 -10 -11
leaf_value=0.018610475186804108 -0.016096797180234851 0.01418649225185078 0.0064822918151902454 -0.034463010063423165 0.032011156084796814 0.01744805054920159 -0.0097697530688161862 -0.0027082748707535388 0.0056665102563298285 0.0053713961465876809
leaf_weight=9.3260091841220873 11.395851880311971 10.125106558203695 10.823979422450064 9.2781366109848005 13.528831377625467 8.2477107495069486 46.078274071216583 20.197028711438179 8.4009709656238538 7.5512332767248145
leaf_count=38 48 41 45 41 55 34 190 83 35 31
internal_value=0.000942483 0.0052127 -0.0106743 -0.0175502 0.0135746 -0.00133779 -0.00485711 0.00430373 -0.00650063 0.0244106
internal_weight=154.953 115.054 39.8989 29.075 50.6031 64.4511 56.2034 29.523 19.7968 21.0801
internal_count=641 472 169 124 207 265 231 121 83 86
is_linear=0
shrinkage=0.03


Tree=48
num_leaves=11
num_cat=0
split_feature=7 11 14 5 8 37 3 36 12 34
split_gain=8.28445 6.03994 7.14245 5.15781 4.51217 4.10501 3.42739 3.15657 2.92399 2.78807
threshold=0.017961149703597867 -0.032579456622543461 -18.222650542043308 -0.0079468439043430244 -0.037700361841974832 0.056917854751801451 0.070257495611385293 0.0064712341951762295 65.044573017179786 0.0078169247852096797
decision_type=2 2 2 2 2 2 2 2 2 2
left_child=1 3 4 9 -3 -4 7 -2 -9 -1
right_child=6 2 5 -5 -6 -7 -8 8 -10 -11
leaf_value=0.0085799265673561324 -0.023000302930640256 0 0.0089975215194652014 -0.0016932028850354731 -0.027967990216999201 -0.010327858970240595 0.0045377255188169072 0.0086941783307151431 -0.015016715049626201 0.036406243411844445
leaf_weight=9.3885496854782158 17.185825511813167 12.184209376573564 59.007053524255753 7.5449642539024344 8.3991239815950376 9.3988019078969938 8.3687074780464155 7.1641473025083524 7.068789467215538 9.0648489743471128
leaf_count=39 74 50 241 31 35 39 35 30 30 37
internal_value=0.000934666 0.00510542 0.00107584 0.0173003 -0.0134302 0.00591126 -0.0104275 -0.0148955 -0.00255707 0.0252057
internal_weight=154.775 114.988 88.9892 25.9984 20.5833 68.4059 39.7875 31.4188 14.2329 18.4534
internal_count=641 472 365 107 85 280 169 134 60 76
is_linear=0
shrinkage=0.03


Tree=49
num_leaves=11
num_cat=0
split_feature=36 28 28 10 15 6 28 14 15 4
split_gain=5.74978 11.3737 9.01589 6.59859 6.45878 9.81125 5.81015 4.54301 5.53081 2.78423
threshold=0.0063794003401976612 4.5000000000000009 8.5000000000000018 -0.017445255642966225 30.130569112950191 0.015597757998036969 10.500000000000002 -3.9834177754064508 -41.421041263604153 -0.01334040592530966
decision_type=2 2 2 2 2 2 2 2 2 2
left_child=1 9 4 -3 5 -2 -5 8 -4 -1
right_child=2 3 7 6 -6 -7 -8 -9 -10 -11
leaf_value=-0.0040216464979264529 0.027087945541515879 0.026755747602632003 0 0.0052261505116694635 -0.0068819248433191708 -0.0038351372848178444 -0.020129288833540471 0.0083503665065690208 -0.031996037906108075 -0.02485437707692488
leaf_weight=11.741476103663446 30.983650639653206 7.6005682945251456 8.6548850983381289 31.575123578310013 8.9463609457015973 11.091370478272436 8.6771650016307813 8.2782789766788465 7.560346424579623 19.496935591101646
leaf_count=48 127 31 36 131 37 46 36 35 32 82
internal_value=0.000897913 -0.00458916 0.0068085 0.00436114 0.0139174 0.0187919 -0.000578787 -0.00736634 -0.0162495 -0.0181885
internal_weight=154.606 79.0913 75.5149 47.8529 51.0214 42.075 40.2523 24.4935 16.2152 31.2384
internal_count=641 328 313 198 210 173 167 103 68 130
is_linear=0
shrinkage=0.03


end of trees

feature_importances:
div_ma_60=29
ma_20_60_cross=27
macro_usdjpy_vol_20=24
bb_bandwidth=20
macd=17
div_ma_10=15
volatility=15
macro_usdjpy_ret_60=15
return_3d=13
return_5d=13
macro_topix_vol_20=12
macro_nikkei_ret_20=12
atr_pct=11
return_10d=10
macd_signal=10
macd_hist=10
rsi=9
macro_usdjpy_ret_20=8
macro_topix_ret_20=8
macd_hist_change=5
vol_change=5
vol_ratio=5
lower_shadow_pct=5
month=5
streak=5
ma_5_20_cross=4
rsi_change=4
upper_shadow_pct=4
return_1d=3
return_2d=3
return_20d=3
div_ma_5=2
div_ma_20=2
bb_pct_b=2
candle_body_pct=2
price_position_20d=2
macro_nikkei_above_200dma=2

parameters:
[boosting: gbdt]
[objective: binary]
[metric: binary_logloss]
[tree_learner: serial]
[device_type: cpu]
[data_sample_strategy: bagging]
[data: ]
[valid: ]
[num_iterations: 50]
[learning_rate: 0.03]
[num_leaves: 15]
[num_threads: 0]
[seed: 42]
[deterministic: 0]
[force_col_wise: 0]
[force_row_wise: 0]
[histogram_pool_size: -1]
[max_depth: 4]
[min_data_in_leaf: 30]
[min_sum_hessian_in_leaf: 0.001]
[bagging_fraction: 0.7]
[pos_bagging_fraction: 1]
[neg_bagging_fraction: 1]
[bagging_freq: 5]
[bagging_seed: 400]
[bagging_by_query: 0]
[feature_fraction: 0.6]
[feature_fraction_bynode: 1]
[feature_fraction_seed: 30056]
[extra_trees: 0]
[extra_seed: 12879]
[early_stopping_round: 0]
[early_stopping_min_delta: 0]
[first_metric_only: 0]
[max_delta_step: 0]
[lambda_l1: 0.5]
[lambda_l2: 2]
[linear_lambda: 0]
[min_gain_to_split: 0]
[drop_rate: 0.1]
[max_drop: 50]
[skip_drop: 0.5]
[xgboost_dart_mode: 0]
[uniform_drop: 0]
[drop_seed: 17869]
[top_rate: 0.2]
[other_rate: 0.1]
[min_data_per_group: 100]
[max_cat_threshold: 32]
[cat_l2: 10]
[cat_smooth: 10]
[max_cat_to_onehot: 4]
[top_k: 20]
[monotone_constraints: ]
[monotone_constraints_method: basic]
[monotone_penalty: 0]
[feature_contri: ]
[forcedsplits_filename: ]
[refit_decay_rate: 0.9]
[cegb_tradeoff: 1]
[cegb_penalty_split: 0]
[cegb_penalty_feature_lazy: ]
[cegb_penalty_feature_coupled: ]
[path_smooth: 0]
[interaction_constraints: ]
[verbosity: -1]
[saved_feature_importance_type: 0]
[use_quantized_grad: 0]
[num_grad_quant_bins: 4]
[quant_train_renew_leaf: 0]
[stochastic_rounding: 1]
[linear_tree: 0]
[max_bin: 255]
[max_bin_by_feature: ]
[min_data_in_bin: 5]
[bin_construct_sample_cnt: 200000]
[data_random_seed: 175]
[is_enable_sparse: 1]
[enable_bundle: 1]
[use_missing: 1]
[zero_as_missing: 0]
[feature_pre_filter: 1]
[pre_partition: 0]
[two_round: 0]
[header: 0]
[label_column: ]
[weight_column: ]
[group_column: ]
[ignore_column: ]
[categorical_feature: ]
[forcedbins_filename: ]
[precise_float_parser: 0]
[parser_config_file: ]
[objective_seed: 16083]
[num_class: 1]
[is_unbalance: 0]
[scale_pos_weight: 1]
[sigmoid: 1]
[boost_from_average: 1]
[reg_sqrt: 0]
[alpha: 0.9]
[fair_c: 1]
[poisson_max_delta_step: 0.7]
[tweedie_variance_power: 1.5]
[lambdarank_truncation_level: 30]
[lambdarank_norm: 1]
[label_gain: ]
[lambdarank_position_bias_regularization: 0]
[eval_at: ]
[multi_error_top_k: 1]
[auc_mu_weights: ]
[num_machines: 1]
[local_listen_port: 12400]
[time_out: 120]
[machine_list_filename: ]
[machines: ]
[gpu_platform_id: -1]
[gpu_device_id: -1]
[gpu_use_dp: 0]
[num_gpu: 1]

end of parameters

pandas_categorical:[]
