tree
version=v4
num_class=1
num_tree_per_iteration=1
label_index=0
max_feature_idx=44
objective=binary sigmoid:1
feature_names=return_1d return_2d return_3d return_5d return_10d return_20d div_ma_5 div_ma_10 div_ma_20 div_ma_60 ma_5_20_cross ma_20_60_cross rsi rsi_change macd macd_signal macd_hist macd_hist_change bb_pct_b bb_bandwidth atr_pct volatility vol_change vol_ratio candle_body_pct upper_shadow_pct lower_shadow_pct day_of_week month is_month_end is_month_start streak gap price_position_20d macro_usdjpy_ret_20 macro_usdjpy_ret_60 macro_usdjpy_vol_20 macro_topix_ret_20 macro_topix_vol_20 macro_topix_above_200dma macro_nikkei_ret_20 macro_nikkei_above_200dma macro_nikkei_vi macro_jgb10y macro_bias_score
feature_infos=[-0.18657854600915103:0.12116538131962296] [-0.25189947399181767:0.2074644907827139] [-0.3014625627592229:0.28316711997582344] [-0.31791537887669186:0.3152866242038217] [-0.39047619047619042:0.44195079844626672] [-0.42984409799554568:0.58086124401913874] [-0.22482498001501908:0.14419682556792149] [-0.28824039680597874:0.220132473167718] [-0.36786377464343561:0.31181386854068649] [-0.3393991628948767:0.6212688489678152] [-0.2359424936977228:0.2167910809500726] [-0.15890414305683287:0.26725147687920137] [3.8397942311225535:98.426323319027176] [-28.202445295691867:27.080820265379984] [-417.18584337889388:525.67968816102984] [-328.5533647448047:478.86647176599382] [-222.59269646543004:104.60310264702855] [-68.922130654210434:51.679860563732746] [-0.29270546053214475:1.4057355996221619] [0.052067827745279162:0.67893117924815516] [0.018130712783761747:0.11480089111668058] [0.0099235579949863515:0.06507668877605477] [-0.88065286059756276:4.4616607071911005] [0.49606298396268567:2.5094845456242787] [-1:1] [0:0.88888888888888884] [0:0.93269230769230771] [0:4] [1:12] none [0:1] [-9:12] [-0.12710336538461542:0.14827018121911029] [0:1] [-0.10288784967882303:0.08505611680078462] [-0.13986255140503889:0.13160084488587853] [0.0024251968629527628:0.011841457708833433] [-0.22586490939044479:0.19897850606512013] [0.0040695656522785678:0.036437277456277402] [0:1] [-0.22859537662338159:0.23022297972565586] [0:1] none none none
tree_sizes=872 1202 1074 995 862 1070 1203 1099 1179 1068 1198 996 1208 851 884 984 1205 970 866 869 854 993 852 973 866 1093 991 968 1205 974 996 889 993 975 974 890 890 875 1003 885 985 991 996 960 883 1103 1189 1207 890 1103

Tree=0
num_leaves=7
num_cat=0
split_feature=23 7 3 17 32 40
split_gain=17.0209 15.2191 14.2239 11.3522 4.56035 4.43531
threshold=1.2343646905212935 -0.053118820605645739 0.018578631353426526 0.93517302176946526 -0.00065452653987119181 0.051817450220382762
decision_type=2 2 2 2 2 2
left_child=1 -1 3 -3 -4 -2
right_child=5 2 4 -5 -6 -7
leaf_value=0.041881032064675056 0.10753594933220051 0.077366546510650627 0.048130006353875023 0.10607105396061164 0.070261541719227313 0.077680999761236061
leaf_weight=10.984555482864378 16.227184236049656 50.678744614124298 11.234204471111296 15.228588283061979 32.704017460346222 7.9887676239013663
leaf_count=44 65 203 45 61 131 32
internal_value=0.0772442 0.0726397 0.0761182 0.0849404 0.0633539 0.0992168
internal_weight=145.046 120.83 109.846 65.9073 43.9382 24.216
internal_count=581 484 440 264 176 97
is_linear=0
shrinkage=1


Tree=1
num_leaves=10
num_cat=0
split_feature=19 17 38 37 35 17 3 26 10
split_gain=17.0328 12.248 8.29098 8.17065 6.35975 5.99276 4.92232 4.63893 4.14163
threshold=0.12550025286435465 -6.0064633490779906 0.0075669445492070981 0.042754990042420456 0.030870281672012782 0.18982118950078644 0.027848909230383082 0.26172161172161179 -0.011000546612047244
decision_type=2 2 2 2 2 2 2 2 2
left_child=2 -2 5 6 -4 -1 -3 -5 -6
right_child=1 3 4 7 8 -7 -8 -9 -10
leaf_value=0.01695091413180819 -0.014752488091022543 0.027187874183487257 0.0010543188243126282 0.010640121086506736 -0.0049516728431346219 -0.012161503096746141 0.0085938702959241966 -0.018159975430969089 -0.035269965176900231
leaf_weight=11.482570484280588 12.983831629157065 33.932779625058174 8.2370913475751859 7.7401987612247449 7.7376230061054256 9.7346592098474485 28.705034673213959 7.9903945028781891 16.476471215486526
leaf_count=46 52 136 33 31 31 39 115 32 66
internal_value=0.00220184 0.0100905 -0.0108366 0.0146578 -0.0200019 0.00305079 0.0194284 -0.00354125 -0.0272709
internal_weight=145.021 91.3522 53.6684 78.3684 32.4512 21.2172 62.6378 15.7306 24.2141
internal_count=581 366 215 314 130 85 251 63 97
is_linear=0
shrinkage=0.03


Tree=2
num_leaves=9
num_cat=0
split_feature=19 7 5 38 7 17 5 34
split_gain=16.1036 15.0217 17.6868 7.84737 7.42023 5.69793 3.33921 4.2517
threshold=0.12550025286435465 -0.049132610806683373 0.30714538290563748 0.0075669445492070981 0.012447551039869319 0.18982118950078644 0.053777703947027196 0.0049347281956128039
decision_type=2 2 2 2 2 2 2 2
left_child=3 -2 4 5 -3 -1 7 -5
right_child=1 2 -4 6 -6 -7 -8 -9
leaf_value=0.016528126968757623 -0.017996581632321096 0.03098761206057191 -0.021251532484481899 -0.0030189152799430558 0.0099782599854852418 -0.011854492718631619 0 -0.032289615411737436
leaf_weight=11.47428733110428 12.730475902557371 30.658420488238335 8.7389234751462919 7.9913135021924999 39.175280600786209 9.7388963550329191 7.4929120987653723 16.984483227133751
leaf_count=46 51 123 35 32 157 39 30 68
internal_value=0.00212496 0.0098019 0.0148269 -0.0105458 0.0200166 0.00295289 -0.0194599 -0.0243983
internal_weight=144.985 91.3031 78.5726 53.6819 69.8337 21.2132 32.4687 24.9758
internal_count=581 366 315 215 280 85 130 100
is_linear=0
shrinkage=0.03


Tree=3
num_leaves=8
num_cat=0
split_feature=20 7 41 15 3 3 35
split_gain=9.5891 12.4013 11.7492 8.90538 8.02756 1.63119 0.0594569
threshold=0.022822228893125414 -0.054877378223820467 1.0000000180025095e-35 -15.442619156651631 -0.034291527856076968 0.027848909230383082 0.0022868926035960473
decision_type=2 2 2 2 2 2 2
left_child=3 -2 5 -1 -4 -3 -5
right_child=1 2 4 6 -6 -7 -8
leaf_value=0.0088406780572487208 -0.019072987005495663 0.032759451352066926 0.026996412033239228 -0.013169421043135799 -1.2294149905246165e-05 0.0094725249134313579 -0.034335402902508833
leaf_weight=7.4787979423999813 13.986288815736769 15.935289323329927 9.2227341085672361 7.483250364661215 75.09682434797287 8.2307622730731946 7.4930052310228348
leaf_count=30 56 64 37 30 301 33 30
internal_value=0.00203873 0.00547578 0.00906441 -0.0150086 0.00332515 0.0267316 -0.0274404
internal_weight=144.927 122.472 108.486 22.4551 84.3196 24.1661 14.9763
internal_count=581 491 435 90 338 97 60
is_linear=0
shrinkage=0.03


Tree=4
num_leaves=7
num_cat=0
split_feature=23 7 41 16 25 7
split_gain=16.217 13.465 11.0984 10.0405 4.06346 3.89252
threshold=1.2343646905212935 -0.053118820605645739 1.0000000180025095e-35 -4.3008824580101406 0.24372373949579834 0.01278603964913739
decision_type=2 2 2 2 2 2
left_child=1 -1 5 -4 -2 -3
right_child=4 2 3 -5 -6 -7
leaf_value=-0.031413585641263626 0.0083350528101416421 0.026303288729737612 0.0092512501928854133 -0.011568859625685551 0.03588312373010643 0
leaf_weight=10.998169854283331 12.959237292408945 15.409352615475656 29.915347307920456 56.405910983681679 11.214968845248221 7.9808508902788153
leaf_count=44 52 62 120 226 45 32
internal_value=0.00197997 -0.00251044 0.00076325 -0.00413754 0.0234536 0.0183416
internal_weight=144.884 120.71 109.711 86.3213 24.1742 23.3902
internal_count=581 484 440 346 97 94
is_linear=0
shrinkage=0.03


Tree=5
num_leaves=9
num_cat=0
split_feature=31 5 5 11 21 14 12 2
split_gain=7.75099 9.39899 15.0622 14.5389 8.70041 5.52548 2.78838 2.45591
threshold=2.5000000000000004 0.10871243968074375 0.2732706969940511 0.036430726809619458 0.019586323174790119 2.9130526225919771 72.264579210802012 0.049756281419215405
decision_type=2 2 2 2 2 2 2 2
left_child=1 3 6 4 -1 -5 -3 -2
right_child=7 2 -4 5 -6 -7 -8 -9
leaf_value=-0.0070157558416199198 -0.026762487463979096 0.036193155292451221 -0.015371204659070183 0 0.013464202523806347 -0.027984788444270568 0.0094994906681561582 -0.0051319439774985681
leaf_weight=33.415817946195602 11.228458240628244 12.953671365976339 8.7397892177104932 7.4749233275651958 36.61404624581337 21.711511880159378 9.4769947081804258 12.477173879742621
leaf_count=134 45 52 35 30 147 87 38 50
internal_value=-0.00216474 0.000683024 0.0146263 -0.00375176 0.00356017 -0.0208802 0.02723 -0.0172461
internal_weight=154.092 130.387 31.1705 99.2163 70.0299 29.1864 22.4307 23.7056
internal_count=618 523 125 398 281 117 90 95
is_linear=0
shrinkage=0.03


Tree=6
num_leaves=10
num_cat=0
split_feature=7 19 7 23 9 15 28 25 9
split_gain=8.4991 11.1691 12.6883 7.72679 7.37242 11.0611 7.30513 5.92916 5.15733
threshold=-0.049132610806683373 0.15041083020009138 0.017106475212813877 0.81289711528653574 0.054875218232506733 3.5743791911116896 7.5000000000000009 0.31998106060606063 -0.085577820219039119
decision_type=2 2 2 2 2 2 2 2 2
left_child=8 4 3 -3 5 -2 -6 -4 -1
right_child=1 2 7 -5 6 -7 -8 -9 -10
leaf_value=-0.0011608838340403682 -0.012049794535244733 0.0006456202174308206 -0.010103476674471869 0.036736833747596877 -0.0041897296682833563 0.014626556906331972 -0.041418166185933074 0.01251116780474317 -0.036473658952912581
leaf_weight=7.7380884736776352 32.925795361399651 8.9473948925733584 24.697797387838364 15.882445260882376 11.984906464815142 21.197543650865555 7.9909122288227072 14.958129480481146 7.7434930056333524
leaf_count=31 132 36 99 64 48 85 32 60 31
internal_value=-0.00210932 0.000266679 0.00934693 0.0253081 -0.00747639 -0.00118575 -0.0221788 -0.00102205 -0.0218336
internal_weight=154.067 138.585 64.4858 24.8298 74.0992 54.1233 19.9758 39.6559 15.4816
internal_count=618 556 259 100 297 217 80 159 62
is_linear=0
shrinkage=0.03


Tree=7
num_leaves=9
num_cat=0
split_feature=7 10 10 36 34 7 23 36
split_gain=8.11376 10.7563 11.3298 12.0747 8.06463 8.00481 4.96754 0.623103
threshold=-0.049132610806683373 -0.021940500778905078 0.012552426275926011 0.0084297479004498983 0.026885413755844526 -0.020640818732742396 1.082429106168602 0.007438277372536343
decision_type=2 2 2 2 2 2 2 2
left_child=6 4 5 -4 7 -3 -1 -2
right_child=1 2 3 -5 -6 -7 -8 -9
leaf_value=-0.035707990465165755 0.038789205084499699 0.0055663230349628856 0.0071762237931293172 -0.028688505280736794 -0.0046755647801168471 -0.024203298825731138 -0.0010431893598424485 0.013626053400371296
leaf_weight=7.7397933155298215 7.4352710247039813 9.2160093486309034 71.292372182011604 7.4776630848646155 7.4571887999773017 28.211374491453171 7.7366285920143127 7.4460583329200745
leaf_count=31 30 37 286 30 30 113 31 30
internal_value=-0.00206512 0.000254461 -0.0033818 0.00295979 0.018509 -0.016582 -0.0213399 0.0301931
internal_weight=154.012 138.536 116.197 78.77 22.3385 37.4274 15.4764 14.8813
internal_count=618 556 466 316 90 150 62 60
is_linear=0
shrinkage=0.03


Tree=8
num_leaves=10
num_cat=0
split_feature=37 16 3 34 23 12 23 12 34
split_gain=8.49346 12.0448 11.9848 9.01571 8.44201 7.73671 4.926 4.55296 0.566226
threshold=0.03060804950251628 -7.2508526800160942 1.0000000180025095e-35 0.036588002039365637 1.1748050559373613 71.89446096973326 0.97031876277667684 73.046819880616894 0.0021047833922968055
decision_type=2 2 2 2 2 2 2 2 2
left_child=3 -2 -3 4 5 -1 -5 -4 -6
right_child=1 2 7 6 8 -7 -8 -9 -10
leaf_value=0.0055995024993758863 -0.041213369760212726 0.018661319452871444 -0.021668752899784344 0 0.010224794730299934 -0.023045387952571782 -0.031291578088838951 0.00033656640547326055 0.030431146514938841
leaf_weight=60.756675317883492 8.2250494658946973 12.199896067380903 20.968925610184669 7.4736730307340604 7.9499115794897106 7.7404630631208411 7.4781341254711151 11.228138089179991 9.9421456307172758
leaf_count=244 33 49 84 30 32 31 30 45 40
internal_value=-0.00201487 -0.0116194 -0.00427328 0.00295556 0.00686829 0.00158777 -0.0169098 -0.0139853 0.0241377
internal_weight=153.963 52.622 44.397 101.341 86.3892 68.4971 14.9518 32.1971 17.8921
internal_count=618 211 178 407 347 275 60 129 72
is_linear=0
shrinkage=0.03


Tree=9
num_leaves=9
num_cat=0
split_feature=31 5 5 11 19 14 32 12
split_gain=7.20467 8.44891 14.0945 13.0561 6.87119 5.01417 3.27363 2.66675
threshold=2.5000000000000004 0.10871243968074375 0.2732706969940511 0.036430726809619458 0.17981924269815333 2.9130526225919771 0.01411733322391129 72.264579210802012
decision_type=2 2 2 2 2 2 2 2
left_child=1 3 7 4 -1 -5 -2 -3
right_child=6 2 -4 5 -6 -7 -8 -9
leaf_value=-0.0017517865341941401 -0.024395998722258384 0.035003349809117172 -0.014953338845900227 0 0.019006741043371193 -0.026439966583844253 -0.00013115888514491801 0.0089678083940472313
leaf_weight=52.854340791702271 14.724443122744562 12.903611719608312 8.7411402463912946 7.4631018191576031 17.091076448559761 21.698764801025391 8.9840623885393125 9.463219150900839
leaf_count=212 59 52 35 30 69 87 36 38
internal_value=-0.00196709 0.000777021 0.0140105 -0.00342336 0.0034994 -0.019668 -0.0165101 0.0262437
internal_weight=153.924 130.215 31.108 99.1073 69.9454 29.1619 23.7085 22.3668
internal_count=618 523 125 398 281 117 95 90
is_linear=0
shrinkage=0.03


Tree=10
num_leaves=10
num_cat=0
split_feature=19 5 7 3 34 16 28 28 18
split_gain=12.5125 11.6536 14.2066 11.1357 7.43957 5.91234 7.26267 3.72349 1.75495
threshold=0.13195202299943784 0.30714538290563748 -0.044616369563793251 0.02657202611693588 -0.0052845714783318334 1.8749345444104757 4.5000000000000009 7.5000000000000009 0.74663427899308277
decision_type=2 2 2 2 2 2 2 2 2
left_child=4 2 -2 -4 7 6 -6 -1 -7
right_child=1 -3 3 -5 5 8 -8 -9 -10
leaf_value=0.016694876914331438 -0.015061130852247754 -0.022961128175966891 0.029097022955529149 0.003145127358348267 -0.026598830843473129 -0.040048191414065931 0.004635761140387668 -0.0060301157804777735 -0.011699937631545063
leaf_weight=8.9835119843482971 12.943823248147963 7.9956603795289984 32.141998559236526 29.883425176143646 8.239046052098276 8.984514385461809 16.465613052248955 12.971334874629974 7.4890995621681204
leaf_count=36 52 32 130 120 33 36 66 52 30
internal_value=-0.000138161 0.00734568 0.0112855 0.0173167 -0.0101267 -0.0174318 -0.00643126 0.00325986 -0.0306346
internal_weight=146.098 82.9649 74.9692 62.0254 63.1331 41.1783 24.7047 21.9548 16.4736
internal_count=587 334 302 250 253 165 99 88 66
is_linear=0
shrinkage=0.03


Tree=11
num_leaves=8
num_cat=0
split_feature=37 21 3 3 5 33 32
split_gain=8.40946 8.05948 8.16693 8.08605 4.86124 8.09248 1.33598
threshold=0.044188910128786903 0.035691485173661198 -0.077923244690079038 0.038852549569376123 0.062910413554257763 0.86242982251201794 0.0038555309011107934
decision_type=2 2 2 2 2 2 2
left_child=1 2 -1 -4 -2 -6 -3
right_child=4 6 3 -5 5 -7 -8
leaf_value=-0.026737253535409278 -0.028473716874138993 0.00666797829753065 0.0081384956006568358 -0.011522192140266459 0.014470278261413486 -0.020437127879335507 0.027218822824029338
leaf_weight=7.4778516590595236 10.720266610383989 8.9293060153722781 64.599765256047249 23.925927489995956 9.4389650672674197 10.237619847059248 10.661244988441466
leaf_count=30 43 36 260 96 38 41 43
internal_value=-0.000164759 0.00346435 -0.000103194 0.00252192 -0.0137905 -0.00320977 0.0200319
internal_weight=145.991 115.594 96.0035 88.5257 30.3969 19.6766 19.5906
internal_count=587 465 386 356 122 79 79
is_linear=0
shrinkage=0.03


Tree=12
num_leaves=10
num_cat=0
split_feature=19 7 3 34 1 38 9 34 35
split_gain=11.8102 9.47747 11.565 7.00374 5.47162 5.16313 4.71659 4.72034 2.53714
threshold=0.13195202299943784 -0.044616369563793251 0.02657202611693588 -0.0052845714783318334 0.0098778350575146074 0.00884374299065783 -0.039768925358736378 0.013986874878407553 0.019875049976255447
decision_type=2 2 2 2 2 2 2 2 2
left_child=3 -2 5 8 -4 -3 -5 -8 -1
right_child=1 2 4 6 -6 -7 7 -9 -10
leaf_value=-0.0047743745545987849 -0.014484761177129058 0.0069777181630878938 0.017534809821134027 0.001493843509806877 -0.0073695364609867369 0.033045938552591865 -0.037205115776546109 -0.011043627119823912 0.013791661936782251
leaf_weight=12.463291451334955 12.934795662760733 14.332558602094648 8.9533707797527295 8.2328081578016263 26.670602068305016 19.923950523138046 10.980801880359648 21.960599035024643 9.4847546964883787
leaf_count=50 52 58 36 33 107 81 44 88 38
internal_value=-0.000169169 0.00710852 0.0116059 -0.00987277 -0.000112263 0.0235395 -0.016961 -0.0218241 0.00310425
internal_weight=145.938 82.8153 69.8805 63.1223 35.624 34.2565 41.1742 32.9414 21.948
internal_count=587 334 282 253 143 139 165 132 88
is_linear=0
shrinkage=0.03


Tree=13
num_leaves=7
num_cat=0
split_feature=35 34 23 37 6 5
split_gain=8.0198 8.36462 9.62714 6.98126 7.66112 5.69501
threshold=0.080946512603987122 0.032949817243325914 0.95283863642251876 0.04609081887425593 -0.013043592871593582 0.062910413554257763
decision_type=2 2 2 2 2 2
left_child=1 3 -3 4 -1 -5
right_child=-2 2 -4 5 -6 -7
leaf_value=-0.0087845319356448567 0.023093613804643608 0 -0.039678536970579575 -0.029922940685554421 0.0096682117258020152 0
leaf_weight=25.831275820732117 10.150761753320692 10.457190290093424 8.7195058315992338 8.7211695313453692 68.756036013364792 13.191905513405798
leaf_count=104 41 42 35 35 277 53
internal_value=-0.000161728 -0.00232074 -0.0196925 0.000696279 0.00439602 -0.0136783
internal_weight=145.828 135.677 19.1767 116.5 94.5873 21.9131
internal_count=587 546 77 469 381 88
is_linear=0
shrinkage=0.03


Tree=14
num_leaves=7
num_cat=0
split_feature=20 18 3 37 15 5
split_gain=11.5021 10.164 9.33482 9.50699 8.34939 2.38589
threshold=0.022926115595224523 0.95263956500565372 -0.067136659601892398 0.041794881223155562 -15.442619156651631 -0.0073134561934904965
decision_type=2 2 2 2 2 2
left_child=4 2 -2 -4 -1 -6
right_child=1 -3 3 -5 5 -7
leaf_value=0.0069255648926347521 -0.013635162131768158 -0.01898699808342352 0.015785561949944332 -0.0067131842757755904 -0.037784784776165682 -0.010965080866097694
leaf_weight=7.47847352921963 14.406807422637938 13.217494204640387 71.572973519563675 19.639827638864517 9.475524798035627 9.9811670184135384
leaf_count=30 58 53 289 79 38 40
internal_value=-0.000174974 0.00379415 0.0070843 0.0107401 -0.0172569 -0.02703
internal_weight=145.772 118.837 105.62 91.2128 26.9352 19.4567
internal_count=587 479 426 368 108 78
is_linear=0
shrinkage=0.03


Tree=15
num_leaves=8
num_cat=0
split_feature=23 3 3 17 5 19 8
split_gain=11.7117 11.4245 10.1068 10.5331 4.16657 2.91753 2.48252
threshold=1.2343646905212935 -0.070290429999441004 0.038852549569376123 1.8308068550625995 0.13418636166724721 0.16109179681587446 0.10935603273352683
decision_type=2 2 2 2 2 2 2
left_child=1 -1 3 -3 -4 -2 -7
right_child=5 2 4 -5 -6 6 -8
leaf_value=-0.031720903264137845 5.213060091462503e-05 -0.0018301170867828333 -0.025032380929613168 0.023950681225274571 -0.0008694371997208678 0.032774884007983451 0.0054349872483932709
leaf_weight=11.17993041872978 8.4685724973678607 68.0673798173666 17.706841170787815 15.724428921937941 11.731468036770819 9.1316541284322756 7.4621493965387335
leaf_count=45 34 274 71 64 47 37 30
internal_value=-0.00128892 -0.00519774 -0.00194365 0.00327864 -0.0165482 0.0165104 0.023194
internal_weight=149.472 124.41 113.23 83.7918 29.4383 25.0624 16.5938
internal_count=602 501 456 338 118 101 67
is_linear=0
shrinkage=0.03


Tree=16
num_leaves=10
num_cat=0
split_feature=19 35 38 32 21 21 35 27 3
split_gain=8.43018 8.38835 8.33343 6.52328 5.86336 4.63925 3.288 3.26467 1.57737
threshold=0.11003759298122319 0.048938498678014593 0.0069205199773228164 0.019033113660218762 0.016135189042972588 0.026242610599383275 0.067035596696525937 1.5000000000000002 -0.018237792965250296
decision_type=2 2 2 2 2 2 2 2 2
left_child=4 2 -2 -4 -1 6 -3 -6 -9
right_child=1 5 3 -5 7 -7 -8 8 -10
leaf_value=0.0081813367865161916 0.017240023699811733 0.034970020865635519 -0.011392670241907592 0.010636012379101252 -0.0046037390111007227 -0.0012221457092342061 0.0078724293417563283 -0.0096888575418213052 -0.034158143350106737
leaf_weight=7.4782879501581183 14.142725914716719 9.8704969137907081 53.29605408012867 13.113936752080916 13.453684166073797 8.1830470860004407 11.140780448913572 8.2284504622220975 10.478367373347284
leaf_count=30 57 40 215 53 54 33 45 33 42
internal_value=-0.00124675 0.00295488 -0.00194926 -0.00663964 -0.0128231 0.0162246 0.023187 -0.0183394 -0.0260948
internal_weight=149.386 109.747 80.5527 66.41 39.6388 29.1943 21.0113 32.1605 18.7068
internal_count=602 443 325 268 159 118 85 129 75
is_linear=0
shrinkage=0.03


Tree=17
num_leaves=8
num_cat=0
split_feature=23 3 3 17 20 37 19
split_gain=11.0684 10.8722 9.69842 9.87669 5.34383 3.72102 2.46889
threshold=1.2343646905212935 -0.070290429999441004 0.038852549569376123 1.8308068550625995 0.028878604321647666 0.032584265049729895 0.20236288864629606
decision_type=2 2 2 2 2 2 2
left_child=1 -1 3 -3 -4 6 -2
right_child=5 2 4 -5 -6 -7 -8
leaf_value=-0.03089779090184698 0.0051605388951542607 -0.0016502337538799622 -0.029066471136659201 0.02333404178385402 -0.0027385014467983457 0 0.0319217354608489
leaf_weight=11.158611208200453 7.4465208202600541 68.054416939616203 13.220232784748079 15.677636235952376 16.215140327811241 7.4637727290391913 10.107125297188757
leaf_count=45 30 274 53 64 65 30 41
internal_value=-0.00119949 -0.00500268 -0.00182687 0.00328797 -0.0161373 0.0161168 0.0230254
internal_weight=149.343 124.326 113.167 83.7321 29.4354 25.0174 17.5536
internal_count=602 501 456 338 118 101 71
is_linear=0
shrinkage=0.03


Tree=18
num_leaves=7
num_cat=0
split_feature=23 3 12 5 37 19
split_gain=10.5393 10.3452 11.7323 7.38379 3.56768 2.34288
threshold=1.2343646905212935 -0.070290429999441004 34.280450717404875 0.069151729968839906 0.032584265049729895 0.20236288864629606
decision_type=2 2 2 2 2 2
left_child=1 -1 -3 -4 5 -2
right_child=4 2 3 -5 -6 -7
leaf_value=-0.030169096852882629 0.0050397311279974126 0.02196709818263062 -0.011890486811984406 0.0045269912185761339 0 0.031215283674136413
leaf_weight=11.133961364626883 7.4442476034164491 13.964222252368925 62.127356112003326 37.030203357338905 7.4637727290391913 10.071585491299627
leaf_count=45 30 57 250 149 30 41
internal_value=-0.00116871 -0.0048819 -0.00178184 -0.00564284 0.0157385 0.0225158
internal_weight=149.235 124.256 113.122 99.1576 24.9796 17.5158
internal_count=602 501 456 399 101 71
is_linear=0
shrinkage=0.03


Tree=19
num_leaves=7
num_cat=0
split_feature=23 3 12 5 37 38
split_gain=10.014 9.86728 11.1272 6.96664 3.42222 0.964053
threshold=1.2343646905212935 -0.070290429999441004 34.280450717404875 0.069151729968839906 0.032584265049729895 0.010136512805597632
decision_type=2 2 2 2 2 2
left_child=1 -1 -3 -4 5 -2
right_child=4 2 3 -5 -6 -7
leaf_value=-0.029467971496557967 0.0092323332920098214 0.021440794910660702 -0.011542189578893403 0.0043989547188208918 0 0.030107153120401624
leaf_weight=11.104922354221342 9.1448729038238579 13.927440196275709 62.142161965370178 37.023093193769455 7.4637727290391913 8.3291869163513166
leaf_count=45 37 57 250 149 30 34
internal_value=-0.00112005 -0.00474144 -0.00171326 -0.00547303 0.0153717 0.0220229
internal_weight=149.135 124.198 113.093 99.1653 24.9378 17.4741
internal_count=602 501 456 399 101 71
is_linear=0
shrinkage=0.03


Tree=20
num_leaves=7
num_cat=0
split_feature=20 7 40 10 11 35
split_gain=9.28912 8.90117 11.468 8.92912 4.66818 4.05892
threshold=0.022822228893125414 -0.062556297139246708 0.072387629319829686 0.012552426275926011 -0.0086128749020539779 0.023238875742619961
decision_type=2 2 2 2 2 2
left_child=4 -2 3 -3 -1 -4
right_child=1 2 5 -5 -6 -7
leaf_value=-0.001163528275691677 -0.021469938292888065 0 0 0.017993433351404305 -0.029340862751307636 -0.029408080627287302
leaf_weight=10.457100808620455 11.066334068775175 47.932363793253899 8.9586938768625277 46.109145507216454 12.456156671047209 8.2113650888204557
leaf_count=42 45 194 36 186 50 33
internal_value=-0.00144905 0.00181338 0.00460109 0.00886033 -0.0182092 -0.0164352
internal_weight=145.191 122.278 111.212 94.0415 22.9133 17.1701
internal_count=586 494 449 380 92 69
is_linear=0
shrinkage=0.03


Tree=21
num_leaves=8
num_cat=0
split_feature=4 17 4 14 9 9 8
split_gain=6.27498 12.2856 9.87114 11.2362 6.6821 4.75968 4.70556
threshold=-0.035977147541873859 0.56914498095503652 -0.023187034278322912 -3.064317255665173 0.0084752029392212488 -0.072592325157642537 -0.0032262939025015673
decision_type=2 2 2 2 2 2 2
left_child=1 5 -2 6 -5 -1 -4
right_child=2 -3 3 4 -6 -7 -8
leaf_value=-0.0023325609458344576 0.029927016816462478 0.010419209575527753 0.00052983472254622898 0.027221236932507185 0.001254415298745472 -0.032791379009710832 -0.025270290351920108
leaf_weight=8.1737376153469068 8.4118557274341565 12.426519379019735 7.6891884654760387 8.638938903808592 66.489654138684273 15.847188398241999 17.432629510760307
leaf_count=33 34 51 31 35 268 64 70
internal_value=-0.0014443 -0.0119293 0.00208907 -0.000639753 0.00506323 -0.0239793 -0.0173637
internal_weight=145.11 36.4474 108.662 100.25 75.1286 24.0209 25.1218
internal_count=586 148 438 404 303 97 101
is_linear=0
shrinkage=0.03


Tree=22
num_leaves=7
num_cat=0
split_feature=20 7 40 10 12 35
split_gain=8.6485 8.28383 10.9997 8.35127 4.47848 3.81676
threshold=0.022822228893125414 -0.062556297139246708 0.072387629319829686 0.012552426275926011 42.457074248799366 0.023238875742619961
decision_type=2 2 2 2 2 2
left_child=4 -2 3 -3 -1 -4
right_child=1 2 5 -5 -6 -7
leaf_value=0 -0.020731998553572707 0 -9.6486617227390344e-05 0.017467518441565581 -0.026501161831557974 -0.028738291152436399
leaf_weight=8.2149457186460513 11.028009191155432 47.901879400014877 8.9549752622842806 46.039505496621132 14.679882138967512 8.2102153897285444
leaf_count=33 45 194 36 186 59 33
internal_value=-0.00138885 0.00175747 0.00444943 0.00862757 -0.0175685 -0.0161481
internal_weight=145.029 122.135 111.107 93.9414 22.8948 17.1652
internal_count=586 494 449 380 92 69
is_linear=0
shrinkage=0.03


Tree=23
num_leaves=8
num_cat=0
split_feature=20 5 5 37 12 18 35
split_gain=8.17138 9.81407 13.4946 7.43377 5.65953 4.76383 0.00564371
threshold=0.022822228893125414 0.32081116273070237 0.10455127147663258 0.012576865049213739 77.945233429988903 0.28529191837968121 0.030870281672012782
decision_type=2 2 2 2 2 2 2
left_child=5 2 3 -2 -4 -1 -7
right_child=1 -3 4 -5 -6 6 -8
leaf_value=0.00016816885392511509 0.0054740233053118268 -0.02526204750129726 0.028633963779546748 -0.012167758254266421 0 -0.012546756522274344 -0.03269295349911823
leaf_weight=7.9647739827632931 49.554078504443169 8.9781586080789548 21.37595717608929 34.430731594562531 7.7105344682931891 7.4745791703462583 7.4363322854042053
leaf_count=32 201 36 87 139 31 30 30
internal_value=-0.00137957 0.00167681 0.00434807 -0.00169881 0.0212765 -0.0171131 -0.0261593
internal_weight=144.925 122.049 113.071 83.9848 29.0865 22.8757 14.9109
internal_count=586 494 458 340 118 92 60
is_linear=0
shrinkage=0.03


Tree=24
num_leaves=7
num_cat=0
split_feature=20 5 5 12 38 18
split_gain=7.78435 9.33501 12.7872 5.39071 4.90574 4.57201
threshold=0.022822228893125414 0.32081116273070237 0.10455127147663258 77.945233429988903 0.0074198193490818505 0.28529191837968121
decision_type=2 2 2 2 2 2
left_child=5 2 4 -4 -2 -1
right_child=1 -3 3 -5 -6 -7
leaf_value=0.00016413676833322387 0.012427195863577212 -0.024652822022217934 0.0279327951282471 0 -0.0052768522723695309 -0.025600413599983919
leaf_weight=7.9647372215986278 15.371658131480215 8.9735162854194623 21.306412234902385 7.7105344682931891 68.595441982150078 14.885696768760679
leaf_count=32 62 36 87 31 278 60
internal_value=-0.00136053 0.00162078 0.00423047 0.0207331 -0.00164762 -0.0167259
internal_weight=144.808 121.958 112.984 29.0169 83.9671 22.8504
internal_count=586 494 458 118 340 92
is_linear=0
shrinkage=0.03


Tree=25
num_leaves=9
num_cat=0
split_feature=23 20 7 12 9 19 26 8
split_gain=15.9448 7.96715 7.73031 8.66292 7.25623 3.14421 0.867101 0.591274
threshold=1.2343646905212935 0.023073653206092344 -0.053118820605645739 31.258704735376046 -0.033471398958416186 0.16109179681587446 0.32709790209790218 0.11580726807124954
decision_type=2 2 2 2 2 2 2 2
left_child=1 4 -3 -4 -1 -2 -6 -7
right_child=5 2 3 -5 6 7 -8 -9
leaf_value=0.0035561036984941394 0.0020843147712394606 -0.023321009514069978 0.029436284471293293 -0.0006512865184023247 -0.033961710280745426 0.035290385645039848 -0.011099808629651315 0.012339591422059929
leaf_weight=7.9587984234094646 7.696850165724757 10.027414962649344 7.4728600382804862 85.735765159130096 11.880393713712694 8.7316768914461154 7.44146504998207 7.6636724025011054
leaf_count=32 31 41 31 346 48 36 30 31
internal_value=-0.000328146 -0.0046377 -0.000558618 0.00217107 -0.018469 0.0210094 -0.0277274 0.0278859
internal_weight=154.609 130.517 103.236 93.2086 27.2807 24.0922 19.3219 16.3953
internal_count=626 528 418 377 110 98 78 67
is_linear=0
shrinkage=0.03


Tree=26
num_leaves=8
num_cat=0
split_feature=20 9 12 5 37 26 33
split_gain=10.3526 9.47492 6.44629 7.20129 6.46911 3.43122 2.13944
threshold=0.022983083867973937 -0.03508586672480575 31.258704735376046 -0.06540227671475117 0.042422046350984795 0.35335839598997498 0.093520338116133209
decision_type=2 2 2 2 2 2 2
left_child=1 -1 6 -4 -5 -3 -2
right_child=2 5 3 4 -6 -7 -8
leaf_value=0.0098416222195590163 0.0043367771634410125 -0.03406142482633099 -0.019356819661356967 0.0083593569108248982 -0.0081262476837599511 -0.0049250637226773541 0.03037536788762844
leaf_weight=7.4633559882640865 7.3175909519195539 13.82462088763714 12.106862425804136 70.826799958944321 27.755326211452484 7.4393732398748389 7.7092542201280594
leaf_count=30 30 56 49 287 112 30 32
internal_value=-0.000307532 -0.0160236 0.003361 0.000567243 0.00349949 -0.0258124 0.0205752
internal_weight=154.443 28.7274 125.716 110.689 98.5821 21.264 15.0268
internal_count=626 116 510 448 399 86 62
is_linear=0
shrinkage=0.03


Tree=27
num_leaves=8
num_cat=0
split_feature=23 20 3 3 15 37 26
split_gain=15.1157 7.1387 8.16831 13.7448 7.67333 5.27738 1.94454
threshold=1.2343646905212935 0.023073653206092344 -0.067136659601892398 0.02657202611693588 -15.442619156651631 0.038833376262139348 0.34239631336405535
decision_type=2 2 2 2 2 2 2
left_child=1 4 -3 -4 -1 -2 -6
right_child=5 2 3 -5 6 -7 -8
leaf_value=0.0057712103778843112 0.029057561479810531 -0.023790166973217758 0.01199493356699669 -0.010817372575282315 -0.034192583166289876 0 -0.008371127391150571
leaf_weight=7.424528673291209 16.580109253525738 10.24059636890888 53.806638076901436 39.072927266359329 12.321264371275904 7.4347942322492591 7.4455050677061072
leaf_count=30 68 42 219 157 50 30 30
internal_value=-0.000300835 -0.00450051 -0.0006289 0.00221434 -0.0176203 0.0205052 -0.0268184
internal_weight=154.326 130.311 103.12 92.8796 27.1913 24.0149 19.7668
internal_count=626 528 418 376 110 98 80
is_linear=0
shrinkage=0.03


Tree=28
num_leaves=10
num_cat=0
split_feature=19 5 7 4 4 1 3 19 7
split_gain=10.6695 6.37675 5.75335 5.76234 8.58335 5.35643 6.9989 1.40201 0.866799
threshold=0.14611551288378163 0.32081116273070237 0.012447551039869319 -0.035977147541873859 -0.012203825844761205 -0.032961533215976328 0.027848909230383082 0.11735452282089485 0.023402980165758328
decision_type=2 2 2 2 2 2 2 2 2
left_child=2 5 3 -1 -5 -2 -7 8 -4
right_child=1 -3 7 4 -6 6 -8 -9 -10
leaf_value=-0.016068717317759062 -0.0074380481111336692 -0.014417671117227627 -0.010728681226693609 0.024453858382718921 -0.0055295684059613621 0.024132819523429674 0.003035888689442367 -0.0063160240992707539 -0.032102020900101454
leaf_weight=14.567460164427755 10.465677008032797 8.4648635387420637 9.1830435544252449 11.406338632106779 21.056145638227463 28.770252555608749 30.877181172370911 10.945889905095099 8.3978386372327787
leaf_count=59 43 34 37 46 85 119 125 44 34
internal_value=-0.000305019 0.00724497 -0.00833466 -0.0013435 0.0053782 0.0103957 0.0139079 -0.018526 -0.0239402
internal_weight=154.135 78.578 75.5567 47.0299 32.4625 70.1131 59.6474 28.5268 17.5809
internal_count=626 321 305 190 131 287 244 115 71
is_linear=0
shrinkage=0.03


Tree=29
num_leaves=8
num_cat=0
split_feature=23 20 3 3 21 37 9
split_gain=14.3857 6.63828 7.74204 12.6602 6.36074 4.95314 0.179926
threshold=1.2343646905212935 0.023073653206092344 -0.067136659601892398 0.02657202611693588 0.015240314295712468 0.038833376262139348 -0.02156497668914184
decision_type=2 2 2 2 2 2 2
left_child=1 4 -3 -4 -1 -2 -6
right_child=5 2 3 -5 6 -7 -8
leaf_value=0.0042186214394610792 0.028325481965414668 -0.023261277481093117 0.011498823055220179 -0.010404991093005809 -0.011514729899634457 0 -0.030383276989502325
leaf_weight=7.4184091985225704 16.496517851948742 10.203350037336348 53.66856437921524 39.07055139541626 7.6792507618665757 7.4271173030138007 12.020072206854815
leaf_count=30 68 42 219 157 31 30 49
internal_value=-0.000320408 -0.00442055 -0.000677336 0.00208767 -0.0170926 0.0200126 -0.0254584
internal_weight=153.984 130.06 102.942 92.7391 27.1177 23.9236 19.6993
internal_count=626 528 418 376 110 98 80
is_linear=0
shrinkage=0.03


Tree=30
num_leaves=8
num_cat=0
split_feature=11 36 4 33 37 10 17
split_gain=6.84826 10.0896 8.02518 9.23623 6.69235 3.65627 9.0656
threshold=0.011966782956282175 0.0075990651445458331 -0.031529109644961965 0.84153014580761409 0.0501801292914077 -0.039565299726407759 0.35208545315029488
decision_type=2 2 2 2 2 2 2
left_child=4 2 -2 -4 5 -1 -7
right_child=1 -3 3 -5 -6 6 -8
leaf_value=0.023457743391812672 -0.021722489262394493 -0.029463878055473992 0.015461041607672423 -0.0092381332601882676 -0.015058067772930157 0.016854319303278048 -0.0088679298635161597
leaf_weight=12.681581452488897 11.955253094434736 12.59851950407028 26.943488717079163 23.246748581528664 9.1518683284521085 24.87459571659565 20.270084738731384
leaf_count=53 49 51 110 94 37 101 82
internal_value=-0.000710214 -0.0069583 -0.00138559 0.00381803 0.00604445 0.0100267 0.00510054
internal_weight=141.722 74.744 62.1455 50.1902 66.9781 57.8263 45.1447
internal_count=577 304 253 204 273 236 183
is_linear=0
shrinkage=0.03


Tree=31
num_leaves=7
num_cat=0
split_feature=34 39 36 11 40 14
split_gain=7.59416 9.1985 9.07776 6.27686 6.19912 2.04586
threshold=0.036588002039365637 1.0000000180025095e-35 0.0084297479004498983 0.011966782956282175 -0.0093800930262789 -18.21339277686047
decision_type=2 2 2 2 2 2
left_child=1 5 4 -2 -3 -1
right_child=3 2 -4 -5 -6 -7
leaf_value=0.005579340671109316 0.00061970746769808734 -0.012048066495197362 -0.026309171757490361 -0.030180023120924979 0.0058519342762603736 0.027971357397657392
leaf_weight=9.6927621811628359 9.0416648983955401 20.726047441363335 9.9049624353647214 11.17918887734413 70.213555067777634 10.832300916314123
leaf_count=40 37 85 40 45 286 44
internal_value=-0.000704479 0.00210545 -0.00159878 -0.0169168 0.00143947 0.0194972
internal_weight=141.59 121.37 100.845 20.2209 90.9396 20.5251
internal_count=577 495 411 82 371 84
is_linear=0
shrinkage=0.03


Tree=32
num_leaves=8
num_cat=0
split_feature=34 39 28 34 12 11 14
split_gain=7.19733 8.77701 8.68568 7.63846 6.34662 5.9847 1.93414
threshold=0.036588002039365637 1.0000000180025095e-35 6.5000000000000009 0.0021047833922968055 59.138551669591557 0.011966782956282175 -18.21339277686047
decision_type=2 2 2 2 2 2 2
left_child=1 6 4 -4 -3 -2 -1
right_child=5 2 3 -5 -6 -7 -8
leaf_value=0.0054435144965984559 0.00060449662316913331 -0.003654570340879076 -0.021825947502922223 4.303886335795232e-05 0.017223467475056823 -0.02944265890683103 0.0273121655005794
leaf_weight=9.6865750402212161 9.0414331406354922 22.23400405049324 23.660713583230972 29.600609496235847 25.336696192622185 11.165669843554495 10.809541463851927
leaf_count=40 37 91 96 121 103 45 44
internal_value=-0.000689217 0.00204358 -0.00156995 -0.00983888 0.00740897 -0.0164793 0.0190465
internal_weight=141.535 121.328 100.832 53.2613 47.5707 20.2071 20.4961
internal_count=577 495 411 217 194 82 84
is_linear=0
shrinkage=0.03


Tree=33
num_leaves=8
num_cat=0
split_feature=5 5 11 10 12 32 33
split_gain=6.55857 10.9842 10.7512 8.11386 2.84942 1.38697 0.294366
threshold=0.32081116273070237 0.10762931225170748 0.034115749937105318 -0.042922672070653971 78.834132906426262 0.0061439031532355423 0.88093829520158073
decision_type=2 2 2 2 2 2 2
left_child=1 2 3 -1 6 -4 -3
right_child=-2 4 5 -5 -6 -7 -8
leaf_value=0.022899174919534488 -0.023329011379294131 0.026390536935237154 -0.022239771390596477 -0.0018995020763623608 0 -0.0038569557182884262 0.0092918935466356611
leaf_weight=12.413645178079603 8.6950814276933652 13.438224211335188 21.33541098237038 62.173465356230736 7.4218466132879248 8.0910205692052823 7.8788566887378684
leaf_count=52 35 56 87 252 30 33 32
internal_value=-0.000661283 0.00103632 -0.00344043 0.00252213 0.0168964 -0.0182297 0.0220532
internal_weight=141.448 132.752 104.014 74.5871 28.7389 29.4264 21.3171
internal_count=577 542 424 304 118 120 88
is_linear=0
shrinkage=0.03


Tree=34
num_leaves=8
num_cat=0
split_feature=5 5 11 10 28 33 38
split_gain=6.25142 10.4603 10.2051 7.72627 3.4886 2.33589 1.66864
threshold=0.32081116273070237 0.10762931225170748 0.034115749937105318 -0.042922672070653971 10.500000000000002 0.83553335209681967 0.0086010318764348018
decision_type=2 2 2 2 2 2 2
left_child=1 2 3 -1 -4 -3 -7
right_child=-2 5 4 -5 -6 6 -8
leaf_value=0.022385671223084113 -0.022779545604670715 0.026638724236297814 -0.023871479225695533 -0.0018442266469583619 0 0.015090144644519365 -0.0010972265179709575
leaf_weight=12.364080294966696 8.6860460340976697 11.452107340097429 20.897665306925774 62.175740867853165 8.4964949488639849 8.5947376340627688 8.6219958364963514
leaf_count=52 35 48 85 252 35 35 35
internal_value=-0.000637829 0.00101803 -0.00334679 0.00245879 -0.0177655 0.0165174 0.00693257
internal_weight=141.289 132.603 103.934 74.5398 29.3942 28.6688 17.2167
internal_count=577 542 424 304 120 118 70
is_linear=0
shrinkage=0.03


Tree=35
num_leaves=7
num_cat=0
split_feature=7 10 5 33 15 16
split_gain=8.41236 7.17889 8.09346 7.47298 7.03925 2.65845
threshold=-0.054877378223820467 -0.037344006184809091 0.015439501117958889 0.82202908759426541 -13.947363514454363 -10.095232776213583
decision_type=2 2 2 2 2 2
left_child=-1 5 4 -4 -3 -2
right_child=1 2 3 -5 -6 -7
leaf_value=-0.021444345271257215 0.0040188424931427462 0.0028082116821602468 0.014625491456947425 -0.004029928752664857 -0.020607707499523426 0.031171833625949046
leaf_weight=13.966183006763456 8.3960059881210309 17.356314554810524 34.977169647812843 37.2435492426157 25.706119030714035 7.1500743329524985
leaf_count=58 35 70 144 151 104 30
internal_value=-0.000812847 0.00156639 -0.00101415 0.00495361 -0.0111313 0.0194918
internal_weight=144.795 130.829 115.283 72.2207 43.0624 15.5461
internal_count=592 534 469 295 174 65
is_linear=0
shrinkage=0.03


Tree=36
num_leaves=7
num_cat=0
split_feature=7 10 17 21 23 16
split_gain=8.00077 6.87636 5.96391 7.42204 6.66308 2.54878
threshold=-0.054877378223820467 -0.037344006184809091 -1.120209054398458 0.024863730860759641 0.76365464487436541 -10.095232776213583
decision_type=2 2 2 2 2 2
left_child=-1 5 4 -4 -3 -2
right_child=1 2 3 -5 -6 -7
leaf_value=-0.020924748132808608 0.0039233484375847446 -0.014510510671874408 0.0006766739537182935 -0.018443715419368539 0.013683227964449955 0.030595457049327399
leaf_weight=13.933751747012137 8.3911079913377744 7.3487602323293677 48.366583630442619 25.947375893592834 33.567213341593742 7.1045935451984397
leaf_count=58 35 30 196 105 138 30
internal_value=-0.000780279 0.00153681 -0.000983987 -0.00611122 0.0078297 0.0191091
internal_weight=144.659 130.726 115.23 74.314 40.916 15.4957
internal_count=592 534 469 301 168 65
is_linear=0
shrinkage=0.03


Tree=37
num_leaves=7
num_cat=0
split_feature=3 41 36 35 22 34
split_gain=7.94215 6.38093 7.34403 6.53853 2.75978 2.17809
threshold=-0.082005247465665052 1.0000000180025095e-35 0.0081862498936358784 0.052915245583267996 -0.14169078103070495 -0.0057291610347043878
decision_type=2 2 2 2 2 2
left_child=-1 4 3 -3 -2 -6
right_child=1 2 -4 -5 5 -7
leaf_value=-0.02195795508756496 0 -0.0029888000107029648 -0.023163471587135716 0.015746773348159077 0.032388661642785796 0.0067150543716242139
leaf_weight=12.430466949939726 10.021528512239458 75.645008012652397 10.825330168008803 19.254667952656746 7.1555827111005827 9.197134450078007
leaf_count=52 41 308 44 79 30 38
internal_value=-0.000753312 0.0014279 -0.00180508 0.000904307 0.0141302 0.0210719
internal_weight=144.53 132.099 105.725 94.8997 26.3742 16.3527
internal_count=592 540 431 387 109 68
is_linear=0
shrinkage=0.03


Tree=38
num_leaves=8
num_cat=0
split_feature=3 9 15 11 18 41 4
split_gain=7.56134 5.76343 11.6403 8.03905 5.92276 4.87718 1.82596
threshold=-0.084699341364582389 -0.046612937953326994 1.0000000180025095e-35 0.011966782956282175 0.45348823625426149 1.0000000180025095e-35 -0.068109798796038776
decision_type=2 2 2 2 2 2 2
left_child=-1 4 5 -4 6 -3 -2
right_child=1 2 3 -5 -6 -7 -8
leaf_value=-0.022036247279684309 0.0049172895608816198 0.00034135032682342122 0.023533466131807845 -0.0003897569110893176 -0.006339347393780009 -0.025442868238394662 0.028200930232052786
leaf_weight=11.673405885696409 7.3367881476879164 7.8284603804349926 13.378803372383116 64.388997957110405 7.9434642493724814 19.502044752240181 12.373073190450668
leaf_count=49 31 32 55 263 32 79 51
internal_value=-0.000722402 0.00133975 -0.00179907 0.00402469 0.0130916 -0.0180262 0.0214762
internal_weight=144.425 132.752 105.098 77.7678 27.6533 27.3305 19.7099
internal_count=592 543 429 318 114 111 82
is_linear=0
shrinkage=0.03


Tree=39
num_leaves=7
num_cat=0
split_feature=3 24 19 23 5 7
split_gain=7.21062 5.45826 5.27 5.38207 5.152 3.87557
threshold=-0.082005247465665052 0.66921119592875333 0.14503813827988896 0.78609009772947236 0.057464824073901973 0.022740052459241263
decision_type=2 2 2 2 2 2
left_child=-1 2 4 -4 -2 -3
right_child=1 5 3 -5 -6 -7
leaf_value=-0.020952232311201299 -0.0066093551923282071 0.0019300749944870402 -0.0065502665990002547 0.015257055127960018 0.01409153689628413 -0.023260367873593257
leaf_weight=12.368289977312086 47.897651463747025 7.4748626947402981 10.791850864887236 43.559935510158539 11.612043932080267 10.577480390667914
leaf_count=52 194 31 44 181 47 43
internal_value=-0.000697103 0.00137457 0.00395596 0.0105821 -0.00199931 -0.0129296
internal_weight=144.282 131.914 113.861 54.3518 59.5097 18.0523
internal_count=592 540 466 225 241 74
is_linear=0
shrinkage=0.03


Tree=40
num_leaves=8
num_cat=0
split_feature=34 23 28 23 33 19 40
split_gain=7.78961 9.21468 6.51994 7.4679 7.67392 2.35394 1.38342
threshold=0.032949817243325914 0.87599589665433442 1.5000000000000002 1.2038787068419898 0.84476988413423826 0.14387128563821808 0.051817450220382762
decision_type=2 2 2 2 2 2 2
left_child=2 -2 -1 4 -4 -3 -5
right_child=1 5 3 6 -6 -7 -8
leaf_value=0.029053758626355581 0.010153520404112824 -0.033147022892396384 0.0031809883066245743 0.022217832357715562 -0.017702141699710308 -0.0063649296769999752 0.0028433665019188853
leaf_weight=7.3040709793567649 8.589416518807413 10.303249135613443 65.244379281997681 14.894365012645723 18.54410994052887 7.5305674523115149 7.3510997742414466
leaf_count=30 35 42 269 62 75 31 30
internal_value=0.00124529 -0.0126994 0.0047902 0.00247305 -0.00157097 -0.0243764 0.0171968
internal_weight=139.761 26.4232 113.338 106.034 83.7885 17.8338 22.2455
internal_count=574 108 466 436 344 73 92
is_linear=0
shrinkage=0.03


Tree=41
num_leaves=8
num_cat=0
split_feature=5 5 7 15 19 38 21
split_gain=6.17429 7.43962 5.51592 5.15999 6.19147 3.93622 2.13828
threshold=0.32081116273070237 0.12886327374261167 0.060632026181674535 23.153132623486311 0.12714326388474978 0.0083074905095392639 0.023683109004878303
decision_type=2 2 2 2 2 2 2
left_child=1 3 6 4 -1 -5 -3
right_child=-2 2 -4 5 -6 -7 -8
leaf_value=-0.0048467345194687572 -0.020883640690080259 0.0078447507903565208 -0.0021230818404879919 0.0026912400477417781 0.011120329164815767 -0.019928869875022067 0.035423190936462741
leaf_weight=40.170970648527145 8.4050445407628995 7.2649021595716539 7.3940726220607749 8.7681378722190875 42.096626088023186 16.248638436198235 9.3086082488298398
leaf_count=163 34 30 30 36 175 67 39
internal_value=0.00121639 0.0030364 0.0174573 -0.000308531 0.00321568 -0.0118332 0.0262884
internal_weight=139.657 131.252 23.9676 107.284 82.2676 25.0168 16.5735
internal_count=574 540 99 441 338 103 69
is_linear=0
shrinkage=0.03


Tree=42
num_leaves=8
num_cat=0
split_feature=23 3 7 38 35 19 2
split_gain=6.97582 7.38072 8.94796 8.52562 5.53065 3.67175 3.62263
threshold=1.2038787068419898 -0.059636634697382999 0.011712747083137508 0.0091133336471358184 0.050195928744634528 0.13830564448815283 0.044721030039330041
decision_type=2 2 2 2 2 2 2
left_child=1 -1 4 -4 -3 -2 -7
right_child=5 2 3 -5 -6 6 -8
leaf_value=-0.023417427106089315 -0.0013721187102021183 0.0025878717450923587 0.0041222112291675259 -0.019127045325284239 0.024733387878302964 0.030721927529878262 0.0017888879236808066
leaf_weight=10.892268687486647 7.4138042926788357 36.919318497180939 25.124430522322655 26.882217705249786 13.442906022071837 11.280235931277277 7.5310849398374549
leaf_count=46 30 152 102 109 56 48 31
internal_value=0.0011823 -0.00199416 0.000546664 -0.00788086 0.00950444 0.0146014 0.0211445
internal_weight=139.486 113.261 102.369 52.0066 50.3622 26.2251 18.8113
internal_count=574 465 419 211 208 109 79
is_linear=0
shrinkage=0.03


Tree=43
num_leaves=8
num_cat=0
split_feature=34 23 28 23 12 27 20
split_gain=7.42277 8.7007 6.16549 6.80208 8.79476 3.80815 1.96335
threshold=0.032949817243325914 0.87599589665433442 1.5000000000000002 1.2038787068419898 35.698785331270415 1.5000000000000002 0.028463561287994595
decision_type=2 2 2 2 2 2 2
left_child=2 -2 -1 4 -4 -5 -3
right_child=1 6 3 5 -6 -7 -8
leaf_value=0.028270343407010474 0.0097293927738804614 -0.0354909221625542 0.018439510747290621 0 -0.0061006652742426979 0.025650274098619863 -0.010087829744375089
leaf_weight=7.2697285413742057 8.574338227510454 7.3173337280750301 13.995120286941527 8.9669402241706866 69.595914840698242 13.147568717598913 10.447680428624151
leaf_count=30 35 30 59 37 285 55 43
internal_value=0.0011601 -0.0124692 0.00462976 0.00236988 -0.00148194 0.0164668 -0.0238427
internal_weight=139.315 26.3394 112.975 105.706 83.591 22.1145 17.765
internal_count=574 108 466 436 344 92 73
is_linear=0
shrinkage=0.03


Tree=44
num_leaves=7
num_cat=0
split_feature=34 23 5 23 7 38
split_gain=7.11438 10.9772 5.96204 6.04775 6.24924 1.26493
threshold=0.036588002039365637 0.87599589665433442 0.32081116273070237 1.2305214683360512 -0.037266051624032986 0.0082385551693436119
decision_type=2 2 2 2 2 2
left_child=2 -2 3 4 -1 -5
right_child=1 -3 -4 5 -6 -7
leaf_value=-0.015296050089222364 0.012307001584730883 -0.028603199844517552 -0.018202420832790289 0.0057382518057045428 0.0059209372985865776 0.027066823495644498
leaf_weight=12.570576265454291 7.3499931544065502 13.853788807988165 7.6633300036191931 7.2455666959285763 79.00435933470726 11.50783911347389
leaf_count=53 30 57 31 30 324 49
internal_value=0.00114113 -0.0139373 0.00416297 0.00614642 0.00258349 0.0208962
internal_weight=139.195 21.2038 117.992 110.328 91.5749 18.7534
internal_count=574 87 487 456 377 79
is_linear=0
shrinkage=0.03


Tree=45
num_leaves=9
num_cat=0
split_feature=31 13 11 10 11 20 2 32
split_gain=5.91257 6.27635 7.36115 6.43026 5.64169 6.53288 4.67914 2.51848
threshold=2.5000000000000004 -1.4881241220685764 0.0043230180085462875 0.014907596715073137 -0.067740950316471579 0.022822228893125414 0.039481909960703783 -0.00058962117252486779
decision_type=2 2 2 2 2 2 2 2
left_child=1 2 3 -1 -3 -6 -2 -4
right_child=6 4 7 -5 5 -7 -8 -9
leaf_value=-0.003908027507282281 -0.031371901909268668 -0.01268846009931638 -0.0065161490730675431 0.025693492087284164 -0.00764680118801319 0.015357387629976228 -0.002419761046225865 -0.025334473693773719
leaf_weight=16.533317968249325 7.3354664146900204 8.4681110233068448 22.368569076061249 7.9611644297838202 11.735301390290259 51.685008227825165 14.510840699076651 11.372448503971098
leaf_count=68 30 35 93 33 48 214 59 47
internal_value=-0.000781205 0.00160865 -0.00546297 0.00636013 0.00753306 0.0107678 -0.0145861 -0.0143413
internal_weight=151.97 130.124 58.2355 24.4945 71.8884 63.4203 21.8463 33.741
internal_count=627 538 241 101 297 262 89 140
is_linear=0
shrinkage=0.03


Tree=46
num_leaves=10
num_cat=0
split_feature=35 35 9 9 4 20 12 40 20
split_gain=4.70856 6.73483 9.19534 11.9914 5.21475 5.15942 5.12508 4.95241 4.35241
threshold=0.048938498678014593 -0.016707469966618867 0.18147722432869476 -0.056273388823804747 -0.044723014950363175 0.028217309565916452 59.879841835467595 0.063760679059580619 0.033624040638971307
decision_type=2 2 2 2 2 2 2 2 2
left_child=1 4 3 -3 -1 -2 -6 -4 -7
right_child=5 2 7 -5 6 8 -8 -9 -10
leaf_value=-0.010658205253565723 -0.0056169423263648923 0.0070708259073830161 0.016911476722094542 -0.025021738752053505 0.022468700380339286 0.024497930174110717 -0.00046936643464301746 -0.010169725936284959 0
leaf_weight=10.966494411230086 14.319672375917433 12.449584394693373 13.014236837625505 36.763222962617874 15.788185730576517 15.522064775228502 14.698061332106588 7.7981348037719718 10.514705643057821
leaf_count=46 59 51 54 151 65 65 60 32 44
internal_value=-0.000789082 -0.00405228 -0.00969778 -0.0166512 0.00514675 0.00763652 0.0116 0.00610496 0.0153414
internal_weight=151.834 111.478 70.0252 49.2128 41.4527 40.3564 30.4862 20.8124 26.0368
internal_count=627 459 288 202 171 168 125 86 109
is_linear=0
shrinkage=0.03


Tree=47
num_leaves=10
num_cat=0
split_feature=31 6 37 11 28 16 4 21 6
split_gain=5.64354 7.55544 8.47884 5.76035 4.97805 4.46713 3.49051 3.47218 3.37152
threshold=2.5000000000000004 -0.0089039722911812332 0.03060804950251628 -0.0035157285850695437 2.5000000000000004 -6.6315156063978318 -0.050137221166144656 0.0235683511214228 0.025211746703969157
decision_type=2 2 2 2 2 2 2 2 2
left_child=1 3 5 7 -4 -3 -5 -1 -2
right_child=8 2 4 6 -6 -7 -8 -9 -10
leaf_value=0.015198522152256264 -0.026044038688794319 0.030222117382554346 0.012752518549209882 -0.025771167410915851 -0.012718458171320477 0.0084014127144242858 -0.0047503766101224835 -0.0074703874666079617 -0.0016611773513890004
leaf_weight=11.441022187471392 9.5504660457372683 11.946707323193548 7.6467780023813274 12.807919576764105 20.497308686375618 36.786595582962036 20.269930690526962 8.4628526866435987 12.269021749496458
leaf_count=47 39 51 31 54 84 152 84 35 50
internal_value=-0.00075846 0.00157718 0.00759725 -0.00684383 -0.00491341 0.0150268 -0.0143227 0.00507317 -0.014254
internal_weight=151.679 129.859 76.8774 52.9817 28.1441 48.7333 33.0779 19.9039 21.8195
internal_count=627 538 318 220 115 203 138 82 89
is_linear=0
shrinkage=0.03


Tree=48
num_leaves=7
num_cat=0
split_feature=31 35 17 17 7 11
split_gain=5.37827 7.15386 5.30711 5.06731 8.61248 4.64541
threshold=2.5000000000000004 0.074884704637423374 2.7529006389365525 1.4593829537872069 0.02239172944850178 0.0043230180085462875
decision_type=2 2 2 2 2 2
left_child=1 3 -2 5 -5 -1
right_child=2 -3 -4 4 -6 -7
leaf_value=0.003382009259858008 -0.030176325340769916 0.022760840890615426 -0.00034229597174873161 0.023835092588828797 -0.0051050697005275919 -0.010278339070907219
leaf_weight=35.37062232196331 8.3111196607351321 10.932620599865912 13.495368346571921 15.66958801448345 16.871504366397858 50.859925761818886
leaf_count=145 34 46 55 67 69 211
internal_value=-0.000743967 0.00153563 -0.0139229 -0.000638466 0.00896949 -0.00455539
internal_weight=151.511 129.704 21.8065 118.772 32.5411 86.2305
internal_count=627 538 89 492 136 356
is_linear=0
shrinkage=0.03


Tree=49
num_leaves=9
num_cat=0
split_feature=31 13 11 11 20 36 2 4
split_gain=5.14062 5.58388 6.5298 5.44303 6.05741 4.42834 4.228 1.76082
threshold=2.5000000000000004 -1.4881241220685764 0.0043230180085462875 -0.067740950316471579 0.022822228893125414 0.0068133800155333489 0.039481909960703783 -0.044723014950363175
decision_type=2 2 2 2 2 2 2 2
left_child=1 2 5 -3 -5 -1 -2 -4
right_child=6 3 7 4 -6 -7 -8 -9
leaf_value=-0.0058851183918333027 -0.029608496477500069 -0.012742407444888979 -0.024697368648042648 -0.0074066406224470686 0.014751770226292142 0.017488215263072166 -0.0020462122571665987 -0.0074208602138766946
leaf_weight=11.873016715049745 7.2891747057437923 8.4511069655418378 8.908592686057089 11.702994734048842 51.416818052530289 12.53177936375141 14.499893158674238 24.696685820817947
leaf_count=49 30 35 38 48 214 52 59 102
internal_value=-0.000720538 0.00150699 -0.00516639 0.00711323 0.0103118 0.00596447 -0.0136113 -0.0135521
internal_weight=151.37 129.581 58.0101 71.5709 63.1198 24.4048 21.7891 33.6053
internal_count=627 538 241 297 262 101 89 140
is_linear=0
shrinkage=0.03


end of trees

feature_importances:
return_20d=28
return_5d=26
div_ma_10=24
vol_ratio=23
bb_bandwidth=17
atr_pct=16
ma_20_60_cross=15
rsi=15
macro_usdjpy_ret_20=15
macro_usdjpy_ret_60=14
macro_topix_ret_20=14
div_ma_60=11
ma_5_20_cross=11
macd_hist_change=11
macro_topix_vol_20=10
return_10d=9
volatility=8
month=8
macd_signal=7
price_position_20d=7
macd_hist=6
streak=6
gap=6
macro_usdjpy_vol_20=6
macro_nikkei_ret_20=6
macd=5
bb_pct_b=5
return_3d=4
lower_shadow_pct=4
macro_nikkei_above_200dma=4
div_ma_5=3
div_ma_20=3
return_2d=2
rsi_change=2
upper_shadow_pct=2
day_of_week=2
macro_topix_above_200dma=2
vol_change=1
candle_body_pct=1

parameters:
[boosting: gbdt]
[objective: binary]
[metric: binary_logloss]
[tree_learner: serial]
[device_type: cpu]
[data_sample_strategy: bagging]
[data: ]
[valid: ]
[num_iterations: 50]
[learning_rate: 0.03]
[num_leaves: 15]
[num_threads: 0]
[seed: 43]
[deterministic: 0]
[force_col_wise: 0]
[force_row_wise: 0]
[histogram_pool_size: -1]
[max_depth: 4]
[min_data_in_leaf: 30]
[min_sum_hessian_in_leaf: 0.001]
[bagging_fraction: 0.7]
[pos_bagging_fraction: 1]
[neg_bagging_fraction: 1]
[bagging_freq: 5]
[bagging_seed: 11149]
[bagging_by_query: 0]
[feature_fraction: 0.6]
[feature_fraction_bynode: 1]
[feature_fraction_seed: 21351]
[extra_trees: 0]
[extra_seed: 16806]
[early_stopping_round: 0]
[early_stopping_min_delta: 0]
[first_metric_only: 0]
[max_delta_step: 0]
[lambda_l1: 0.5]
[lambda_l2: 2]
[linear_lambda: 0]
[min_gain_to_split: 0]
[drop_rate: 0.1]
[max_drop: 50]
[skip_drop: 0.5]
[xgboost_dart_mode: 0]
[uniform_drop: 0]
[drop_seed: 2965]
[top_rate: 0.2]
[other_rate: 0.1]
[min_data_per_group: 100]
[max_cat_threshold: 32]
[cat_l2: 10]
[cat_smooth: 10]
[max_cat_to_onehot: 4]
[top_k: 20]
[monotone_constraints: ]
[monotone_constraints_method: basic]
[monotone_penalty: 0]
[feature_contri: ]
[forcedsplits_filename: ]
[refit_decay_rate: 0.9]
[cegb_tradeoff: 1]
[cegb_penalty_split: 0]
[cegb_penalty_feature_lazy: ]
[cegb_penalty_feature_coupled: ]
[path_smooth: 0]
[interaction_constraints: ]
[verbosity: -1]
[saved_feature_importance_type: 0]
[use_quantized_grad: 0]
[num_grad_quant_bins: 4]
[quant_train_renew_leaf: 0]
[stochastic_rounding: 1]
[linear_tree: 0]
[max_bin: 255]
[max_bin_by_feature: ]
[min_data_in_bin: 5]
[bin_construct_sample_cnt: 200000]
[data_random_seed: 179]
[is_enable_sparse: 1]
[enable_bundle: 1]
[use_missing: 1]
[zero_as_missing: 0]
[feature_pre_filter: 1]
[pre_partition: 0]
[two_round: 0]
[header: 0]
[label_column: ]
[weight_column: ]
[group_column: ]
[ignore_column: ]
[categorical_feature: ]
[forcedbins_filename: ]
[precise_float_parser: 0]
[parser_config_file: ]
[objective_seed: 26397]
[num_class: 1]
[is_unbalance: 0]
[scale_pos_weight: 1]
[sigmoid: 1]
[boost_from_average: 1]
[reg_sqrt: 0]
[alpha: 0.9]
[fair_c: 1]
[poisson_max_delta_step: 0.7]
[tweedie_variance_power: 1.5]
[lambdarank_truncation_level: 30]
[lambdarank_norm: 1]
[label_gain: ]
[lambdarank_position_bias_regularization: 0]
[eval_at: ]
[multi_error_top_k: 1]
[auc_mu_weights: ]
[num_machines: 1]
[local_listen_port: 12400]
[time_out: 120]
[machine_list_filename: ]
[machines: ]
[gpu_platform_id: -1]
[gpu_device_id: -1]
[gpu_use_dp: 0]
[num_gpu: 1]

end of parameters

pandas_categorical:[]
