tree
version=v4
num_class=1
num_tree_per_iteration=1
label_index=0
max_feature_idx=44
objective=binary sigmoid:1
feature_names=return_1d return_2d return_3d return_5d return_10d return_20d div_ma_5 div_ma_10 div_ma_20 div_ma_60 ma_5_20_cross ma_20_60_cross rsi rsi_change macd macd_signal macd_hist macd_hist_change bb_pct_b bb_bandwidth atr_pct volatility vol_change vol_ratio candle_body_pct upper_shadow_pct lower_shadow_pct day_of_week month is_month_end is_month_start streak gap price_position_20d macro_usdjpy_ret_20 macro_usdjpy_ret_60 macro_usdjpy_vol_20 macro_topix_ret_20 macro_topix_vol_20 macro_topix_above_200dma macro_nikkei_ret_20 macro_nikkei_above_200dma macro_nikkei_vi macro_jgb10y macro_bias_score
feature_infos=[-0.15042439484438852:0.18519888991674383] [-0.22028274668205428:0.22479185938945423] [-0.26241812227074235:0.17890841813135983] [-0.24447861336315346:0.26253469010175756] [-0.26602390005431831:0.28695652173913033] [-0.26682040151926212:0.36392229417206301] [-0.18670438472418674:0.059638420233215708] [-0.21876129218761292:0.070518020628114519] [-0.24365926185062095:0.095658414065303191] [-0.2248210252058658:0.17230629842059603] [-0.11213988105836692:0.075335486185862832] [-0.077087865278202772:0.10246418172072613] [16.622691292875984:92.333901192504257] [-25.660999585616274:26.975284679089029] [-123.17574449317135:144.88269252883219] [-100.91892644231085:128.89463197036608] [-89.797430437646796:33.438488373573421] [-42.087087602312948:18.163232973385618] [-0.40228805606389229:1.3587377534622145] [0.031663961091033574:0.32024613464669882] [0.012164623792028158:0.057806810880274145] [0.0071589682108592935:0.062829950905250509] [-0.84937737133962443:4.8448248021960278] [0.4952246330275768:1.9636401256999496] [-1:1] [0:0.89189189189189189] [0:1] [0:4] [1:12] none [0:1] [-8:10] [-0.10065721203735734:0.12858464384828872] [0:1] [-0.10288784967882303:0.08505611680078462] [-0.13986255140503889:0.13160084488587853] [0.0024251968629527628:0.011841457708833433] [-0.22586490939044479:0.19897850606512013] [0.0040695656522785678:0.036437277456277402] [0:1] [-0.22859537662338159:0.23022297972565586] [0:1] none none none
tree_sizes=858 1205 887 994 991 1204 1385 1321 1296 1288 786 889 874 867 782 878 995 980 992 991 1170 1395 1182 1286 1184 1099 983 1398 975 1089 778 759 1104 781 763 790 786 779 788 779 1103 974 1211 1491 956 1099 994 992 1097 1051

Tree=0
num_leaves=7
num_cat=0
split_feature=9 38 23 9 0 12
split_gain=13.5873 9.70958 7.82785 6.69034 5.31938 3.99888
threshold=-0.044884090468779551 0.011705254285166096 1.0635759844631101 -0.01159001958740683 0.0013120739059176991 34.223592856802199
decision_type=2 2 2 2 2 2
left_child=5 2 3 -2 -4 -1
right_child=1 -3 4 -5 -6 -7
leaf_value=0.14533172022114826 0.16271148889815346 0.11662842277895269 0.14074711020701453 0.14135207544274911 0.11719616713574477 0.17847970339924307
leaf_weight=7.4629788100719443 14.925957620143889 14.925957620143889 15.672255501151087 67.913107171654701 15.423489540815352 8.2092766910791379
leaf_count=30 60 60 63 273 62 33
internal_value=0.141073 0.137836 0.140853 0.145804 0.128609 0.165849
internal_weight=144.533 128.861 113.935 82.8391 31.0957 15.6723
internal_count=581 518 458 333 125 63
is_linear=0
shrinkage=1


Tree=1
num_leaves=10
num_cat=0
split_feature=1 25 38 38 40 26 25 11 16
split_gain=10.7815 9.26191 5.79846 8.45006 6.68559 4.4343 2.67577 3.49965 2.22112
threshold=0.016905322031285145 0.14365079365079367 0.0097833620070836517 0.011877226698500229 0.046449879312089555 0.43613053613053615 0.096464019851116647 0.0077368126704353566 12.307002741155019
decision_type=2 2 2 2 2 2 2 2 2
left_child=1 6 4 -4 -3 8 7 -1 -2
right_child=5 2 3 -5 -6 -7 -8 -9 -10
leaf_value=-0.00032941856656653023 -0.027472003520676972 -0.015624158285286205 0.020439459003404232 -0.010029773169689558 0.010266118385906757 0.0025356469919310103 0.028036664555545789 0.018362626973161402 -0.0046333929555173355
leaf_weight=15.170411080121996 14.93204870820046 31.590094745159149 17.653339534997944 11.695271745324133 9.9499711245298368 8.2101601213216764 11.18650199472904 15.674202248454092 8.4628128856420499
leaf_count=61 60 127 71 47 40 33 45 63 34
internal_value=0.000327957 0.00479291 -0.00168468 0.00795388 -0.00889151 -0.0145141 0.0156388 0.00925231 -0.0208166
internal_weight=144.525 112.92 70.8887 29.3486 41.5401 31.605 42.0311 30.8446 23.3949
internal_count=581 454 285 118 167 127 169 124 94
is_linear=0
shrinkage=0.03


Tree=2
num_leaves=7
num_cat=0
split_feature=21 6 25 11 13 34
split_gain=11.9561 9.09714 9.42184 7.38254 6.10149 2.67783
threshold=0.02065948114997786 0.015337216090214807 0.41801075268817212 -0.011812552697517463 -2.4596729324954647 0.006807726870105558
decision_type=2 2 2 2 2 2
left_child=1 2 3 -1 -4 -3
right_child=-2 5 4 -5 -6 -7
leaf_value=-0.0088507976465010303 0.025646310105632956 -0.0029706841042988963 0.004935145060407221 0.011102679380179902 -0.02298422039121182 -0.027599529849810112
leaf_weight=19.887465760111809 13.167874306440352 8.2180608510971087 8.7050967663526553 63.662143304944038 18.165255516767502 12.703052058815954
leaf_count=80 53 33 35 256 73 51
internal_value=0.000324218 -0.0024486 0.000975385 0.0060819 -0.0137044 -0.0196828
internal_weight=144.509 131.341 110.42 83.5496 26.8704 20.9211
internal_count=581 528 444 336 108 84
is_linear=0
shrinkage=0.03


Tree=3
num_leaves=8
num_cat=0
split_feature=9 38 6 25 11 4 35
split_gain=12.6898 9.06497 6.97722 8.09062 2.53529 2.21852 0.166633
threshold=-0.044884090468779551 0.011705254285166096 0.013323073040162611 0.41801075268817212 0.031676419701631382 -0.040350295231717508 0.01406328676723956
decision_type=2 2 2 2 2 2 2
left_child=5 2 3 -2 -4 -1 -3
right_child=1 6 4 -5 -6 -7 -8
leaf_value=0.0078388194615878464 0.0089853985484656344 -0.02961057397971701 -0.0029985053713747324 -0.011613065764723946 -0.024000630227539524 0.035314303581964537 -0.010479992128598441
leaf_weight=8.1942265927791578 70.069339215755463 7.4749188423156721 13.702956870198252 20.163537755608559 9.9696823358535749 7.4326632022857657 7.4761325567960739
leaf_count=33 282 30 55 81 40 30 30
internal_value=0.000300176 -0.00282025 9.33501e-05 0.0040678 -0.0136085 0.0242821 -0.0232946
internal_weight=144.483 128.857 113.906 90.2329 23.6726 15.6269 14.9511
internal_count=581 518 458 363 95 63 60
is_linear=0
shrinkage=0.03


Tree=4
num_leaves=8
num_cat=0
split_feature=9 38 2 35 9 4 35
split_gain=12.1559 8.62988 8.27103 8.2648 4.78094 2.11347 0.138832
threshold=-0.044884090468779551 0.011705254285166096 0.014524298194175113 0.05607982061815709 0.0029279682761714902 -0.040350295231717508 0.01406328676723956
decision_type=2 2 2 2 2 2 2
left_child=5 2 3 -2 -4 -1 -3
right_child=1 6 4 -5 -6 -7 -8
leaf_value=0.0076538489553567481 0.010673828361160362 -0.028875881126528322 0.0072535471308869314 -0.013453782465471275 -0.01628197170743001 0.034578709626511751 -0.010227533163123857
leaf_weight=8.1889032870531064 62.110035195946693 7.4858610928058607 7.9604831635951987 13.671104341745375 30.141776531934738 7.4059983491897574 7.4801594614982605
leaf_count=33 250 30 32 55 121 30 30
internal_value=0.000271377 -0.00277793 6.36952e-05 0.00589428 -0.0108743 0.02377 -0.0227438
internal_weight=144.444 128.849 113.883 75.7811 38.1023 15.5949 14.966
internal_count=581 518 458 305 153 63 60
is_linear=0
shrinkage=0.03


Tree=5
num_leaves=10
num_cat=0
split_feature=3 13 26 21 35 35 35 35 14
split_gain=10.7737 9.03506 11.9003 8.89271 8.82697 6.11113 5.92622 3.81112 3.60135
threshold=0.030112998971957631 -2.5360652556980372 0.4329085457271365 0.019070513087419579 0.056617550483984432 0.021856469453916953 -0.018077460132366548 0.019875049976255447 49.245254821436227
decision_type=2 2 2 2 2 2 2 2 2
left_child=1 4 3 -3 6 -4 -1 -2 -9
right_child=7 2 5 -5 -6 -7 -8 8 -10
leaf_value=0.00094626910156359739 -0.00087432851898191892 -0.015287415039085164 -0.0013526667567623032 0.016312356633955302 -0.01062477469151637 0.028306440967536994 0.027330528303687641 -0.033806403454911892 -0.0038047888894931188
leaf_weight=12.408021032810209 11.700096577405931 47.522991895675659 9.681466296315195 7.4248196333646765 8.9447156488895398 11.422301203012465 26.055322915315628 10.965836569666864 7.4801159650087348
leaf_count=50 47 191 39 30 36 46 105 44 30
internal_value=-0.000491384 0.00338686 -0.00287247 -0.0103312 0.0134414 0.0151117 0.0196573 -0.0160635 -0.0239362
internal_weight=153.606 123.46 76.0516 54.9478 47.4081 21.1038 38.4633 30.146 18.446
internal_count=618 497 306 221 191 85 155 121 74
is_linear=0
shrinkage=0.03


Tree=6
num_leaves=12
num_cat=0
split_feature=7 28 19 19 15 0 21 7 36 25 23
split_gain=12.2877 9.74817 6.77994 9.14303 6.69854 6.2765 5.98417 5.57847 4.49457 3.58677 2.92603
threshold=0.0078962146480747539 8.5000000000000018 0.062181704261342695 0.12632068945486263 -2.4500232120564003 0.0017907169681253834 0.013138097500261641 -0.0035564634254481643 0.0066286994797924636 0.31957446808510642 0.89017800459930629
decision_type=2 2 2 2 2 2 2 2 2 2 2
left_child=1 5 -2 9 8 10 -6 -7 -3 -4 -1
right_child=2 4 3 -5 6 7 -8 -9 -10 -11 -12
leaf_value=0.0062891689708057183 0.010664628745712236 0.023209267748803518 -0.012457768690154102 0.0061388258164651755 -0.031892819999255313 -0.016151882043739491 0 0.015826017729080852 -0.0033175534888459503 -0.033227534207084991 0.029238279898958545
leaf_weight=10.407830953598024 9.9514385461807233 7.443967521190646 31.112009271979332 13.673299193382261 8.6927156150341052 7.6964459866285324 9.6990338712930662 7.9455303996801359 11.690197467803953 13.706513226032255 21.551406756043434
leaf_count=42 40 30 125 55 35 31 39 32 47 55 87
internal_value=-0.000476498 0.0069621 -0.00987628 -0.013856 -0.00406902 0.0157742 -0.0164087 0 0.00751246 -0.0202781 0.0230169
internal_weight=153.57 85.1271 68.4433 58.4918 37.5259 47.6012 18.3917 15.642 19.1342 44.8185 31.9592
internal_count=618 343 275 235 151 192 74 63 77 180 129
is_linear=0
shrinkage=0.03


Tree=7
num_leaves=11
num_cat=0
split_feature=32 7 2 36 9 10 35 8 35 6
split_gain=14.3474 12.5606 10.6568 8.42553 5.80301 5.6024 4.20182 2.24044 1.61959 3.62312
threshold=0.0092631863581101887 0.0078962146480747539 -0.0056787386891972149 0.0063755296264285779 -0.044073100859386573 0.015771136235167352 -0.030362176332628717 -0.0097107654100249668 -0.016707469966618867 0.015337216090214807
decision_type=2 2 2 2 2 2 2 2 2 2
left_child=1 2 4 5 -1 -3 -5 -4 -2 -10
right_child=8 3 7 6 -6 -7 -8 -9 9 -11
leaf_value=0.020892461833607254 -0.0029671652585842147 0.018769692055117162 0.0086428667113353959 -0.00016350734588647974 -0.0041764251022583677 -0.0057900675286069354 -0.029330267951205857 0.03142429682329792 -0.008613756232141237 -0.035758774590556264
leaf_weight=8.8907769471406919 7.7093776613473919 10.946388974785807 9.6695382148027438 7.7019042819738415 31.76227730512619 20.663425788283348 13.710110932588575 19.822403982281685 13.417393937706949 9.2428270727395994
leaf_count=36 31 44 39 31 128 83 55 80 54 37
internal_value=-0.000457066 0.00405499 0.0123105 -0.00664447 0.00167701 0.00287943 -0.0203899 0.0254545 -0.0183395 -0.0222963
internal_weight=153.536 123.167 70.145 53.0218 40.6531 31.6098 21.412 29.4919 30.3696 22.6602
internal_count=618 496 283 213 164 127 86 119 122 91
is_linear=0
shrinkage=0.03


Tree=8
num_leaves=11
num_cat=0
split_feature=32 7 2 36 9 0 35 16 16 8
split_gain=13.6604 11.9356 10.1183 7.99965 5.52651 5.4835 3.95916 3.71051 4.73986 2.10665
threshold=0.0092631863581101887 0.0078962146480747539 -0.0056787386891972149 0.0063755296264285779 -0.044073100859386573 0.0061481993883930617 -0.030362176332628717 10.02195699860267 -11.566216387574721 -0.0097107654100249668
decision_type=2 2 2 2 2 2 2 2 2 2
left_child=1 2 4 5 -1 -3 -5 8 -2 -4
right_child=7 3 9 6 -6 -7 -8 -9 -10 -11
leaf_value=0.020420122533059963 -0.0013670991727458201 -0.0073109879866626922 0.0084332866430999916 -0.00015961160730762212 -0.0040572576562215266 0.016232035100722974 -0.028531125332508782 0 -0.032795879718874481 0.030655490684080675
leaf_weight=8.8701116442680341 7.4616518765687987 17.90796792507172 9.6623583436012286 7.7019894421100643 31.772903621196747 13.694506883621214 13.727043181657789 8.2231412380933744 14.698395192623138 19.761019855737686
leaf_count=36 30 72 39 31 128 55 55 33 59 80
internal_value=-0.000451692 0.00395161 0.0120082 -0.00646996 0.00164021 0.00280357 -0.0198582 -0.0178972 -0.0238234 0.0248365
internal_weight=153.481 123.098 70.0664 53.0315 40.643 31.6025 21.429 30.3832 22.16 29.4234
internal_count=618 496 283 213 164 127 86 122 89 119
is_linear=0
shrinkage=0.03


Tree=9
num_leaves=11
num_cat=0
split_feature=32 10 18 5 12 35 18 25 35 38
split_gain=12.964 9.87197 9.81063 9.16083 6.76001 6.22092 4.778 3.80568 2.36233 0.711965
threshold=0.0092631863581101887 0.015771136235167352 0.82870768775623771 0.080247974254061397 64.546012315472026 0.05607982061815709 0.36825807251630999 0.063446425148552824 0.068911875297431271 0.0098194244843667396
decision_type=2 2 2 2 2 2 2 2 2 2
left_child=1 5 4 -4 -3 6 -1 -2 -7 -9
right_child=7 2 3 -5 -6 8 -8 9 -10 -11
leaf_value=0.0047409877930932633 0 -0.0080222594290827644 -0.03130796762501703 0.0025766302831829102 0.021324348132791306 -0.015387556035639148 0.023138301028505569 -0.029783117760376888 0.0050569313202004059 -0.011463136140048411
leaf_weight=26.730249106884003 7.470386520028117 11.392650321125986 15.964184761047365 10.219933748245237 12.378431156277655 7.7111064195632917 30.94604417681694 11.726892724633219 7.673249363899231 11.203033566474913
leaf_count=108 30 46 64 41 50 31 125 47 31 45
internal_value=-0.000441037 0.00384949 -0.00609688 -0.0183059 0.00714643 0.0108314 0.015308 -0.0174317 -0.00491898 -0.0230718
internal_weight=153.416 123.016 49.9552 26.1841 23.7711 73.0606 57.6763 30.4003 15.3844 22.9299
internal_count=618 496 201 105 96 295 233 122 62 92
is_linear=0
shrinkage=0.03


Tree=10
num_leaves=6
num_cat=0
split_feature=6 9 1 9 15
split_gain=13.8332 8.76543 9.80801 7.0151 2.88478
threshold=0.015337216090214807 -0.044073100859386573 -0.021636276545102581 -0.029913457842872162 -10.086596436588165
decision_type=2 2 2 2 2
left_child=1 -1 -3 -4 -2
right_child=4 2 3 -5 -6
leaf_value=0.022406002129440002 -0.0032609467555644164 -0.027678591304204993 -0.020617616796845296 0.004683507616560903 -0.029128703041062427
leaf_weight=14.505997434258459 7.4702107757329967 9.1911784410476667 8.9510379433631879 89.794099971652031 15.736513540148733
leaf_count=59 30 37 36 362 63
internal_value=-0.00202041 0.00200263 -0.000960756 0.00187735 -0.0223164
internal_weight=145.649 122.442 107.936 98.7451 23.2067
internal_count=587 494 435 398 93
is_linear=0
shrinkage=0.03


Tree=11
num_leaves=7
num_cat=0
split_feature=1 9 1 3 11 34
split_gain=9.05088 7.42618 8.61704 7.34941 4.46667 1.7179
threshold=0.024606024269317021 -0.044073100859386573 -0.021636276545102581 0.035837074394302622 -0.025499234125695488 0.0097892813297230114
decision_type=2 2 2 2 2 2
left_child=1 4 -3 -4 -1 -2
right_child=5 2 3 -5 -6 -7
leaf_value=0.033269567387993665 -0.0059862890390944721 -0.026956376210626125 0.0034837176964938529 -0.021162321394204035 0.00016602590550135105 -0.03032404246585373
leaf_weight=7.339011549949646 7.4790435433387783 9.2076275497674924 94.992212787270546 10.226845517754553 7.6186724454164487 8.7369324266910535
leaf_count=30 30 37 383 41 31 35
internal_value=-0.0019851 0.000679912 -0.00191513 0.000598262 0.0193011 -0.0218123
internal_weight=145.6 129.384 114.427 105.219 14.9577 16.216
internal_count=587 522 461 424 61 65
is_linear=0
shrinkage=0.03


Tree=12
num_leaves=7
num_cat=0
split_feature=6 9 25 35 7 15
split_gain=12.6211 8.03739 9.37297 6.26568 5.79112 5.11499
threshold=0.015337216090214807 -0.044073100859386573 0.17502088554720135 0.010738575290937248 -0.0080421443672876285 6.2256909556143674
decision_type=2 2 2 2 2 2
left_child=1 -1 5 -2 -4 -3
right_child=3 2 4 -5 -6 -7
leaf_value=0.021486984674328736 0 -0.0013421393055345389 -0.023259159289709043 -0.031743425194889978 -0.0024845859147195771 0.01776533707661123
leaf_weight=14.428362429141997 8.2216043025255221 20.812625080347061 15.673699468374251 14.980211049318312 46.682788103818893 24.753529652953148
leaf_count=59 33 84 63 60 188 100
internal_value=-0.00194532 0.00189489 -0.000931239 -0.0213345 -0.00850003 0.00903306
internal_weight=145.553 122.351 107.923 23.2018 62.3565 45.5662
internal_count=587 494 435 93 251 184
is_linear=0
shrinkage=0.03


Tree=13
num_leaves=7
num_cat=0
split_feature=6 35 1 4 34 4
split_gain=11.96 5.94726 5.42958 5.82855 8.66923 7.87599
threshold=0.015337216090214807 0.010738575290937248 -0.021636276545102581 0.0089253462803617917 0.030666778376329033 0.035614146520338348
decision_type=2 2 2 2 2 2
left_child=2 -2 -1 4 -4 -5
right_child=1 -3 3 5 -6 -7
leaf_value=-0.014699131427254054 0 -0.03092579252907713 0.01752903348761483 -0.012496250288641561 -0.010333963142419756 0.0091028209756649752
leaf_weight=13.368583634495733 8.2216043025255221 14.968023508787153 41.507366195321083 30.230285063385963 10.885043933987616 26.298853933811188
leaf_count=54 33 60 168 122 44 106
internal_value=-0.00189845 -0.0207787 0.00183784 0.00423119 0.0112973 -0.00222382
internal_weight=145.48 23.1896 122.29 108.922 52.3924 56.5291
internal_count=587 93 494 440 212 228
is_linear=0
shrinkage=0.03


Tree=14
num_leaves=6
num_cat=0
split_feature=15 17 18 32 8
split_gain=8.16336 8.43137 7.68427 10.0853 2.10848
threshold=-45.757236486001922 3.665169099612696 0.92137403202595924 -0.010365136028675668 0.021879315867894617
decision_type=2 2 2 2 2
left_child=-1 2 3 -2 -3
right_child=1 4 -4 -5 -6
leaf_value=0.024024232376481814 -0.018449021138720999 -0.032881304471921634 -0.021111445525123129 0.005804510025783716 -0.0062830685896782474
leaf_weight=8.095266714692114 16.332156017422676 8.2218852043151838 12.9562851190567 92.340368151664734 7.4766020476818076
leaf_count=33 66 33 52 373 30
internal_value=-0.00186186 -0.00381842 -0.000860313 0.00175644 -0.0232026
internal_weight=145.423 137.327 121.629 108.673 15.6985
internal_count=587 554 491 439 63
is_linear=0
shrinkage=0.03


Tree=15
num_leaves=7
num_cat=0
split_feature=14 23 23 17 4 35
split_gain=10.1152 12.1425 8.41263 5.30274 7.43568 4.68046
threshold=-52.408985503968545 1.0905558286083032 1.2062723110461231 4.2689975308966011 0.021474882973860247 0.030870281672012782
decision_type=2 2 2 2 2 2
left_child=-1 3 -3 4 -2 -4
right_child=1 2 5 -5 -6 -7
leaf_value=0.030388414345315515 0.01233984307801003 -0.032398701073533168 -0.015227858257722979 -0.016399525502701 -0.0039610227464088746 0.0109212042794907
leaf_weight=7.338688150048255 56.574931770563126 14.911469548940657 10.932785689830782 8.9749294221401197 40.99254734814167 9.4081030935049039
leaf_count=30 229 60 44 36 165 38
internal_value=4.00788e-05 -0.00182712 -0.0166502 0.0031557 0.00539846 -0.00256697
internal_weight=149.133 141.795 35.2524 106.542 97.5675 20.3409
internal_count=602 572 142 430 394 82
is_linear=0
shrinkage=0.03


Tree=16
num_leaves=8
num_cat=0
split_feature=21 21 1 11 11 38 4
split_gain=10.1064 7.05675 9.28327 8.8385 7.7553 7.5665 6.97758
threshold=0.022278198837277691 0.016475492431952173 0.0081244805082113531 -0.010127869067512006 0.056695515007630932 0.011205287756906887 0.022755834751203911
decision_type=2 2 2 2 2 2 2
left_child=1 3 5 6 -5 -3 -1
right_child=-2 2 -4 4 -6 -7 -8
leaf_value=-0.00032656724112344775 0.024879533206193037 0.015058640611408613 -0.033342410902020052 0.010748641517416262 -0.011383113782686987 -0.018443065964619722 -0.033563424623465066
leaf_weight=15.53463749587536 11.527982234954832 10.553695917129522 11.684691712260245 66.471842393279076 15.640946730971335 9.6677205264568311 7.9643426537513724
leaf_count=63 47 43 47 268 63 39 32
internal_value=2.74685e-05 -0.00227513 -0.0142283 0.00139396 0.0061842 -0.000501631 -0.0139285
internal_weight=149.046 137.518 31.9061 105.612 82.1128 20.2214 23.499
internal_count=602 555 129 426 331 82 95
is_linear=0
shrinkage=0.03


Tree=17
num_leaves=8
num_cat=0
split_feature=14 23 23 16 37 28 35
split_gain=9.42914 11.4659 7.8758 10.5932 5.21261 8.83799 5.65075
threshold=-52.408985503968545 1.0905558286083032 1.2062723110461231 -6.9058962613708941 0.021192698476839026 2.5000000000000004 -0.03659263993651251
decision_type=2 2 2 2 2 2 2
left_child=-1 4 -3 -4 6 -6 -2
right_child=1 2 3 -5 5 -7 -8
leaf_value=0.029393345388014351 0.027358455409562849 -0.031439537205428733 -0.027754411666243879 0.01274046667201308 0.021539924118660216 -0.010048717918360713 0.0038148459818714603
leaf_weight=7.2860857099294654 10.362738966941832 14.916452541947363 7.4215336591005334 12.906880840659142 7.6961133629083625 40.133432686328888 48.250850185751915
leaf_count=30 42 60 30 52 31 162 195
internal_value=0 -0.00179571 -0.0162013 -0.00253348 0.00304668 -0.00400432 0.00899014
internal_weight=148.974 141.688 35.2449 20.3284 106.443 47.8295 58.6136
internal_count=602 572 142 82 430 193 237
is_linear=0
shrinkage=0.03


Tree=18
num_leaves=8
num_cat=0
split_feature=14 23 23 16 37 17 35
split_gain=9.01499 10.9065 7.44569 10.0743 4.92343 7.00398 5.39263
threshold=-52.408985503968545 1.0905558286083032 1.2062723110461231 -6.9058962613708941 0.021192698476839026 -1.6043506917309942 -0.03659263993651251
decision_type=2 2 2 2 2 2 2
left_child=-1 4 -3 -4 6 -6 -2
right_child=1 2 3 -5 5 -7 -8
leaf_value=0.028813411243088803 0.026740282810828908 -0.030608211265029481 -0.027054183554246734 0.012416147382762002 0.012154560807625118 -0.011423715452889179 0.0037060373356058787
leaf_weight=7.2505434155464163 10.330945834517477 14.916244134306906 7.4367360025644311 12.899057194590569 14.319988086819647 33.519369855523109 48.236403629183769
leaf_count=30 42 60 30 52 58 135 195
internal_value=1.29847e-05 -0.00173731 -0.0157868 -0.00247649 0.00298423 -0.00386042 0.00876563
internal_weight=148.909 141.659 35.252 20.3358 106.407 47.8394 58.5673
internal_count=602 572 142 82 430 193 237
is_linear=0
shrinkage=0.03


Tree=19
num_leaves=8
num_cat=0
split_feature=14 23 23 16 38 14 38
split_gain=8.62397 10.3711 7.04311 9.58339 4.7946 8.54384 7.49274
threshold=-52.408985503968545 1.0905558286083032 1.2062723110461231 -6.9058962613708941 0.0073522408624028821 37.99950382386556 0.0096128818651367767
decision_type=2 2 2 2 2 2 2
left_child=-1 4 -3 -4 5 -2 -6
right_child=1 2 3 -5 6 -7 -8
leaf_value=0.028252406943098302 0.026350733561246866 -0.029811321760342097 -0.026380117765609834 0.01210076136675722 -0.0094809960310708492 -0.0084091164705787126 0.0081258655639198565
leaf_weight=7.2129628509283057 15.587486296892168 14.909077465534208 7.4488676637411126 12.890448540449142 40.85758213698864 7.9192203879356375 41.988749623298645
leaf_count=30 63 60 30 52 165 32 170
internal_value=2.17177e-05 -0.00168531 -0.0153875 -0.00242069 0.00291773 0.0143112 -0.00039938
internal_weight=148.814 141.601 35.2484 20.3393 106.353 23.5067 82.8463
internal_count=602 572 142 82 430 95 335
is_linear=0
shrinkage=0.03


Tree=20
num_leaves=10
num_cat=0
split_feature=35 2 28 11 19 40 14 9 1
split_gain=11.507 12.0594 9.89123 7.73961 7.69535 7.57458 6.47267 5.24724 5.15592
threshold=0.05607982061815709 0.0080824782252024736 8.5000000000000018 -0.0077805372991485702 0.061680117924075746 -0.0032379183256417417 -9.5584732623949531 -0.017522598001796643 0.0038796190678302982
decision_type=2 2 2 2 2 2 2 2 2
left_child=1 2 3 -1 -3 -6 -4 -2 -9
right_child=7 4 6 -5 5 -7 -8 8 -10
leaf_value=0 0 0.015399451096009452 0.011531171317359484 0.027120003533172166 0.0047360899290808016 -0.021540257404258446 -0.016452064645122732 -0.042690336300671296 -0.0073058672878947017
leaf_weight=13.944341346621512 8.1623334288597125 7.6667573899030677 11.108765721321108 29.076580226421356 12.066224873065947 30.571120917797089 14.612561613321303 8.4720432907342929 9.1866498440504056
leaf_count=57 33 31 45 118 49 123 59 34 37
internal_value=-0.0018264 0.00208655 0.0102298 0.0187875 -0.00872032 -0.0138891 -0.00386531 -0.0192591 -0.0276612
internal_weight=144.867 119.046 68.7422 43.0209 50.3041 42.6373 25.7213 25.821 17.6587
internal_count=586 482 279 175 203 172 104 104 71
is_linear=0
shrinkage=0.03


Tree=21
num_leaves=12
num_cat=0
split_feature=28 18 37 1 37 14 21 17 23 4 4
split_gain=9.85503 11.3229 6.43685 5.69162 5.36209 5.13943 7.76714 6.71527 6.34341 2.39447 1.97674
threshold=8.5000000000000018 0.82870768775623771 0.046871501494407448 0.021724843244996798 -0.017199953972236056 -6.3731940567472511 0.015165134639158114 0.99956373241358432 0.94832701184489143 0.046055332144643531 0.029376393829367634
decision_type=2 2 2 2 2 2 2 2 2 2 2
left_child=1 2 4 9 -1 6 -2 -8 -7 -3 -10
right_child=5 3 -4 -5 -6 8 7 -9 10 -11 -12
leaf_value=0.020068655382079963 0.020519980227287057 -0.027799749691264232 0.033416543491868143 0.0079339473076749951 0 -0.0015443306779072709 0.0046808175265398632 -0.030288828237745449 -0.03838212623187235 -0.0035712179644124251 -0.010519279616275313
leaf_weight=15.859663426876066 7.872575223445895 11.195074349641805 8.3646460920572263 7.6935165971517554 38.672207489609718 13.142979204654695 8.1504508405923826 7.4352259188890448 10.725656703114511 8.2141621112823469 7.4473047256469718
leaf_count=65 32 45 34 31 157 53 33 30 43 33 30
internal_value=-0.00177903 0.00419321 0.0112049 -0.0112151 0.00647087 -0.0116582 -0.000223286 -0.0126961 -0.0192461 -0.0195381 -0.0298824
internal_weight=144.773 89.9993 62.8965 27.1028 54.5319 54.7742 23.4583 15.5857 31.3159 19.4092 18.173
internal_count=586 365 256 109 222 221 95 63 126 78 73
is_linear=0
shrinkage=0.03


Tree=22
num_leaves=10
num_cat=0
split_feature=35 2 28 12 19 40 36 9 1
split_gain=10.8588 11.1356 9.0249 8.52868 7.30014 7.05431 6.12761 4.90297 4.8163
threshold=0.05607982061815709 0.0080824782252024736 8.5000000000000018 41.262898686679179 0.061680117924075746 -0.0032379183256417417 0.0063389709181267727 -0.017522598001796643 0.0038796190678302982
decision_type=2 2 2 2 2 2 2 2 2
left_child=1 2 6 -4 -3 -6 -1 -2 -9
right_child=7 4 3 -5 5 -7 -8 8 -10
leaf_value=0.0049571481666846988 0 0.015164582305589825 0.016877127697002899 -0.01615828921820164 0.0045956740606558563 -0.020744760297433044 0.028791773626161796 -0.041327155440723427 -0.007043378409987729
leaf_weight=21.177615061402321 8.1604841500520724 7.6578149348497382 9.1135911941528338 16.602227807044983 12.048519179224966 30.561471983790398 21.702207550406456 8.4751018434762972 9.1817383170127851
leaf_count=86 33 31 37 67 49 123 89 34 37
internal_value=-0.00173542 0.00206719 0.00990584 -0.00353642 -0.00831221 -0.0133584 0.0181 -0.0186718 -0.0267929
internal_weight=144.681 118.863 68.5956 25.7158 50.2678 42.61 42.8798 25.8173 17.6568
internal_count=586 482 279 104 203 172 175 104 71
is_linear=0
shrinkage=0.03


Tree=23
num_leaves=11
num_cat=0
split_feature=35 2 5 19 26 14 2 9 5 11
split_gain=10.3604 10.5157 9.4052 7.10261 6.98606 5.6662 5.25285 4.68344 4.20766 2.63781
threshold=0.05607982061815709 0.0080824782252024736 0.037005484752556057 0.06595483037012094 0.14415584415584418 68.474801719900611 -0.014287510213742248 -0.017522598001796643 0.022554845659653936 0.0035531914491067078
decision_type=2 2 2 2 2 2 2 2 2 2
left_child=1 4 3 -3 6 -4 -1 -2 -9 -6
right_child=7 2 5 -5 9 -7 -8 8 -10 -11
leaf_value=-0.021469431754970375 0 0.026376881994716179 -0.027403535554815592 -0.0056024441913648622 0.0061281858102596896 0.00086426928257416467 0.0066931768816516609 -0.037703595717768559 -0.0049804992302248802 0.022131008689255417
leaf_weight=7.682770341634753 8.1604841500520724 7.4064121246337917 19.61709359288216 15.758823066949843 21.573328509926796 7.464367449283599 12.740469604730604 9.9606082141399401 7.6898426115512839 26.496483236551285
leaf_count=31 33 30 79 64 88 30 52 40 31 108
internal_value=-0.00168301 0.00203171 -0.00805 0.00530967 0.00965903 -0.0195728 -0.00420202 -0.0182286 -0.0261683 0.0157803
internal_weight=144.551 118.74 50.2467 23.1652 68.4931 27.0815 20.4232 25.8109 17.6505 48.0698
internal_count=586 482 203 94 279 109 83 104 71 196
is_linear=0
shrinkage=0.03


Tree=24
num_leaves=10
num_cat=0
split_feature=35 28 20 18 35 12 9 5 38
split_gain=9.86223 9.59426 10.5111 9.11911 8.6873 7.15901 4.47199 3.98515 2.81931
threshold=0.05607982061815709 8.5000000000000018 0.015157912317332422 0.90046998142672585 0.032582837568494678 41.262898686679179 -0.017522598001796643 0.022554845659653936 0.010306941239303034
decision_type=2 2 2 2 2 2 2 2 2
left_child=1 2 -1 -4 5 -3 -2 -8 -6
right_child=6 4 3 -5 8 -7 7 -9 -10
leaf_value=-0.014814484388189726 0 0.0021160285088777085 0.018444235820672176 -0.0096776742222348285 -0.0041531627254868253 -0.029222486051700414 -0.036799763459755129 -0.0048624353068740913 0.017712907595763758
leaf_weight=12.325294494628904 8.1604841500520724 8.1485157161951083 53.299737945199013 10.687910214066504 7.9194424301385906 17.855552434921265 9.9483830034732836 7.6888397037982932 8.3817900419235212
leaf_count=50 33 33 218 43 32 72 40 31 34
internal_value=-0.00164364 0.00198055 0.00836324 0.0133687 -0.00905218 -0.019417 -0.0177909 -0.025554 0.00697738
internal_weight=144.416 118.618 76.3129 63.9876 42.3053 26.0041 25.7977 17.6372 16.3012
internal_count=586 482 311 261 171 105 104 71 66
is_linear=0
shrinkage=0.03


Tree=25
num_leaves=9
num_cat=0
split_feature=23 1 19 14 38 35 0 38
split_gain=11.7678 9.39957 7.33321 8.37208 8.21861 6.39751 4.47363 3.9102
threshold=1.0635759844631101 0.011005656992122194 0.062181704261342695 70.9518061582569 0.0073904687451251195 0.05607982061815709 -0.0012861723484727248 0.0094773394114811855
decision_type=2 2 2 2 2 2 2 2
left_child=2 5 7 4 -4 6 -2 -1
right_child=1 -3 3 -5 -6 -7 -8 -9
leaf_value=0.0031711262399611402 0.014759532352909626 -0.028477422196602906 0.015188955947492496 0.024888966052885288 -0.0067237198375938575 -0.022028875366790112 -0.0077388763283365997 0.034145205187195111
leaf_weight=7.4069862663745907 17.411066383123398 14.825152352452276 19.147122263908386 11.600113540887831 54.209201365709305 7.9115960150957099 10.885180920362474 10.73475371301174
leaf_count=30 71 60 78 47 220 32 44 44
internal_value=0.00150979 -0.00991264 0.00738759 0.00324025 -0.000553798 -0.000826005 0.00567006 0.0238143
internal_weight=154.131 51.033 103.098 84.9564 73.3563 36.2078 28.2962 18.1417
internal_count=626 207 419 345 298 147 115 74
is_linear=0
shrinkage=0.03


Tree=26
num_leaves=8
num_cat=0
split_feature=32 34 1 35 35 27 26
split_gain=10.1908 9.6161 6.41448 7.77977 6.18312 4.26205 2.01435
threshold=0.016617368964956362 0.031231176503199291 0.010413312262336884 0.032013706757763279 0.053304881294506175 3.5000000000000004 0.20349009168884949
decision_type=2 2 2 2 2 2 2
left_child=1 2 5 -4 6 -1 -3
right_child=-2 4 3 -5 -6 -7 -8
leaf_value=0.015507923327542007 -0.028701761491962831 -0.009569928322273831 -0.012176622175216036 0.013572805976961111 -0.028048840867863696 -0.00051566209142442094 0.0095966480496048594
leaf_weight=62.981521144509315 7.383008360862731 7.6620152741670635 25.729954749345779 14.823757290840147 10.416398316621779 16.923527002334595 8.0768050998449308
leaf_count=257 30 31 104 60 42 69 33
internal_value=0.00147646 0.00346288 0.00713431 -0.0022163 -0.0122189 0.0120013 0
internal_weight=153.997 146.614 120.459 40.5537 26.1552 79.905 15.7388
internal_count=626 596 490 164 106 326 64
is_linear=0
shrinkage=0.03


Tree=27
num_leaves=12
num_cat=0
split_feature=23 6 35 10 34 38 37 35 3 33 13
split_gain=11.1243 7.80794 8.4121 6.44353 9.71409 7.25006 8.62688 6.49901 5.0817 3.47607 0.388812
threshold=1.0635759844631101 0.0074287626142193275 0.05607982061815709 -0.0080047251068897634 0.005360981441918323 0.0098194244843667396 0.022443874838100512 0.049684275396622353 0.00068755211442883557 0.30480588829556937 2.5262248809821064
decision_type=2 2 2 2 2 2 2 2 2 2 2
left_child=3 2 8 4 -1 7 -7 -5 -2 -6 -3
right_child=1 10 -4 5 9 6 -8 -9 -10 -11 -12
leaf_value=0.014556012785616126 -0.0015275217591907541 -0.012771057908093032 -0.024558144592874954 0.01000719317657265 -0.001255206331237946 0.038258818799439348 0 -0.015008188116999017 0.024033633750131334 -0.030550156195909259 -0.032951916061137669
leaf_weight=11.160798609256746 17.154621124267582 9.6433520615100878 7.916037216782569 44.674105554819107 7.6235957443714168 13.961477205157282 7.6524508744478217 9.4378790855407697 8.6094964742660505 8.4237306416034681 7.6269154250621787
leaf_count=46 70 39 32 182 31 57 31 38 35 34 31
internal_value=0.00140916 -0.00970185 -0.000498704 0.00713194 -0.00475749 0.0116093 0.025702 0.00499742 0.00758986 -0.0191456 -0.0249567
internal_weight=153.884 50.9504 33.6802 102.934 27.2081 75.7259 21.6139 54.112 25.7641 16.0473 17.2703
internal_count=626 207 137 419 111 308 88 220 105 65 70
is_linear=0
shrinkage=0.03


Tree=28
num_leaves=8
num_cat=0
split_feature=32 35 19 1 13 9 32
split_gain=9.48619 7.43273 6.89982 13.0008 10.555 4.4197 3.52078
threshold=0.016617368964956362 0.052830161204972866 0.062181704261342695 0.0050802267748897298 -0.49677935542236179 -0.017522598001796643 0.0054024557659493331
decision_type=2 2 2 2 2 2 2
left_child=1 2 4 -4 -1 -3 -7
right_child=-2 5 3 -5 -6 6 -8
leaf_value=-0.0024391715715198024 -0.02779642703387274 0.0060253224166598365 0.012289152106296485 -0.0096607248922428359 0.038343093480229899 -0.024871122140404531 0
leaf_weight=8.2747924625873583 7.364823415875434 9.3948685228824633 56.120413705706596 39.264031246304512 11.743862375617026 13.389707878232004 8.1409747600555402
leaf_count=34 30 38 230 159 48 54 33
internal_value=0.00134432 0.00326714 0.00683568 0.00308684 0.022114 -0.00920015 -0.0164287
internal_weight=153.693 146.329 115.403 95.3844 20.0187 30.9256 21.5307
internal_count=626 596 471 389 82 125 87
is_linear=0
shrinkage=0.03


Tree=29
num_leaves=9
num_cat=0
split_feature=23 0 14 36 8 23 14 17
split_gain=10.5197 7.71324 6.68269 8.1106 9.95483 3.43754 2.70112 0.314053
threshold=1.0635759844631101 -0.0021573418436887089 70.9518061582569 0.0047380979169800025 0.029725927936353442 1.2200993642879798 -5.0582529286684794 1.5459398877275528
decision_type=2 2 2 2 2 2 2 2
left_child=2 5 3 -1 -5 -2 -3 -8
right_child=1 6 -4 4 -6 -7 7 -9
leaf_value=-0.015676871191523074 -0.0058588463295725828 -0.0045053835854087562 0.025972133917383376 0.012776072358196004 -0.013739830944793042 0.01578750310987646 -0.033087896106089747 -0.012791856817586409
leaf_weight=14.054213061928747 13.036226660013201 10.751052245497705 12.523148626089094 62.472106456756592 13.63401775062084 9.2640004158020002 9.1537050604820269 8.6380408555269224
leaf_count=57 53 44 51 256 55 38 37 35
internal_value=0.001296 -0.00951584 0.00687223 0.00355046 0.00760365 0.00307551 -0.0194017 -0.0262803
internal_weight=153.527 50.843 102.683 90.1603 76.1061 22.3002 28.5428 17.7917
internal_count=626 207 419 368 311 91 116 72
is_linear=0
shrinkage=0.03


Tree=30
num_leaves=6
num_cat=0
split_feature=33 21 12 20 4
split_gain=7.52505 7.84071 7.91801 8.72342 8.02923
threshold=0.95106119505214137 0.022278198837277691 52.095037453183529 0.021618370466468247 0.010286792733939733
decision_type=2 2 2 2 2
left_child=1 2 3 -1 -4
right_child=-2 -3 4 -5 -6
leaf_value=0.0013147563867750278 -0.018174289993982587 0.027994226028004891 0.023450640984769636 -0.024172113183616634 0.001221308650965729
leaf_weight=35.083624497056007 12.837434768676756 9.5491733849048597 20.208467453718185 15.554449394345282 48.241651028394699
leaf_count=143 52 40 83 63 196
internal_value=0.0019184 0.00428592 0.00183 -0.00685003 0.0084764
internal_weight=141.475 128.637 119.088 50.6381 68.4501
internal_count=577 525 485 206 279
is_linear=0
shrinkage=0.03


Tree=31
num_leaves=6
num_cat=0
split_feature=33 21 9 4 25
split_gain=7.15056 7.497 7.4986 9.48139 4.80593
threshold=0.95106119505214137 0.022278198837277691 0.0087153625379750056 0.019669187382165835 0.10268392044092979
decision_type=2 2 2 2 2
left_child=1 2 3 -1 -4
right_child=-2 -3 4 -5 -6
leaf_value=0 -0.017720030754318165 0.027421356136226212 0.021678854497121074 -0.02945642077122047 0.0030239265622319634
leaf_weight=47.108586013317108 12.823018282651899 9.4987553060054761 17.256827712059021 10.119110375642775 44.530134126543999
leaf_count=192 52 40 71 41 181
internal_value=0.00187093 0.00418223 0.00178099 -0.0057852 0.00898569
internal_weight=141.336 128.513 119.015 57.2277 61.787
internal_count=577 525 485 233 252
is_linear=0
shrinkage=0.03


Tree=32
num_leaves=9
num_cat=0
split_feature=1 25 11 14 40 3 40 6
split_gain=6.12837 5.32463 5.39613 6.04307 5.40691 4.73837 3.96311 1.27979
threshold=0.022950390498324483 0.21702898550724639 -0.0013312292000177692 -14.758547090458704 0.00059720521097250689 0.034581386490535111 -0.0075819762415798566 0.023325547920044178
decision_type=2 2 2 2 2 2 2 2
left_child=1 5 3 -3 -4 6 -1 -2
right_child=7 2 4 -5 -6 -7 -8 -9
leaf_value=0.00018354568560884915 -0.019658305893593509 0.0028542719206221638 0.02060525787975637 -0.023327675168749583 -0.0025244983003821328 -0.0091177440769247553 0.018719665702382943 -0.0010301043622415113
leaf_weight=16.314148366451263 10.36486801505089 12.622828274965288 11.998614355921744 14.767945021390913 22.403239950537682 7.4099222421646109 37.989820390939713 7.3410668820142737
leaf_count=67 42 52 49 60 91 30 156 30
internal_value=0.00182167 0.00433109 -0.00168641 -0.0113784 0.00581946 0.0104555 0.0136217 -0.0135845
internal_weight=141.212 123.507 61.7926 27.3908 34.4019 61.7139 54.304 17.7059
internal_count=577 505 252 112 140 253 223 72
is_linear=0
shrinkage=0.03


Tree=33
num_leaves=6
num_cat=0
split_feature=33 21 12 33 38
split_gain=6.62703 7.18805 7.4152 7.20347 6.17356
threshold=0.95106119505214137 0.022278198837277691 52.095037453183529 0.18534023166771679 0.010285489362410647
decision_type=2 2 2 2 2
left_child=1 2 3 -1 -4
right_child=-2 -3 4 -5 -6
leaf_value=0.0094554863998960858 -0.017112978253941171 0.026808185111204082 0.003476182807473624 -0.013971381510792325 0.027235572386549244
leaf_weight=14.748772278428076 12.797736734151838 9.433333605527876 57.546701639890671 35.838594824075699 10.719077765941618
leaf_count=60 52 40 235 146 44
internal_value=0.00175694 0.00398832 0.00163932 -0.00675618 0.00808938
internal_weight=141.084 128.286 118.853 50.5874 68.2658
internal_count=577 525 485 206 279
is_linear=0
shrinkage=0.03


Tree=34
num_leaves=6
num_cat=0
split_feature=33 21 9 4 25
split_gain=6.30578 6.86949 6.86689 9.0063 4.45195
threshold=0.95106119505214137 0.022278198837277691 0.0087153625379750056 0.019669187382165835 0.10268392044092979
decision_type=2 2 2 2 2
left_child=1 2 3 -1 -4
right_child=-2 -3 4 -5 -6
leaf_value=0 -0.016689582753059103 0.026271687756772147 0.020768292595610374 -0.028709886105007212 0.0027784134462589343
leaf_weight=47.060279220342636 12.779738217592238 9.3788626194000226 17.165609821677208 10.107216805219648 44.481345161795616
leaf_count=192 52 40 71 41 181
internal_value=0.00172401 0.00390308 0.00160753 -0.00562755 0.00851858
internal_weight=140.973 128.193 118.814 57.1675 61.647
internal_count=577 525 485 233 252
is_linear=0
shrinkage=0.03


Tree=35
num_leaves=6
num_cat=0
split_feature=20 20 16 20 2
split_gain=6.18699 7.17676 7.27545 8.72533 5.42323
threshold=0.025373229163377784 0.022447183752332931 2.4209332100191685 0.015096688639144838 -0.012482203439377891
decision_type=2 2 2 2 2
left_child=1 2 4 -4 -1
right_child=-2 -3 3 -5 -6
leaf_value=-0.0034326158401086146 0.018257184798304203 -0.021923452160526047 -0.02969846412250397 -0.00064911497273243681 0.015154374831461622
leaf_weight=19.573346853256226 13.777100190520285 12.022741958498953 9.6205146908760053 53.159432470798492 36.360702738165855
leaf_count=80 58 49 39 217 149
internal_value=0.000423043 -0.00159009 0.000674016 -0.00611171 0.00849724
internal_weight=144.514 130.737 118.714 62.7799 55.934
internal_count=592 534 485 256 229
is_linear=0
shrinkage=0.03


Tree=36
num_leaves=6
num_cat=0
split_feature=20 20 16 20 23
split_gain=5.89377 6.79924 6.88741 8.2893 5.65541
threshold=0.025373229163377784 0.022447183752332931 2.4209332100191685 0.015096688639144838 1.0703217365713333
decision_type=2 2 2 2 2
left_child=1 2 4 -4 -1
right_child=-2 -3 3 -5 -6
leaf_value=0.014541932438082833 0.017827268740381617 -0.021357754210812329 -0.028947535612659787 -0.00063033672202552965 -0.0049401977526002516
leaf_weight=38.478753834962845 13.73493744432926 12.023898661136625 9.6257689446210843 53.160402745008469 17.404425024986267
leaf_count=158 58 49 39 217 71
internal_value=0.000392429 -0.00156789 0.00063372 -0.0059628 0.00825417
internal_weight=144.428 130.693 118.669 62.7862 55.8832
internal_count=592 534 485 256 229
is_linear=0
shrinkage=0.03


Tree=37
num_leaves=6
num_cat=0
split_feature=24 33 21 20 0
split_gain=6.20982 9.18996 5.50026 7.41848 0.765283
threshold=0.78024390243902453 0.9437976625603538 0.01979630690273074 0.021618370466468247 0.0012203456719732666
decision_type=2 2 2 2 2
left_child=1 2 3 -1 -4
right_child=-2 -3 4 -5 -6
leaf_value=0.0019576283314685838 0.021347097200661597 -0.026465153581316219 0.022373907967173 -0.018351710393972841 0.0042995876401031655
leaf_weight=91.284474611282349 9.7671806365251523 9.9989718347787839 8.6951404511928541 17.442646950483322 7.1317551881074897
leaf_count=373 40 41 37 71 30
internal_value=0.00036226 -0.00134153 0.000943197 -0.00143767 0.016467
internal_weight=144.32 134.553 124.554 108.727 15.8269
internal_count=592 552 511 444 67
is_linear=0
shrinkage=0.03


Tree=38
num_leaves=6
num_cat=0
split_feature=20 38 16 1 20
split_gain=5.4759 6.55508 6.40706 9.62366 7.98611
threshold=0.025373229163377784 0.011877226698500229 2.4209332100191685 -0.016950744105865109 0.015096688639144838
decision_type=2 2 2 2 2
left_child=1 2 3 -1 -4
right_child=-2 -3 4 -5 -6
leaf_value=-0.013932894694460221 0.01721454002044084 -0.020438444883062287 -0.028208918087770006 0.014623078525676438 -0.00041063029136010519
leaf_weight=11.604324504733084 13.652005627751349 12.721992969512938 9.6209105849266034 43.717850387096405 52.894682735204697
leaf_count=47 58 52 39 180 216
internal_value=0.000356885 -0.00152581 0.000697888 0.00809439 -0.00566305
internal_weight=144.212 130.56 117.838 55.3222 62.5156
internal_count=592 534 482 227 255
is_linear=0
shrinkage=0.03


Tree=39
num_leaves=6
num_cat=0
split_feature=24 33 21 20 0
split_gain=5.85405 8.66109 5.12663 6.99908 0.759315
threshold=0.78024390243902453 0.9437976625603538 0.01979630690273074 0.021618370466468247 0.0012203456719732666
decision_type=2 2 2 2 2
left_child=1 2 3 -1 -4
right_child=-2 -3 4 -5 -6
leaf_value=0.0018909872506733131 0.020722591130690336 -0.025761716614949859 0.021764907639720853 -0.017839298977319326 0.0039556366388878621
leaf_weight=91.224272266030312 9.7455759644508344 9.95750844478607 8.630909785628317 17.431660577654839 7.1144262999296179
leaf_count=373 40 41 37 71 30
internal_value=0.000324601 -0.00132718 0.000886643 -0.001404 0.015916
internal_weight=144.104 134.359 124.401 108.656 15.7453
internal_count=592 552 511 444 67
is_linear=0
shrinkage=0.03


Tree=40
num_leaves=9
num_cat=0
split_feature=6 15 10 0 22 35 24 35
split_gain=5.90474 6.05195 6.49899 6.05279 6.44413 4.33792 3.40311 2.79705
threshold=0.015337216090214807 4.3942049416589049 0.0033013232455594292 -0.016173661307617267 -0.21566312444210198 0.016450038050778718 0.65097822074566281 0.0074456093038254298
decision_type=2 2 2 2 2 2 2 2
left_child=1 2 5 -3 -5 -1 -2 -4
right_child=6 3 7 4 -6 -7 -8 -9
leaf_value=-0.0082837632462378248 -0.021784052150266745 -0.013369103084011645 -0.0029318620096015885 -0.0065383948043127365 0.0177025172933125 0.010237912962865527 0.00052737308257858441 -0.030144226972014534
leaf_weight=18.474180549383163 14.502472430467607 7.3179189264774314 7.8098245412111309 10.529223710298536 42.184164702892303 22.944355323910713 7.6423537433147422 8.3277133554220182
leaf_count=77 60 30 32 43 173 94 31 34
internal_value=-0.000444747 0.0021856 -0.00452191 0.00879681 0.0125244 0.00163006 -0.0140571 -0.0195772
internal_weight=139.732 117.587 57.5561 60.0313 52.7134 41.4185 22.1448 16.1375
internal_count=574 483 237 246 216 171 91 66
is_linear=0
shrinkage=0.03


Tree=41
num_leaves=8
num_cat=0
split_feature=3 38 14 26 19 0 15
split_gain=5.80515 6.50809 6.16699 4.98615 5.30768 3.09688 1.77388
threshold=0.035837074394302622 0.0073522408624028821 37.99950382386556 0.10690476190476192 0.065669909812709107 -0.0029467797538750835 34.675660592712305
decision_type=2 2 2 2 2 2 2
left_child=1 2 -1 5 -5 -3 -2
right_child=6 3 -4 4 -6 -7 -8
leaf_value=0.027091120028828693 -0.022389526977004279 0 -0.0013834379259197132 0.015150110573549822 -0.0023799606757576729 -0.021978212852980974 -0.0014745496813612039
leaf_weight=13.820609837770464 10.734096616506578 10.718046367168428 10.071494191884993 19.064642623066902 54.638061299920082 12.730680927634237 7.8546295911073676
leaf_count=57 44 44 41 79 225 52 32
internal_value=-0.00046104 0.00190456 0.0153289 -0.00148817 0.00223685 -0.0130415 -0.0152822
internal_weight=139.632 121.044 23.8921 97.1514 73.7027 23.4487 18.5887
internal_count=574 498 98 400 304 96 76
is_linear=0
shrinkage=0.03


Tree=42
num_leaves=10
num_cat=0
split_feature=32 2 19 14 32 37 14 23 37
split_gain=5.74914 7.50978 11.403 7.23554 6.31095 4.48484 4.38618 3.74933 0.793258
threshold=-0.0085766601272219117 0.0080824782252024736 0.072039142350212929 15.340540491671165 -0.00038571677863152848 0.0049644702312986464 -6.7382020801469471 0.99390027735416442 0.033436776897302962
decision_type=2 2 2 2 2 2 2 2 2
left_child=6 3 7 5 -4 -2 -1 -3 -5
right_child=1 2 4 8 -6 -7 -8 -9 -10
leaf_value=0.00092092023297639576 0.0086074313756113689 0.022213409019175935 0.0069460594987821658 0.011423225532664474 -0.021093450535369439 -0.011470857146249461 -0.024631483443458113 -0.0024436635059723786 0.028287516522876303
leaf_weight=8.3922272473573702 22.48943518102169 11.027297928929331 7.3219209760427466 14.767306417226793 30.076835080981255 14.88772928714752 12.24215120077133 7.328475981950759 11.009269699454306
leaf_count=35 93 45 30 61 123 61 50 30 46
internal_value=-0.000458514 0.00203738 -0.00571861 0.00908023 -0.0151492 5.26803e-05 -0.0144132 0.0123594 0.0206842
internal_weight=139.543 118.908 55.7545 63.1537 37.3988 37.3772 20.6344 18.3558 25.7766
internal_count=574 489 228 261 153 154 85 75 107
is_linear=0
shrinkage=0.03


Tree=43
num_leaves=13
num_cat=0
split_feature=28 16 18 28 38 8 2 15 1 8 20 27
split_gain=5.69333 11.4416 9.18371 6.86195 7.93262 8.49711 5.03862 4.69038 4.089 3.69251 3.81727 3.44681
threshold=8.5000000000000018 5.2872909995430897 0.45592436277674275 10.500000000000002 0.0098194244843667396 0.007940926950898217 -0.0019070335545722792 37.730960294498608 0.0036339406329286565 -0.026261302051607444 0.018143916796780676 2.5000000000000004
decision_type=2 2 2 2 2 2 2 2 2 2 2 2
left_child=1 2 8 9 5 -5 -3 -4 -1 -2 -11 -8
right_child=3 6 7 4 -6 -7 11 -9 -10 10 -12 -13
leaf_value=0.0078720433492235724 0 0.010851412121790817 0.036579563578696656 0.0092140510480432872 0.025278255438237692 -0.027579697532840675 -0.002785543704915636 0.0085069762086078058 -0.016362215828859564 -0.0037336873191455215 -0.034384243111728892 -0.024428436801961315
leaf_weight=16.261309280991558 7.3559872806072262 7.4466306120157233 13.431496337056162 10.054069399833685 7.4687815159559241 8.3407827317714673 16.177107721567157 13.272906690835951 7.5190584361553183 7.3397935628891018 11.768306806683539 12.977118521928785
leaf_count=68 30 31 56 41 31 34 66 55 31 30 48 53
internal_value=-0.000427407 0.00413549 0.0132878 -0.00816994 0.00234088 -0.0078024 -0.00813431 0.0247141 0 -0.018412 -0.0247907 -0.0138505
internal_weight=139.413 87.0856 50.4848 52.3277 25.8636 18.3949 36.6009 26.7044 23.7804 26.4641 19.1081 29.1542
internal_count=574 360 210 214 106 75 150 111 99 108 78 119
is_linear=0
shrinkage=0.03


Tree=44
num_leaves=8
num_cat=0
split_feature=32 6 9 16 9 4 24
split_gain=5.46059 7.81279 8.38093 7.70035 6.86443 4.22937 2.77457
threshold=-0.0085766601272219117 0.015337216090214807 0.0041107219425979566 5.5557913813879738 -0.017522598001796643 -0.026381471821735555 0.64081034252965496
decision_type=2 2 2 2 2 2 2
left_child=5 2 4 -4 -2 -1 -3
right_child=1 6 3 -5 -6 -7 -8
leaf_value=0.0022428725986323233 0.0066005077743928834 -0.021195528662229197 0.023279585819399998 0 -0.015479732829731202 -0.023225706066656273 0
leaf_weight=7.413464009761813 25.825932428240776 13.001710370182993 29.865125373005867 21.067723602056503 20.745695859193802 13.213586330413817 8.078129976987837
leaf_count=31 107 54 124 86 85 54 33
internal_value=-0.000416478 0.00201868 0.00574179 0.0139756 -0.00315888 -0.0140201 -0.0135578
internal_weight=139.211 118.584 97.5045 50.9328 46.5716 20.6271 21.0798
internal_count=574 489 402 210 192 85 87
is_linear=0
shrinkage=0.03


Tree=45
num_leaves=9
num_cat=0
split_feature=26 21 23 19 13 24 5 3
split_gain=9.04529 6.72391 7.97017 6.26017 3.60242 3.58277 2.9255 0.551272
threshold=0.44151846785225723 0.022278198837277691 1.0703217365713333 0.062181704261342695 -2.7855822248046098 1.0000000180025095e-35 0.032034884191876396 0.012871699640985336
decision_type=2 2 2 2 2 2 2 2
left_child=1 2 3 -1 -4 6 -2 -7
right_child=5 -3 4 -5 -6 7 -8 -9
leaf_value=0.016070470054145709 0.011379896355204857 0.017340968463159037 -0.0030776434031378761 -0.0055150483483044728 -0.025872547026257384 0.027771859658394179 -0.010020620114553611 0.008401348105759314
leaf_weight=12.794607475399969 11.326815769076349 8.9785204827785474 11.527404949069021 61.856377810239792 21.390195488929749 8.9386926144361514 7.7505806386470786 7.5324225425720206
leaf_count=53 47 39 47 253 88 37 32 31
internal_value=-0.000668475 -0.00481524 -0.00708425 -0.00129698 -0.0189531 0.0120597 0.00184799 0.0215944
internal_weight=152.096 116.547 107.569 74.651 32.9176 35.5485 19.0774 16.4711
internal_count=627 480 441 306 135 147 79 68
is_linear=0
shrinkage=0.03


Tree=46
num_leaves=8
num_cat=0
split_feature=34 26 40 32 26 12 20
split_gain=8.77312 7.03455 5.66368 5.93794 3.62933 1.85743 2.9935
threshold=0.034649501004426438 0.44151846785225723 -0.057480802287423353 0.0069391301267062175 0.1837662337662338 66.473929467560055 0.019402585943238931
decision_type=2 2 2 2 2 2 2
left_child=1 2 -1 -4 -2 6 -3
right_child=4 5 3 -5 -6 -7 -8
leaf_value=0.020862984056496888 -0.0019679064239468765 0.025610231097860304 0.00041697523839206112 -0.016371727590412864 -0.02845771715119284 0.00047632408063541434 0.0011024757389315272
leaf_weight=7.0005014836788169 9.8046251684427279 14.867262184619905 68.721386268734932 23.328551799058914 10.98908695578575 9.0578063428401929 8.1826079934835416
leaf_count=30 40 62 283 96 45 37 34
internal_value=-0.000628822 0.00222339 -0.00165666 -0.00393603 -0.017894 0.0140282 0.0182915
internal_weight=151.952 131.158 99.0504 92.0499 20.7937 32.1077 23.0499
internal_count=627 542 409 379 85 133 96
is_linear=0
shrinkage=0.03


Tree=47
num_leaves=8
num_cat=0
split_feature=34 26 32 15 26 12 20
split_gain=8.35994 6.68906 5.47027 5.62487 3.43155 1.76167 2.84213
threshold=0.034649501004426438 0.44151846785225723 0.014462871656955036 -19.199976010485802 0.1837662337662338 66.473929467560055 0.019402585943238931
decision_type=2 2 2 2 2 2 2
left_child=1 2 3 -1 -2 6 -3
right_child=4 5 -4 -5 -6 -7 -8
leaf_value=0.01461454790264022 -0.0019186762430261713 0.025028562962997322 -0.022185653193209313 -0.0030979600047381975 -0.027730692688598291 0.00046461706077888579 0.0010760149544054843
leaf_weight=18.533810943365097 9.8058098703622836 14.80383947491646 8.4566822797059995 72.012216940522194 10.991266012191771 9.0578425228595716 8.1815197616815549
leaf_count=78 40 62 35 296 45 37 34
internal_value=-0.000600756 0.00218335 -0.00159583 0.000603002 -0.0174544 0.0137081 0.0178717
internal_weight=151.843 131.046 99.0027 90.546 20.7971 32.0432 22.9854
internal_count=627 542 409 374 85 133 96
is_linear=0
shrinkage=0.03


Tree=48
num_leaves=9
num_cat=0
split_feature=26 21 19 24 2 24 19 3
split_gain=7.92781 6.13561 6.48774 6.2643 4.07481 3.4349 1.80112 0.48819
threshold=0.44151846785225723 0.022278198837277691 0.062181704261342695 0.78024390243902453 0.00093534497556291296 1.0000000180025095e-35 0.095894035141956255 0.012871699640985336
decision_type=2 2 2 2 2 2 2 2
left_child=1 2 4 -4 -1 6 -2 -7
right_child=5 -3 3 -5 -6 7 -8 -9
leaf_value=-0.0054624804026063211 0.008805005903531414 0.016751796263304142 -0.012618463548178794 0.012473696312383381 0.019984684639189419 0.026641788199339746 -0.0080381445098662834 0.0080059020602050914
leaf_weight=8.0174973011016863 11.595359921455385 8.9054185599088651 81.452219724655151 7.8318962901830664 10.161474004387854 8.8485140055418032 7.4011085033416739 7.5218105167150489
leaf_count=33 48 39 334 32 42 37 31 31
internal_value=-0.000585398 -0.00447239 -0.0066422 -0.010028 0.00858928 0.0113575 0.00138784 0.0206994
internal_weight=151.735 116.369 107.463 89.2841 18.179 35.3668 18.9965 16.3703
internal_count=627 480 441 366 75 147 79 68
is_linear=0
shrinkage=0.03


Tree=49
num_leaves=9
num_cat=0
split_feature=34 26 19 24 26 2 24 2
split_gain=7.86647 6.02485 5.12787 4.4843 3.24398 2.43571 2.22973 2.25281
threshold=0.034649501004426438 0.44151846785225723 0.062181704261342695 0.74376369898757966 0.1837662337662338 0.0024881262032256939 -0.21927990708478509 0.019081532580900066
decision_type=2 2 2 2 2 2 2 2
left_child=1 2 5 -4 -2 -1 -3 -8
right_child=4 6 3 -5 -6 -7 7 -9
leaf_value=0 -0.0017639658268303461 0 -0.0070164538477966165 0.014313501324934122 -0.02687793357409439 0.022402578182640433 0.023103081152928327 0.00122916870155602
leaf_weight=7.276042938232421 9.8076209872961062 7.6750530004501369 75.474532544612885 7.750353902578353 10.984092965722082 8.4237578362226468 16.487362220883373 7.7669851928949347
leaf_count=30 40 32 312 32 45 35 69 32
internal_value=-0.000530204 0.00217043 -0.00140796 -0.0045648 -0.0168839 0.0131039 0.0131287 0.017297
internal_weight=151.646 130.854 98.9247 83.2249 20.7917 15.6998 31.9294 24.2543
internal_count=627 542 409 344 85 65 133 101
is_linear=0
shrinkage=0.03


end of trees

feature_importances:
macro_usdjpy_ret_60=30
div_ma_60=20
vol_ratio=18
macro_topix_vol_20=17
macd=16
return_2d=15
atr_pct=15
volatility=14
return_3d=13
bb_bandwidth=13
lower_shadow_pct=13
return_10d=12
gap=12
macd_hist=11
div_ma_5=10
upper_shadow_pct=10
return_1d=9
ma_20_60_cross=9
candle_body_pct=9
rsi=8
macd_signal=8
month=8
price_position_20d=8
macro_usdjpy_ret_20=8
return_5d=7
macro_topix_ret_20=7
div_ma_20=6
bb_pct_b=6
macro_nikkei_ret_20=6
return_20d=5
div_ma_10=5
rsi_change=5
macd_hist_change=5
macro_usdjpy_vol_20=5
ma_5_20_cross=4
day_of_week=2
vol_change=1

parameters:
[boosting: gbdt]
[objective: binary]
[metric: binary_logloss]
[tree_learner: serial]
[device_type: cpu]
[data_sample_strategy: bagging]
[data: ]
[valid: ]
[num_iterations: 50]
[learning_rate: 0.03]
[num_leaves: 15]
[num_threads: 0]
[seed: 43]
[deterministic: 0]
[force_col_wise: 0]
[force_row_wise: 0]
[histogram_pool_size: -1]
[max_depth: 4]
[min_data_in_leaf: 30]
[min_sum_hessian_in_leaf: 0.001]
[bagging_fraction: 0.7]
[pos_bagging_fraction: 1]
[neg_bagging_fraction: 1]
[bagging_freq: 5]
[bagging_seed: 11149]
[bagging_by_query: 0]
[feature_fraction: 0.6]
[feature_fraction_bynode: 1]
[feature_fraction_seed: 21351]
[extra_trees: 0]
[extra_seed: 16806]
[early_stopping_round: 0]
[early_stopping_min_delta: 0]
[first_metric_only: 0]
[max_delta_step: 0]
[lambda_l1: 0.5]
[lambda_l2: 2]
[linear_lambda: 0]
[min_gain_to_split: 0]
[drop_rate: 0.1]
[max_drop: 50]
[skip_drop: 0.5]
[xgboost_dart_mode: 0]
[uniform_drop: 0]
[drop_seed: 2965]
[top_rate: 0.2]
[other_rate: 0.1]
[min_data_per_group: 100]
[max_cat_threshold: 32]
[cat_l2: 10]
[cat_smooth: 10]
[max_cat_to_onehot: 4]
[top_k: 20]
[monotone_constraints: ]
[monotone_constraints_method: basic]
[monotone_penalty: 0]
[feature_contri: ]
[forcedsplits_filename: ]
[refit_decay_rate: 0.9]
[cegb_tradeoff: 1]
[cegb_penalty_split: 0]
[cegb_penalty_feature_lazy: ]
[cegb_penalty_feature_coupled: ]
[path_smooth: 0]
[interaction_constraints: ]
[verbosity: -1]
[saved_feature_importance_type: 0]
[use_quantized_grad: 0]
[num_grad_quant_bins: 4]
[quant_train_renew_leaf: 0]
[stochastic_rounding: 1]
[linear_tree: 0]
[max_bin: 255]
[max_bin_by_feature: ]
[min_data_in_bin: 5]
[bin_construct_sample_cnt: 200000]
[data_random_seed: 179]
[is_enable_sparse: 1]
[enable_bundle: 1]
[use_missing: 1]
[zero_as_missing: 0]
[feature_pre_filter: 1]
[pre_partition: 0]
[two_round: 0]
[header: 0]
[label_column: ]
[weight_column: ]
[group_column: ]
[ignore_column: ]
[categorical_feature: ]
[forcedbins_filename: ]
[precise_float_parser: 0]
[parser_config_file: ]
[objective_seed: 26397]
[num_class: 1]
[is_unbalance: 0]
[scale_pos_weight: 1]
[sigmoid: 1]
[boost_from_average: 1]
[reg_sqrt: 0]
[alpha: 0.9]
[fair_c: 1]
[poisson_max_delta_step: 0.7]
[tweedie_variance_power: 1.5]
[lambdarank_truncation_level: 30]
[lambdarank_norm: 1]
[label_gain: ]
[lambdarank_position_bias_regularization: 0]
[eval_at: ]
[multi_error_top_k: 1]
[auc_mu_weights: ]
[num_machines: 1]
[local_listen_port: 12400]
[time_out: 120]
[machine_list_filename: ]
[machines: ]
[gpu_platform_id: -1]
[gpu_device_id: -1]
[gpu_use_dp: 0]
[num_gpu: 1]

end of parameters

pandas_categorical:[]
