tree
version=v4
num_class=1
num_tree_per_iteration=1
label_index=0
max_feature_idx=44
objective=binary sigmoid:1
feature_names=return_1d return_2d return_3d return_5d return_10d return_20d div_ma_5 div_ma_10 div_ma_20 div_ma_60 ma_5_20_cross ma_20_60_cross rsi rsi_change macd macd_signal macd_hist macd_hist_change bb_pct_b bb_bandwidth atr_pct volatility vol_change vol_ratio candle_body_pct upper_shadow_pct lower_shadow_pct day_of_week month is_month_end is_month_start streak gap price_position_20d macro_usdjpy_ret_20 macro_usdjpy_ret_60 macro_usdjpy_vol_20 macro_topix_ret_20 macro_topix_vol_20 macro_topix_above_200dma macro_nikkei_ret_20 macro_nikkei_above_200dma macro_nikkei_vi macro_jgb10y macro_bias_score
feature_infos=[-0.14526437602194431:0.093221746401519923] [-0.20421963080087802:0.11573754717932316] [-0.24399327554585604:0.12435829201829174] [-0.22782149027025922:0.17641057696476858] [-0.25968792972939725:0.21838884206023312] [-0.27366986526758197:0.32970766816875652] [-0.17187409453824357:0.067142283595543611] [-0.20371344324077786:0.098672861947180862] [-0.23830725377938045:0.12625596471026171] [-0.21944399720322677:0.23510932310881605] [-0.14168176003840149:0.091027266117291949] [-0.080079022266372868:0.13138251859836259] [7.9365079365079367:90.540512382401047] [-24.075787614404653:28.476622589029596] [-69.283173720092691:60.557271199879324] [-49.989876782202202:53.783336565704232] [-39.798184931555696:22.584998473482841] [-16.076055059774241:9.2398410637242421] [-0.35041149501052848:1.3808834452384025] [0.028409729634548259:0.37066436536577224] [0.012601984722937137:0.058225420775926684] [0.008340015280684206:0.048742558260184726] [-0.83092890666834662:6.8918650177117646] [0.53752037468793201:1.7961751355828806] [-1:1] [0:0.99056831922611854] [0:0.91935499748968807] [0:4] [1:12] none [0:1] [-9:9] [-0.11388730626613985:0.084976203136277517] [0:1] [-0.10288784967882303:0.08505611680078462] [-0.13986255140503889:0.1344631365590534] [0.0024251968629527628:0.011841457708833433] [-0.22586490939044479:0.19897850606512013] [0.0040695656522785678:0.036437277456277402] [0:1] [-0.22859537662338159:0.23022297972565586] [0:1] none none none
tree_sizes=1201 1283 1210 1301 1213 1162 872 890 1097 1180 1199 884 1194 1300 1198 973 1480 990 1191 1193 1192 1203 884 1199 770 962 985 796 865 888 764 1178 871 768 844 998 970 1083 1080 955 1075 1179 977 1104 1085 893 780 1091 783 877

Tree=0
num_leaves=10
num_cat=0
split_feature=37 35 15 15 15 28 4 17 0
split_gain=16.3038 8.51567 8.25267 18.8486 7.69194 3.42622 4.53997 2.13591 0.638173
threshold=-0.013368198680406505 -0.0084087064077980594 26.817995977349558 11.72224115925493 -2.0235972983329455 5.5000000000000009 0.013134571742783875 -1.3570498653508911 -0.0029019321498920943
decision_type=2 2 2 2 2 2 2 2 2
left_child=4 5 3 -3 -1 6 -2 -4 -6
right_child=1 2 7 -5 8 -7 -8 -9 -10
leaf_value=-0.022466141537653198 -0.046544575944920868 -0.062835349634645904 -0.056023419938213588 -0.032801092443277405 -0.057432704690806038 -0.085327728934740443 -0.072906552657013526 -0.080057591244352827 -0.046544575944920868
leaf_weight=14.739829778671266 7.4948287010192898 44.968972206115723 7.4948287010192898 29.22983193397522 7.7446563243865967 12.491381168365477 12.491381168365477 10.992415428161619 7.4948287010192853
leaf_count=59 30 180 30 117 31 50 50 44 30
internal_value=-0.0555538 -0.0604134 -0.0554209 -0.0509933 -0.0365099 -0.0732317 -0.0626935 -0.0723385 -0.0525285
internal_weight=155.143 125.164 92.686 74.1988 29.9793 32.4776 19.9862 18.4872 15.2395
internal_count=621 501 371 297 120 130 80 74 61
is_linear=0
shrinkage=1


Tree=1
num_leaves=11
num_cat=0
split_feature=8 23 38 8 12 40 36 7 23 1
split_gain=14.6556 14.1066 10.5767 11.1797 9.90581 5.13494 5.1178 6.65136 4.82386 2.08226
threshold=-0.0078736219608703494 1.1571387723136899 0.010899820236199332 0.034555032481571525 71.847164830284441 0.020015343916864107 0.008040828320118017 -0.026153406440204887 0.89602054181665347 0.011107126589994134
decision_type=2 2 2 2 2 2 2 2 2 2
left_child=6 2 4 -4 -2 -3 7 -1 -9 -7
right_child=1 5 3 -5 -6 9 -8 8 -10 -11
leaf_value=-0.010933998929430363 -0.02433322294086435 -0.0049251291303652267 0.019066894770321797 -0.021222513678931069 0.0066464386601016671 0.0046286742119821594 0.031751468093761712 0 0.026850408710892028 0.029868953085252236
leaf_weight=11.49207164347172 58.444663807749748 9.9921408891677874 13.990643009543421 7.9930605590343466 9.2425300776958448 7.7411167025566083 7.7459981590509406 8.9914919435977954 11.491910874843596 7.9929391741752625
leaf_count=46 234 40 56 32 37 31 31 36 46 32
internal_value=-0.00295239 -0.00842246 -0.0140533 0.00324445 -0.0198184 0.0102612 0.0122215 0.00545828 0.0154767 0.0202191
internal_weight=155.119 115.397 89.6709 21.9837 67.6872 25.7262 39.7215 31.9755 20.4834 15.7341
internal_count=621 462 359 88 271 103 159 128 82 63
is_linear=0
shrinkage=0.03


Tree=2
num_leaves=10
num_cat=0
split_feature=37 20 20 6 20 8 11 37 35
split_gain=15.0092 13.3869 11.7339 10.5497 11.4309 8.64857 8.17661 5.42419 0.95703
threshold=-0.013368198680406505 0.019911225908482409 0.022170197732978434 -0.0023577623743553044 0.016938815727569532 0.054895011245728702 0.057641464520052151 0.0044770598522968505 0.041078361526139202
decision_type=2 2 2 2 2 2 2 2 2
left_child=1 -1 3 4 -2 7 -5 -4 -3
right_child=2 8 5 6 -6 -7 -8 -9 -10
leaf_value=-0.013709339948949828 -0.014050363115089065 0.033742887632301301 -0.0056335674974831943 -0.0036742555982221497 0.023370627573200745 0.0028081319026326359 -0.03470439227539017 -0.038150318863487936 0.011900426789933465
leaf_weight=8.2451992481946963 8.4882703125476855 12.994990080595018 8.4907868951559085 51.6825250685215 21.980318754911423 8.4919496625661832 7.4891691356897345 18.469090819358826 8.7463997304439527
leaf_count=33 34 52 34 207 88 34 30 74 35
internal_value=-0.00283694 0.0154254 -0.00750659 -0.00140209 0.0122602 -0.0216422 -0.0088531 -0.0295237 0.0273304
internal_weight=155.079 29.9866 125.092 89.6403 30.4686 35.4518 59.1717 26.9599 21.7414
internal_count=621 120 501 359 122 142 237 108 87
is_linear=0
shrinkage=0.03


Tree=3
num_leaves=11
num_cat=0
split_feature=8 23 38 10 38 0 14 36 36 2
split_gain=13.45 13.3835 8.67573 14.2 9.4853 5.38594 5.23133 2.4803 4.79638 2.44467
threshold=-0.0074736855796669801 1.2249013497410111 0.010899820236199332 0.021085183039364245 0.0065535459818324105 -0.0014395610138674961 14.459471817067426 0.00699315243102359 0.0054299175625218089 -0.0050853921128216619
decision_type=2 2 2 2 2 2 2 2 2 2
left_child=5 2 4 -4 -2 7 -3 8 -1 -7
right_child=1 6 3 -5 -6 9 -8 -9 -10 -11
leaf_value=0.00996297528729366 0.0091358764817201683 -0.001123505158001999 0.022831986387880965 -0.020086756373600283 -0.021761422410732544 0.03491722660551809 0.027698246280904216 0.013236879066501351 -0.019104141545781921 0.0068031645225267645
leaf_weight=7.7457610368728664 8.4842690974473935 9.2395763695240039 12.745583757758142 10.980673402547835 63.617182224988937 7.9976975470781326 9.2442953288555128 8.9930151700973493 8.2401094138622266 7.7446355223655683
leaf_count=31 34 37 51 44 255 32 37 36 33 31
internal_value=-0.00277026 -0.00810228 -0.0126877 0.00236845 -0.0177748 0.0115251 0.0138558 0.00174142 -0.0046443 0.0242576
internal_weight=155.033 114.312 95.8277 23.7263 72.1015 40.7212 18.4839 24.9789 15.9859 15.7423
internal_count=621 458 384 95 289 163 74 100 64 63
is_linear=0
shrinkage=0.03


Tree=4
num_leaves=10
num_cat=0
split_feature=8 33 21 11 11 9 38 10 38
split_gain=12.7741 9.95575 9.11361 7.32104 7.41763 6.48169 5.29266 2.67839 1.09766
threshold=-0.0078736219608703494 0.1700763249509438 0.012276877570959166 0.046868302790546885 0.013535373121456031 -0.014663098551771829 0.0072885904398247965 -0.0076275313025085381 0.0068827974673407897
decision_type=2 2 2 2 2 2 2 2 2
left_child=1 -1 8 4 -4 -3 -5 -7 -2
right_child=2 5 3 6 -6 7 -8 -9 -10
leaf_value=-0.0069987386214889705 -0.009124048854156748 0.03908272014769499 -0.0072756376000114257 0.0034527268500168505 0.012019817541292176 -0.0040716102461021107 -0.023336015033446882 0.017932800289008007 -0.031439488512107698
leaf_weight=14.484823301434515 7.4854788929224041 10.24536420404911 35.427023410797119 7.4825156331062344 31.949420571327209 7.4949881136417371 20.435293734073639 7.4955610036849993 12.462219044566153
leaf_count=58 30 41 142 30 128 30 82 30 50
internal_value=-0.00265317 0.011501 -0.00777265 -0.00349506 0.00174065 0.0224044 -0.0159039 0.00686394 -0.0253435
internal_weight=154.963 39.7207 115.242 95.2943 67.3764 25.2359 27.9178 14.9905 19.9477
internal_count=621 159 462 382 270 101 112 60 80
is_linear=0
shrinkage=0.03


Tree=5
num_leaves=10
num_cat=0
split_feature=8 21 20 20 21 40 12 5 23
split_gain=18.3995 10.5412 9.58097 10.4374 8.62955 13.5242 3.4271 2.61144 0.592967
threshold=-0.0074736855796669801 0.020332200522843149 0.023339901605907938 0.016509213178950256 0.014614623501136471 -0.0015210139549217681 63.091038632274369 -0.012180167384999495 0.92664273336086056
decision_type=2 2 2 2 2 2 2 2 2
left_child=4 2 3 -2 5 -1 -3 -6 -4
right_child=1 6 8 -5 7 -7 -8 -9 -10
leaf_value=-0.018637117724806938 -0.026454547960993547 0 -0.039586406641561843 0 0.034918940426515825 0.025407105381781071 0.026435727971543622 0.0088779392535301913 -0.014581214777515191
leaf_weight=11.740065246820452 14.951729133725165 9.4860314279794711 7.4622055590152723 65.0877785384655 15.485817879438402 9.4916651397943479 7.7332073450088492 8.7427205145359022 7.9780287146568298
leaf_count=47 60 38 30 261 62 38 31 35 32
internal_value=0.000149499 -0.00625908 -0.0102607 -0.00548694 0.0159471 0.000899405 0.013908 0.0274876 -0.03068
internal_weight=158.159 112.699 95.4797 80.0395 45.4603 21.2317 17.2192 24.2285 15.4402
internal_count=634 452 383 321 182 85 69 97 62
is_linear=0
shrinkage=0.03


Tree=6
num_leaves=7
num_cat=0
split_feature=37 34 35 5 16 21
split_gain=16.9767 10.8597 9.73053 10.7541 3.89464 2.00747
threshold=-0.027762707173645925 -0.039304441970519681 -0.0098583106455546448 0.081873562587756479 8.6015894899134082 0.022344933040133928
decision_type=2 2 2 2 2 2
left_child=5 -2 4 -4 -3 -1
right_child=1 2 3 -5 -6 -7
leaf_value=0.010785292779413085 0.026374172494226206 -0.026480480819924726 0.0039628626843580383 -0.01873034940398988 0 0.035381615909939899
leaf_weight=10.987406432628633 7.9850994050502768 21.912531375885013 78.332820996642113 22.418949589133263 7.4822660088539115 8.9848740696907026
leaf_count=44 32 88 314 90 30 36
internal_value=0.000142298 -0.00361055 -0.00593509 -0.00120706 -0.0205535 0.0247464
internal_weight=158.104 138.132 130.147 100.752 29.3948 19.9723
internal_count=634 554 522 404 118 80
is_linear=0
shrinkage=0.03


Tree=7
num_leaves=7
num_cat=0
split_feature=37 34 23 15 37 0
split_gain=16.1601 10.3378 12.2441 9.34591 7.88433 1.58155
threshold=-0.027762707173645925 -0.039304441970519681 0.90734660448147919 -1.6911873643587469 0.053261089645165079 -0.0023212721134320265
decision_type=2 2 2 2 2 2
left_child=5 -2 4 -4 -3 -1
right_child=1 2 3 -5 -6 -7
leaf_value=0.009821154196021302 0.025735487065930401 -0.010175270515166328 -0.018148811585331746 0.0067656346582223321 -0.041146201711167722 0.032753020262222397
leaf_weight=9.7359974831342715 7.987362563610076 42.841774359345436 14.952828928828238 63.84847703576088 8.4550493806600553 10.224474146962164
leaf_count=39 32 172 60 256 34 41
internal_value=0.000150266 -0.00350929 -0.00578078 0.00152019 -0.016914 0.0241638
internal_weight=158.046 138.085 130.098 78.8013 51.2968 19.9605
internal_count=634 554 522 316 206 80
is_linear=0
shrinkage=0.03


Tree=8
num_leaves=9
num_cat=0
split_feature=37 23 11 37 38 9 5 25
split_gain=15.3887 8.92683 12.1497 11.3042 7.48828 7.39161 5.82608 3.35135
threshold=-0.027762707173645925 0.90734660448147919 0.012602821558559298 0.053261089645165079 0.010899820236199332 0.036247459856738114 0.021395875809181345 0.1903343537315518
decision_type=2 2 2 2 2 2 2 2
left_child=7 3 6 4 -2 -4 -3 -1
right_child=1 2 5 -5 -6 -7 -8 -9
leaf_value=0.0037390782700916984 -0.012150031921235344 -0.00068840646325978396 0.03423985092118851 -0.040644658452423772 0.013942019244318985 0.0053876561934477736 -0.027395158212621298 0.032310164203921431
leaf_weight=7.483757063746455 37.079093620181084 21.186555817723278 8.9890123009681684 8.6771179139614087 10.981756359338759 40.659399420022964 10.463546767830847 12.462328717112539
leaf_count=30 149 85 36 35 44 163 42 50
internal_value=0.000147805 -0.00342121 0.0028055 -0.0123904 -0.00556963 0.0120255 -0.0110669 0.0235915
internal_weight=157.983 138.036 81.2985 56.738 48.0608 49.6484 31.6501 19.9461
internal_count=634 554 326 228 193 199 127 80
is_linear=0
shrinkage=0.03


Tree=9
num_leaves=10
num_cat=0
split_feature=8 21 15 15 33 22 1 3 23
split_gain=16.0997 9.44726 9.09688 15.0701 7.91719 7.41252 6.52839 4.76081 0.25395
threshold=-0.0074736855796669801 0.020332200522843149 23.777648761459783 12.931760450044107 0.16276986748365491 0.15184477218285966 0.0051613094319261652 0.024800668902553284 0.89602054181665347
decision_type=2 2 2 2 2 2 2 2 2
left_child=4 2 3 -2 -1 8 -4 -3 -6
right_child=1 7 6 -5 5 -7 -8 -9 -10
leaf_value=-0.0029289235222336417 -0.013492435218822006 0.026326444868786686 -0.0081600884106473245 0.015109949541050518 0.01544634548427589 0 -0.039733819922535184 -0.0019448742765228848 0.036816764556162854
leaf_weight=13.725300654768942 44.781846895813942 8.9770361334085482 15.646324440836908 23.450614631175995 8.478798866271978 8.9839227795600873 11.415532007813452 8.2274708300828916 14.206568971276281
leaf_count=55 180 36 63 94 34 36 46 33 57
internal_value=0.000146579 -0.00584804 -0.00964794 -0.00329824 0.0149391 0.0228425 -0.0238129 0.013231 0.0313357
internal_weight=157.893 112.499 95.2943 68.2325 45.3946 31.6693 27.0619 17.2045 22.6854
internal_count=634 452 383 274 182 127 109 69 91
is_linear=0
shrinkage=0.03


Tree=10
num_leaves=10
num_cat=0
split_feature=33 20 11 20 33 19 21 19 17
split_gain=13.5848 9.53267 10.5422 6.19737 6.09777 8.04991 5.2277 1.73204 0.815411
threshold=0.48282405393576883 0.016601583178864357 0.049358556437057784 0.021460874571168641 0.11289512630841833 0.081829991937030569 0.011476830437108123 0.10590619348738815 0.11732981980869185
decision_type=2 2 2 2 2 2 2 2 2
left_child=4 -2 3 -3 -1 6 -6 -7 -4
right_child=1 2 8 -5 5 7 -8 -9 -10
leaf_value=-0.0087555502819687756 -0.029046343478806948 0.010190195673411357 -0.011325126530088001 -0.0072461734071228639 0.022356312382116258 0.04228976747072722 -0.0041986688023668336 0.012979082792145229 -0.03065796256977173
leaf_weight=8.9833798855543119 13.903566285967825 37.880548790097237 12.389844566583635 31.350789189338684 7.7284733951091793 7.9874850213527662 17.95273956656456 7.7010518014431 7.7012281715869895
leaf_count=36 56 152 50 126 31 32 72 31 31
internal_value=-0.00120049 -0.00748486 -0.00340181 0.00210195 0.01119 0.016071 0.00428875 0.0318443 -0.0215194
internal_weight=153.579 103.226 89.3224 69.2313 50.3531 41.3697 25.6812 15.6885 20.0911
internal_count=617 415 359 278 202 166 103 63 81
is_linear=0
shrinkage=0.03


Tree=11
num_leaves=7
num_cat=0
split_feature=19 14 5 21 28 19
split_gain=11.9575 13.8574 9.48266 8.69343 15.5967 7.5539
threshold=0.20219909053257132 23.473397654449858 0.081873562587756479 0.014544494312904494 9.5000000000000018 0.11150610578064864
decision_type=2 2 2 2 2 2
left_child=1 3 -3 4 -1 -5
right_child=-2 2 -4 5 -6 -7
leaf_value=-0.015593468107171342 0.026350068848550279 -0.0013385812171164762 -0.036049838433674063 0.018554080449238172 0.016235318336994691 -0.004307546132963495
leaf_weight=45.025263831019402 10.927792459726332 13.697850197553636 15.587362393736838 32.4081961363554 17.427549377083778 18.427953541278839
leaf_count=181 44 55 63 130 70 74
internal_value=-0.00116939 -0.00371775 -0.021417 0.00101956 -0.00625069 0.0101336
internal_weight=153.502 142.574 29.2852 113.289 62.4528 50.8361
internal_count=617 573 118 455 251 204
is_linear=0
shrinkage=0.03


Tree=12
num_leaves=10
num_cat=0
split_feature=33 20 23 33 14 12 38 23 18
split_gain=12.7512 8.9919 8.77358 12.742 8.43893 6.97714 6.71818 4.49388 2.75103
threshold=0.48282405393576883 0.016601583178864357 0.90453796376312556 0.11289512630841833 4.968595976105008 71.541155580830491 0.0097999844150179396 0.96656964393498868 0.3188746231129066
decision_type=2 2 2 2 2 2 2 2 2
left_child=2 -2 6 -4 7 -6 -1 -3 -5
right_child=1 4 3 8 5 -7 -8 -9 -10
leaf_value=-0.023634668881799749 -0.02820336576634206 0.022240956124771481 -0.011181390655185796 0.038282253717471008 -0.013675199979398605 0.0081498350364952801 0.01066016939241959 -0.0031578948492562531 0.013005084772761195
leaf_weight=7.9742491990327862 13.860879674553869 12.956387236714365 7.7294956445693961 14.182703018188478 52.866122409701347 14.95298972725868 8.2208981812000257 8.4649413377046567 12.205075129866598
leaf_count=32 56 52 31 57 213 60 33 34 49
internal_value=-0.00113373 -0.00722992 0.0108708 0.0192556 -0.0032611 -0.00855269 -0.00614348 0.0121512 0.0288592
internal_weight=153.414 103.101 50.3124 34.1173 89.2404 67.8191 16.1951 21.4213 26.3878
internal_count=617 415 202 137 359 273 65 86 106
is_linear=0
shrinkage=0.03


Tree=13
num_leaves=11
num_cat=0
split_feature=8 40 10 34 36 27 34 13 38 32
split_gain=11.9338 9.91644 8.08007 6.11708 6.00029 7.03738 5.70284 4.36074 2.9134 2.84188
threshold=-0.0093721991688850946 0.043535022751868387 0.047491184333695931 0.024396315883857048 0.0078267619889680947 2.5000000000000004 -0.0056726743768749635 0.50994198250215927 0.010040062377045673 0.0004091200297591247
decision_type=2 2 2 2 2 2 2 2 2 2
left_child=4 3 8 6 5 9 -2 -5 -3 -1
right_child=1 2 -4 7 -6 -7 -8 -9 -10 -11
leaf_value=-0.017193022945184187 -0.0052441135152803183 -0.032415920908698714 0.0025772899428912538 -0.029044823496089757 0.033772322208229726 0.019773805497004256 0.012841494502779183 0 -0.0065283208911030037 0.0043117772938853979
leaf_weight=8.9670198261737877 25.109532192349434 19.519664406776432 10.694599047303198 7.4246485978364971 7.6803582459688178 14.44595620036125 33.581230238080025 9.4436832219362241 8.2060305923223478 8.2178868949413282
leaf_count=36 101 79 43 30 31 58 135 38 33 33
internal_value=-0.00109296 -0.00609897 -0.0180971 0.00011779 0.012651 0.00537305 0.00493898 -0.0146073 -0.0262133 -0.00675004
internal_weight=153.291 113.979 38.4203 75.5591 39.3112 31.6309 58.6908 16.8683 27.7257 17.1849
internal_count=617 459 155 304 158 127 236 68 112 69
is_linear=0
shrinkage=0.03


Tree=14
num_leaves=10
num_cat=0
split_feature=33 11 23 33 13 16 23 38 5
split_gain=11.6409 8.77292 8.28331 12.132 7.02443 7.26844 6.66166 6.41172 2.90857
threshold=0.48282405393576883 0.057641464520052151 0.90453796376312556 0.11289512630841833 1.048728117982858 3.2322471911081525 0.78644476253476336 0.0097999844150179396 -0.01291556944912131
decision_type=2 2 2 2 2 2 2 2 2
left_child=2 4 7 -4 6 -6 -2 -1 -5
right_child=1 -3 3 8 5 -7 -8 -9 -10
leaf_value=-0.023206217479979842 0.0099868678542631654 -0.028234988701377965 -0.011078973906738114 0.037498800309517404 0.015923717302338325 -0.0080330701109984741 -0.016159096495431118 0.010301017420175971 0.012144295125431342
leaf_weight=7.96173167228699 8.9281761050224286 13.071705296635626 7.7255407422780982 14.132153406739237 24.113276317715645 17.656105771660805 39.183029621839523 8.2119217962026578 12.201018676161764
leaf_count=32 36 53 31 57 97 71 158 33 49
internal_value=-0.0010652 -0.00689809 0.0104086 0.0185711 -0.00308466 0.00555003 -0.0108028 -0.00610669 0.0279671
internal_weight=153.185 102.952 50.2324 34.0587 89.8806 41.7694 48.1112 16.1737 26.3332
internal_count=617 415 202 137 362 168 194 65 106
is_linear=0
shrinkage=0.03


Tree=15
num_leaves=8
num_cat=0
split_feature=25 20 10 25 11 38 18
split_gain=9.37286 7.659 10.39 4.86953 4.69332 3.41729 1.37454
threshold=0.021277908181213109 0.016212435537364647 0.0092383183103862416 0.24849889185504184 0.013535373121456031 0.0069205199773228164 0.67193565595676752
decision_type=2 2 2 2 2 2 2
left_child=6 5 3 -3 -4 -2 -1
right_child=1 2 4 -5 -6 -7 -8
leaf_value=-0.0061593780537414376 0 0.022998187841420405 -0.013670139139996783 0.0047579853779995034 0.002726145506739208 -0.0275296787824693 -0.02942980713797964
leaf_weight=7.4437517523765546 8.1668456643819791 29.061630368232727 20.878891512751579 29.555503770709038 45.858665019273758 7.6474316120147696 7.4278279095888138
leaf_count=30 33 117 84 119 185 31 30
internal_value=0.000265013 0.00284635 0.00547458 0.0145091 -0.00243372 -0.0154205 -0.0207821
internal_weight=156.041 141.169 125.355 58.6171 66.7376 15.8143 14.8716
internal_count=629 569 505 236 269 64 60
is_linear=0
shrinkage=0.03


Tree=16
num_leaves=13
num_cat=0
split_feature=21 37 23 40 16 35 26 37 38 7 40 22
split_gain=13.4083 13.7979 19.1158 8.05286 12.5741 7.30015 6.02479 5.7886 5.46706 2.84789 2.3411 0.23367
threshold=0.014189638106820836 -0.0043938986928843118 1.0926892451378933 0.0097934235345604765 1.1294451050903995 0.023703351062026371 0.1402679712098133 0.022952342044190503 0.0073904687451251195 0.017356919417694048 0.035819826908184867 0.020197562232086689
decision_type=2 2 2 2 2 2 2 2 2 2 2 2
left_child=3 9 5 8 7 -3 -4 -5 -1 11 -6 -2
right_child=1 2 6 4 10 -7 -8 -9 -10 -11 -12 -13
leaf_value=0 0.034383905910423569 -0.025864785404771325 0 0.027415437234653995 -0.004638954559014921 -0.0008283139916290006 0.031543524678055941 -0.00065984081034328452 -0.032139632663488085 0.0038673998148407124 -0.031774117957961263 0.014104209325429233
leaf_weight=7.4338154345750835 13.365524515509611 17.532894432544708 8.2193633019924182 9.9307925850152987 7.4433340430259687 25.749232456088066 14.195865288376806 12.395793974399565 16.39868637919426 7.4749087691307059 7.4075652956962585 8.441973149776457
leaf_count=30 54 71 33 40 30 104 57 50 66 30 30 34
internal_value=0.000232024 0.00732097 -0.000254951 -0.010448 -0.00102445 -0.0119959 0.0209271 0.0124386 -0.0233502 0.0237273 -0.0212288 0.0290078
internal_weight=155.99 94.9798 65.6974 61.01 37.1775 43.2821 22.4152 22.3266 23.8325 29.2824 14.8509 21.8075
internal_count=629 383 265 246 150 175 90 90 96 118 60 88
is_linear=0
shrinkage=0.03


Tree=17
num_leaves=8
num_cat=0
split_feature=4 25 4 38 16 33 38
split_gain=10.8093 6.72442 6.49486 6.74915 4.15812 3.80449 2.25752
threshold=-0.021492238458164611 0.021277908181213109 0.059002726645889021 0.011084513141813464 11.112317679999167 0.18438670412624109 0.0097999844150179396
decision_type=2 2 2 2 2 2 2
left_child=5 -2 3 -3 -4 -1 -7
right_child=1 2 4 -5 -6 6 -8
leaf_value=0.0011811314350991362 -0.022734615704436825 -0.0086896112401642581 0.022172182508690446 0.011516059522106794 -0.0024900564197795484 0.0059772459054065188 0.031631986095854638
leaf_weight=12.952465757727625 12.851240441203116 73.727010279893875 13.448866978287699 16.147669121623039 7.9637814462184897 7.6950556933879879 11.07365173101425
leaf_count=52 52 298 54 65 32 31 45
internal_value=0.000222951 -0.00371783 -0.0010268 -0.00472436 0.01293 0.0153956 0.0234244
internal_weight=155.86 124.139 111.287 89.8747 21.4126 31.7212 18.7687
internal_count=629 501 449 363 86 128 76
is_linear=0
shrinkage=0.03


Tree=18
num_leaves=10
num_cat=0
split_feature=23 10 20 2 13 4 33 26 23
split_gain=11.458 13.4206 11.5979 6.9767 7.09001 5.61334 5.41091 3.69192 1.18804
threshold=1.231311513132465 0.0072323137551281178 0.016212435537364647 -0.0012700686558660965 0.41775045213881873 0.059002726645889021 0.17835646382875175 0.12687289177611399 1.3427787876420163
decision_type=2 2 2 2 2 2 2 2 2
left_child=1 2 -1 4 -3 -5 -4 -2 -9
right_child=7 3 6 5 -6 -7 -8 8 -10
leaf_value=-0.018129844484621974 0.00035351708133362188 -0.012302186474998028 -0.0037239703401453364 -0.026856529445760211 0.017128328293839784 -0.0011958630926722019 0.017467974495562335 0.036071168722626383 0.010546803101927956
leaf_weight=11.826294079422949 8.1792109012603778 16.068418279290203 12.197908014059065 28.570474281907082 10.429177120327948 12.182665899395941 41.378218531608582 7.4769593775272352 7.447186678647995
leaf_count=48 33 65 49 116 42 49 167 30 30
internal_value=0.000233919 -0.00314273 0.00629337 -0.0124528 0 -0.0199512 0.0124128 0.018925 0.0269723
internal_weight=155.757 132.653 65.4024 67.2507 26.4976 40.7531 53.5761 23.1034 14.9241
internal_count=629 536 264 272 107 165 216 93 60
is_linear=0
shrinkage=0.03


Tree=19
num_leaves=10
num_cat=0
split_feature=23 10 20 2 20 4 33 26 23
split_gain=10.9539 12.6605 10.9884 6.62728 5.34038 5.31252 5.12382 3.51308 1.11355
threshold=1.231311513132465 0.0072323137551281178 0.016212435537364647 -0.0012700686558660965 0.020358777354041391 0.059002726645889021 0.17835646382875175 0.12687289177611399 1.3427787876420163
decision_type=2 2 2 2 2 2 2 2 2
left_child=1 2 -1 4 -3 -5 -4 -2 -9
right_child=7 3 6 5 -6 -7 -8 8 -10
leaf_value=-0.017690533272564399 0.0003449943204515866 0.011540103113329522 -0.0036281140688913093 -0.026177862643940116 -0.013609980851643326 -0.0011651178712308319 0.016971787706414967 0.035233624894148378 0.010298568212808603
leaf_weight=11.806346639990805 8.1792337149381655 14.146481513977053 12.197424605488775 28.484975948929787 12.339104443788527 12.181812420487402 41.368913009762764 7.4726506173610669 7.4461145848035812
leaf_count=48 33 57 49 116 50 49 167 30 30
internal_value=0.00023136 -0.00307067 0.00608995 -0.0121236 0 -0.0194426 0.0120493 0.0185094 0.0263635
internal_weight=155.623 132.525 65.3727 67.1524 26.4856 40.6668 53.5663 23.098 14.9188
internal_count=629 536 264 272 107 165 216 93 60
is_linear=0
shrinkage=0.03


Tree=20
num_leaves=10
num_cat=0
split_feature=21 19 19 35 23 4 22 20 23
split_gain=9.06399 13.0547 8.94925 9.02742 8.55753 7.08288 5.59469 4.75738 4.87
threshold=0.014293374115313028 0.10590619348738815 0.19135309058515895 0.02641543739392305 0.80753721198623118 0.033890141723907703 0.32569182154609272 0.016279849034439249 0.99126228765438007
decision_type=2 2 2 2 2 2 2 2 2
left_child=5 4 3 -3 -2 7 -6 -1 -9
right_child=1 2 -4 -5 6 -7 -8 8 -10
leaf_value=-0.018470265783319666 -0.0040256013067101592 -0.025580745715354597 0.015613406564862868 0.0024289304034449165 0.031481481710960657 -0.029498730821902647 0.0014694640247386161 0.010117729753686378 -0.0095537484233400288
leaf_weight=12.274500027298926 10.897237330675123 18.751814618706703 12.321523040533064 18.295432284474373 24.815625593066216 10.10960380733013 8.6795187741518003 23.812547132372856 17.866907894611359
leaf_count=50 44 76 50 74 100 41 35 96 72
internal_value=0 0.00590038 -0.00443738 -0.0119484 0.017416 -0.00854497 0.0246481 -0.00343663 0.00129033
internal_weight=157.825 93.7612 49.3688 37.0472 44.3924 64.0636 33.4951 53.954 41.6795
internal_count=638 379 200 150 179 259 135 218 168
is_linear=0
shrinkage=0.03


Tree=21
num_leaves=10
num_cat=0
split_feature=32 21 5 36 3 21 36 21 8
split_gain=8.86591 10.6059 9.59078 8.27628 6.76489 7.21397 4.07545 3.50472 1.6214
threshold=-0.010423745471810462 0.014269494423478446 0.081873562587756479 0.0076638607761992453 -0.003564765206255371 0.011476830437108123 0.0063903117896531372 0.018261087766543883 0.0043103724960763881
decision_type=2 2 2 2 2 2 2 2 2
left_child=8 4 3 -3 5 -2 -6 -4 -1
right_child=1 2 7 -5 6 -7 -8 -9 -10
leaf_value=-0.0073219102984544435 0.026331478694787538 0.022393324956563702 -0.013857647843918425 -0.0022778001277796792 -0.022847832947762367 -0.0065255480244772214 -0.0010411937540127526 0.0080945235196352491 -0.028507159856175586
leaf_weight=12.133904561400415 7.4188122153282192 43.664186537265778 15.505212873220446 14.80504886806011 20.726039990782738 13.910044327378271 14.261899918317793 7.8985295444726935 7.3819730728864661
leaf_count=49 30 176 63 60 84 56 58 32 30
internal_value=0 0.00274524 0.00961975 0.0160295 -0.00697883 0.00553776 -0.0149014 -0.00580455 -0.0179375
internal_weight=157.706 138.19 81.873 58.4692 56.3168 21.3289 34.9879 23.4037 19.5159
internal_count=638 559 331 236 228 86 142 95 79
is_linear=0
shrinkage=0.03


Tree=22
num_leaves=7
num_cat=0
split_feature=32 37 36 38 26 8
split_gain=8.44704 8.45738 6.06818 8.78014 5.66467 1.54998
threshold=-0.010423745471810462 -0.027762707173645925 0.0076378465208449446 0.010899820236199332 0.20101040677810353 0.0043103724960763881
decision_type=2 2 2 2 2 2
left_child=5 -2 3 -3 -4 -1
right_child=1 2 4 -5 -6 -7
leaf_value=-0.0071326135595556096 0.02413325743078687 -0.0007404885010270421 0.0016765361117455618 0.021013446368145089 -0.024420929554360152 -0.027905129565498052
leaf_weight=12.135311782360079 12.770252674818037 81.082631692290306 12.072250589728357 18.630059584975243 13.538844540715216 7.35849705338478
leaf_count=49 52 328 49 75 55 30
internal_value=0 0.00265936 8.69064e-06 0.00350976 -0.0123458 -0.0175386
internal_weight=157.588 138.094 125.324 99.7127 25.6111 19.4938
internal_count=638 559 507 403 104 79
is_linear=0
shrinkage=0.03


Tree=23
num_leaves=10
num_cat=0
split_feature=21 5 34 23 4 34 28 40 32
split_gain=8.06701 9.20677 8.69387 7.06041 6.64948 5.9099 5.56046 5.42489 5.39517
threshold=0.014293374115313028 0.081873562587756479 0.034317890975212102 0.9231474615795604 0.033890141723907703 0.019132684769602063 9.5000000000000018 0.0013817522102307358 -0.010423745471810462
decision_type=2 2 2 2 2 2 2 2 2
left_child=4 2 8 -3 6 -5 7 -1 -2
right_child=1 3 -4 5 -6 -7 -8 -9 -10
leaf_value=-0.023049173336245364 -0.005501847915728616 -0.026472488117862247 -0.013520174609084931 -0.011757640390232034 -0.028455377595883798 0.020190360374340837 0.012383132592681007 -0.00021880825794677226 0.019194672908387615
leaf_weight=13.363859117031096 7.4115808755159369 9.9114603996276873 8.6418521851301175 8.9069622159004229 10.05411024391651 7.7186785340309134 12.871535465121267 27.631872892379761 50.979317963123322
leaf_count=54 30 41 35 36 41 31 52 112 206
internal_value=0 0.00553435 0.0114621 -0.0086674 -0.00810748 0.00284465 -0.00315841 -0.00873594 0.0157332
internal_weight=157.491 93.5699 67.0328 26.5371 63.9214 16.6256 53.8673 40.9957 58.3909
internal_count=638 379 271 108 259 67 218 166 236
is_linear=0
shrinkage=0.03


Tree=24
num_leaves=6
num_cat=0
split_feature=32 37 9 37 8
split_gain=7.79335 7.88775 5.65524 5.12755 1.48086
threshold=-0.010423745471810462 -0.027762707173645925 -0.037952770712850359 0.018537132850451003 0.0043103724960763881
decision_type=2 2 2 2 2
left_child=4 -2 -3 -4 -1
right_child=1 2 3 -5 -6
leaf_value=-0.0067643866214563177 0.023293049245982193 -0.021368093570476004 0.0097969358722180943 -0.0028374284922618727 -0.02704670451651376
leaf_weight=12.132674247026445 12.71563909947872 8.1981416791677457 44.332447424530983 72.662128150463104 7.3160152733325949
leaf_count=49 52 33 179 295 30
internal_value=0 0.0025154 0 0.00190822 -0.0169039
internal_weight=157.357 137.908 125.193 116.995 19.4487
internal_count=638 559 507 474 79
is_linear=0
shrinkage=0.03


Tree=25
num_leaves=8
num_cat=0
split_feature=40 25 4 23 11 12 36
split_gain=9.98464 8.26602 6.83068 11.9433 6.40969 4.37888 2.63103
threshold=-0.048072864995071123 0.42740047233928485 -0.020290511770888083 1.1180766167511806 0.014941666717842918 38.722269863005359 0.0058446579029881639
decision_type=2 2 2 2 2 2 2
left_child=-1 2 5 -4 -3 -2 -6
right_child=1 4 3 -5 6 -7 -8
leaf_value=0.021518675678478236 0 -0.031886039311081298 -0.0101963269088578 0.013663152023096975 0.0068360334197227896 0.02564748231824342 -0.012793104283608449
leaf_weight=13.238324537873266 8.6775453835725802 12.811192914843557 65.919799312949181 23.87790335714817 8.1478480696678179 11.599003180861471 12.105409070849417
leaf_count=54 35 52 268 96 33 47 49
internal_value=-0.00145549 -0.00395087 0 -0.00352905 -0.0166365 0.0149882 -0.00431761
internal_weight=156.377 143.139 110.074 89.7977 33.0645 20.2765 20.2533
internal_count=634 580 446 364 134 82 82
is_linear=0
shrinkage=0.03


Tree=26
num_leaves=8
num_cat=0
split_feature=40 25 23 5 21 9 18
split_gain=9.47847 7.86389 6.2445 6.7734 3.83585 2.76118 4.87461
threshold=-0.048072864995071123 0.42740047233928485 1.1818735819409361 0.030531611636948734 0.014416386451012236 0.060633966071627424 0.47266494149202593
decision_type=2 2 2 2 2 2 2
left_child=-1 2 3 -2 -4 6 -3
right_child=1 5 4 -5 -6 -7 -8
leaf_value=0.020996981439780002 0.0035170440737639424 -0.0018649019723532513 -0.0016649271239304602 -0.012739073907002983 0.022337297104112246 -0.001521776762247917 -0.032128661645724942
leaf_weight=13.210343778133391 50.334004998207092 8.9108927547931689 7.4375842660665539 38.285534545779228 13.947669491171835 10.597949534654616 13.519404649734495
leaf_count=54 204 36 30 156 56 43 55
internal_value=-0.00140537 -0.00383886 0 -0.00346657 0.0139197 -0.0162194 -0.0218567
internal_weight=156.243 143.033 110.005 88.6195 21.3853 33.0282 22.4303
internal_count=634 580 446 360 86 134 91
is_linear=0
shrinkage=0.03


Tree=27
num_leaves=6
num_cat=0
split_feature=40 34 35 11 38
split_gain=9.00881 6.71487 8.96625 7.40718 3.69243
threshold=-0.048072864995071123 -0.039304441970519681 -0.0084087064077980594 0.014941666717842918 0.0073522408624028821
decision_type=2 2 2 2 2
left_child=-1 -2 4 -4 -3
right_child=1 2 3 -5 -6
leaf_value=0.020491016086357446 0.020167219389689284 -0.0037730108325654795 -0.010773407422105514 0.0050889455041078667 -0.027663772719036025
leaf_weight=13.180277615785597 7.6940008550882331 11.528249502182009 41.929203703999519 63.931230932474136 17.850544109940529
leaf_count=54 31 47 170 259 73
internal_value=-0.00136844 -0.00374261 -0.00548626 -0.00113801 -0.0196051
internal_weight=156.114 142.933 135.239 105.86 29.3788
internal_count=634 580 549 429 120
is_linear=0
shrinkage=0.03


Tree=28
num_leaves=7
num_cat=0
split_feature=20 37 28 11 37 14
split_gain=8.91092 10.0238 7.745 6.77513 9.30858 7.33301
threshold=0.016601583178864357 -0.029449147338551859 5.5000000000000009 0.013535373121456031 0.0044770598522968505 24.476890374654719
decision_type=2 2 2 2 2 2
left_child=2 -2 -1 4 -3 -5
right_child=1 3 -4 5 -6 -7
leaf_value=0 0.023445572726918447 0.0036541236306530753 -0.0348976457340653 0.011120036385985231 -0.023125510635602392 -0.0071076652465721516
leaf_weight=10.96359294652939 14.565201744437216 19.591366946697235 10.280175700783728 47.109850510954857 22.856225788593292 30.63928285241127
leaf_count=45 60 79 42 190 93 125
internal_value=-0.0013242 0.0015105 -0.0185345 -0.00136502 -0.0108198 0.00375069
internal_weight=156.006 134.762 21.2438 120.197 42.4476 77.7491
internal_count=634 547 87 487 172 315
is_linear=0
shrinkage=0.03


Tree=29
num_leaves=7
num_cat=0
split_feature=20 40 19 19 15 19
split_gain=8.48433 10.2589 8.30035 9.09148 5.9644 5.74004
threshold=0.016601583178864357 -0.048072864995071123 0.10590619348738815 0.20645512941852537 12.931760450044107 0.076625800749063805
decision_type=2 2 2 2 2 2
left_child=5 -2 4 -4 -3 -1
right_child=1 2 3 -5 -6 -7
leaf_value=-0.028358779700662719 0.02699766971913635 -0.0015463433080004038 -0.017150172203944426 0.015420754746346797 0.014899173057184491 0.001547688221693396
leaf_weight=13.851959377527239 10.882681757211683 48.649356573820114 37.997222885489464 7.428713083267211 29.675424605607986 7.3514391481876364
leaf_count=57 45 197 155 30 120 30
internal_value=-0.00129382 0.00147005 -0.00104926 -0.0110817 0.00471357 -0.0181038
internal_weight=155.837 134.633 123.751 45.4259 78.3248 21.2034
internal_count=634 547 502 185 317 87
is_linear=0
shrinkage=0.03


Tree=30
num_leaves=6
num_cat=0
split_feature=19 5 11 34 3
split_gain=7.47724 7.70228 7.0636 6.82911 3.70677
threshold=0.21166052467413768 0.12124174472579242 0.057641464520052151 0.041110437125884254 -0.0016088125644904692
decision_type=2 2 2 2 2
left_child=1 2 3 -1 -4
right_child=-2 -3 4 -5 -6
leaf_value=0.0058190861567365536 0.024092457564990968 -0.02643904115911723 0 -0.01686315826790314 -0.028303196042027346
leaf_weight=105.64562459290028 9.2099794745445234 8.2297101616859418 7.8656854182481792 11.248073920607565 8.5597541183233243
leaf_count=429 38 34 32 46 35
internal_value=0.000427937 -0.00132154 0.000485954 0.00326338 -0.0166746
internal_weight=150.759 141.549 133.319 116.894 16.4254
internal_count=614 576 542 475 67
is_linear=0
shrinkage=0.03


Tree=31
num_leaves=10
num_cat=0
split_feature=14 36 36 24 23 23 40 23 9
split_gain=7.05634 8.88574 8.43488 8.39603 7.87021 6.71979 3.40169 3.25181 2.04815
threshold=0.230635280039337 0.0076378465208449446 0.0067213542211298286 0.43613206775885832 0.99126228765438007 1.1508142867488171 -0.015726833911407109 1.0966598141167176 0.056640234604505478
decision_type=2 2 2 2 2 2 2 2 2
left_child=2 3 4 5 -1 -2 -4 -5 -3
right_child=1 8 6 7 -6 -7 -8 -9 -10
leaf_value=0.015538046348824766 0.00064031105610148908 -0.02757203150754153 0.0074591683853801796 -0.022448758288985883 -0.019276088302004252 0.022846959559779584 0.035482140161844186 0 -0.005988855933567465
leaf_weight=8.8984384536743182 53.074232310056686 11.980549663305284 10.331003352999689 13.66123650968075 10.346145555377005 14.629520505666731 9.839443624019621 7.4379329681396475 10.478816404938696
leaf_count=36 216 49 43 56 42 59 40 30 43
internal_value=0.000391237 -0.00338762 0.011069 0.000842662 -0.00252511 0.00617181 0.0237734 -0.0146621 -0.0194284
internal_weight=150.677 111.262 39.415 88.8029 19.2446 67.7038 20.1704 21.0992 22.4594
internal_count=614 453 161 361 78 275 83 86 92
is_linear=0
shrinkage=0.03


Tree=32
num_leaves=7
num_cat=0
split_feature=19 11 20 21 20 36
split_gain=7.03671 6.26739 6.1967 8.16822 4.42922 4.40079
threshold=0.21166052467413768 0.057641464520052151 0.022170197732978434 0.014849447290331308 0.019758350209337795 0.0044911012905145065
decision_type=2 2 2 2 2 2
left_child=1 2 3 -1 -3 -4
right_child=-2 4 5 -5 -6 -7
leaf_value=-0.0016984429283820369 0.02337827715243981 -0.028475366834898357 0.0047741094029775102 0.016418606101897566 0 -0.016253619060570518
leaf_weight=53.84416688978672 9.1794922053813917 9.9861562103033084 11.241012230515478 34.520049259066582 8.3281436860561353 23.494285598397255
leaf_count=219 38 41 46 140 34 96
internal_value=0.000384701 -0.00130848 0.00110792 0.00541985 -0.0167987 -0.00915088
internal_weight=150.593 141.414 123.1 88.3642 18.3143 34.7353
internal_count=614 576 501 359 75 142
is_linear=0
shrinkage=0.03


Tree=33
num_leaves=6
num_cat=0
split_feature=19 5 11 11 3
split_gain=6.70879 7.32097 6.3907 6.64513 3.59598
threshold=0.21166052467413768 0.12124174472579242 0.057641464520052151 0.0048407877550450404 -0.0016088125644904692
decision_type=2 2 2 2 2
left_child=1 2 3 -1 -4
right_child=-2 -3 4 -5 -6
leaf_value=-0.0062798786785415641 0.022844613395442668 -0.025828874183923465 0 0.0083540178161847813 -0.027362033582235299
leaf_weight=40.600507527589798 9.1591403186321241 8.1827149093151075 7.8515592813491848 76.204141214489937 8.5004581660032255
leaf_count=166 38 34 32 309 35
internal_value=0.000369637 -0.00128058 0.000476861 0.00312103 -0.0158752
internal_weight=150.499 141.339 133.157 116.805 16.352
internal_count=614 576 542 475 67
is_linear=0
shrinkage=0.03


Tree=34
num_leaves=7
num_cat=0
split_feature=14 23 23 37 40 23
split_gain=6.71932 7.31805 6.13496 6.12578 9.5631 3.46764
threshold=-3.8519343038067286 1.1933053704997783 0.96656964393498868 0.054787361454705537 0.025951588478657198 1.3190309760791166
decision_type=2 2 2 2 2 2
left_child=2 3 -1 4 -2 -3
right_child=1 5 -4 -5 -6 -7
leaf_value=0.029453440865140169 -0.010364463078901435 0.022664752186378007 0 -0.023848626689458193 0.0089089186481134917 0
leaf_weight=10.522481739521028 56.176525086164474 11.37678572535515 13.358247548341749 12.790496081113814 36.014629334211349 10.165238335728644
leaf_count=43 229 46 55 53 147 41
internal_value=0.000340797 -0.00237219 0.0143667 -0.00576765 -0.00264674 0.0126221
internal_weight=150.404 126.524 23.8807 104.982 92.1912 21.542
internal_count=614 516 98 429 376 87
is_linear=0
shrinkage=0.03


Tree=35
num_leaves=8
num_cat=0
split_feature=19 19 21 14 35 22 4
split_gain=11.3196 9.29991 12.3356 7.47946 6.44969 5.58845 3.92551
threshold=0.21166052467413768 0.11150610578064864 0.014293374115313028 -2.7291575562788348 0.061465475981697611 0.24801135996929349 0.081704612462044093
decision_type=2 2 2 2 2 2 2
left_child=1 2 3 -1 -4 6 -3
right_child=-2 5 4 -5 -6 -7 -8
leaf_value=0.017290058876418348 0.029681734034370695 -0.025043184689472774 0.019365325178573662 -0.010974903363621582 -0.0064102759104055062 0.0037040997930384663 -0.00021209262413369778
leaf_weight=7.8970837295055381 8.8580866605043393 24.394547432661057 37.738809376955032 48.989747911691666 9.1210209131240827 10.990179657936094 8.9420607984065992
leaf_count=32 37 101 153 200 37 45 36
internal_value=1.16985e-05 -0.00203519 0.0027876 -0.00634244 0.0139842 -0.0132797 -0.0191961
internal_weight=156.932 148.073 103.747 56.8868 46.8598 44.3268 33.3366
internal_count=641 604 422 232 190 182 137
is_linear=0
shrinkage=0.03


Tree=36
num_leaves=8
num_cat=0
split_feature=19 19 21 23 20 19 22
split_gain=10.797 8.8048 11.6547 6.6075 6.37932 4.53303 3.80148
threshold=0.21166052467413768 0.11150610578064864 0.014544494312904494 0.78644476253476336 0.016997023308639229 0.081829991937030569 0.24801135996929349
decision_type=2 2 2 2 2 2 2
left_child=1 2 4 -3 -1 -4 -5
right_child=-2 3 5 6 -6 -7 -8
leaf_value=-0.018286196675124159 0.029042354379811439 0.0073456362070356742 0.0020911487026337655 -0.02387069778918462 0.0012940705353854647 0.022444092124550157 0
leaf_weight=20.856097668409348 8.826021879911421 9.240024656057356 19.25890140235424 26.947322249412537 39.190952852368355 24.369219079613686 8.0682785212993604
leaf_count=86 37 38 78 111 159 99 33
internal_value=1.87904e-05 -0.00197711 0.00271248 -0.0129297 -0.00563519 0.0142738 -0.0187931
internal_weight=156.757 147.931 103.675 44.2556 60.0471 43.6281 35.0156
internal_count=641 604 422 182 245 177 144
is_linear=0
shrinkage=0.03


Tree=37
num_leaves=9
num_cat=0
split_feature=19 19 21 20 34 12 9 3
split_gain=10.298 8.3616 10.565 5.71492 5.37845 4.19727 6.76776 1.88345
threshold=0.21166052467413768 0.10926799319859369 0.014293374115313028 0.016997023308639229 0.03082235894928809 67.624962892729584 0.098932808798806102 -0.016103757909407043
decision_type=2 2 2 2 2 2 2 2
left_child=1 2 3 -1 -4 7 -7 -3
right_child=-2 5 4 -5 -6 6 -8 -9
leaf_value=-0.017484622025566738 0.028424393278464292 -0.0045213420604670084 0.018071826528056563 0.0014027872044675522 -0.0068394030490178583 0.017910797662865532 -0.015806343825734898 -0.024203947538730897
leaf_weight=20.56629478931427 8.7913709282875043 9.495005741715433 37.46210989356041 35.7412169277668 7.6097646355628958 7.8371487557888058 9.7485147118568403 19.32791656255722
leaf_count=85 37 39 152 145 31 32 40 80
internal_value=3.05385e-05 -0.00191534 0.00281301 -0.00560168 0.0134354 -0.0122437 0 -0.0189207
internal_weight=156.579 147.788 101.379 56.3075 45.0719 46.4086 17.5857 28.8229
internal_count=641 604 413 230 183 191 72 119
is_linear=0
shrinkage=0.03


Tree=38
num_leaves=9
num_cat=0
split_feature=37 11 14 35 36 10 6 38
split_gain=8.55726 4.55934 7.48837 8.56989 6.60798 7.27925 5.54833 2.07112
threshold=-0.031144621320356943 0.012602821558559298 5.3188378934854663 0.053387747164957096 0.0068774530163991298 0.00029870774846929576 0.0077792921766347521 0.012005549554043303
decision_type=2 2 2 2 2 2 2 2
left_child=7 4 -3 -4 6 -6 -2 -1
right_child=1 2 3 -5 5 -7 -8 -9
leaf_value=0.0055503361699793946 -0.025117226339712039 0.021649602541101712 -0.0063897313524538301 0.019708761743288762 0.022110710026445827 -0.011813372208631377 0 0.03064376833553541
leaf_weight=8.7491226345300657 22.059185028076172 12.374413534998892 64.489896401762962 11.541830047965048 8.8644099384546298 9.6040320396423322 11.706343397498129 7.0102205723524085
leaf_count=36 90 50 264 47 36 40 48 30
internal_value=2.27341e-05 -0.00232871 0.00169502 -0.00183207 -0.00922683 0.004306 -0.016875 0.0197512
internal_weight=156.399 140.64 88.4061 76.0317 52.234 18.4684 33.7655 15.7593
internal_count=641 575 361 311 214 76 138 66
is_linear=0
shrinkage=0.03


Tree=39
num_leaves=8
num_cat=0
split_feature=19 19 21 10 23 19 22
split_gain=9.64746 7.81381 10.3468 7.46959 6.14284 5.44304 3.63807
threshold=0.21166052467413768 0.11150610578064864 0.014830813290618026 -0.010426286305934227 0.78644476253476336 0.081829991937030569 0.24801135996929349
decision_type=2 2 2 2 2 2 2
left_child=1 2 3 -1 -3 -4 -6
right_child=-2 4 5 -5 6 -7 -8
leaf_value=0.015073218817359886 0.027621113203451661 0.0073221175841077686 0 -0.0098307586938062332 -0.022847468434323868 0.022903424047937843 0
leaf_weight=11.326887235045431 8.7237188518047315 9.2255807369947416 16.744445040822029 51.78946353495121 26.797463342547417 23.563520669937134 8.0478984117507917
leaf_count=46 37 38 68 212 111 96 33
internal_value=4.64439e-05 -0.00183185 0.00258155 -0.00480543 -0.0121771 0.0141834 -0.017864
internal_weight=156.219 147.495 103.424 63.1164 44.0709 40.308 34.8454
internal_count=641 604 422 258 182 164 144
is_linear=0
shrinkage=0.03


Tree=40
num_leaves=9
num_cat=0
split_feature=14 21 35 9 5 19 8 10
split_gain=10.2408 9.09241 6.70317 7.79168 6.26324 9.54437 8.80432 2.57539
threshold=-0.48581383150752794 0.012276877570959166 0.048697796915044174 -0.045542303390621049 0.081873562587756479 0.072846691207432576 0.048181298045194672 -0.0018100690756347457
decision_type=2 2 2 2 2 2 2 2
left_child=2 7 3 -1 5 -3 -6 -2
right_child=1 4 -4 -5 6 -7 -8 -9
leaf_value=0 -0.0028070642898544492 -0.011987312178216938 -0.0030027620076724872 0.033111450227104967 -0.029077046677116511 0.01276768559751517 0.0022742362037666522 -0.027666107470594142
leaf_weight=9.3129673749208433 7.3641948252916363 17.739289283752441 13.237792313098906 16.208790794014934 11.780714750289919 44.408291935920715 16.917924135923386 14.451047241687773
leaf_count=39 30 72 54 67 50 181 69 60
internal_value=0.000150376 -0.00434493 0.0131568 0.0216927 0 0.00531439 -0.0111627 -0.0208447
internal_weight=151.421 112.661 38.7596 25.5218 90.8462 62.1476 28.6986 21.8152
internal_count=622 462 160 106 372 253 119 90
is_linear=0
shrinkage=0.03


Tree=41
num_leaves=10
num_cat=0
split_feature=14 21 36 15 36 34 14 10 10
split_gain=9.71915 8.65319 6.14915 8.04998 5.7022 3.22742 3.14336 2.44627 0.851888
threshold=-0.48581383150752794 0.012276877570959166 0.0076378465208449446 37.642009738159736 0.0068094986502908574 -0.016239136398136175 -11.954299257221008 -0.0018100690756347457 -0.013796833736864076
decision_type=2 2 2 2 2 2 2 2 2
left_child=4 7 3 -3 6 -4 -1 -2 -6
right_child=1 2 5 -5 8 -7 -8 -9 -10
leaf_value=-0.011382143539237647 -0.0027410946318951711 0.0084302937385748525 0 -0.019629258451529883 0.011588211988830959 -0.023324891210590139 0.010077765988891423 -0.027058487824154192 0.033586709924633841
leaf_weight=7.8268769681453731 7.363330706954005 61.069412410259247 10.015055328607561 8.6128863096237165 9.3872679919004458 11.072922363877295 13.742441162467001 14.378304854035376 7.7546174973249427
leaf_count=32 30 249 41 36 40 46 56 60 32
internal_value=0.00012551 -0.00425415 0 0.00430191 0.0128068 -0.0134998 0.00134911 -0.0203793 0.0247929
internal_weight=151.223 112.512 90.7703 69.6823 38.7112 21.088 21.5693 21.7416 17.1419
internal_count=622 462 372 285 160 87 88 90 72
is_linear=0
shrinkage=0.03


Tree=42
num_leaves=8
num_cat=0
split_feature=23 5 19 10 23 10 5
split_gain=8.62975 13.1061 7.83641 9.61687 8.58576 4.68184 3.79573
threshold=1.2249013497410111 0.081873562587756479 0.089849060403028119 0.0072323137551281178 0.82233527397452721 0.051018456328287394 0.0082643238147818172
decision_type=2 2 2 2 2 2 2
left_child=1 2 3 -1 -4 -3 -2
right_child=6 5 4 -5 -6 -7 -8
leaf_value=0.0034731987961550879 0 -0.031205813984233936 0.032758720119167056 -0.019479299731933727 0.0018698391333717801 -0.00029972312265631003 0.024715566342584889
leaf_weight=45.101766377687454 8.8967529833316821 15.324355348944666 10.675250485539435 22.813871890306473 26.436510547995567 7.3107264190912238 14.488762378692625
leaf_count=184 37 65 44 94 109 30 59
internal_value=0.000106384 -0.00292897 0.00152889 -0.00435901 0.0123594 -0.0226673 0.0161927
internal_weight=151.048 127.662 105.027 67.9156 37.1118 22.6351 23.3855
internal_count=622 526 431 278 153 95 96
is_linear=0
shrinkage=0.03


Tree=43
num_leaves=9
num_cat=0
split_feature=14 23 10 12 1 35 33 21
split_gain=9.01851 8.23585 9.06688 7.04545 7.03119 6.34292 7.65433 3.85013
threshold=-0.48581383150752794 1.2249013497410111 0.0072323137551281178 51.90072926173746 0.0053489503278193471 0.048697796915044174 0.16276986748365491 0.015502350011584088
decision_type=2 2 2 2 2 2 2 2
left_child=5 2 3 -2 -4 6 -1 -3
right_child=1 7 4 -5 -6 -7 -8 -9
leaf_value=-0.0029653894521195104 -0.0034363192622766004 -0.00031930670728217564 -0.0046290855843780796 0.024835411197059766 -0.025994216128499191 -0.0033155756413744252 0.030400739086961486 0.025986614941079254
leaf_weight=7.3522999137640026 27.802947759628296 7.3207787424325934 34.042173281311989 8.6108365356922132 25.799429401755333 13.235343620181082 18.05353045463562 8.6399967819452268
leaf_count=30 114 30 141 35 107 54 76 35
internal_value=0.000108347 -0.00411354 -0.00756554 0.00380364 -0.0146255 0.0123371 0.0206857 0.0143937
internal_weight=150.857 112.216 96.2554 36.4138 59.8416 38.6412 25.4058 15.9608
internal_count=622 462 397 149 248 160 106 65
is_linear=0
shrinkage=0.03


Tree=44
num_leaves=9
num_cat=0
split_feature=34 10 10 12 1 4 35 15
split_gain=7.63787 5.26207 12.6317 6.08066 6.02971 5.63098 2.86622 1.59798
threshold=-0.039304441970519681 0.0072323137551281178 0.017062017197867933 55.168964075837955 0.0048462903281647493 -0.021492238458164611 0.020265083482714833 2.8169445103276485
decision_type=2 2 2 2 2 2 2 2
left_child=7 3 6 5 -4 -2 -3 -1
right_child=1 2 4 -5 -6 -7 -8 -9
leaf_value=0.029001023679202844 0.010247454485374516 -0.0055996291501717874 0.010456480431993273 0.026088344017801652 -0.0092912504771797515 -0.0082590608048974997 -0.0332391796069227 0.0051182321896065322
leaf_weight=6.8655485957860929 25.25390625 7.2798777222633388 26.110655888915062 7.593587413430213 25.388369113206863 30.339421331882477 14.229820579290388 7.5892729312181473
leaf_count=30 104 30 108 31 105 124 59 31
internal_value=0.000109383 -0.0020948 -0.00755863 0.00402643 0.000457323 0 -0.0257949 0.0195195
internal_weight=150.65 136.196 73.0087 63.1869 51.499 55.5933 21.5097 14.4548
internal_count=622 561 302 259 213 228 89 61
is_linear=0
shrinkage=0.03


Tree=45
num_leaves=7
num_cat=0
split_feature=25 32 5 19 19 25
split_gain=7.39353 7.38759 5.24074 4.50931 9.86394 4.93445
threshold=0.021277908181213109 -0.010423745471810462 -0.017630057874058577 0.089849060403028119 0.10789964644068877 0.39999935752467114
decision_type=2 2 2 2 2 2
left_child=-1 2 -2 5 -5 -3
right_child=1 3 -4 4 -6 -7
leaf_value=-0.019080141181461244 0.0021568576803255354 0.0051245624719092964 -0.026654535817248876 0.029444477519083061 0.0024290720530109645 -0.012254344879132437
leaf_weight=14.012939989566801 8.4081770777702349 45.785100549459457 10.312509045004843 16.548625484108925 40.770754918456078 19.216889232397079
leaf_count=58 35 188 43 68 170 79
internal_value=0.000150661 0.00240622 -0.0140312 0.00522779 0.0112113 -1.81106e-06
internal_weight=155.055 141.042 18.7207 122.321 57.3194 65.002
internal_count=641 583 78 505 238 267
is_linear=0
shrinkage=0.03


Tree=46
num_leaves=6
num_cat=0
split_feature=20 38 34 7 28
split_gain=9.44463 6.00555 7.00968 4.83679 2.74246
threshold=0.016279849034439249 0.0065535459818324105 0.034830690815106487 0.036469659504278412 5.5000000000000009
decision_type=2 2 2 2 2
left_child=4 -2 3 -3 -1
right_child=1 2 -4 -5 -6
leaf_value=-0.0036574841913801105 0.025520243470526328 0.006363502413575803 -0.01706847561311399 -0.01093777493288553 -0.028765270475869013
leaf_weight=9.3291349261999148 8.0209275335073453 99.16887229681015 14.342194899916647 14.591158166527746 9.502418249845503
leaf_count=39 33 410 59 60 40
internal_value=0.000138969 0.00307058 0.00117893 0.00386418 -0.0185923
internal_weight=154.955 136.123 128.102 113.76 18.8316
internal_count=641 562 529 470 79
is_linear=0
shrinkage=0.03


Tree=47
num_leaves=9
num_cat=0
split_feature=25 21 23 37 10 40 10 7
split_gain=6.9776 3.90969 8.49023 6.13196 4.54464 6.98483 5.27383 1.22404
threshold=0.021277908181213109 0.013699668565034203 1.231311513132465 0.053261089645165079 0.0072323137551281178 1.0000000180025095e-35 0.020530254085403325 0.03125921548623032
decision_type=2 2 2 2 2 2 2 2
left_child=-1 4 3 -3 5 -2 -6 -4
right_child=1 2 7 -5 6 -7 -8 -9
leaf_value=-0.018583140165018133 -0.01410358694124071 0.004859003307964232 0.033631842907095304 -0.019177175739319541 -0.027124011318416869 0.0134483073888714 0.0025582630491114457 0.0091292440903334958
leaf_weight=13.983049660921095 11.397807389497759 68.00179049372673 7.8531937152147275 8.9663318395614606 10.923804804682733 19.110367342829704 7.2478963732719413 7.3993968516588211
leaf_count=58 47 281 33 38 46 78 30 30
internal_value=0.000115153 0.00230986 0.005965 0.0014542 -0.0042807 0.00245912 -0.0154616 0.0250508
internal_weight=154.884 140.901 92.2207 76.9681 48.6799 30.5082 18.1717 15.2526
internal_count=641 583 382 319 201 125 76 63
is_linear=0
shrinkage=0.03


Tree=48
num_leaves=6
num_cat=0
split_feature=20 38 34 5 14
split_gain=8.94345 5.73692 6.56748 7.78213 3.06216
threshold=0.016279849034439249 0.0065535459818324105 0.034830690815106487 0.081873562587756479 0.230635280039337
decision_type=2 2 2 2 2
left_child=4 -2 3 -3 -1
right_child=1 2 -4 -5 -6
leaf_value=-0.0008672267903569366 0.024901806640548387 0.0077225001732038534 -0.016573830250913357 -0.011127451300121872 -0.02713643235232191
leaf_weight=7.7342828512191799 8.0193708389997465 91.000921741127968 14.301177665591238 22.632374137639999 11.023423209786413
leaf_count=32 33 375 59 95 47
internal_value=0.000105803 0.00296064 0.00110772 0.0037109 -0.0181548
internal_weight=154.712 135.954 127.934 113.633 18.7577
internal_count=641 562 529 470 79
is_linear=0
shrinkage=0.03


Tree=49
num_leaves=7
num_cat=0
split_feature=20 32 38 34 37 9
split_gain=8.52341 5.84538 5.88598 6.03948 4.86994 3.80699
threshold=0.016279849034439249 -0.010423745471810462 0.0065535459818324105 0.034830690815106487 -0.0020099661699320977 1.0000000180025095e-35
decision_type=2 2 2 2 2 2
left_child=5 4 -3 -4 -2 -1
right_child=1 2 3 -5 -6 -7
leaf_value=0 0.0033383090692185387 0.028277368818476454 0.0058262929116339518 -0.015289083723310292 -0.024904320173754952 -0.027429922934959196
leaf_weight=7.4515128433704403 8.1565768271684664 7.5375647097825995 98.989235892891884 11.642449736595152 9.5402554571628553 11.238916262984274
leaf_count=31 34 31 409 48 40 48
internal_value=8.50198e-05 0.00287245 0.00540496 0.00323898 -0.0121084 -0.0177716
internal_weight=154.557 135.866 118.169 110.632 17.6968 18.6904
internal_count=641 562 488 457 74 79
is_linear=0
shrinkage=0.03


end of trees

feature_importances:
vol_ratio=33
bb_bandwidth=26
volatility=23
atr_pct=22
macro_topix_ret_20=19
macro_topix_vol_20=19
ma_5_20_cross=18
return_20d=15
ma_20_60_cross=15
macro_usdjpy_ret_20=14
macro_usdjpy_vol_20=14
macd=13
macro_nikkei_ret_20=13
div_ma_20=12
price_position_20d=12
macro_usdjpy_ret_60=11
return_10d=10
macd_signal=9
upper_shadow_pct=9
div_ma_60=8
rsi=7
gap=7
vol_change=6
return_5d=5
month=5
return_2d=4
div_ma_10=4
macd_hist=4
lower_shadow_pct=4
return_1d=3
return_3d=3
rsi_change=3
bb_pct_b=3
div_ma_5=2
macd_hist_change=2
candle_body_pct=1
day_of_week=1

parameters:
[boosting: gbdt]
[objective: binary]
[metric: binary_logloss]
[tree_learner: serial]
[device_type: cpu]
[data_sample_strategy: bagging]
[data: ]
[valid: ]
[num_iterations: 50]
[learning_rate: 0.03]
[num_leaves: 15]
[num_threads: 0]
[seed: 42]
[deterministic: 0]
[force_col_wise: 0]
[force_row_wise: 0]
[histogram_pool_size: -1]
[max_depth: 4]
[min_data_in_leaf: 30]
[min_sum_hessian_in_leaf: 0.001]
[bagging_fraction: 0.7]
[pos_bagging_fraction: 1]
[neg_bagging_fraction: 1]
[bagging_freq: 5]
[bagging_seed: 400]
[bagging_by_query: 0]
[feature_fraction: 0.6]
[feature_fraction_bynode: 1]
[feature_fraction_seed: 30056]
[extra_trees: 0]
[extra_seed: 12879]
[early_stopping_round: 0]
[early_stopping_min_delta: 0]
[first_metric_only: 0]
[max_delta_step: 0]
[lambda_l1: 0.5]
[lambda_l2: 2]
[linear_lambda: 0]
[min_gain_to_split: 0]
[drop_rate: 0.1]
[max_drop: 50]
[skip_drop: 0.5]
[xgboost_dart_mode: 0]
[uniform_drop: 0]
[drop_seed: 17869]
[top_rate: 0.2]
[other_rate: 0.1]
[min_data_per_group: 100]
[max_cat_threshold: 32]
[cat_l2: 10]
[cat_smooth: 10]
[max_cat_to_onehot: 4]
[top_k: 20]
[monotone_constraints: ]
[monotone_constraints_method: basic]
[monotone_penalty: 0]
[feature_contri: ]
[forcedsplits_filename: ]
[refit_decay_rate: 0.9]
[cegb_tradeoff: 1]
[cegb_penalty_split: 0]
[cegb_penalty_feature_lazy: ]
[cegb_penalty_feature_coupled: ]
[path_smooth: 0]
[interaction_constraints: ]
[verbosity: -1]
[saved_feature_importance_type: 0]
[use_quantized_grad: 0]
[num_grad_quant_bins: 4]
[quant_train_renew_leaf: 0]
[stochastic_rounding: 1]
[linear_tree: 0]
[max_bin: 255]
[max_bin_by_feature: ]
[min_data_in_bin: 5]
[bin_construct_sample_cnt: 200000]
[data_random_seed: 175]
[is_enable_sparse: 1]
[enable_bundle: 1]
[use_missing: 1]
[zero_as_missing: 0]
[feature_pre_filter: 1]
[pre_partition: 0]
[two_round: 0]
[header: 0]
[label_column: ]
[weight_column: ]
[group_column: ]
[ignore_column: ]
[categorical_feature: ]
[forcedbins_filename: ]
[precise_float_parser: 0]
[parser_config_file: ]
[objective_seed: 16083]
[num_class: 1]
[is_unbalance: 0]
[scale_pos_weight: 1]
[sigmoid: 1]
[boost_from_average: 1]
[reg_sqrt: 0]
[alpha: 0.9]
[fair_c: 1]
[poisson_max_delta_step: 0.7]
[tweedie_variance_power: 1.5]
[lambdarank_truncation_level: 30]
[lambdarank_norm: 1]
[label_gain: ]
[lambdarank_position_bias_regularization: 0]
[eval_at: ]
[multi_error_top_k: 1]
[auc_mu_weights: ]
[num_machines: 1]
[local_listen_port: 12400]
[time_out: 120]
[machine_list_filename: ]
[machines: ]
[gpu_platform_id: -1]
[gpu_device_id: -1]
[gpu_use_dp: 0]
[num_gpu: 1]

end of parameters

pandas_categorical:[]
