tree
version=v4
num_class=1
num_tree_per_iteration=1
label_index=0
max_feature_idx=44
objective=binary sigmoid:1
feature_names=return_1d return_2d return_3d return_5d return_10d return_20d div_ma_5 div_ma_10 div_ma_20 div_ma_60 ma_5_20_cross ma_20_60_cross rsi rsi_change macd macd_signal macd_hist macd_hist_change bb_pct_b bb_bandwidth atr_pct volatility vol_change vol_ratio candle_body_pct upper_shadow_pct lower_shadow_pct day_of_week month is_month_end is_month_start streak gap price_position_20d macro_usdjpy_ret_20 macro_usdjpy_ret_60 macro_usdjpy_vol_20 macro_topix_ret_20 macro_topix_vol_20 macro_topix_above_200dma macro_nikkei_ret_20 macro_nikkei_above_200dma macro_nikkei_vi macro_jgb10y macro_bias_score
feature_infos=[-0.13754298218193184:0.15984052192823484] [-0.19515752625437577:0.19209858644436384] [-0.22932960893854748:0.20840884378397972] [-0.20854847963281697:0.27836172526277636] [-0.26758693920891952:0.30554548749546928] [-0.2854182854182854:0.43856469735411374] [-0.1623147923245081:0.068709873969177368] [-0.19266108737636803:0.097962190031917501] [-0.24118868521294293:0.16186022343465836] [-0.24008097723548127:0.22623800391013646] [-0.11096799484781461:0.11572942135289321] [-0.081613394552116802:0.14794122957770051] [8.2894763471025499:98.876404494382029] [-52.131165890597586:28.122935688147123] [-155.50648850589869:139.80210321818367] [-109.34590779977336:133.49934192528997] [-87.077380181760844:64.54371101871088] [-32.767259592872172:21.484535888436099] [-0.2970335665479254:1.458925225362437] [0.033840594729239455:0.33939178884453408] [0.0098447356609083839:0.057342103007969832] [0.0059175313792672055:0.055436762703991796] [-0.93376769705579776:5.3857135726052014] [0.41685903500473037:1.7942270840673364] [-1:1] [0:0.94339622641509435] [0:0.94736842105263153] [0:4] [1:12] none [0:1] [-9:6] [-0.067431850789096082:0.13079222720478323] [0:1] [-0.10288784967882303:0.08505611680078462] [-0.13986255140503889:0.13160084488587853] [0.0024251968629527628:0.011841457708833433] [-0.22586490939044479:0.19897850606512013] [0.0040695656522785678:0.036437277456277402] [0:1] [-0.22859537662338159:0.23022297972565586] [0:1] none none none
tree_sizes=1177 1071 1092 1202 1203 1201 992 1182 994 978 1181 1304 973 1187 1100 1077 1202 1093 962 1107 887 991 888 1210 1406 1306 1317 1098 1297 1093 980 894 1108 1066 871 1526 1188 1192 1308 1209 1068 1206 1208 1292 1100 1081 1287 1457 786 1103

Tree=0
num_leaves=10
num_cat=0
split_feature=21 17 5 37 37 15 17 37 5
split_gain=17.057 14.7601 8.68879 6.14634 5.96419 4.43782 3.31722 1.84837 1.4589
threshold=0.018074570886815102 1.6609019864097585 0.042822284852016453 0.0033529759070068947 0.010186849981851267 67.757039371273422 4.825512384910434 0.011572894744263597 -0.032041250308537932
decision_type=2 2 2 2 2 2 2 2 2
left_child=1 2 3 -1 8 -4 7 -3 -2
right_child=4 6 5 -5 -6 -7 -8 -9 -10
leaf_value=-0.12881046741290128 -0.12171896124542868 -0.17120924615434951 -0.10835541103888888 -0.14703201151813505 -0.13063943953115895 -0.13604080422994819 -0.13728544447203719 -0.14763804081397522 -0.09211877711937258
leaf_weight=28.866235613822937 7.4654057621955872 11.198108643293386 14.184270948171617 33.345479071140289 14.68196466565132 7.9630994796752921 7.9630994796752921 10.949261784553526 7.9630994796752947
leaf_count=116 30 45 57 134 59 32 32 44 32
internal_value=-0.133845 -0.139101 -0.132737 -0.138382 -0.114451 -0.117378 -0.156493 -0.162103 -0.102294
internal_weight=144.58 114.47 84.3591 62.2117 30.1105 22.1474 30.1105 22.1474 15.4285
internal_count=581 460 339 250 121 89 121 89 62
is_linear=0
shrinkage=1


Tree=1
num_leaves=9
num_cat=0
split_feature=17 20 13 35 40 17 38 1
split_gain=11.3027 10.8125 8.49867 9.53672 6.6116 5.99741 5.7995 7.11091
threshold=2.2578030040497858 0.025224532509755003 -2.8308874251125498 -0.035095384084531826 -0.029005577802021506 4.825512384910434 0.011091931405409221 -0.01487653454675658
decision_type=2 2 2 2 2 2 2 2
left_child=2 5 6 -4 -5 -2 7 -1
right_child=1 -3 3 4 -6 -7 -8 -9
leaf_value=-0.027185659675323281 -0.030081796047445271 0.015469097737859087 -0.007663862860086107 -0.0041193731372355788 0.022249512539328806 0 0.014315392272229159 0.0011604234792837039
leaf_weight=11.695693403482435 18.140482753515247 7.716397136449813 14.188085794448851 8.4661048203706724 50.030310392379761 9.208110958337782 8.7141855061054212 16.424864470958713
leaf_count=47 73 31 57 34 201 37 35 66
internal_value=0.00214642 -0.0120942 0.00697551 0.0128604 0.0181752 -0.0209065 -0.0043149 -0.0111534
internal_weight=144.584 35.065 109.519 72.6845 58.4964 27.3486 36.8347 28.1206
internal_count=581 141 440 292 235 110 148 113
is_linear=0
shrinkage=0.03


Tree=2
num_leaves=9
num_cat=0
split_feature=21 17 1 36 38 19 17 34
split_gain=16.2158 13.4651 9.31684 5.46374 4.36719 3.204 3.01843 1.38089
threshold=0.018074570886815102 1.6609019864097585 -0.019562520445132955 0.0079475798632696187 0.010903154355795816 0.13243806395293337 4.825512384910434 0.0073693533361587358
decision_type=2 2 2 2 2 2 2 2
left_child=1 2 -1 -4 5 -2 7 -3
right_child=4 6 3 -5 -6 -7 -8 -9
leaf_value=-0.017187087679841801 0.018633487144254172 -0.034428083969491034 0.011098363676006015 -0.011592066878811867 0.032464708442017799 -0.0049738691413888951 -0.0012495773234551747 -0.012581903991332976
leaf_weight=14.422662943601607 8.4687143266201037 9.9152131974697166 61.024807929992676 8.9548688232898694 14.2069975733757 7.4705543518066397 7.9631706327199927 12.161069169640539
leaf_count=58 34 40 245 36 57 30 32 49
internal_value=0.00207045 -0.00305402 0.00301178 0.007745 0.0209704 0.00741186 -0.0196895 -0.0250616
internal_weight=144.588 114.442 84.4023 69.9797 30.1463 15.9393 30.0395 22.0763
internal_count=581 460 339 281 121 64 121 89
is_linear=0
shrinkage=0.03


Tree=3
num_leaves=10
num_cat=0
split_feature=21 17 14 37 37 38 35 37 15
split_gain=15.4187 12.8029 10.3384 11.7731 5.60331 4.97097 3.58395 0.758762 0.526712
threshold=0.018074570886815102 1.6609019864097585 26.812623051168661 0.0033529759070068947 0.010186849981851267 0.0083952149930773181 0.04126255260645207 0.02472294309833312 -15.889318788394975
decision_type=2 2 2 2 2 2 2 2 2
left_child=1 2 3 -1 8 -4 7 -3 -2
right_child=4 6 5 -5 -6 -7 -8 -9 -10
leaf_value=0.0085207082187271545 0.015614411625765545 -0.034241146428302324 0.02623663068597511 -0.018384838671192314 0.0047816313269874143 0.00091589539834164733 -0.004117989690842665 -0.011541473774065943 0.041193752134024104
leaf_weight=27.147405385971069 7.9831128865480423 10.134813025593763 17.19993178546429 26.859738662838936 14.700989201664923 13.207321017980574 12.160408392548559 7.6962075829505912 7.4895635098218936
leaf_count=109 32 41 69 108 59 53 49 31 30
internal_value=0.00198775 -0.00300918 0.00289818 -0.00477127 0.0204095 0.0164367 -0.0192467 -0.027352 0.0321526
internal_weight=144.579 114.406 84.4144 54.0071 30.1737 30.4073 29.9914 17.831 15.4727
internal_count=581 460 339 217 121 122 121 72 62
is_linear=0
shrinkage=0.03


Tree=4
num_leaves=10
num_cat=0
split_feature=21 17 14 37 37 14 35 28 5
split_gain=14.7069 12.2249 9.78779 11.1409 5.33376 4.80256 3.41881 2.81137 1.42893
threshold=0.018074570886815102 1.6609019864097585 26.812623051168661 0.0033529759070068947 0.010186849981851267 67.405916925898296 0.04126255260645207 5.5000000000000009 -0.032041250308537932
decision_type=2 2 2 2 2 2 2 2 2
left_child=1 2 3 -1 8 -4 7 -3 -2
right_child=4 6 5 -5 -6 -7 -8 -9 -10
leaf_value=0.0082787550079355312 0.012895201505107279 -0.0074264292944985879 0.023577836664538401 -0.017894863049815326 0.0046542644222191112 -0.00012969809813769359 -0.0040131214864970333 -0.036514448363417634 0.041153765481370175
leaf_weight=27.160829067230225 7.4876069128513336 7.6629721224308076 20.702728316187862 26.822645604610443 14.704864889383314 9.7256716489791852 12.156157448887823 10.121295198798178 7.9977412819862383
leaf_count=109 30 31 83 108 59 39 49 41 32
internal_value=0.00194321 -0.00293742 0.0028283 -0.00463283 0.0199296 0.0159971 -0.0188217 -0.0267568 0.0313857
internal_weight=144.543 114.352 84.4119 53.9835 30.1902 30.4284 29.9404 17.7843 15.4853
internal_count=581 460 339 217 121 122 121 72 62
is_linear=0
shrinkage=0.03


Tree=5
num_leaves=10
num_cat=0
split_feature=21 35 28 12 38 17 21 28 27
split_gain=12.6102 12.4609 19.3602 21.4112 10.1442 9.04635 4.61731 3.50107 1.12707
threshold=0.018074570886815102 -0.0098583106455546448 5.5000000000000009 32.618422538257782 0.010218780342065328 1.7243056105146748 0.020851745413222014 2.5000000000000004 2.5000000000000004
decision_type=2 2 2 2 2 2 2 2 2
left_child=1 7 5 -4 6 -3 -2 -1 -9
right_child=4 2 3 -5 -6 -7 -8 8 -10
leaf_value=-0.0026353943124645908 0.014780773383989112 0.034444892500842601 0.026270885865645001 -0.014996842495996129 0.034645817756616064 -0.00084138644013960181 -0.013345595738365397 -0.033781640414377374 -0.010930240145872502
leaf_weight=9.4280198812484759 8.4814841449260765 16.709799990057949 11.931391119956968 56.43364380300045 13.236192509531973 8.6648886650800687 8.4751711189746839 12.149161323904993 8.1910057663917524
leaf_count=38 34 67 48 227 53 35 34 49 33
internal_value=2.35171e-05 -0.00417771 0.00115055 -0.00703944 0.016867 0.0226663 6.70175e-06 -0.0204446 -0.0270532
internal_weight=153.701 123.508 93.7397 68.365 30.1928 25.3747 16.9567 29.7682 20.3402
internal_count=618 497 377 275 121 102 68 120 82
is_linear=0
shrinkage=0.03


Tree=6
num_leaves=8
num_cat=0
split_feature=19 2 21 21 15 21 36
split_gain=12.7826 12.8684 18.6129 11.3987 6.07318 6.85825 1.00389
threshold=0.14704140148976688 0.02271176621397231 0.018074570886815102 0.010051981759884044 -37.751942105774269 0.016769174165806713 0.0063755296264285779
decision_type=2 2 2 2 2 2 2
left_child=1 2 3 -1 -2 -6 -3
right_child=4 6 -4 -5 5 -7 -8
leaf_value=0.014964697326021003 0.038252942142435006 -0.012531911866369743 0.032384641989292161 -0.0095926107246618077 0.024728490782839715 -0.0086527039165837927 -0.034477196031451891
leaf_weight=19.414993643760681 7.7380160540342358 10.666350573301317 12.235087022185324 77.219742447137833 7.9762582182884243 9.964646711945532 8.4222275465726835
leaf_count=78 31 43 49 311 32 40 34
internal_value=2.67237e-05 -0.00382061 0.000194308 -0.0043033 0.0186307 0.00642756 -0.0252773
internal_weight=153.637 127.958 108.87 96.6347 25.6789 17.9409 19.0886
internal_count=618 515 438 389 103 72 77
is_linear=0
shrinkage=0.03


Tree=7
num_leaves=10
num_cat=0
split_feature=35 28 12 10 38 17 38 13 35
split_gain=7.93373 12.9105 13.8896 13.4762 12.2262 10.487 4.8001 2.82 0.147227
threshold=-0.0098583106455546448 5.5000000000000009 32.618422538257782 0.00040817458761632791 0.01409166178752766 1.269869229298177 0.0070199623320135835 -2.9253073152321671 0.032334137992055985
decision_type=2 2 2 2 2 2 2 2 2
left_child=4 5 -3 -4 6 8 -1 -8 -2
right_child=1 2 3 -5 -6 -7 7 -9 -10
leaf_value=-0.0016451538943572969 0.041567811308827377 0.025410160820383713 -0.021981477915947123 0.0039820833498059064 0.018620146719477416 0 -0.0076651726327339759 -0.034228649017849458 0.017057810648641016
leaf_weight=12.628392428159712 9.7450789660215431 11.954083219170569 29.500966519117355 39.059236794710159 8.2189951837062818 12.153149634599684 8.694159582257269 13.877636373043062 7.7350366711616507
leaf_count=51 39 48 119 157 33 49 35 56 31
internal_value=4.01896e-05 0.00441812 -0.00174953 -0.00728366 -0.0104412 0.0207011 -0.0182663 -0.0260641 0.0343569
internal_weight=153.567 110.148 80.5143 68.5602 43.4192 29.6333 35.2002 22.5718 17.4801
internal_count=618 443 324 276 175 119 142 91 70
is_linear=0
shrinkage=0.03


Tree=8
num_leaves=8
num_cat=0
split_feature=14 35 2 12 23 36 13
split_gain=8.55353 10.5389 9.00029 8.31281 7.22423 5.00563 3.56433
threshold=-72.314575397265784 -0.0098583106455546448 0.02271176621397231 65.394582093729369 1.0563774900087262 0.0082429721824947514 -0.46440364637278714
decision_type=2 2 2 2 2 2 2
left_child=-1 5 4 -4 -3 6 -2
right_child=1 2 3 -5 -6 -7 -8
leaf_value=0.027759752447722861 -0.0070087337183089007 0.0015151921128644847 -0.030285024060594905 0.0057333557089350251 0.020476530069659011 0.0010289920111578807 -0.030711333424058584
leaf_weight=7.4843251854181281 14.140290021896362 61.409803435206413 10.393093377351763 8.702175706624983 25.128487303853035 11.665261581540106 14.566617876291275
leaf_count=30 57 247 42 35 101 47 59
internal_value=5.17564e-05 -0.00162315 0.00327602 -0.0141722 0.00752867 -0.0143454 -0.0207415
internal_weight=153.49 146.006 105.634 19.0953 86.5383 40.3722 28.7069
internal_count=618 588 425 77 348 163 116
is_linear=0
shrinkage=0.03


Tree=9
num_leaves=8
num_cat=0
split_feature=19 2 35 32 8 38 13
split_gain=11.583 11.6958 15.2027 7.43212 3.94621 3.92645 0.600753
threshold=0.14704140148976688 0.02271176621397231 -0.0049814903519586054 -0.0016391540432347249 -0.028905146573641179 0.0088705102057334319 4.2309508845054902
decision_type=2 2 2 2 2 2 2
left_child=1 2 4 -4 -1 -2 -3
right_child=5 6 3 -5 -6 -7 -8
leaf_value=0 0.0042945621794918034 -0.029610149012324869 -0.0031065836342315445 0.014693999952484767 -0.024096594710347724 0.029265407082933893 -0.0094750377140301045
leaf_weight=7.4323935657739666 13.700511544942858 11.587591990828516 34.554823383688927 46.027197659015656 20.741881489753723 11.980452507734297 7.4102966487407675
leaf_count=30 55 47 139 185 84 48 30
internal_value=4.83842e-05 -0.00361491 0.00020264 0.00698882 -0.0178863 0.0177584 -0.0241212
internal_weight=153.435 127.754 108.756 80.582 28.1743 25.681 18.9979
internal_count=618 515 438 324 114 103 77
is_linear=0
shrinkage=0.03


Tree=10
num_leaves=10
num_cat=0
split_feature=21 17 5 14 9 15 19 9 28
split_gain=13.0051 11.914 9.2605 7.99659 5.97431 5.66654 5.19132 4.42659 3.4829
threshold=0.017602295563308726 1.6609019864097585 0.04201364333656455 62.422641784558898 0.052926391447865852 -28.944522764622164 0.062112213306364378 -0.030029232662482259 5.5000000000000009
decision_type=2 2 2 2 2 2 2 2 2
left_child=1 2 6 -4 7 -3 -1 -2 -7
right_child=4 5 3 -5 -6 8 -8 -9 -10
leaf_value=0.0065092716968510851 0.0018340375761075438 0 0.03317597004475515 -0.00039654231985988223 -0.0054436510480259607 -0.0067105194828527169 -0.011389511138037142 0.030501571271897145 -0.036457899471883597
leaf_weight=19.336131006479263 8.4784573614597338 8.8693698793649691 10.485732883214952 11.221441820263861 7.4702538549900046 7.6336146444082287 40.994475498795509 16.711235225200653 14.457932829856871
leaf_count=78 34 36 42 45 30 31 165 67 59
internal_value=-0.000471014 -0.0054169 0.000513817 0.0166187 0.0155334 -0.0206644 -0.00538746 0.0222489 -0.0282119
internal_weight=145.659 112.999 82.0378 21.7072 32.6599 30.9609 60.3306 25.1897 22.0915
internal_count=587 456 330 87 131 126 243 101 90
is_linear=0
shrinkage=0.03


Tree=11
num_leaves=11
num_cat=0
split_feature=21 28 14 14 11 9 9 21 3 21
split_gain=12.3129 10.7193 12.9843 14.1677 9.56458 5.68628 4.17278 3.80856 3.50206 3.01953
threshold=0.017602295563308726 5.5000000000000009 -29.751434573714501 35.8170779180357 -0.009055063911429349 0.052926391447865852 -0.030029232662482259 0.01418418819371089 -0.019806292311616288 0.010051981759884044
decision_type=2 2 2 2 2 2 2 2 2 2
left_child=1 4 8 -4 9 6 -2 -6 -3 -1
right_child=5 2 3 -5 7 -7 -8 -9 -10 -11
leaf_value=0.004672533233026634 0.0017894971899557036 0.023320593288797341 -0.029259888660481084 6.1936816492922059e-05 0.031095630916364404 -0.0053160669453127373 0.029689982668041407 0.0020502352826156848 -0.0013654660145409035 -0.01708479606514304
leaf_weight=7.9393071085214642 8.4785779565572756 7.4651049673557308 36.71842697262764 22.382868021726608 11.45358991622925 7.4680848121643058 16.707708030939102 7.9400843828916541 8.665836349129675 10.330136269330977
leaf_count=32 34 30 149 90 46 30 67 32 35 42
internal_value=-0.000453118 -0.00527182 -0.0117855 -0.0182711 0.00729926 0.0151164 0.0216721 0.0212085 0.0105437 -0.00736163
internal_weight=145.55 112.895 75.2322 59.1013 37.6631 32.6544 25.1863 19.3937 16.1309 18.2694
internal_count=587 456 304 239 152 131 101 78 65 74
is_linear=0
shrinkage=0.03


Tree=12
num_leaves=8
num_cat=0
split_feature=38 17 35 23 27 19 34
split_gain=9.10896 13.4792 14.0786 6.29957 5.44905 4.83794 2.59995
threshold=0.01450964424788473 1.6609019864097585 -0.010530900344071279 0.93543139073503978 1.5000000000000002 0.11825132035681686 0.030666778376329033
decision_type=2 2 2 2 2 2 2
left_child=1 2 4 -4 -1 6 -3
right_child=-2 5 3 -5 -6 -7 -8
leaf_value=-0.03170014979409029 0.02613649217284349 -0.027322259396489877 0 0.017390856788760307 -0.0027099008699425086 0.0018008439178099991 -0.0040423105460622661
leaf_weight=8.8772522062063235 8.7038172185420972 22.7286740988493 30.837747648358345 41.835811898112297 16.342619806528091 7.9399718642234793 8.1392602026462537
leaf_count=36 35 93 124 168 66 32 33
internal_value=-0.000412019 -0.00256302 0.00328585 0.0100806 -0.0150448 -0.0171224 -0.0222597
internal_weight=145.405 136.701 97.8934 72.6736 25.2199 38.8079 30.8679
internal_count=587 552 394 292 102 158 126
is_linear=0
shrinkage=0.03


Tree=13
num_leaves=10
num_cat=0
split_feature=21 17 0 38 34 35 15 28 38
split_gain=11.3849 10.628 9.23687 7.40128 6.6367 5.72897 5.31002 3.15318 1.81801
threshold=0.017602295563308726 1.6609019864097585 0.0041348375824299408 0.010903154355795816 0.0021047833922968055 -0.0098583106455546448 -28.944522764622164 5.5000000000000009 0.0083525224806211395
decision_type=2 2 2 2 2 2 2 2 2
left_child=1 2 5 4 -2 -1 -3 -8 -4
right_child=3 6 8 -5 -6 -7 7 -9 -10
leaf_value=-0.017716977154845243 -0.016366052358122166 0 0.027348641912453165 0.028756541606093321 0.016808111643581664 0.00097687557624001912 -0.0063031001211676279 -0.034791273936448479 0.0043089432099199148
leaf_weight=18.728621944785118 8.4690428227186221 8.8457498103380221 9.2199201881885546 14.932734444737433 9.2177916467189771 46.03550086915493 7.6133247017860439 14.280552029609678 7.9440619200468054
leaf_count=76 34 36 37 60 37 185 31 59 32
internal_value=-0.00041063 -0.00505478 0.000528716 0.0145623 0.00011241 -0.00457317 -0.0195175 -0.0268694 0.0190304
internal_weight=145.287 112.668 81.9281 32.6196 17.6868 64.7641 30.7396 21.8939 17.164
internal_count=587 456 330 131 71 261 126 90 69
is_linear=0
shrinkage=0.03


Tree=14
num_leaves=9
num_cat=0
split_feature=20 17 0 38 22 38 15 25
split_gain=12.8672 15.7835 8.35278 5.13513 4.71072 3.8982 3.6532 2.20144
threshold=0.025018928910959897 1.6609019864097585 0.0041348375824299408 0.0086284926357522943 -0.28420182570507502 0.0083525224806211395 -41.331471246296665 0.21951167227873508
decision_type=2 2 2 2 2 2 2 2
left_child=1 2 4 7 -1 -4 -2 -3
right_child=6 3 5 -5 -6 -7 -8 -9
leaf_value=-0.019951899998702467 0.033369484995448478 0.0028008054658990983 0.030438018216416434 -0.032253994090230637 0.00050769425145326462 0.0022748701999816142 0.0069367760582158162 -0.016471243857567645
leaf_weight=9.9022541642189008 8.4495026022195834 8.1079697310924548 9.7195738852024096 17.277600407600403 59.306075930595398 9.6916325241327268 14.646783307194708 8.0305478423833829
leaf_count=40 34 33 39 71 239 39 59 33
internal_value=-0.000391115 -0.00444804 0.00211841 -0.021422 -0.00268716 0.0186032 0.0190932 -0.00672079
internal_weight=145.132 122.036 88.6195 33.4161 69.2083 19.4112 23.0963 16.1385
internal_count=587 494 357 137 279 78 93 66
is_linear=0
shrinkage=0.03


Tree=15
num_leaves=9
num_cat=0
split_feature=19 17 35 28 25 15 2 23
split_gain=12.4176 9.71822 8.227 8.20265 4.97691 4.33802 3.77651 0.113045
threshold=0.17739439914994384 2.6980472956203365 1.0000000180025095e-35 6.5000000000000009 0.12613636363636366 -27.406688308451482 0.030507713464688616 0.90836126055236566
decision_type=2 2 2 2 2 2 2 2
left_child=1 2 4 -4 -1 -2 7 -3
right_child=5 6 3 -5 -6 -7 -8 -9
leaf_value=-0.022349319267340149 0.039557250446440123 -0.011946228944136444 0.021063700122575947 0.00024230716491928768 0 0.0052128089636761582 -0.0011379722061733025 -0.031766840934291253
leaf_weight=13.286902382969854 7.4425618648529053 7.5608772635459962 25.643333286046982 48.393752381205559 19.452868044376373 7.9728955924510938 10.523672536015509 8.4673440903425199
leaf_count=54 30 31 103 195 79 32 43 35
internal_value=0.0014121 -0.00157131 0.00242092 0.00801558 -0.00953207 0.0252941 -0.0171961 -0.0256116
internal_weight=148.744 133.329 106.777 74.0371 32.7398 15.4155 26.5519 16.0282
internal_count=602 540 431 298 133 62 109 66
is_linear=0
shrinkage=0.03


Tree=16
num_leaves=10
num_cat=0
split_feature=21 28 18 11 37 22 36 22 38
split_gain=23.5326 10.3216 12.0645 10.5626 7.6611 6.74212 5.88323 4.59738 4.13468
threshold=0.018074570886815102 5.5000000000000009 0.19357648768259569 0.00095797168529077059 0.010186849981851267 -0.042444314951020849 0.0068133800155333489 -0.14061317277227572 0.0083525224806211395
decision_type=2 2 2 2 2 2 2 2 2
left_child=1 3 7 6 -2 -4 -1 -3 -5
right_child=4 2 5 8 -6 -7 -8 -9 -10
leaf_value=-0.022164253723440896 0.03756787674955718 -0.010105760053121039 -0.0054599734861657092 0.030520025473020556 0.0057462503833055024 -0.027916314885001414 0.0067103351375231816 0.015638267404983801 0.0007709209590887569
leaf_weight=10.075510799884798 15.8646157681942 7.4139827936887768 24.323526054620743 13.163242787122728 14.444155558943747 29.950194552540779 10.809930756688116 15.140231147408484 7.4417244344949713
leaf_count=41 64 30 99 53 58 122 44 61 30
internal_value=0.0013693 -0.00464911 -0.011135 0.00697569 0.0241615 -0.0186705 -0.00728348 0.006431 0.0214582
internal_weight=148.627 118.318 76.8279 41.4904 30.3088 54.2737 20.8854 22.5542 20.605
internal_count=602 480 312 168 122 221 85 91 83
is_linear=0
shrinkage=0.03


Tree=17
num_leaves=9
num_cat=0
split_feature=20 17 35 28 34 23 2 9
split_gain=13.9193 9.98282 7.23245 6.66754 4.71925 4.21275 2.56867 0.351146
threshold=0.025224532509755003 2.2578030040497858 -0.0069185798442401017 5.5000000000000009 -0.025660351537021061 1.0758715169776043 0.032212322606773987 0.010502250142343499
decision_type=2 2 2 2 2 2 2 2
left_child=1 2 4 -4 -1 -2 7 -3
right_child=5 6 3 -5 -6 -7 -8 -9
leaf_value=0.002985809038626898 0.031955338493782029 -0.013123994459781971 0.02072562390816772 0.0005890684585734084 -0.020443806129592998 0.0043748872193007252 -0.0011695560036916268 -0.03209879373277242
leaf_weight=11.078420728445055 13.134959995746614 11.153990745544439 19.90181091427803 51.146635204553604 15.968005806207655 10.638591617345808 7.8057775646448126 7.6396640837192527
leaf_count=45 53 46 80 206 65 43 32 32
internal_value=0.00134489 -0.00265657 0.00171788 0.006848 -0.0107857 0.0214924 -0.0183054 -0.0239041
internal_weight=148.468 124.694 98.0949 71.0484 27.0464 23.7736 26.5994 18.7937
internal_count=602 506 396 286 110 96 110 78
is_linear=0
shrinkage=0.03


Tree=18
num_leaves=8
num_cat=0
split_feature=19 17 35 37 25 16 12
split_gain=11.0469 8.82099 7.54233 7.29141 4.64054 2.94337 1.6871
threshold=0.17739439914994384 2.6980472956203365 1.0000000180025095e-35 0.052384215110283912 0.12613636363636366 2.1098373432427548 64.012154664919521
decision_type=2 2 2 2 2 2 2
left_child=1 2 4 -4 -1 -3 -2
right_child=6 5 3 -5 -6 -7 -8
leaf_value=-0.021577932055132386 0.033165037096483829 -0.025224331522635524 0.0110735093158637 -0.016492627384856309 0 -0.003401605740298904 0.007552644986728179
leaf_weight=13.223059445619581 7.8821717053651792 13.966714680194857 66.263626858592033 7.6930130422115317 19.4249067902565 12.41600541770458 7.4655202925205231
leaf_count=54 32 58 267 31 79 51 30
internal_value=0.00130302 -0.00150639 0.0022876 0.00764982 -0.0091668 -0.0164462 0.0238782
internal_weight=148.335 132.987 106.605 73.9566 32.648 26.3827 15.3477
internal_count=602 540 431 298 133 109 62
is_linear=0
shrinkage=0.03


Tree=19
num_leaves=9
num_cat=0
split_feature=38 28 11 16 5 32 6 37
split_gain=11.6046 7.99516 11.4606 10.5258 8.05039 11.8003 6.31403 4.82613
threshold=0.01450964424788473 6.5000000000000009 1.0000000180025095e-35 -9.9205353571939181 -0.017345437863187759 0.0084023529926500213 -0.0033364894865080632 0.0061545951738107849
decision_type=2 2 2 2 2 2 2 2
left_child=1 4 6 -4 7 -6 -3 -1
right_child=-2 2 3 -5 5 -7 -8 -9
leaf_value=0.0036227402357659412 0.032412739292549383 0.017877354305434082 0.00028606193422123894 -0.028595284343773023 0.021258713883065241 -0.014116502064257408 -0.0062081586888855728 -0.024699992673063439
leaf_weight=9.8074366152286547 8.0655644088983518 16.39317212998867 17.263364374637604 26.17970572412014 35.902494490146637 8.8812447041273099 18.167387649416924 7.5541532933711997
leaf_count=40 33 66 70 107 145 36 74 31
internal_value=0.00125498 -0.000863435 -0.00727064 -0.0172809 0.00692086 0.0136191 0.00515908 -0.00920442
internal_weight=148.215 140.149 78.0036 43.4431 62.1453 44.7837 34.5606 17.3616
internal_count=602 569 317 177 252 181 140 71
is_linear=0
shrinkage=0.03


Tree=20
num_leaves=7
num_cat=0
split_feature=21 19 20 36 19 20
split_gain=13.8143 12.0653 7.36301 9.62345 5.18872 6.97489
threshold=0.018074570886815102 0.14704140148976688 0.012737072944117389 0.0048721049086285712 0.13484818044326161 0.02895058725475837
decision_type=2 2 2 2 2 2
left_child=1 2 -1 -4 -2 -6
right_child=4 -3 3 -5 5 -7
leaf_value=0.015628381298480671 0.028008722061364531 0.021774707077401929 0.002042977442496229 -0.017981971640296638 -0.015689030358290869 0.019798507159591701
leaf_weight=7.4082351773977271 14.15364031493664 10.19951295852661 28.887372121214867 67.820736885070801 7.4533704221248618 8.3195354193449003
leaf_count=30 57 41 117 277 30 34
internal_value=-0.00144483 -0.00631673 -0.00956852 -0.0119282 0.0159253 0.00230672
internal_weight=144.242 114.316 104.116 96.7081 29.9265 15.7729
internal_count=586 465 424 394 121 64
is_linear=0
shrinkage=0.03


Tree=21
num_leaves=8
num_cat=0
split_feature=21 19 28 14 23 38 34
split_gain=13.06 11.4405 7.21745 8.32932 7.61943 5.10429 3.27038
threshold=0.018074570886815102 0.14704140148976688 4.5000000000000009 44.019126946234344 0.90551502101112813 0.010030660921394166 0.006807726870105558
decision_type=2 2 2 2 2 2 2
left_child=1 2 4 -4 -1 6 -2
right_child=5 -3 3 -5 -6 -7 -8
leaf_value=0.022546845356712461 -0.0098273442774125825 0.021233426407308634 -0.019453852511721194 0.0035048376104193737 -0.0073545193586290391 0.027229215328167945 0.014580270879841302
leaf_weight=9.6217675209045428 7.6987938582897204 10.196752727031706 57.893969193100929 16.568228095769882 19.893750295042992 14.489170551300047 7.7014702707529068
leaf_count=39 31 41 237 67 81 59 31
internal_value=-0.00136906 -0.00611231 -0.00928567 -0.0141912 0.00272933 0.0155263 0.00178944
internal_weight=144.064 114.174 103.978 74.4622 29.5155 29.8894 15.4003
internal_count=586 465 424 304 120 121 62
is_linear=0
shrinkage=0.03


Tree=22
num_leaves=7
num_cat=0
split_feature=21 19 21 35 19 20
split_gain=12.3568 10.853 6.93467 6.94107 4.90358 6.52752
threshold=0.018074570886815102 0.14704140148976688 0.01586996876028806 0.056617550483984432 0.13484818044326161 0.02895058725475837
decision_type=2 2 2 2 2 2
left_child=1 2 3 -1 -2 -6
right_child=4 -3 -4 -5 5 -7
leaf_value=-0.00035700951455475903 0.026884330682861796 0.020709459981343933 -0.026366616572771548 -0.020256148476305597 -0.015444130152696234 0.018941355750329271
leaf_weight=68.832622677087784 14.120699658989908 10.191769316792486 15.839815571904181 19.155544355511665 7.4429758042097083 8.2764750868082029
leaf_count=281 57 41 65 78 30 34
internal_value=-0.00129921 -0.00591889 -0.00901646 -0.00520977 0.0151446 0.00190818
internal_weight=143.86 114.02 103.828 87.9882 29.8402 15.7195
internal_count=586 465 424 359 121 64
is_linear=0
shrinkage=0.03


Tree=23
num_leaves=10
num_cat=0
split_feature=19 2 35 19 2 38 0 2 3
split_gain=8.369 5.8736 7.36266 6.6738 3.10207 4.92368 5.27107 2.19658 2.02046
threshold=0.10542458112499428 0.020768461440807354 -0.0038962612884215204 0.071702497821408084 -0.0049203038754853648 0.011557760615194161 0.0051726528831915761 -0.0094094411883582346 -0.020205716999042164
decision_type=2 2 2 2 2 2 2 2 2
left_child=1 2 7 -4 8 6 -6 -1 -2
right_child=4 -3 3 -5 5 -7 -8 -9 -10
leaf_value=-0.0048254709751015231 0.026765508335204986 -0.022045738954085455 0.012795725074311133 -0.0063479285504296811 -0.020459585703527232 0.018834841200764594 0.0068875429577640486 -0.027390786541377183 0.002963226254697561
leaf_weight=10.478485494852068 9.4006069749593753 15.897009417414663 28.378404051065445 32.797671169042587 9.4221232384443336 8.9572660028934461 11.576909720897673 9.3527882397174817 7.4413246661424628
leaf_count=43 38 66 115 133 38 37 47 39 30
internal_value=-0.00126004 -0.00634864 -0.00263056 0.00241896 0.00879782 0.00207152 -0.00544285 -0.0176891 0.0184758
internal_weight=143.703 96.9044 81.0073 61.1761 46.7982 29.9563 20.999 19.8313 16.8419
internal_count=586 396 330 248 190 122 85 82 68
is_linear=0
shrinkage=0.03


Tree=24
num_leaves=12
num_cat=0
split_feature=19 17 34 20 35 35 35 34 22 25 18
split_gain=7.98893 6.47576 5.60825 6.21626 7.58092 4.92609 6.62604 2.65147 1.47073 1.39087 2.42885
threshold=0.10542458112499428 1.5630942034229636 0.015944527892213681 0.028512885491105752 1.0000000180025095e-35 -0.0098583106455546448 0.056617550483984432 -0.0077231366291490291 0.035496508130573375 0.15825641666416149 0.578194021494423
decision_type=2 2 2 2 2 2 2 2 2 2 2
left_child=1 5 3 4 -2 7 -7 -1 -4 -3 -11
right_child=2 9 8 -5 -6 6 -8 -9 -10 10 -12
leaf_value=-0.00033091208273344113 -0.024212075971479716 -0.027119409421861449 0.0077466146564942016 0.021075094251530244 0.007657061662641091 0.0095787598728682352 -0.013581639371814466 -0.024771190369094347 0.030670858670139124 -0.020441715341026193 0
leaf_weight=8.7869876623153704 10.604982733726507 10.528054133057596 8.8880551010370272 7.4877393990755072 11.884774655103682 39.948368117213249 12.852553755044935 8.2090989053249341 7.9122025072574607 7.0533794313669231 9.4184557348489744
leaf_count=36 43 44 36 31 48 161 52 34 32 30 39
internal_value=-0.00122579 -0.00620347 0.008599 3.37355e-05 -0.00750829 -0.000994049 0.00337752 -0.0142904 0.0214551 -0.0181557 -0.00929851
internal_weight=143.575 96.7969 46.7778 29.9775 22.4898 69.797 52.8009 16.9961 16.8003 26.9999 16.4718
internal_count=586 396 190 122 91 283 213 70 68 113 69
is_linear=0
shrinkage=0.03


Tree=25
num_leaves=11
num_cat=0
split_feature=28 21 14 19 5 9 7 13 5 24
split_gain=10.8734 14.3181 8.33206 7.18996 6.98767 7.93512 6.35562 5.95487 3.83297 2.10277
threshold=6.5000000000000009 0.018289194823960551 -26.935882654388021 0.085480876343426979 -0.017345437863187759 0.079734204908471787 0.013855657305430482 -5.8761070072989368 -0.049496300332871661 -0.074353205948570256
decision_type=2 2 2 2 2 2 2 2 2 2
left_child=4 2 3 -2 8 6 -6 -4 -1 -3
right_child=1 9 7 -5 5 -7 -8 -9 -10 -11
leaf_value=0.0065885594648511236 0.022922391259191037 0.0026037984636206346 0.00063200018955859643 -0.009817677555162177 0.032753671067818062 -0.0026102956879205325 0.0040537424138221987 -0.023587826831358877 -0.017846167656552992 0.025561230490541129
leaf_weight=10.16727437078953 8.1051413267850894 8.3808135986328143 10.093329876661299 12.545618563890455 21.735017791390419 12.874144464731215 12.536681458353995 39.038760513067245 8.4382302314043027 9.320055350661276
leaf_count=42 33 34 41 51 88 52 51 161 35 38
internal_value=0.00107086 -0.00570113 -0.0119324 0.00325948 0.0102049 0.0162274 0.0234711 -0.0184888 -0.004422 0.0168208
internal_weight=153.235 87.4837 69.7829 20.6508 65.7513 47.1458 34.2717 49.1321 18.6055 17.7009
internal_count=626 358 286 84 268 191 139 202 77 72
is_linear=0
shrinkage=0.03


Tree=26
num_leaves=11
num_cat=0
split_feature=10 34 11 34 11 11 37 7 22 8
split_gain=5.76574 8.60807 7.43183 11.6199 11.4354 6.19096 5.73372 4.7118 2.46714 0.664873
threshold=0.017131278513658702 0.016127730766715257 0.0047659357764375807 -0.027402473288525461 0.038839552556973585 0.050338010839161236 0.044678261446764907 -0.024161573989089542 -0.097515543962854598 0.042600297128937252
decision_type=2 2 2 2 2 2 2 2 2 2
left_child=2 6 3 -1 8 -6 -2 -5 -4 -3
right_child=1 9 4 7 5 -7 -8 -9 -10 -11
leaf_value=0.031991887680528151 0.012141499401054251 0.032768551479962604 -0.033442514236624657 -0.017693509602717778 0.018360267006135602 -0.0089705448009203981 -0.014194341432528795 0.0034275325007023954 -0.011239657989147939 0.010632273383394401
leaf_weight=9.4614953547716123 13.046261727809908 9.1469547301530856 12.272615730762483 10.335144340991972 11.809502899646761 13.70219926536083 12.620824486017225 37.822240471839905 15.445816576480864 7.3998030722141257
leaf_count=39 53 37 51 42 48 56 51 155 64 30
internal_value=0.0010613 0.0102991 -0.00244391 0.00477894 -0.0104238 0.00355081 -0.000355975 -0.00133101 -0.023164 0.0258919
internal_weight=153.063 42.2138 110.849 57.6189 53.2301 25.5117 25.6671 48.1574 27.7184 16.5468
internal_count=626 171 455 236 219 104 104 197 115 67
is_linear=0
shrinkage=0.03


Tree=27
num_leaves=9
num_cat=0
split_feature=23 10 40 35 32 22 23 13
split_gain=5.6719 4.36891 7.88909 11.0949 7.38022 5.91976 6.25108 1.00199
threshold=0.73260639872036049 -0.0080975453878935882 0.018121180067840251 0.060672146169860948 0.0076523874244824883 -0.10221962866640132 1.0947786003179976 1.6394700971806524
decision_type=2 2 2 2 2 2 2 2
left_child=-1 5 4 -4 -3 7 -7 -2
right_child=1 2 3 -5 -6 6 -8 -9
leaf_value=0.020658839277466996 -0.0089706431350212341 0.020770751146140024 0.0017620437011654933 -0.033728222783363647 -0.0088212712060227773 0.010739774856394992 -0.016028858904805099 -0.027512426083048592
leaf_weight=10.256361916661261 12.139688417315485 28.534138113260269 48.080683514475822 7.3243950754404059 8.016017019748686 19.747541114687923 10.19876207411289 8.6491805016994459
leaf_count=42 50 116 196 30 33 81 42 36
internal_value=0.00103919 -0.000533438 0.0032421 -0.00368 0.0137707 -0.0075243 0.000720943 -0.0190807
internal_weight=152.947 142.69 91.9552 55.4051 36.5502 50.7352 29.9463 20.7889
internal_count=626 584 375 226 149 209 123 86
is_linear=0
shrinkage=0.03


Tree=28
num_leaves=11
num_cat=0
split_feature=17 19 26 5 2 38 0 9 26 9
split_gain=7.05288 6.6405 5.57086 7.82149 4.50367 6.37143 3.56254 3.52702 3.24365 2.42725
threshold=2.2129506980361993 0.13243806395293337 0.33333761650219301 -0.019686761059073406 -0.012746262426639952 0.0084763836862541374 0.0096588127436466626 0.025555123620018109 0.21576566711012124 0.070556211385999587
decision_type=2 2 2 2 2 2 2 2 2 2
left_child=2 6 4 -4 8 -6 -2 -8 -1 -5
right_child=1 -3 3 9 5 -7 7 -9 -10 -11
leaf_value=-0.014297021931075926 -0.028493423596458935 0.010094175620762549 -0.0060946071483052285 0.028396629591146385 0.018049579124541977 -0.003263118265009145 0.0061929405088455795 -0.017630980347644664 0.0058857186702374314 0.0056298393841573962
leaf_weight=22.376918911933902 11.780678853392603 9.1972148865461332 10.586724802851675 17.987009763717655 19.745485603809357 26.788528010249138 8.6287782490253466 8.9942331016063672 7.6175984889268866 9.1770044267177564
leaf_count=91 50 38 43 73 80 109 36 38 31 37
internal_value=0.000986409 -0.00967091 0.00481963 0.0139312 0 0.00584243 -0.01658 -0.00575935 -0.00865495 0.022133
internal_weight=152.88 38.6009 114.279 37.7507 76.5285 46.534 29.4037 17.623 29.9945 27.164
internal_count=626 162 464 153 311 189 124 74 122 110
is_linear=0
shrinkage=0.03


Tree=29
num_leaves=9
num_cat=0
split_feature=21 21 16 7 22 9 23 7
split_gain=9.12677 9.16757 11.224 9.33078 8.23605 7.74016 5.25961 4.6077
threshold=0.018289194823960551 0.01586996876028806 3.5842488995346549 0.022982224584471956 -0.14668495442932014 0.065509082895903958 1.0444143049226386 -0.0018401841186504813
decision_type=2 2 2 2 2 2 2 2
left_child=1 2 4 -4 -1 6 -2 -3
right_child=5 7 3 -5 -6 -7 -8 -9
leaf_value=-0.020732161023666002 0.032803635264405634 -0.0019456539865328254 0.025004734361728627 -0.0051129852827433448 0.0010122935880416315 -0.0084235325905891167 0.0020638601914143287 -0.032023350205048026
leaf_weight=21.286934569478035 15.089125424623495 9.3149304240942019 22.88974192738533 12.663391068577765 43.867085665464401 7.7266723662614814 9.0408700555562955 10.866868034005163
leaf_count=88 62 38 93 52 180 31 37 45
internal_value=0.000959086 -0.00275065 0.00093499 0.0141769 -0.00627449 0.0148107 0.0228998 -0.0202443
internal_weight=152.746 120.889 100.707 35.5531 65.154 31.8567 24.13 20.1818
internal_count=626 496 413 145 268 130 99 83
is_linear=0
shrinkage=0.03


Tree=30
num_leaves=8
num_cat=0
split_feature=11 38 21 36 6 17 9
split_gain=8.3308 8.65368 9.58636 6.88813 6.41912 3.19101 2.73593
threshold=-0.050192095599741963 0.0083525224806211395 0.018074570886815102 0.0078203090662380126 -0.0033364894865080632 2.2949786878313092 0.017613326796419474
decision_type=2 2 2 2 2 2 2
left_child=-1 3 4 5 -3 -2 -4
right_child=1 2 6 -5 -6 -7 -8
leaf_value=0.02464196155667402 0.017405570105880633 -0.0018942545030613005 0.023196557476726106 -0.010727895334271558 -0.021893923586736745 -0.00056330682313591833 0
leaf_weight=10.163279488682745 33.271119654178619 28.600000664591789 7.2493282407522184 11.935546979308127 32.540072962641716 9.6168066710233671 7.4045708477497101
leaf_count=42 135 116 30 49 135 40 30
internal_value=0.000826826 -0.00125679 -0.00783535 0.00752983 -0.0131324 0.0131966 0.0122877
internal_weight=140.781 130.617 75.794 54.8235 61.1401 42.8879 14.6539
internal_count=577 535 311 224 251 175 60
is_linear=0
shrinkage=0.03


Tree=31
num_leaves=7
num_cat=0
split_feature=11 28 4 34 4 36
split_gain=7.92193 9.02165 9.13012 6.10968 6.72595 3.64052
threshold=-0.050192095599741963 8.5000000000000018 -0.034439035802903632 -0.030944361685696028 -0.023189960281409901 0.0049900352998058324
decision_type=2 2 2 2 2 2
left_child=-1 3 -3 -2 -5 -4
right_child=1 2 5 4 -6 -7
leaf_value=0.024037788138179458 0.027247188224763887 0.0093906379899053125 -0.0027125496458687611 -0.017770803102412854 0.0054166904240000808 -0.025624423112108698
leaf_weight=10.15653011202812 7.5197718590497962 11.561220213770865 11.002333775162695 11.408839657902716 65.391782894730568 23.574599802494049
leaf_count=42 31 47 45 47 267 98
internal_value=0.000807084 -0.00122388 -0.0117008 0.00447335 0.00141819 -0.019291
internal_weight=140.615 130.459 46.1382 84.3204 76.8006 34.5769
internal_count=577 535 190 345 314 143
is_linear=0
shrinkage=0.03


Tree=32
num_leaves=9
num_cat=0
split_feature=11 28 8 1 1 13 40 17
split_gain=7.53212 8.58122 7.95279 5.08224 4.42554 4.34854 3.07616 0.581944
threshold=-0.050192095599741963 9.5000000000000018 -0.010227635267305064 0.0019393947270756053 -0.017305676311017589 -2.7515417301987628 1.0000000180025095e-35 1.0000000180025095e-35
decision_type=2 2 2 2 2 2 2 2
left_child=-1 3 6 4 -2 -5 -3 -4
right_child=1 2 7 5 -6 -7 -8 -9
leaf_value=0.023453448201734946 -0.0023870331034136216 -0.010641973878540234 -0.011537754536100734 -0.020116497928557093 0.016269005874115196 0.00084264612052977232 0.013240083422089688 -0.033925285145840152
leaf_weight=10.147256970405577 14.671366855502127 7.3751132488250715 7.3554531037807491 8.8506966531276685 31.768025055527687 42.903042435646057 7.8126564919948578 9.5968874841928464
leaf_count=42 60 30 30 36 129 177 32 41
internal_value=0.000791782 -0.00118701 -0.0142418 0.00313531 0.0102102 -0.00307775 0.00088148 -0.0272456
internal_weight=140.48 130.333 32.1401 98.1931 46.4394 51.7537 15.1878 16.9523
internal_count=577 535 133 402 189 213 62 71
is_linear=0
shrinkage=0.03


Tree=33
num_leaves=9
num_cat=0
split_feature=11 38 21 2 1 33 9 1
split_gain=7.17821 7.92656 9.03147 7.50961 6.07167 6.85041 2.51153 2.38331
threshold=-0.050192095599741963 0.0083525224806211395 0.018074570886815102 -0.017031857866642571 -0.0056033455142177604 0.80307511737089221 0.017613326796419474 -0.017305676311017589
decision_type=2 2 2 2 2 2 2 2
left_child=-1 4 3 -3 7 -6 -4 -2
right_child=1 2 6 -5 5 -7 -8 -9
leaf_value=0.022887869506616806 0.003724677824146904 0.0047046536852681882 0.022528130295143733 -0.018498068808500179 -0.012420130388161796 0.012162143498588719 0 0.02905332235668788
leaf_weight=10.135657861828802 7.5793919861316708 14.780807346105574 7.2040137946605665 46.101965606212616 18.18996724486351 18.625488623976707 7.387948289513588 10.367363229393957
leaf_count=42 31 60 30 191 75 76 30 42
internal_value=0.000751516 -0.00117792 -0.00749722 -0.012656 0.00722455 0 0.012054 0.0205544
internal_weight=140.373 130.237 75.4747 60.8828 54.7622 36.8155 14.592 17.9468
internal_count=577 535 311 251 224 151 60 73
is_linear=0
shrinkage=0.03


Tree=34
num_leaves=7
num_cat=0
split_feature=11 28 10 38 25 21
split_gain=6.81155 8.10137 9.21232 5.36781 4.81134 5.02137
threshold=-0.050192095599741963 8.5000000000000018 -0.027179500308205869 0.0083074905095392639 0.46770996093750006 0.017891541603118337
decision_type=2 2 2 2 2 2
left_child=-1 4 -3 -4 5 -2
right_child=1 2 3 -5 -6 -7
leaf_value=0.022340062610962885 -0.0032124278185174057 0.013419973864234902 0 -0.024345537239135118 0.019473311692335706 0.01553410018595954
leaf_weight=10.121918916702269 56.341301769018173 8.82469394803047 10.278665855526922 26.770553573966026 13.474197611212729 14.388048648834227
leaf_count=42 231 36 42 112 55 59
internal_value=0.000764689 -0.00111348 -0.0110824 -0.0176911 0.00427465 0.00071713
internal_weight=140.199 130.077 45.8739 37.0492 84.2035 70.7294
internal_count=577 535 190 154 345 290
is_linear=0
shrinkage=0.03


Tree=35
num_leaves=13
num_cat=0
split_feature=28 16 15 5 25 20 5 7 40 25 19 2
split_gain=6.92757 7.51012 7.99529 6.73112 7.40667 6.13111 5.31141 4.65166 3.20808 2.80389 1.82874 0.878608
threshold=8.5000000000000018 -9.7286446553015544 8.2890450219244745 -0.0080302250811029024 0.097105879463015896 0.026897260253733839 -0.0031381951768166268 -0.013900683410034016 0.046449879312089555 0.26568627450980398 0.085771472532241252 -0.0021862108776484197
decision_type=2 2 2 2 2 2 2 2 2 2 2 2
left_child=3 2 -2 5 8 7 10 -1 -5 -6 -3 -8
right_child=1 6 -4 4 9 -7 11 -9 -10 -11 -12 -13
leaf_value=0.0012073914814450578 -0.011155685442397555 0.0065556903900761566 0.024144447763211969 0.0050620269561382752 0.024286998372809118 0.013770516787087118 -0.010578112884452821 -0.022838107300259383 -0.018895794641990919 0.0063275650040731024 -0.011881154702421615 -0.03243589275025207
leaf_weight=9.805622413754465 10.790313079953195 7.1903683394193632 8.2803313434123975 7.7827644646167737 19.875552847981453 7.4967735558748236 7.6215344220399865 16.295502886176109 7.5648572742938995 19.613948509097099 7.4425452351570129 13.721876576542854
leaf_count=40 44 30 34 32 81 32 31 68 31 80 31 58
internal_value=-0.00181539 -0.0100468 0.00429641 0.00325134 0.00970915 -0.00682077 -0.0178709 -0.0138279 -0.00669919 0.0164633 -0.00222085 -0.0268483
internal_weight=143.482 55.047 19.0706 88.435 54.8371 33.5979 35.9763 26.1011 15.3476 39.4895 14.6329 21.3434
internal_count=592 228 78 364 224 140 150 108 63 161 61 89
is_linear=0
shrinkage=0.03


Tree=36
num_leaves=10
num_cat=0
split_feature=28 16 7 35 21 32 18 17 16
split_gain=6.59324 7.16615 5.83425 6.15756 6.18127 5.35875 3.84445 3.56496 2.14471
threshold=8.5000000000000018 -9.7286446553015544 0.045371847447805091 -0.0014081143326124532 0.017891541603118337 -0.0011669118061064518 0.39943187171869404 -2.2757231993850855 3.8453109490602526
decision_type=2 2 2 2 2 2 2 2 2
left_child=2 5 3 7 -5 -2 -3 -1 -8
right_child=1 6 -4 4 -6 -7 8 -9 -10
leaf_value=0.0052147589810879157 -0.0098292146093535322 0 0.02555890511899114 0.0010016414043989492 0.026438491168886882 0.018811007646321116 -0.032850265847037687 -0.016440630347536976 -0.011245645102385357
leaf_weight=7.350679129362109 9.5501006394624728 9.1686714142560941 7.4122810512781134 43.507446944713593 9.2363254725933057 9.5180320143699628 11.715378329157831 20.830664277076721 14.993676900863646
leaf_count=30 39 38 31 178 38 39 50 87 62
internal_value=-0.00176852 -0.00980876 0.00317291 0.000374611 0.00653323 0.00418344 -0.0174695 -0.0103239 -0.0228729
internal_weight=143.283 54.9459 88.3374 80.9251 52.7438 19.0681 35.8777 28.1813 26.7091
internal_count=592 228 364 333 216 78 150 117 112
is_linear=0
shrinkage=0.03


Tree=37
num_leaves=10
num_cat=0
split_feature=35 20 21 34 2 20 35 14 36
split_gain=6.21122 10.5532 9.00926 7.52627 5.35171 5.05207 5.51657 3.27039 0.399342
threshold=1.0000000180025095e-35 0.026316730713639266 0.018074570886815102 0.023728104522042329 0.021660183276766002 0.019962171368296658 -0.041606347310104201 25.85189430077526 0.0063755296264285779
decision_type=2 2 2 2 2 2 2 2 2
left_child=1 5 3 4 -2 6 -1 -5 -4
right_child=2 -3 8 7 -6 -7 -8 -9 -10
leaf_value=-0.024234976956923816 0.0090608325459016082 0.011498481395205594 0.029627304474715292 -0.021870168148841469 -0.013765003210523199 -0.036076654751913392 0.0016299639032543709 0 0.0095034439607405066
leaf_weight=10.663332611322401 46.279485538601875 12.304142311215399 7.2598986476659757 15.991458982229235 9.1498449891805631 9.5232196450233442 15.041084229946138 9.5428707301616651 7.3409971594810486
leaf_count=44 189 52 30 66 39 40 63 39 30
internal_value=-0.00170999 -0.0104047 0.00258547 -0.00133634 0.00468358 -0.0186646 -0.00953347 -0.01434 0.0227769
internal_weight=143.096 47.5318 95.5646 80.9637 55.4293 35.2276 25.7044 25.5343 14.6009
internal_count=592 199 393 333 228 147 107 105 60
is_linear=0
shrinkage=0.03


Tree=38
num_leaves=11
num_cat=0
split_feature=28 16 9 15 20 4 36 19 37 18
split_gain=6.0864 6.85935 9.12139 7.39298 6.50085 5.13325 6.07583 7.24418 4.98679 2.06514
threshold=8.5000000000000018 -9.7286446553015544 -0.0023083425325810835 8.2890450219244745 0.01788314729800226 0.070519674195598361 0.0050177200738143321 0.07861108691491818 0.010186849981851267 0.7682299354852028
decision_type=2 2 2 2 2 2 2 2 2 2
left_child=5 3 4 -2 -3 6 7 -1 -8 -4
right_child=1 2 9 -5 -6 -7 8 -9 -10 -11
leaf_value=-0.0052423110831780256 -0.010606625055225678 -0.019356522742862974 -0.038797061633828164 0.023340568911156555 0.013941408335090034 0.021430506662266247 0.0041809059114254234 0.028001237028754834 -0.012619093974554589 -0.010283776537709009
leaf_weight=8.5072026550769824 10.760841861367227 7.4333760589361217 11.237963870167734 8.277794882655142 9.9180134236812574 9.9143744558095914 27.376632705330849 11.272205144166945 31.082587167620659 7.1093330681323996
leaf_count=35 44 31 48 34 41 41 114 46 128 30
internal_value=-0.00166981 -0.00941489 -0.0169427 0.00425598 -7.45924e-05 0.00307517 8.60533e-05 0.0138459 -0.00462545 -0.0305826
internal_weight=142.89 54.7373 35.6987 19.0386 17.3514 88.153 78.2386 19.7794 58.4592 18.3473
internal_count=592 228 150 78 72 364 323 81 242 78
is_linear=0
shrinkage=0.03


Tree=39
num_leaves=10
num_cat=0
split_feature=35 28 20 21 12 38 33 38 19
split_gain=5.83075 9.96355 9.80163 9.68103 10.1537 5.44976 3.96442 9.61482 1.96357
threshold=1.0000000180025095e-35 6.5000000000000009 0.027119034047231139 0.018355030504319095 33.165767121902306 0.0073522408624028821 0.75546021325276358 0.0080925376007762746 0.077623801039893983
decision_type=2 2 2 2 2 2 2 2 2
left_child=2 6 5 4 -3 -1 -2 -8 -7
right_child=1 3 -4 -5 -6 8 7 -9 -10
leaf_value=-8.4804317604809582e-05 0.026405215458158059 0.015039973889576714 0.012091900104387782 0.020254793862799894 -0.015652000103054262 -0.010730047076729945 0.024751804329183686 -0.016411811910175114 -0.033894895184123169
leaf_weight=12.393346056342123 14.934540569782259 10.101258829236029 11.276946783065794 9.9308330714702588 44.179687812924385 10.765193462371828 8.0942998081445712 8.1270030438899976 12.87315511703491
leaf_count=52 61 41 48 41 184 46 33 33 53
internal_value=-0.00162506 0.00253333 -0.0100748 -0.00406492 -0.00934245 -0.0176778 0.0160095 0.00376755 -0.0255904
internal_weight=142.676 95.3676 47.3086 64.2118 54.2809 36.0317 31.1558 16.2213 23.6383
internal_count=592 393 199 266 225 151 127 66 99
is_linear=0
shrinkage=0.03


Tree=40
num_leaves=9
num_cat=0
split_feature=28 34 35 38 34 17 10 36
split_gain=6.48426 7.59291 9.18012 6.52848 4.50926 3.25079 3.61685 2.5712
threshold=8.5000000000000018 -0.030944361685696028 1.0000000180025095e-35 0.0073904687451251195 -0.0081096699995453197 -2.176710722584875 -0.026318687650817348 0.0078203090662380126
decision_type=2 2 2 2 2 2 2 2
left_child=1 -1 7 -2 -4 -5 -7 -3
right_child=3 2 4 5 -6 6 -8 -9
leaf_value=0.025691574103306941 0.010084972484600425 -0.0048085239301806906 -0.0098356776191720723 0 0.011269508210147274 0 -0.025123639307742206 -0.02723617257640296
leaf_weight=10.653492435812948 10.272172272205351 14.897946119308473 8.9211822897195798 11.147904783487318 44.908840700984001 7.5550590902566901 22.053761661052707 7.7607213258743277
leaf_count=45 42 62 37 46 184 31 95 32
internal_value=-0.000694984 0.00414183 0.000371053 -0.00908237 0.00727606 -0.0145098 -0.0194254 -0.0146844
internal_weight=138.171 87.1422 76.4887 51.0289 53.83 40.7567 29.6088 22.6587
internal_count=574 360 315 214 221 172 126 94
is_linear=0
shrinkage=0.03


Tree=41
num_leaves=10
num_cat=0
split_feature=21 38 21 4 7 19 21 13 20
split_gain=7.12995 12.3289 10.4434 7.99101 6.58627 4.58048 4.2702 2.06271 0.839775
threshold=0.017891541603118337 0.0083525224806211395 0.013186229219475652 -0.023189960281409901 -0.0014024746031716447 0.15606437392686759 0.0110853291561222 -5.7281179404733136 0.021640035324428399
decision_type=2 2 2 2 2 2 2 2 2
left_child=1 3 4 -1 -3 8 -5 -4 -2
right_child=5 2 7 6 -6 -7 -8 -9 -10
leaf_value=-0.013957591113750634 0.0089267393018224988 0.015162917099864202 -0.0047985659779167392 0.00079760724122357267 -0.012575634003039208 -0.0015347631946679068 0.022075709463654933 -0.027328524101873836 0.02866427989381665
leaf_weight=10.404972210526465 9.4895382374525123 13.037849232554438 7.2498500049114218 16.40770511329174 13.675471663475035 11.860641062259672 20.33504444360733 27.399481847882271 8.11129082739353
leaf_count=43 39 53 30 68 57 50 83 117 34
internal_value=-0.000687403 -0.00436467 -0.0131298 0.00680806 0.000553355 0.0117961 0.0134927 -0.0235429 0.0207847
internal_weight=137.972 108.51 61.3627 47.1477 26.7133 29.4615 36.7427 34.6493 17.6008
internal_count=574 451 257 194 110 123 151 147 73
is_linear=0
shrinkage=0.03


Tree=42
num_leaves=10
num_cat=0
split_feature=21 38 36 21 37 21 35 13 12
split_gain=6.78847 11.688 10.581 9.94761 7.02931 6.60394 5.4757 1.949 1.45165
threshold=0.017891541603118337 0.0083525224806211395 0.0078203090662380126 0.013186229219475652 0.0094523335849252561 0.011556627383859932 -0.0014081143326124532 -5.7281179404733136 55.406622174592322
decision_type=2 2 2 2 2 2 2 2 2
left_child=1 2 5 4 -3 -1 -2 -5 -8
right_child=6 3 -4 7 -6 -7 8 -9 -10
leaf_value=0.0015727397275666604 -0.0012715539331859781 0.013567057331629764 -0.018108415104002039 -0.0046880903211074755 -0.015333670030037282 0.027214016718689289 0.031334822239293555 -0.026707185818534356 0.0071022378390948309
leaf_weight=20.847802802920341 14.008235082030298 15.332525238394739 9.8085968345403654 7.2452744841575614 11.371905714273451 16.482747748494148 8.0970800817012769 27.244702398777008 7.3120862096548072
leaf_count=86 59 63 41 30 47 67 34 117 30
internal_value=-0.000658424 -0.00425244 0.00661567 -0.0128061 0.000526433 0.0140838 0.0115277 -0.0230032 0.0228343
internal_weight=137.751 108.334 47.1391 61.1944 26.7044 37.3306 29.4174 34.49 15.4092
internal_count=574 451 194 257 110 153 123 147 64
is_linear=0
shrinkage=0.03


Tree=43
num_leaves=11
num_cat=0
split_feature=21 38 21 7 9 21 5 12 13 18
split_gain=6.46892 11.0908 9.4697 6.21676 5.29725 5.22487 4.84399 3.85702 1.84209 0.892983
threshold=0.017891541603118337 0.0083525224806211395 0.013186229219475652 -0.0014024746031716447 0.052926391447865852 0.011701068110601426 0.045747697287770735 42.68185028248589 -5.7281179404733136 0.64977847705886072
decision_type=2 2 2 2 2 2 2 2 2 2
left_child=1 5 3 -3 7 6 -1 -2 -4 -7
right_child=4 2 8 -5 -6 9 -8 -9 -10 -11
leaf_value=-0.0091332799354353934 0 0.01469442433332524 -0.0045801570921180524 -0.012264640672823894 -0.0078360512285092707 0.024600864859809706 0.016407647059063914 0.026355706777859846 -0.026105023607052559 0.0065132064699052169
leaf_weight=20.957119181752208 7.1814059317112031 13.041954651474954 7.2407315373420706 13.649759933352469 7.4243026077747336 9.5703512132167834 7.2982644587755194 14.764395043253897 27.085516005754471 9.275550961494444
leaf_count=87 30 53 30 57 30 39 30 63 117 38
internal_value=-0.000630734 -0.00414585 -0.0124966 0.000491228 0.0112705 0.00643506 -0.00139186 0.0184753 -0.0224797 0.0178971
internal_weight=137.489 108.119 61.018 26.6917 29.3701 47.1013 28.2554 21.9458 34.3262 18.8459
internal_count=574 451 257 110 123 194 117 93 147 77
is_linear=0
shrinkage=0.03


Tree=44
num_leaves=9
num_cat=0
split_feature=17 35 10 5 16 34 17 35
split_gain=5.83977 5.86854 5.41033 5.71362 5.05813 3.04371 1.99085 1.47709
threshold=1.6609019864097585 -0.029104447605720559 0.032176263627286768 -0.019686761059073406 3.8453109490602526 -0.024308774544287922 3.4859568997672699 0.0409866474595958
decision_type=2 2 2 2 2 2 2 2
left_child=1 5 3 -3 7 -1 -6 -2
right_child=4 2 -4 -5 6 -7 -8 -9
leaf_value=0.00041742316212390593 -0.026220817849406827 -2.567404241026468e-05 -0.011253536519023048 0.017040285796786767 -0.0088488924267897118 -0.019883861271265461 0.009131316445602923 -0.0043603278651730181
leaf_weight=10.865115746855738 12.596844464540483 27.064181104302406 10.10327824950218 40.857514470815659 7.9839549064636257 10.730126678943632 10.147104397416113 6.8591982126235953
leaf_count=46 56 111 41 168 34 45 43 30
internal_value=-0.000597659 0.00310568 0.00703972 0.0102194 -0.0104529 -0.00986444 0.000376141 -0.0203379
internal_weight=137.207 99.6202 78.025 67.9217 37.5871 21.5952 18.1311 19.456
internal_count=574 411 320 279 163 91 77 86
is_linear=0
shrinkage=0.03


Tree=45
num_leaves=9
num_cat=0
split_feature=20 16 11 5 26 20 18 40
split_gain=4.75237 4.08876 7.54376 10.1895 6.30894 4.77687 3.67631 3.44097
threshold=0.028512885491105752 3.4134358355734116 -0.02208334695025049 0.079187572206056669 0.084681353754999231 0.016454584702168228 0.33860163004348165 0.016764781094801843
decision_type=2 2 2 2 2 2 2 2
left_child=1 4 7 -4 6 -6 -1 -3
right_child=-2 2 3 -5 5 -7 -8 -9
leaf_value=0.017694559564533356 0.017065879170967274 0 0.02373702129148891 -0.008317026087185625 -0.023985872214495156 -0.0053549785383628767 -0.0062149389809786782 -0.022699047720780623
leaf_weight=11.297012329101564 10.084446653723715 12.463372811675073 22.184039071202278 11.976494014263151 17.24286362528801 49.032872095704079 7.6477188766002646 8.1465492844581586
leaf_count=47 43 52 92 49 72 205 33 34
internal_value=-0.000854674 -0.00247344 0.00366926 0.0122458 -0.00658689 -0.0109825 0.00765466 -0.00970852
internal_weight=150.075 139.991 54.7705 34.1605 85.2205 66.2757 18.9447 20.6099
internal_count=627 584 227 141 357 277 80 86
is_linear=0
shrinkage=0.03


Tree=46
num_leaves=11
num_cat=0
split_feature=28 9 12 16 9 9 34 17 40 34
split_gain=8.03479 8.18719 7.59564 11.8411 7.14279 11.6103 7.20351 6.66238 3.49378 4.0372
threshold=6.5000000000000009 -0.0030755635431622408 67.303756001314838 -9.513212728860319 0.079734204908471787 -0.034051485973576733 -0.020426386584016739 1.5630942034229636 -0.029005577802021506 0.024257073114636766
decision_type=2 2 2 2 2 2 2 2 2 2
left_child=4 8 3 -3 5 6 -1 -7 -2 -10
right_child=1 2 -4 -5 -6 7 -8 -9 9 -11
leaf_value=0.010506563085741402 -0.010342700340728039 0 0.0038263048351170875 -0.034619594019395281 -0.01215225204479666 0.028717673484241112 -0.025763390453783026 0.0012154376258328864 0.016909555570179313 -0.0049615957378474646
leaf_weight=7.1109011620283118 9.7092321217060071 12.970752418041227 12.170211791992186 21.764927998185158 12.04739525914192 25.291961371898651 8.3500775992870313 13.088826328516005 17.656818911433223 9.7838109135627729
leaf_count=30 41 54 50 95 49 104 35 55 73 41
internal_value=-0.000833982 -0.0069976 -0.0151311 -0.0220282 0.0067826 0.0115715 -0.00893013 0.0202349 0.00313709 0.0087947
internal_weight=149.945 84.0558 46.9059 34.7357 65.8892 53.8418 15.461 38.3808 37.1499 27.4406
internal_count=627 354 199 149 273 224 65 159 155 114
is_linear=0
shrinkage=0.03


Tree=47
num_leaves=13
num_cat=0
split_feature=28 11 37 5 14 4 37 16 16 20 5 37
split_gain=7.5936 10.5496 8.00585 7.2932 7.50029 7.536 6.36085 4.44751 7.83358 4.27278 3.77445 3.61104
threshold=6.5000000000000009 0.0050684891881199743 0.0024809032296971849 -0.015827041876213917 65.757913503299747 0.032500071992935926 0.0084621274700121835 -10.709053949679157 3.7782536602849395 0.019571048654135264 0.004470567063717402 -0.0046578334528463708
decision_type=2 2 2 2 2 2 2 2 2 2 2 2
left_child=3 2 9 6 5 -5 -1 11 -9 -2 -4 -3
right_child=1 7 10 4 -6 -7 -8 8 -10 -11 -12 -13
leaf_value=0.0049201758102769321 0 -0.01794639636776257 0.0032186472615915985 0.02963901423345176 -0.0063095945913399995 0 -0.02584976726232225 -0.036393056847409996 0 0.029557754662150021 -0.017754914866016745 0.0062950398985201382
leaf_weight=13.044339850544931 7.2194721698761013 7.7296843826770809 13.706082075834276 22.296907514333725 11.071614459156988 11.614702850580214 7.7824307829141608 15.892956316471102 7.3678414821624747 9.7626794725656492 12.242770329117773 9.9908638894557935
leaf_count=55 30 32 57 92 45 48 33 69 30 42 52 42
internal_value=-0.000815604 -0.00681577 0.00327317 0.00658919 0.0133168 0.0201367 -0.0071781 -0.0173942 -0.025672 0.0184064 -0.00670249 -0.0042661
internal_weight=149.722 83.9124 42.931 65.81 44.9832 33.9116 20.8268 40.9813 23.2608 16.9822 25.9489 17.7205
internal_count=627 354 181 273 185 140 88 173 99 72 109 74
is_linear=0
shrinkage=0.03


Tree=48
num_leaves=6
num_cat=0
split_feature=17 19 16 11 26
split_gain=4.94776 5.35015 4.36025 5.75517 4.3937
threshold=-6.2071708258534359 0.17739439914994384 3.4134358355734116 -0.023299043787649684 0.084681353754999231
decision_type=2 2 2 2 2
left_child=-1 2 4 -4 -2
right_child=1 -3 3 -5 -6
leaf_value=0.018454602989216272 0.0034082300074670534 0.014503806674852812 -0.0093546595872722946 0.010678462696159297 -0.012533379686378942
leaf_weight=8.9901946038007718 17.929736405611038 12.839624151587484 19.460720181465149 29.430212929844856 60.802237004041672
leaf_count=37 76 54 82 122 256
internal_value=-0.000800777 -0.00238027 -0.00439221 0.0023554 -0.00872268
internal_weight=149.453 140.463 127.623 48.8909 78.732
internal_count=627 590 536 204 332
is_linear=0
shrinkage=0.03


Tree=49
num_leaves=9
num_cat=0
split_feature=28 37 11 3 36 15 36 15
split_gain=7.15929 6.01819 9.17992 5.99714 6.17499 4.92072 3.68244 3.59226
threshold=1.5000000000000002 0.0024809032296971849 0.0050684891881199743 -0.025211108477714069 0.0048922641903527452 17.058275270988172 0.0068133800155333489 0.94075840417021295
decision_type=2 2 2 2 2 2 2 2
left_child=-1 2 6 7 -5 -4 -2 -3
right_child=1 3 5 4 -6 -7 -8 -9
leaf_value=0.022171081051663918 0.0026431416138032286 -0.0040732386398630608 -0.025282758331113042 0.0016358278810268854 -0.015976138205249995 0.0025159872386622782 0.025439609577087199 0.021868183924431787
leaf_weight=9.23082187771797 13.515485316514971 7.2716917693614942 7.7565209418535259 23.648821920156479 54.207624778151512 11.116780385375021 15.264644637703894 7.3033735007047653
leaf_count=38 56 30 34 98 229 46 66 30
internal_value=-0.000758658 -0.00266598 0.00567021 -0.00715166 -0.0105317 -0.00951791 0.0160888 0.00909089
internal_weight=149.316 140.085 47.6534 92.4315 77.8564 18.8733 28.7801 14.5751
internal_count=627 589 202 387 327 80 122 60
is_linear=0
shrinkage=0.03


end of trees

feature_importances:
volatility=37
macd_hist_change=27
macro_usdjpy_ret_60=27
macro_topix_vol_20=26
month=24
bb_bandwidth=22
macro_topix_ret_20=18
div_ma_60=16
atr_pct=16
macro_usdjpy_ret_20=16
return_20d=15
ma_20_60_cross=15
macd_hist=13
macro_usdjpy_vol_20=13
return_3d=12
macd=11
macd_signal=11
rsi_change=10
div_ma_10=8
rsi=8
vol_ratio=8
vol_change=7
upper_shadow_pct=7
return_2d=6
ma_5_20_cross=6
bb_pct_b=6
macro_nikkei_ret_20=6
return_10d=5
return_1d=4
lower_shadow_pct=4
gap=4
return_5d=3
div_ma_20=3
div_ma_5=2
day_of_week=2
price_position_20d=2
candle_body_pct=1

parameters:
[boosting: gbdt]
[objective: binary]
[metric: binary_logloss]
[tree_learner: serial]
[device_type: cpu]
[data_sample_strategy: bagging]
[data: ]
[valid: ]
[num_iterations: 50]
[learning_rate: 0.03]
[num_leaves: 15]
[num_threads: 0]
[seed: 43]
[deterministic: 0]
[force_col_wise: 0]
[force_row_wise: 0]
[histogram_pool_size: -1]
[max_depth: 4]
[min_data_in_leaf: 30]
[min_sum_hessian_in_leaf: 0.001]
[bagging_fraction: 0.7]
[pos_bagging_fraction: 1]
[neg_bagging_fraction: 1]
[bagging_freq: 5]
[bagging_seed: 11149]
[bagging_by_query: 0]
[feature_fraction: 0.6]
[feature_fraction_bynode: 1]
[feature_fraction_seed: 21351]
[extra_trees: 0]
[extra_seed: 16806]
[early_stopping_round: 0]
[early_stopping_min_delta: 0]
[first_metric_only: 0]
[max_delta_step: 0]
[lambda_l1: 0.5]
[lambda_l2: 2]
[linear_lambda: 0]
[min_gain_to_split: 0]
[drop_rate: 0.1]
[max_drop: 50]
[skip_drop: 0.5]
[xgboost_dart_mode: 0]
[uniform_drop: 0]
[drop_seed: 2965]
[top_rate: 0.2]
[other_rate: 0.1]
[min_data_per_group: 100]
[max_cat_threshold: 32]
[cat_l2: 10]
[cat_smooth: 10]
[max_cat_to_onehot: 4]
[top_k: 20]
[monotone_constraints: ]
[monotone_constraints_method: basic]
[monotone_penalty: 0]
[feature_contri: ]
[forcedsplits_filename: ]
[refit_decay_rate: 0.9]
[cegb_tradeoff: 1]
[cegb_penalty_split: 0]
[cegb_penalty_feature_lazy: ]
[cegb_penalty_feature_coupled: ]
[path_smooth: 0]
[interaction_constraints: ]
[verbosity: -1]
[saved_feature_importance_type: 0]
[use_quantized_grad: 0]
[num_grad_quant_bins: 4]
[quant_train_renew_leaf: 0]
[stochastic_rounding: 1]
[linear_tree: 0]
[max_bin: 255]
[max_bin_by_feature: ]
[min_data_in_bin: 5]
[bin_construct_sample_cnt: 200000]
[data_random_seed: 179]
[is_enable_sparse: 1]
[enable_bundle: 1]
[use_missing: 1]
[zero_as_missing: 0]
[feature_pre_filter: 1]
[pre_partition: 0]
[two_round: 0]
[header: 0]
[label_column: ]
[weight_column: ]
[group_column: ]
[ignore_column: ]
[categorical_feature: ]
[forcedbins_filename: ]
[precise_float_parser: 0]
[parser_config_file: ]
[objective_seed: 26397]
[num_class: 1]
[is_unbalance: 0]
[scale_pos_weight: 1]
[sigmoid: 1]
[boost_from_average: 1]
[reg_sqrt: 0]
[alpha: 0.9]
[fair_c: 1]
[poisson_max_delta_step: 0.7]
[tweedie_variance_power: 1.5]
[lambdarank_truncation_level: 30]
[lambdarank_norm: 1]
[label_gain: ]
[lambdarank_position_bias_regularization: 0]
[eval_at: ]
[multi_error_top_k: 1]
[auc_mu_weights: ]
[num_machines: 1]
[local_listen_port: 12400]
[time_out: 120]
[machine_list_filename: ]
[machines: ]
[gpu_platform_id: -1]
[gpu_device_id: -1]
[gpu_use_dp: 0]
[num_gpu: 1]

end of parameters

pandas_categorical:[]
